~o
<STREAMINFO> 1 39
<VECSIZE> 39<NULLD><MFCC_D_A_0><DIAGC>
~h "f"
<BEGINHMM>
<NUMSTATES> 5
<STATE> 2
<MEAN> 39
 -1.015145e+001 -3.343092e+000 -5.621696e+000 -3.554264e+000 -5.463196e+000 -9.314742e+000 -2.844439e+000 -8.018566e+000 -3.881652e+000 -5.936130e-001 -2.603511e-001 -4.612937e+000 5.391003e+001 2.844955e-002 -3.619992e-004 5.034984e-003 7.823381e-003 8.231155e-003 -8.516758e-003 -6.967376e-003 -2.751593e-002 -1.178172e-002 -6.236121e-003 3.635106e-003 -1.363713e-002 8.079813e-002 9.526702e-004 8.493482e-004 1.095921e-003 -3.043995e-005 5.553052e-004 8.519278e-004 8.373016e-005 -1.327505e-003 -2.395089e-003 -3.439098e-003 -1.465614e-003 -5.278227e-004 1.334640e-003
<VARIANCE> 39
 8.301777e+001 4.600647e+001 3.640239e+001 4.696715e+001 6.138342e+001 7.203177e+001 3.902817e+001 7.113854e+001 4.233173e+001 3.194881e+001 2.720247e+001 3.513591e+001 2.586350e+002 1.532589e+000 2.010894e+000 1.545057e+000 2.179545e+000 3.205209e+000 2.751204e+000 2.115344e+000 2.818951e+000 2.224011e+000 2.412021e+000 2.114140e+000 1.806467e+000 1.209878e+000 1.782587e-001 2.767731e-001 2.011543e-001 3.217979e-001 4.654760e-001 3.885170e-001 3.801022e-001 4.590961e-001 4.032087e-001 4.635297e-001 3.864453e-001 3.357541e-001 1.664846e-001
<GCONST> 1.181176e+002
<STATE> 3
<MEAN> 39
 -9.990852e+000 -3.329686e+000 -5.591478e+000 -3.544078e+000 -5.424807e+000 -9.351467e+000 -2.862964e+000 -8.142524e+000 -3.948199e+000 -6.631002e-001 -2.631990e-001 -4.685624e+000 5.434748e+001 3.547005e-002 3.018622e-003 6.310328e-003 1.632253e-003 8.471126e-003 -8.327831e-003 -3.419195e-003 -2.705667e-002 -1.555766e-002 -1.537010e-002 -6.194946e-004 -1.598363e-002 9.535462e-002 1.497597e-003 6.796113e-004 1.354062e-004 -1.476975e-003 5.889186e-006 7.887068e-006 9.308264e-004 2.460244e-004 -6.076117e-004 -1.709316e-003 -8.297738e-004 -5.367287e-004 3.229895e-003
<VARIANCE> 39
 8.196032e+001 4.649939e+001 3.661063e+001 4.764378e+001 6.155677e+001 7.170827e+001 3.921994e+001 7.032231e+001 4.234431e+001 3.196424e+001 2.745560e+001 3.488742e+001 2.466324e+002 1.563366e+000 2.017705e+000 1.563105e+000 2.196843e+000 3.234174e+000 2.759944e+000 2.134073e+000 2.845269e+000 2.242940e+000 2.409539e+000 2.118013e+000 1.798147e+000 1.317190e+000 1.827613e-001 2.773980e-001 2.040523e-001 3.249875e-001 4.711882e-001 3.887189e-001 3.835694e-001 4.628784e-001 4.072622e-001 4.627247e-001 3.884866e-001 3.331199e-001 1.832862e-001
<GCONST> 1.184284e+002
<STATE> 4
<MEAN> 39
 -9.779226e+000 -3.336370e+000 -5.590446e+000 -3.784350e+000 -5.272496e+000 -9.341080e+000 -2.779813e+000 -8.240439e+000 -3.789587e+000 -8.649468e-001 -2.228306e-001 -4.751560e+000 5.547646e+001 5.360170e-002 4.060432e-003 1.982354e-003 -9.094032e-003 5.371923e-003 -1.977040e-002 -1.836498e-003 -3.356654e-002 -1.253406e-002 -1.398885e-002 1.173145e-003 -2.397545e-002 1.458270e-001 1.348958e-003 -7.397948e-005 -5.091449e-004 -8.841617e-004 -2.066118e-004 -8.416891e-004 2.673334e-004 -4.484933e-004 2.463971e-004 3.328970e-004 1.456140e-004 -7.464671e-004 3.746371e-003
<VARIANCE> 39
 7.596455e+001 4.558743e+001 3.584639e+001 4.778061e+001 5.994616e+001 6.746641e+001 3.832658e+001 6.632239e+001 4.237704e+001 3.162771e+001 2.710409e+001 3.371373e+001 1.982970e+002 1.602230e+000 1.974587e+000 1.549323e+000 2.189970e+000 3.174578e+000 2.694291e+000 2.125045e+000 2.815032e+000 2.230831e+000 2.399191e+000 2.091811e+000 1.806482e+000 1.663139e+000 1.918386e-001 2.733341e-001 2.062096e-001 3.270762e-001 4.691183e-001 3.834674e-001 3.842471e-001 4.606867e-001 4.094141e-001 4.599229e-001 3.862438e-001 3.364817e-001 2.385087e-001
<GCONST> 1.183158e+002
<TRANSP> 5
 0.000000e+000 1.000000e+000 0.000000e+000 0.000000e+000 0.000000e+000
 0.000000e+000 7.788266e-001 2.211734e-001 0.000000e+000 0.000000e+000
 0.000000e+000 0.000000e+000 7.788265e-001 2.211735e-001 0.000000e+000
 0.000000e+000 0.000000e+000 0.000000e+000 9.115137e-001 8.848624e-002
 0.000000e+000 0.000000e+000 0.000000e+000 0.000000e+000 0.000000e+000
<ENDHMM>
~h "k"
<BEGINHMM>
<NUMSTATES> 5
<STATE> 2
<MEAN> 39
 -1.215821e+001 -2.658512e+000 -3.784754e+000 -2.324461e+000 -4.298493e+000 -1.188956e+001 -3.760422e-001 -7.657880e+000 -6.667478e+000 -9.111837e-001 2.436456e-001 -5.105675e+000 5.998399e+001 1.029088e-002 4.804302e-003 1.646663e-002 -1.735658e-003 -4.492927e-003 -2.139576e-002 9.214894e-003 -1.187057e-002 -1.051927e-002 -4.417467e-003 -8.430393e-003 1.720567e-003 6.227660e-002 9.794115e-004 -3.481884e-004 -2.662924e-004 -3.169668e-004 -1.091277e-003 7.932961e-004 -1.176005e-003 -1.231573e-003 1.909586e-004 -8.469570e-005 -7.982947e-004 -1.749343e-004 -2.530742e-003
<VARIANCE> 39
 7.599169e+001 2.753399e+001 4.075534e+001 3.052846e+001 8.130231e+001 6.232413e+001 4.378590e+001 8.260567e+001 5.114951e+001 3.656587e+001 3.158598e+001 3.304216e+001 5.913665e+001 2.358002e+000 1.823979e+000 1.867442e+000 1.767868e+000 4.798230e+000 3.840929e+000 2.638099e+000 4.252771e+000 2.946411e+000 2.987198e+000 2.538583e+000 2.184204e+000 1.508512e+000 2.574530e-001 2.911742e-001 2.457108e-001 3.022537e-001 7.109199e-001 5.959028e-001 4.699950e-001 6.501577e-001 5.026286e-001 5.949175e-001 4.606110e-001 4.027306e-001 2.127027e-001
<GCONST> 1.223462e+002
<STATE> 3
<MEAN> 39
 -1.210750e+001 -2.646289e+000 -3.721663e+000 -2.334879e+000 -4.327652e+000 -1.196846e+001 -3.446139e-001 -7.719965e+000 -6.709966e+000 -9.313192e-001 1.982762e-001 -5.098309e+000 6.021354e+001 1.460722e-002 2.517821e-003 1.420629e-002 -3.213469e-003 -9.099092e-003 -1.638363e-002 4.282039e-003 -1.647165e-002 -8.847385e-003 -4.686619e-003 -1.191712e-002 1.031461e-003 4.836716e-002 8.626145e-004 -6.160960e-004 -5.526685e-004 -2.533104e-004 -8.993130e-004 1.175174e-003 -1.009553e-003 -7.775833e-004 4.710060e-004 -2.057107e-005 -6.792809e-004 -1.617543e-004 -3.127269e-003
<VARIANCE> 39
 7.478971e+001 2.735847e+001 4.069008e+001 3.065284e+001 8.201708e+001 6.228889e+001 4.361292e+001 8.182975e+001 5.162035e+001 3.678519e+001 3.178270e+001 3.259755e+001 4.855609e+001 2.347775e+000 1.838399e+000 1.867809e+000 1.767937e+000 4.846419e+000 3.875937e+000 2.650892e+000 4.267543e+000 2.968038e+000 3.023971e+000 2.557413e+000 2.183565e+000 1.408931e+000 2.549081e-001 2.944733e-001 2.451281e-001 3.018492e-001 7.197310e-001 6.023788e-001 4.724054e-001 6.527460e-001 5.052351e-001 6.027445e-001 4.638664e-001 4.033478e-001 1.988351e-001
<GCONST> 1.221105e+002
<STATE> 4
<MEAN> 39
 -1.213563e+001 -2.843536e+000 -3.893569e+000 -2.626310e+000 -4.227443e+000 -1.170946e+001 -2.825589e-001 -7.709729e+000 -6.295861e+000 -1.037452e+000 1.594420e-001 -4.920450e+000 6.012110e+001 1.941150e-002 -4.554197e-003 2.909382e-003 -7.281501e-003 -1.184988e-002 -1.182035e-003 -1.754635e-003 -1.893899e-002 -4.979961e-004 -5.386668e-003 -1.708753e-002 -3.282089e-004 1.909686e-002 8.823719e-004 -7.259276e-004 -9.734294e-004 -3.463488e-004 -3.501903e-004 1.384968e-003 -7.235613e-004 -2.668503e-004 8.513787e-004 -5.177365e-005 -5.614392e-004 -2.825211e-004 -2.395037e-003
<VARIANCE> 39
 6.975097e+001 2.652559e+001 3.994236e+001 3.086092e+001 7.960386e+001 6.184774e+001 4.132420e+001 7.705367e+001 5.297866e+001 3.559573e+001 3.132597e+001 3.172528e+001 3.722746e+001 2.178065e+000 1.775776e+000 1.811613e+000 1.731736e+000 4.715352e+000 3.751686e+000 2.584688e+000 4.043792e+000 2.892662e+000 2.994240e+000 2.530174e+000 2.135829e+000 1.170493e+000 2.335690e-001 2.877729e-001 2.378560e-001 2.974182e-001 7.043535e-001 5.834078e-001 4.651765e-001 6.176340e-001 4.928483e-001 5.994617e-001 4.615648e-001 3.967029e-001 1.647086e-001
<GCONST> 1.204592e+002
<TRANSP> 5
 0.000000e+000 1.000000e+000 0.000000e+000 0.000000e+000 0.000000e+000
 0.000000e+000 7.764843e-001 2.235157e-001 0.000000e+000 0.000000e+000
 0.000000e+000 0.000000e+000 7.764840e-001 2.235160e-001 0.000000e+000
 0.000000e+000 0.000000e+000 0.000000e+000 9.115629e-001 8.843708e-002
 0.000000e+000 0.000000e+000 0.000000e+000 0.000000e+000 0.000000e+000
<ENDHMM>
~h "n"
<BEGINHMM>
<NUMSTATES> 5
<STATE> 2
<MEAN> 39
 -7.227811e+000 -3.362149e+000 -5.354157e+000 -3.840880e+000 -5.210779e+000 -1.035782e+001 -2.775574e+000 -1.123717e+001 -6.341508e+000 -2.016462e+000 -1.293378e+000 -6.682006e+000 6.012997e+001 2.768977e-003 2.360695e-003 7.600239e-003 -2.896951e-005 -4.970588e-003 -3.835582e-003 4.467749e-003 -8.054054e-003 1.463298e-003 -5.386241e-003 2.387477e-003 6.245067e-003 3.729617e-002 -8.140086e-004 7.681608e-005 1.498824e-004 3.088213e-004 8.309606e-005 2.645819e-004 2.599108e-005 4.944775e-004 -2.605234e-004 -1.421294e-004 -8.986077e-005 3.120231e-004 -1.567607e-003
<VARIANCE> 39
 6.703387e+001 4.417569e+001 5.826924e+001 3.738378e+001 6.478935e+001 6.175103e+001 4.627674e+001 7.517885e+001 5.033231e+001 3.929867e+001 3.262634e+001 4.474554e+001 9.586070e+001 1.366146e+000 1.975245e+000 2.512764e+000 2.039179e+000 3.711321e+000 3.137092e+000 2.617555e+000 3.181417e+000 2.565167e+000 2.632218e+000 2.498202e+000 2.104923e+000 1.172321e+000 1.532374e-001 2.538751e-001 3.092380e-001 3.170494e-001 5.291288e-001 4.765618e-001 4.591303e-001 5.192232e-001 4.504665e-001 4.798312e-001 4.596424e-001 3.555953e-001 1.457559e-001
<GCONST> 1.205247e+002
<STATE> 3
<MEAN> 39
 -7.234315e+000 -3.349148e+000 -5.315163e+000 -3.838716e+000 -5.229637e+000 -1.036718e+001 -2.747845e+000 -1.125668e+001 -6.333476e+000 -2.043447e+000 -1.282762e+000 -6.643604e+000 6.027424e+001 -9.576554e-004 2.769409e-003 7.736541e-003 3.386461e-004 -4.629601e-003 -3.038879e-003 5.344485e-003 -4.059966e-003 1.330228e-003 -5.292255e-003 2.119702e-003 7.857682e-003 3.074520e-002 -8.305006e-004 4.727947e-005 1.356486e-005 9.014635e-005 1.437773e-004 2.212234e-004 2.261617e-004 8.008828e-004 -7.853935e-005 -4.703734e-005 -1.569666e-004 2.937699e-004 -1.338943e-003
<VARIANCE> 39
 6.578103e+001 4.387897e+001 5.805595e+001 3.720740e+001 6.479182e+001 6.134834e+001 4.607502e+001 7.442426e+001 5.019400e+001 3.892583e+001 3.249883e+001 4.437831e+001 8.761588e+001 1.350637e+000 1.959802e+000 2.497690e+000 2.030596e+000 3.708452e+000 3.118792e+000 2.612138e+000 3.176284e+000 2.552350e+000 2.610900e+000 2.489837e+000 2.091910e+000 1.118814e+000 1.510183e-001 2.515770e-001 3.069634e-001 3.163143e-001 5.282704e-001 4.731257e-001 4.581234e-001 5.176557e-001 4.480615e-001 4.755312e-001 4.580263e-001 3.533595e-001 1.380353e-001
<GCONST> 1.201200e+002
<STATE> 4
<MEAN> 39
 -7.425573e+000 -3.358358e+000 -5.214321e+000 -3.867321e+000 -5.079222e+000 -1.009960e+001 -2.590630e+000 -1.110447e+001 -6.146786e+000 -2.176970e+000 -1.204018e+000 -6.475953e+000 6.035115e+001 -1.022061e-002 3.359022e-003 7.814950e-003 6.508778e-004 -1.855423e-003 -8.812996e-004 8.294370e-003 4.650365e-003 3.450957e-003 -4.195610e-003 2.653936e-003 1.206153e-002 2.035878e-002 -7.877726e-004 -1.577527e-004 -9.056220e-005 1.621221e-004 3.652703e-004 1.665686e-004 1.710834e-004 3.448962e-004 6.034494e-005 -1.618771e-004 -1.282303e-004 3.258167e-004 -7.766255e-004
<VARIANCE> 39
 6.263758e+001 4.311067e+001 5.676176e+001 3.568334e+001 6.401590e+001 5.944279e+001 4.508065e+001 7.356393e+001 4.996496e+001 3.745602e+001 3.175436e+001 4.320774e+001 7.217354e+001 1.303730e+000 1.899116e+000 2.419502e+000 1.968047e+000 3.644156e+000 3.016173e+000 2.568285e+000 3.148171e+000 2.512641e+000 2.547119e+000 2.441169e+000 2.059240e+000 1.045626e+000 1.448551e-001 2.430179e-001 2.976106e-001 3.094210e-001 5.192741e-001 4.590980e-001 4.495527e-001 5.113779e-001 4.420643e-001 4.657287e-001 4.496519e-001 3.513732e-001 1.278263e-001
<GCONST> 1.189320e+002
<TRANSP> 5
 0.000000e+000 1.000000e+000 0.000000e+000 0.000000e+000 0.000000e+000
 0.000000e+000 7.791962e-001 2.208038e-001 0.000000e+000 0.000000e+000
 0.000000e+000 0.000000e+000 7.791965e-001 2.208035e-001 0.000000e+000
 0.000000e+000 0.000000e+000 0.000000e+000 9.116797e-001 8.832029e-002
 0.000000e+000 0.000000e+000 0.000000e+000 0.000000e+000 0.000000e+000
<ENDHMM>
~h "r"
<BEGINHMM>
<NUMSTATES> 5
<STATE> 2
<MEAN> 39
 -7.249591e+000 -2.782882e+000 -3.994335e+000 -3.143222e+000 -6.460939e+000 -1.184073e+001 -4.477831e+000 -1.189223e+001 -6.638768e+000 -1.600353e+000 -3.757316e-001 -5.474660e+000 6.032711e+001 7.497368e-003 -5.310134e-004 -9.645755e-003 -1.446102e-002 1.102818e-002 8.809836e-003 7.277535e-003 2.415560e-003 1.058377e-002 2.019939e-004 4.476548e-003 -7.276168e-004 4.605517e-002 -5.907079e-004 -2.220437e-004 -3.211102e-004 -1.506830e-004 7.330382e-004 2.872267e-004 5.295336e-004 8.490738e-004 4.840956e-004 -3.584126e-005 -3.421625e-004 -4.830226e-004 -2.637025e-004
<VARIANCE> 39
 6.988247e+001 3.894168e+001 5.190821e+001 4.501964e+001 7.946741e+001 7.697491e+001 5.213509e+001 9.169043e+001 5.794328e+001 4.232471e+001 3.662089e+001 3.881365e+001 8.077249e+001 1.768514e+000 2.003402e+000 2.151600e+000 2.317996e+000 4.308408e+000 3.314140e+000 3.005637e+000 3.734592e+000 2.936410e+000 3.018939e+000 2.504847e+000 2.253441e+000 1.128369e+000 1.842481e-001 2.873667e-001 2.745295e-001 3.664680e-001 6.071671e-001 4.746204e-001 5.309007e-001 5.606727e-001 5.005468e-001 5.538754e-001 4.578006e-001 4.109713e-001 1.455901e-001
<GCONST> 1.234006e+002
<STATE> 3
<MEAN> 39
 -7.220313e+000 -2.787756e+000 -4.041656e+000 -3.211898e+000 -6.404997e+000 -1.179916e+001 -4.441612e+000 -1.187339e+001 -6.584754e+000 -1.596913e+000 -3.599002e-001 -5.484338e+000 6.053235e+001 4.184549e-003 -1.527586e-003 -1.035529e-002 -1.403840e-002 1.384159e-002 9.880620e-003 9.523549e-003 5.861539e-003 1.221864e-002 -2.063007e-004 2.376052e-003 -3.291745e-003 4.327059e-002 -6.615275e-004 -2.124936e-004 -8.153857e-005 1.798413e-004 5.060294e-004 1.105084e-004 4.483654e-004 5.729010e-004 1.985763e-004 -1.230442e-004 -4.812278e-004 -6.079492e-004 -4.759929e-004
<VARIANCE> 39
 6.906960e+001 3.885969e+001 5.202322e+001 4.485393e+001 7.939912e+001 7.592084e+001 5.250223e+001 9.149000e+001 5.778757e+001 4.216372e+001 3.652439e+001 3.858399e+001 7.083558e+001 1.772248e+000 1.992635e+000 2.156838e+000 2.316956e+000 4.292375e+000 3.298361e+000 3.002509e+000 3.742975e+000 2.934515e+000 3.007293e+000 2.509220e+000 2.251620e+000 1.111267e+000 1.844818e-001 2.859235e-001 2.753086e-001 3.664743e-001 6.062386e-001 4.752969e-001 5.311468e-001 5.621682e-001 5.007946e-001 5.530078e-001 4.593633e-001 4.106652e-001 1.438282e-001
<GCONST> 1.231932e+002
<STATE> 4
<MEAN> 39
 -7.208866e+000 -2.804329e+000 -4.126725e+000 -3.386988e+000 -6.179733e+000 -1.156631e+001 -4.382016e+000 -1.173235e+001 -6.358249e+000 -1.644223e+000 -2.730823e-001 -5.428431e+000 6.079232e+001 -4.878752e-003 -2.249782e-003 -8.223171e-003 -8.630211e-003 1.574589e-002 1.231008e-002 1.426277e-002 1.022468e-002 1.243502e-002 -3.330132e-003 -5.173116e-003 -8.299434e-003 2.815615e-002 -9.053123e-004 -1.153947e-004 3.154683e-004 7.030374e-004 8.654880e-005 3.529414e-005 5.011466e-004 2.409189e-004 -2.665761e-004 -4.137410e-004 -6.566001e-004 -5.023300e-004 -1.281883e-003
<VARIANCE> 39
 6.709367e+001 3.829085e+001 5.184708e+001 4.412762e+001 7.827423e+001 7.345490e+001 5.267517e+001 9.075397e+001 5.738713e+001 4.148339e+001 3.646867e+001 3.827575e+001 5.325358e+001 1.740632e+000 1.936653e+000 2.155653e+000 2.297921e+000 4.191110e+000 3.205824e+000 2.975335e+000 3.717842e+000 2.915816e+000 2.946423e+000 2.500317e+000 2.236099e+000 1.000815e+000 1.797055e-001 2.781581e-001 2.747378e-001 3.659977e-001 5.946871e-001 4.681571e-001 5.281184e-001 5.587804e-001 5.010787e-001 5.451480e-001 4.608603e-001 4.094256e-001 1.287406e-001
<GCONST> 1.222665e+002
<TRANSP> 5
 0.000000e+000 1.000000e+000 0.000000e+000 0.000000e+000 0.000000e+000
 0.000000e+000 7.779791e-001 2.220209e-001 0.000000e+000 0.000000e+000
 0.000000e+000 0.000000e+000 7.779800e-001 2.220200e-001 0.000000e+000
 0.000000e+000 0.000000e+000 0.000000e+000 9.095291e-001 9.047089e-002
 0.000000e+000 0.000000e+000 0.000000e+000 0.000000e+000 0.000000e+000
<ENDHMM>
~h "s"
<BEGINHMM>
<NUMSTATES> 5
<STATE> 2
<MEAN> 39
 -1.104067e+001 -2.961800e+000 -4.430213e+000 -2.767839e+000 -4.555096e+000 -1.129687e+001 -1.530259e+000 -8.691677e+000 -6.299599e+000 -6.540450e-001 -3.012159e-001 -5.433093e+000 5.897707e+001 3.251957e-003 -6.678076e-003 -4.306656e-004 3.365214e-003 8.725313e-003 -1.130413e-002 1.031168e-002 -6.283805e-003 -6.283495e-003 6.053519e-003 -7.738465e-003 -6.430790e-003 3.898786e-002 4.947432e-004 5.557588e-005 1.399858e-004 -4.397898e-005 1.577979e-004 9.482628e-004 -3.368242e-004 -1.110256e-004 -2.800433e-004 -1.493057e-003 -8.503144e-004 -7.565428e-005 -1.108790e-003
<VARIANCE> 39
 8.580235e+001 3.258562e+001 4.564666e+001 3.211346e+001 7.662662e+001 6.538763e+001 4.923418e+001 8.948264e+001 5.124099e+001 3.859082e+001 3.157673e+001 3.774735e+001 1.276326e+002 2.256520e+000 1.922750e+000 2.001341e+000 1.790021e+000 4.335691e+000 3.586728e+000 2.675629e+000 4.113740e+000 2.891317e+000 3.025307e+000 2.499556e+000 2.258689e+000 1.276906e+000 2.431307e-001 2.873799e-001 2.651609e-001 3.000283e-001 6.381348e-001 5.645266e-001 4.764916e-001 6.263888e-001 5.024610e-001 5.916231e-001 4.597434e-001 4.043221e-001 1.794471e-001
<GCONST> 1.233296e+002
<STATE> 3
<MEAN> 39
 -1.101493e+001 -2.989652e+000 -4.432098e+000 -2.762406e+000 -4.513544e+000 -1.134238e+001 -1.479850e+000 -8.714389e+000 -6.328587e+000 -6.427230e-001 -3.456282e-001 -5.464115e+000 5.916430e+001 6.542102e-003 -6.228127e-003 -1.099483e-003 5.551400e-004 8.679038e-003 -8.552220e-003 9.877637e-003 -4.412032e-003 -5.160731e-003 1.225761e-003 -1.079718e-002 -6.642343e-003 3.773352e-002 7.038834e-004 1.416209e-004 -2.339174e-004 -6.805142e-004 5.085866e-005 5.615527e-004 -7.772694e-005 3.974214e-004 2.561218e-004 -1.011349e-003 -5.945922e-004 -2.240118e-005 -1.039538e-004
<VARIANCE> 39
 8.515629e+001 3.245415e+001 4.542163e+001 3.191945e+001 7.680377e+001 6.520575e+001 4.916047e+001 8.887083e+001 5.099758e+001 3.860059e+001 3.161625e+001 3.762884e+001 1.209921e+002 2.270829e+000 1.939894e+000 2.007510e+000 1.791182e+000 4.350588e+000 3.608238e+000 2.677642e+000 4.106557e+000 2.915084e+000 3.051046e+000 2.519994e+000 2.269233e+000 1.297625e+000 2.451230e-001 2.910823e-001 2.675741e-001 3.012325e-001 6.413062e-001 5.684795e-001 4.763801e-001 6.249160e-001 5.059736e-001 5.971696e-001 4.650255e-001 4.058982e-001 1.825349e-001
<GCONST> 1.234032e+002
<STATE> 4
<MEAN> 39
 -1.099562e+001 -3.158713e+000 -4.571101e+000 -2.921819e+000 -4.297102e+000 -1.122203e+001 -1.357234e+000 -8.664824e+000 -6.103864e+000 -6.995370e-001 -3.441596e-001 -5.423494e+000 5.949250e+001 1.361678e-002 -5.497562e-003 -2.990865e-003 -5.029905e-003 7.965878e-003 -8.669049e-003 7.741473e-003 -5.678419e-003 -7.301010e-004 -2.302221e-003 -1.146407e-002 -7.028222e-003 4.724966e-002 5.754272e-004 1.050433e-004 -1.916304e-004 -4.510703e-004 -1.358545e-005 1.073797e-004 -3.390757e-004 -1.512653e-004 4.599671e-004 -3.756508e-004 -4.041357e-005 7.149816e-005 4.897214e-004
<VARIANCE> 39
 8.137252e+001 3.210646e+001 4.410091e+001 3.139611e+001 7.485395e+001 6.330391e+001 4.782137e+001 8.561566e+001 5.049367e+001 3.797551e+001 3.139907e+001 3.699513e+001 9.949424e+001 2.224189e+000 1.922726e+000 1.971644e+000 1.786072e+000 4.244626e+000 3.527462e+000 2.626485e+000 3.974691e+000 2.884891e+000 3.051989e+000 2.526089e+000 2.267245e+000 1.411928e+000 2.422027e-001 2.912136e-001 2.665179e-001 3.037724e-001 6.281106e-001 5.563354e-001 4.689166e-001 6.062691e-001 5.015092e-001 5.984955e-001 4.686535e-001 4.067672e-001 1.990909e-001
<GCONST> 1.228556e+002
<TRANSP> 5
 0.000000e+000 1.000000e+000 0.000000e+000 0.000000e+000 0.000000e+000
 0.000000e+000 7.774146e-001 2.225854e-001 0.000000e+000 0.000000e+000
 0.000000e+000 0.000000e+000 7.774135e-001 2.225865e-001 0.000000e+000
 0.000000e+000 0.000000e+000 0.000000e+000 9.112011e-001 8.879896e-002
 0.000000e+000 0.000000e+000 0.000000e+000 0.000000e+000 0.000000e+000
<ENDHMM>
~h "t"
<BEGINHMM>
<NUMSTATES> 5
<STATE> 2
<MEAN> 39
 -9.746508e+000 -2.781801e+000 -3.181676e+000 -3.024739e+000 -6.246656e+000 -1.047255e+001 -2.403092e+000 -9.688519e+000 -6.026634e+000 -1.574979e+000 -4.550045e-001 -5.041160e+000 5.764424e+001 1.521998e-002 1.324192e-002 8.515125e-003 -5.470112e-003 2.932242e-003 -3.253086e-003 -8.042051e-003 -1.642145e-002 2.894609e-003 -9.701683e-003 -1.118209e-002 -8.052378e-003 4.842609e-002 6.144476e-004 8.748950e-005 2.674313e-004 4.918100e-005 2.007163e-004 -1.923915e-004 1.719781e-004 -7.149585e-004 -1.093377e-003 -9.868154e-004 -4.108103e-004 -4.505860e-004 1.661074e-003
<VARIANCE> 39
 6.661829e+001 3.868483e+001 4.092515e+001 3.176752e+001 8.217772e+001 6.941171e+001 4.728521e+001 9.688341e+001 5.529369e+001 4.194646e+001 3.185942e+001 3.468377e+001 1.444572e+002 1.737314e+000 2.015017e+000 1.721645e+000 1.873139e+000 3.986214e+000 3.316288e+000 2.686628e+000 4.044705e+000 2.962559e+000 2.919198e+000 2.389504e+000 2.027155e+000 1.408040e+000 1.970189e-001 2.766587e-001 2.374823e-001 3.078378e-001 5.540207e-001 4.944424e-001 4.646936e-001 5.828002e-001 5.061873e-001 5.283102e-001 4.290516e-001 3.651145e-001 1.852253e-001
<GCONST> 1.219934e+002
<STATE> 3
<MEAN> 39
 -9.662696e+000 -2.718999e+000 -3.141211e+000 -3.057005e+000 -6.234155e+000 -1.049131e+001 -2.436009e+000 -9.768943e+000 -6.022167e+000 -1.631567e+000 -5.108812e-001 -5.085426e+000 5.790794e+001 1.820759e-002 1.343512e-002 8.485216e-003 -6.818064e-003 3.166548e-003 -5.098535e-003 -6.565715e-003 -1.749973e-002 -4.588932e-004 -1.258907e-002 -1.261414e-002 -9.853431e-003 5.674588e-002 6.826664e-004 3.405237e-005 -7.554855e-005 -3.173680e-004 3.232943e-005 -4.644276e-004 3.114919e-004 -2.676385e-004 -7.599425e-004 -6.497285e-004 -2.947522e-004 -2.714700e-004 1.917243e-003
<VARIANCE> 39
 6.507561e+001 3.875005e+001 4.080931e+001 3.176557e+001 8.253873e+001 6.889899e+001 4.716281e+001 9.593156e+001 5.517357e+001 4.192741e+001 3.178861e+001 3.436488e+001 1.332421e+002 1.744651e+000 2.017808e+000 1.713466e+000 1.873847e+000 3.977018e+000 3.302168e+000 2.676926e+000 4.033383e+000 2.950663e+000 2.910871e+000 2.391406e+000 2.019913e+000 1.457798e+000 1.987386e-001 2.769322e-001 2.371331e-001 3.090693e-001 5.530216e-001 4.924802e-001 4.629982e-001 5.816352e-001 5.062782e-001 5.261759e-001 4.303516e-001 3.632126e-001 1.927959e-001
<GCONST> 1.219064e+002
<STATE> 4
<MEAN> 39
 -9.471175e+000 -2.599007e+000 -3.029228e+000 -3.261426e+000 -6.141170e+000 -1.024536e+001 -2.516177e+000 -9.882027e+000 -5.860119e+000 -1.909090e+000 -4.898828e-001 -5.057794e+000 5.852871e+001 2.073033e-002 1.143448e-002 2.464218e-003 -8.827173e-003 5.746481e-003 -8.271538e-003 -6.533412e-003 -1.844563e-002 -4.856315e-003 -1.460977e-002 -1.334132e-002 -1.126928e-002 6.611001e-002 2.446187e-004 -1.918507e-004 -5.142810e-004 -5.912282e-005 2.299350e-004 -5.259845e-004 7.647571e-006 -2.852525e-004 -5.339711e-004 -3.449621e-004 -8.379497e-005 4.690806e-005 8.720349e-004
<VARIANCE> 39
 5.939824e+001 3.771714e+001 4.053759e+001 3.134480e+001 8.377334e+001 6.609976e+001 4.572867e+001 9.306880e+001 5.420752e+001 4.099734e+001 3.196445e+001 3.263588e+001 1.010616e+002 1.688350e+000 1.968941e+000 1.679037e+000 1.839106e+000 3.924245e+000 3.188599e+000 2.581247e+000 3.955290e+000 2.860605e+000 2.810489e+000 2.402376e+000 1.968870e+000 1.505933e+000 1.942212e-001 2.700193e-001 2.325933e-001 3.051029e-001 5.446886e-001 4.769793e-001 4.469026e-001 5.720534e-001 4.953081e-001 5.047355e-001 4.298560e-001 3.537111e-001 1.998476e-001
<GCONST> 1.208274e+002
<TRANSP> 5
 0.000000e+000 1.000000e+000 0.000000e+000 0.000000e+000 0.000000e+000
 0.000000e+000 7.805966e-001 2.194035e-001 0.000000e+000 0.000000e+000
 0.000000e+000 0.000000e+000 7.805974e-001 2.194026e-001 0.000000e+000
 0.000000e+000 0.000000e+000 0.000000e+000 9.149721e-001 8.502792e-002
 0.000000e+000 0.000000e+000 0.000000e+000 0.000000e+000 0.000000e+000
<ENDHMM>
~h "v"
<BEGINHMM>
<NUMSTATES> 5
<STATE> 2
<MEAN> 39
 -8.386209e+000 -4.249933e+000 -5.881469e+000 -3.560580e+000 -4.292241e+000 -1.047485e+001 -2.648515e+000 -9.807639e+000 -5.216333e+000 -3.247567e-001 -7.031491e-001 -6.311182e+000 6.025209e+001 5.554643e-002 -1.054158e-002 -1.550820e-002 -2.018918e-002 -1.431369e-002 -2.396191e-002 -1.048633e-002 -3.821363e-002 -1.569850e-002 -9.803322e-003 -7.548553e-003 -3.010547e-002 1.234737e-001 -7.404584e-004 -3.719309e-004 -3.611146e-004 -9.046709e-005 -1.203056e-003 6.968586e-004 5.470183e-005 2.063087e-004 -5.761009e-004 -7.556744e-006 2.930672e-004 5.901344e-004 -3.438944e-003
<VARIANCE> 39
 7.544933e+001 3.925299e+001 4.619536e+001 3.525735e+001 6.085923e+001 6.514416e+001 4.646774e+001 8.000148e+001 4.798631e+001 3.926919e+001 3.311988e+001 4.124271e+001 9.009177e+001 2.095186e+000 2.037656e+000 2.112662e+000 2.241393e+000 3.501240e+000 3.296227e+000 2.616311e+000 3.506939e+000 2.882729e+000 3.039305e+000 2.743960e+000 2.358845e+000 1.867952e+000 2.494632e-001 2.893328e-001 2.977167e-001 3.731087e-001 5.162820e-001 4.846576e-001 4.672041e-001 5.544098e-001 5.143903e-001 5.822016e-001 5.250564e-001 4.125538e-001 2.615689e-001
<GCONST> 1.235269e+002
<STATE> 3
<MEAN> 39
 -8.147214e+000 -4.304110e+000 -5.957923e+000 -3.650382e+000 -4.376687e+000 -1.056950e+001 -2.693856e+000 -9.976074e+000 -5.294978e+000 -3.682775e-001 -7.349133e-001 -6.438932e+000 6.073993e+001 5.120923e-002 -1.103149e-002 -1.581351e-002 -1.964853e-002 -1.949005e-002 -1.986457e-002 -9.531964e-003 -3.640237e-002 -1.791637e-002 -1.014234e-002 -5.977022e-003 -2.602739e-002 1.038928e-001 -8.406012e-004 -3.190776e-005 -4.177209e-005 1.588807e-004 -1.121732e-003 8.384218e-004 1.459074e-004 2.692662e-004 -4.466770e-004 -4.897208e-005 3.264885e-004 9.314378e-004 -4.314766e-003
<VARIANCE> 39
 7.395050e+001 4.006883e+001 4.690232e+001 3.600113e+001 6.123567e+001 6.499137e+001 4.701990e+001 7.899338e+001 4.795259e+001 4.007629e+001 3.379646e+001 4.110562e+001 7.298369e+001 2.072594e+000 2.050368e+000 2.139909e+000 2.296250e+000 3.550867e+000 3.323754e+000 2.638169e+000 3.527574e+000 2.900188e+000 3.046754e+000 2.789731e+000 2.363936e+000 1.693907e+000 2.452272e-001 2.901309e-001 2.996151e-001 3.819879e-001 5.232044e-001 4.859405e-001 4.699177e-001 5.576498e-001 5.163485e-001 5.821361e-001 5.326180e-001 4.129132e-001 2.340025e-001
<GCONST> 1.233412e+002
<STATE> 4
<MEAN> 39
 -8.074164e+000 -4.444319e+000 -6.196562e+000 -3.984899e+000 -4.490325e+000 -1.046128e+001 -2.671392e+000 -1.002260e+001 -5.170060e+000 -6.155933e-001 -7.754191e-001 -6.412317e+000 6.108143e+001 3.704564e-002 -3.726003e-003 -7.406689e-003 -1.307865e-002 -2.413304e-002 -1.160302e-002 -5.254722e-003 -2.852280e-002 -1.853127e-002 -1.367413e-002 -4.210592e-003 -1.351327e-002 5.722038e-002 -1.221159e-003 9.017590e-004 9.567108e-004 6.719843e-004 -3.829158e-004 6.841121e-004 2.044214e-004 5.073335e-004 -3.698308e-005 -4.050610e-004 2.496791e-004 1.462586e-003 -4.008800e-003
<VARIANCE> 39
 7.203998e+001 4.011921e+001 4.690904e+001 3.669437e+001 5.961544e+001 6.330288e+001 4.651750e+001 7.627065e+001 4.828168e+001 4.049735e+001 3.412991e+001 4.075630e+001 5.313257e+001 1.936242e+000 1.992224e+000 2.103649e+000 2.304102e+000 3.524194e+000 3.270512e+000 2.591659e+000 3.478108e+000 2.888191e+000 2.974945e+000 2.802252e+000 2.318333e+000 1.305636e+000 2.258210e-001 2.794199e-001 2.907723e-001 3.828861e-001 5.190313e-001 4.752804e-001 4.608088e-001 5.499782e-001 5.152628e-001 5.656955e-001 5.315533e-001 4.053827e-001 1.745743e-001
<GCONST> 1.219129e+002
<TRANSP> 5
 0.000000e+000 1.000000e+000 0.000000e+000 0.000000e+000 0.000000e+000
 0.000000e+000 7.800729e-001 2.199271e-001 0.000000e+000 0.000000e+000
 0.000000e+000 0.000000e+000 7.800728e-001 2.199272e-001 0.000000e+000
 0.000000e+000 0.000000e+000 0.000000e+000 9.132696e-001 8.673044e-002
 0.000000e+000 0.000000e+000 0.000000e+000 0.000000e+000 0.000000e+000
<ENDHMM>
~h "w"
<BEGINHMM>
<NUMSTATES> 5
<STATE> 2
<MEAN> 39
 -7.937916e+000 -2.367697e+000 -5.032660e+000 -4.198657e+000 -5.436460e+000 -9.548821e+000 -3.318026e+000 -1.055650e+001 -6.023163e+000 -2.564387e+000 -1.455025e+000 -6.169939e+000 5.701158e+001 4.305811e-002 9.538895e-003 -1.158223e-002 -1.476024e-002 2.401142e-003 -3.343422e-003 -3.339157e-003 -2.138478e-002 -2.344780e-004 -2.532287e-002 -1.400034e-002 -1.632225e-002 7.234604e-002 -4.660872e-004 5.726819e-004 9.601787e-004 -4.189636e-005 -1.844111e-004 9.167368e-005 4.599853e-004 5.222088e-004 -5.349940e-004 -1.246576e-003 -8.071897e-004 1.364626e-005 -1.194174e-005
<VARIANCE> 39
 8.016299e+001 4.540355e+001 5.449089e+001 4.484401e+001 6.531979e+001 6.700318e+001 4.212643e+001 8.245906e+001 5.407262e+001 4.429888e+001 3.263033e+001 4.401736e+001 1.915124e+002 1.419202e+000 2.130105e+000 2.248250e+000 2.413278e+000 3.762918e+000 3.493067e+000 2.564170e+000 3.310745e+000 2.602805e+000 2.661116e+000 2.288897e+000 2.171835e+000 1.294757e+000 1.579831e-001 2.704877e-001 2.653275e-001 3.562504e-001 5.573563e-001 5.456878e-001 4.515032e-001 5.388929e-001 4.496615e-001 4.859743e-001 4.067886e-001 3.710774e-001 1.582041e-001
<GCONST> 1.224597e+002
<STATE> 3
<MEAN> 39
 -7.725028e+000 -2.310557e+000 -5.075712e+000 -4.280395e+000 -5.426053e+000 -9.569445e+000 -3.323409e+000 -1.064821e+001 -6.031321e+000 -2.703191e+000 -1.532499e+000 -6.254396e+000 5.738752e+001 4.160329e-002 1.176134e-002 -8.566534e-003 -1.719825e-002 6.716425e-004 -4.772922e-003 4.643596e-004 -1.609044e-002 7.218784e-004 -2.735035e-002 -1.570770e-002 -1.580649e-002 7.664814e-002 -3.864813e-004 4.136963e-004 6.025546e-004 -4.662286e-004 -3.992426e-004 -3.614420e-004 8.155275e-004 1.055957e-003 1.428127e-004 -2.725945e-004 -2.015002e-004 1.720319e-004 8.422626e-004
<VARIANCE> 39
 7.803397e+001 4.618091e+001 5.455073e+001 4.547503e+001 6.461663e+001 6.651979e+001 4.220824e+001 8.000319e+001 5.342518e+001 4.440212e+001 3.250619e+001 4.381884e+001 1.785999e+002 1.406481e+000 2.150887e+000 2.258397e+000 2.436140e+000 3.752647e+000 3.523457e+000 2.566761e+000 3.297887e+000 2.598043e+000 2.655268e+000 2.283964e+000 2.173932e+000 1.342507e+000 1.569348e-001 2.708434e-001 2.650427e-001 3.571843e-001 5.574977e-001 5.514129e-001 4.522125e-001 5.399469e-001 4.497309e-001 4.835548e-001 4.071377e-001 3.702950e-001 1.642190e-001
<GCONST> 1.224209e+002
<STATE> 4
<MEAN> 39
 -7.376473e+000 -2.179731e+000 -5.105335e+000 -4.591030e+000 -5.219021e+000 -9.327062e+000 -3.313001e+000 -1.063803e+001 -5.793072e+000 -3.101506e+000 -1.639638e+000 -6.349052e+000 5.804167e+001 3.968433e-002 1.057944e-002 -5.132074e-003 -1.716369e-002 1.436135e-003 -1.107497e-002 4.958853e-003 -1.403446e-002 2.884306e-003 -2.173688e-002 -1.158314e-002 -1.570376e-002 9.805271e-002 -9.633928e-004 -2.143053e-004 4.272680e-004 3.303457e-004 -2.158294e-004 -5.241254e-004 4.519489e-004 4.497765e-004 2.933609e-004 9.090400e-004 6.179659e-004 4.883457e-004 4.414258e-004
<VARIANCE> 39
 7.088712e+001 4.669064e+001 5.304624e+001 4.636605e+001 6.288586e+001 6.481212e+001 4.155960e+001 7.368987e+001 5.204042e+001 4.304039e+001 3.157957e+001 4.339477e+001 1.432223e+002 1.354184e+000 2.138291e+000 2.189826e+000 2.415403e+000 3.646788e+000 3.523537e+000 2.528907e+000 3.221778e+000 2.575253e+000 2.588350e+000 2.235116e+000 2.170647e+000 1.512407e+000 1.538809e-001 2.638082e-001 2.564246e-001 3.460726e-001 5.420221e-001 5.516374e-001 4.465737e-001 5.375557e-001 4.486921e-001 4.667266e-001 4.009154e-001 3.691282e-001 1.885770e-001
<GCONST> 1.216981e+002
<TRANSP> 5
 0.000000e+000 1.000000e+000 0.000000e+000 0.000000e+000 0.000000e+000
 0.000000e+000 7.793065e-001 2.206934e-001 0.000000e+000 0.000000e+000
 0.000000e+000 0.000000e+000 7.793071e-001 2.206928e-001 0.000000e+000
 0.000000e+000 0.000000e+000 0.000000e+000 9.128610e-001 8.713894e-002
 0.000000e+000 0.000000e+000 0.000000e+000 0.000000e+000 0.000000e+000
<ENDHMM>
~h "z"
<BEGINHMM>
<NUMSTATES> 5
<STATE> 2
<MEAN> 39
 -6.993943e+000 -2.424770e+000 -4.603408e+000 -2.977518e+000 -6.418192e+000 -1.218731e+001 -4.888419e+000 -1.189347e+001 -7.172652e+000 -2.429953e+000 -7.839943e-001 -5.174399e+000 5.839827e+001 4.832941e-002 1.099630e-002 1.141867e-003 -7.100673e-006 -2.413678e-002 -2.665196e-002 -2.453004e-002 -5.924074e-002 -2.505940e-002 -1.586212e-002 9.311385e-003 8.109856e-003 5.829965e-002 -3.673694e-004 3.650877e-005 5.876836e-004 4.816310e-005 9.295546e-004 1.165919e-003 1.034506e-003 9.802567e-004 2.806643e-004 -6.421551e-004 5.298604e-004 7.547381e-004 1.195192e-003
<VARIANCE> 39
 7.944833e+001 3.904644e+001 5.029682e+001 4.573480e+001 6.582470e+001 8.388454e+001 5.219057e+001 9.077132e+001 5.403008e+001 4.187680e+001 3.843496e+001 4.042001e+001 1.727527e+002 1.588737e+000 1.921556e+000 2.087777e+000 2.192729e+000 3.792392e+000 3.336694e+000 2.645906e+000 3.340016e+000 2.758452e+000 2.948633e+000 2.436719e+000 2.134130e+000 1.130159e+000 1.673161e-001 2.695982e-001 2.622193e-001 3.312480e-001 5.225045e-001 4.499850e-001 4.466540e-001 5.083166e-001 4.784898e-001 5.372186e-001 4.358783e-001 3.761661e-001 1.350876e-001
<GCONST> 1.223425e+002
<STATE> 3
<MEAN> 39
 -6.746868e+000 -2.367793e+000 -4.587756e+000 -2.988139e+000 -6.523227e+000 -1.231737e+001 -4.988587e+000 -1.216543e+001 -7.296323e+000 -2.520483e+000 -7.381215e-001 -5.138745e+000 5.875110e+001 4.786755e-002 1.064373e-002 2.058952e-003 -2.372658e-003 -2.051675e-002 -2.351253e-002 -1.918901e-002 -5.259147e-002 -2.108253e-002 -1.589577e-002 1.290694e-002 1.151141e-002 6.844750e-002 -3.177074e-004 -1.535467e-004 6.665771e-005 -5.530931e-004 9.241489e-004 8.260464e-004 1.256702e-003 1.653758e-003 1.042827e-003 1.823039e-004 8.123678e-004 7.336050e-004 1.901327e-003
<VARIANCE> 39
 7.725147e+001 3.852123e+001 5.092513e+001 4.561835e+001 6.615188e+001 8.426096e+001 5.254422e+001 8.879043e+001 5.416590e+001 4.185343e+001 3.879386e+001 4.052227e+001 1.616653e+002 1.586620e+000 1.906669e+000 2.097956e+000 2.173477e+000 3.816087e+000 3.347247e+000 2.660887e+000 3.327160e+000 2.784844e+000 2.966114e+000 2.432346e+000 2.150755e+000 1.231500e+000 1.675165e-001 2.682568e-001 2.639010e-001 3.276875e-001 5.231812e-001 4.491502e-001 4.480230e-001 5.078932e-001 4.828860e-001 5.368016e-001 4.346011e-001 3.778855e-001 1.494770e-001
<GCONST> 1.224624e+002
<STATE> 4
<MEAN> 39
 -6.303940e+000 -2.337036e+000 -4.526415e+000 -3.002882e+000 -6.616591e+000 -1.246136e+001 -5.109991e+000 -1.253556e+001 -7.437846e+000 -2.760732e+000 -4.588076e-001 -4.898121e+000 5.943813e+001 5.572842e-002 6.925193e-003 -1.872292e-003 -9.204239e-003 -1.415050e-002 -2.632333e-002 -1.612854e-002 -5.111906e-002 -1.734581e-002 -1.111583e-002 2.310138e-002 1.482291e-002 1.062081e-001 -9.499110e-004 -6.226312e-004 -6.865198e-004 -6.093237e-004 1.239746e-003 1.104616e-003 9.225419e-004 1.745889e-003 1.561867e-003 1.127760e-003 9.518282e-004 6.450394e-004 4.212975e-004
<VARIANCE> 39
 7.185384e+001 3.737250e+001 5.200935e+001 4.543217e+001 6.662915e+001 8.480457e+001 5.227555e+001 8.371352e+001 5.453384e+001 4.210080e+001 4.030148e+001 4.016405e+001 1.344066e+002 1.574581e+000 1.849997e+000 2.127202e+000 2.118021e+000 3.821112e+000 3.320422e+000 2.644243e+000 3.232116e+000 2.814672e+000 3.013639e+000 2.445740e+000 2.187478e+000 1.507555e+000 1.681992e-001 2.614076e-001 2.681332e-001 3.190395e-001 5.175890e-001 4.394735e-001 4.461639e-001 4.978867e-001 4.865505e-001 5.388218e-001 4.378364e-001 3.873403e-001 1.897273e-001
<GCONST> 1.225357e+002
<TRANSP> 5
 0.000000e+000 1.000000e+000 0.000000e+000 0.000000e+000 0.000000e+000
 0.000000e+000 7.776260e-001 2.223739e-001 0.000000e+000 0.000000e+000
 0.000000e+000 0.000000e+000 7.776265e-001 2.223735e-001 0.000000e+000
 0.000000e+000 0.000000e+000 0.000000e+000 9.091369e-001 9.086310e-002
 0.000000e+000 0.000000e+000 0.000000e+000 0.000000e+000 0.000000e+000
<ENDHMM>
~h "ah"
<BEGINHMM>
<NUMSTATES> 5
<STATE> 2
<MEAN> 39
 -7.061664e+000 -2.138317e+000 -5.159871e+000 -4.561817e+000 -5.392632e+000 -9.755555e+000 -3.244887e+000 -1.089077e+001 -5.990962e+000 -3.062156e+000 -1.722461e+000 -6.521694e+000 5.903437e+001 2.499167e-002 7.743392e-003 -1.844881e-003 -1.144968e-002 -2.705035e-003 -1.302446e-002 7.581015e-003 -8.533317e-003 5.782543e-003 -1.202480e-002 -5.686450e-003 -7.636503e-003 8.252919e-002 -9.850968e-004 -3.711313e-004 3.838204e-004 6.978813e-004 -1.003376e-005 -5.089408e-004 1.222159e-004 8.872726e-006 -8.989815e-005 1.015940e-003 6.349712e-004 4.613446e-004 5.993218e-005
<VARIANCE> 39
 6.787098e+001 4.691098e+001 5.466245e+001 4.733158e+001 6.299604e+001 6.444236e+001 4.266300e+001 7.074717e+001 5.063328e+001 4.350456e+001 3.192131e+001 4.299768e+001 1.136702e+002 1.360727e+000 2.193596e+000 2.286716e+000 2.502092e+000 3.752102e+000 3.654673e+000 2.616424e+000 3.243592e+000 2.567665e+000 2.628200e+000 2.275328e+000 2.208029e+000 1.432467e+000 1.516571e-001 2.721627e-001 2.635723e-001 3.590804e-001 5.607209e-001 5.764571e-001 4.645875e-001 5.444392e-001 4.484926e-001 4.732263e-001 4.100384e-001 3.724529e-001 1.731130e-001
<GCONST> 1.218233e+002
<STATE> 3
<MEAN> 39
 -6.958337e+000 -2.110919e+000 -5.166217e+000 -4.605677e+000 -5.400611e+000 -9.820449e+000 -3.209053e+000 -1.093302e+001 -5.967169e+000 -3.105735e+000 -1.741590e+000 -6.554244e+000 5.942415e+001 1.914343e-002 5.225271e-003 -6.087011e-004 -7.658341e-003 -2.513547e-003 -1.480163e-002 7.757741e-003 -8.371895e-003 4.820775e-003 -6.955168e-003 -2.869428e-003 -5.096552e-003 7.966782e-002 -1.210132e-003 -4.966833e-004 3.084764e-004 8.420658e-004 5.966980e-005 -4.081130e-004 -5.799695e-006 3.254344e-005 -2.326136e-004 1.069368e-003 5.785862e-004 5.109706e-004 -6.843361e-004
<VARIANCE> 39
 6.552885e+001 4.652821e+001 5.461059e+001 4.775697e+001 6.275717e+001 6.393143e+001 4.273962e+001 6.845871e+001 4.979638e+001 4.302827e+001 3.175665e+001 4.269399e+001 9.706847e+001 1.347682e+000 2.196985e+000 2.287721e+000 2.510798e+000 3.760857e+000 3.680731e+000 2.632762e+000 3.226431e+000 2.553466e+000 2.618104e+000 2.273802e+000 2.210032e+000 1.413998e+000 1.495376e-001 2.728006e-001 2.627752e-001 3.587001e-001 5.622978e-001 5.813488e-001 4.687659e-001 5.446924e-001 4.475946e-001 4.699891e-001 4.109479e-001 3.716251e-001 1.694186e-001
<GCONST> 1.215058e+002
<STATE> 4
<MEAN> 39
 -7.020054e+000 -2.115127e+000 -5.147958e+000 -4.737831e+000 -5.146588e+000 -9.595580e+000 -3.123675e+000 -1.077505e+001 -5.679351e+000 -3.257885e+000 -1.707801e+000 -6.434375e+000 5.977429e+001 7.297062e-005 -1.812782e-003 1.782082e-004 1.600750e-003 -1.246261e-004 -1.452717e-002 9.795412e-003 -2.641696e-003 2.756729e-003 3.901426e-003 2.552174e-003 4.027564e-003 5.691351e-002 -1.637812e-003 -5.677072e-004 1.807240e-004 8.962074e-004 8.127123e-005 -1.751422e-004 4.935529e-005 4.640788e-004 -3.250834e-004 1.083793e-003 5.278442e-004 7.237459e-004 -2.219053e-003
<VARIANCE> 39
 6.032350e+001 4.471220e+001 5.235566e+001 4.694841e+001 6.025624e+001 6.161486e+001 4.154472e+001 6.348979e+001 4.805695e+001 4.055669e+001 3.066740e+001 4.166856e+001 6.828114e+001 1.258585e+000 2.131328e+000 2.180107e+000 2.432580e+000 3.618640e+000 3.594266e+000 2.592001e+000 3.130063e+000 2.484533e+000 2.516862e+000 2.223548e+000 2.176529e+000 1.222805e+000 1.383149e-001 2.629875e-001 2.506628e-001 3.444583e-001 5.451559e-001 5.706699e-001 4.650713e-001 5.361149e-001 4.389416e-001 4.491056e-001 4.054624e-001 3.656658e-001 1.417483e-001
<GCONST> 1.195519e+002
<TRANSP> 5
 0.000000e+000 1.000000e+000 0.000000e+000 0.000000e+000 0.000000e+000
 0.000000e+000 7.793012e-001 2.206988e-001 0.000000e+000 0.000000e+000
 0.000000e+000 0.000000e+000 7.793020e-001 2.206980e-001 0.000000e+000
 0.000000e+000 0.000000e+000 0.000000e+000 9.128472e-001 8.715288e-002
 0.000000e+000 0.000000e+000 0.000000e+000 0.000000e+000 0.000000e+000
<ENDHMM>
~h "ao"
<BEGINHMM>
<NUMSTATES> 5
<STATE> 2
<MEAN> 39
 -8.022127e+000 -2.208941e+000 -5.437410e+000 -4.416637e+000 -6.024745e+000 -1.087623e+001 -3.667650e+000 -9.755358e+000 -4.350749e+000 -1.175998e+000 -6.795810e-001 -5.306537e+000 5.940003e+001 2.317529e-002 4.199562e-003 -3.590038e-003 -9.119854e-003 1.220891e-002 8.063249e-004 3.362895e-003 -1.816195e-002 -8.151283e-003 -8.926061e-003 -4.868407e-004 -1.077751e-002 7.010669e-002 -3.382651e-004 -2.911847e-004 -3.043916e-004 -1.240448e-004 -2.125336e-005 5.159103e-004 7.753137e-004 4.220060e-004 4.963604e-004 -6.119742e-006 -1.687037e-004 6.093331e-006 -2.838617e-004
<VARIANCE> 39
 6.835321e+001 5.428063e+001 3.576684e+001 5.917136e+001 7.126659e+001 6.152106e+001 4.758351e+001 6.204560e+001 3.880669e+001 3.611758e+001 2.959428e+001 2.921859e+001 8.232684e+001 1.686141e+000 2.348929e+000 1.625245e+000 2.360091e+000 3.482531e+000 2.670437e+000 2.347424e+000 2.978106e+000 2.143572e+000 2.597998e+000 2.052506e+000 1.785413e+000 1.073827e+000 1.821829e-001 3.176890e-001 2.117309e-001 3.345763e-001 5.144451e-001 3.911725e-001 4.192196e-001 4.968489e-001 3.920613e-001 4.874021e-001 3.696885e-001 3.344838e-001 1.504806e-001
<GCONST> 1.180226e+002
<STATE> 3
<MEAN> 39
 -7.911021e+000 -2.186415e+000 -5.457564e+000 -4.465676e+000 -5.975863e+000 -1.087787e+001 -3.659781e+000 -9.845098e+000 -4.387205e+000 -1.218713e+000 -6.834448e-001 -5.361120e+000 5.973242e+001 2.036363e-002 2.521121e-003 -5.472288e-003 -9.631671e-003 1.186207e-002 3.279250e-003 6.262905e-003 -1.571022e-002 -6.333022e-003 -8.670462e-003 -1.444509e-003 -1.038815e-002 6.586583e-002 -7.918539e-004 -4.365990e-004 -4.405492e-004 1.305628e-004 2.882847e-005 5.766175e-004 6.328317e-004 4.761848e-004 3.703922e-004 -1.699356e-004 -2.813673e-004 4.515235e-004 -1.017888e-003
<VARIANCE> 39
 6.766997e+001 5.406332e+001 3.606416e+001 5.961850e+001 7.187234e+001 6.053486e+001 4.765753e+001 6.215474e+001 3.960279e+001 3.627192e+001 2.961875e+001 2.930313e+001 6.967803e+001 1.694354e+000 2.344210e+000 1.640571e+000 2.365258e+000 3.500075e+000 2.665466e+000 2.361464e+000 3.019985e+000 2.160798e+000 2.620766e+000 2.039346e+000 1.793157e+000 1.047069e+000 1.812963e-001 3.169835e-001 2.143171e-001 3.353023e-001 5.177063e-001 3.914284e-001 4.238372e-001 5.043314e-001 3.941889e-001 4.915870e-001 3.669483e-001 3.353162e-001 1.464693e-001
<GCONST> 1.179304e+002
<STATE> 4
<MEAN> 39
 -7.693624e+000 -2.097788e+000 -5.474631e+000 -4.674466e+000 -6.000010e+000 -1.090203e+001 -3.746867e+000 -9.930570e+000 -4.340276e+000 -1.248424e+000 -6.371496e-001 -5.477446e+000 6.022378e+001 1.600279e-002 6.802856e-004 -1.046231e-002 -1.296812e-002 7.628694e-003 4.328090e-003 4.769265e-003 -1.293027e-002 -6.744411e-003 -7.520794e-003 -3.355863e-003 -7.976145e-003 5.301649e-002 -1.199149e-003 -6.356288e-004 -4.391614e-004 5.076579e-004 7.497703e-005 3.780236e-004 1.015245e-004 2.729589e-004 -4.902519e-006 -5.035865e-004 -4.180047e-004 1.176080e-003 -1.934260e-003
<VARIANCE> 39
 6.694831e+001 5.424225e+001 3.579472e+001 6.083990e+001 7.353532e+001 5.855153e+001 4.714283e+001 6.194629e+001 4.089919e+001 3.667257e+001 2.926223e+001 2.896905e+001 5.029779e+001 1.698885e+000 2.343146e+000 1.623693e+000 2.379877e+000 3.508770e+000 2.631124e+000 2.366743e+000 3.071211e+000 2.168450e+000 2.660806e+000 2.003613e+000 1.795555e+000 9.191139e-001 1.767913e-001 3.175308e-001 2.139096e-001 3.351017e-001 5.178618e-001 3.899967e-001 4.288900e-001 5.137863e-001 3.939666e-001 4.974281e-001 3.598036e-001 3.360316e-001 1.273611e-001
<GCONST> 1.173385e+002
<TRANSP> 5
 0.000000e+000 1.000000e+000 0.000000e+000 0.000000e+000 0.000000e+000
 0.000000e+000 7.774950e-001 2.225051e-001 0.000000e+000 0.000000e+000
 0.000000e+000 0.000000e+000 7.774964e-001 2.225036e-001 0.000000e+000
 0.000000e+000 0.000000e+000 0.000000e+000 9.074228e-001 9.257723e-002
 0.000000e+000 0.000000e+000 0.000000e+000 0.000000e+000 0.000000e+000
<ENDHMM>
~h "ay"
<BEGINHMM>
<NUMSTATES> 5
<STATE> 2
<MEAN> 39
 -8.317740e+000 -4.391096e+000 -5.616027e+000 -3.097964e+000 -5.092290e+000 -9.424739e+000 -2.232551e+000 -9.845491e+000 -5.652579e+000 -1.331038e+000 -4.944585e-001 -6.232454e+000 5.699243e+001 5.001176e-002 7.070682e-004 6.166955e-003 -1.211075e-002 -4.318447e-003 -2.877193e-002 2.332066e-003 -3.427422e-002 -1.045701e-002 -1.357092e-002 -1.890201e-004 -2.406053e-002 1.564279e-001 6.217170e-004 -1.651297e-004 -6.512383e-004 -6.812650e-004 -9.458244e-005 -8.040585e-004 -3.762752e-004 -6.283324e-005 4.882319e-004 9.184500e-004 6.846669e-004 -2.687699e-004 3.055975e-003
<VARIANCE> 39
 7.486391e+001 4.364392e+001 5.829234e+001 3.488875e+001 6.157684e+001 6.992615e+001 3.820793e+001 7.901306e+001 5.315015e+001 3.244134e+001 3.046857e+001 4.751727e+001 2.007975e+002 1.362329e+000 1.788282e+000 2.425291e+000 1.992999e+000 3.568720e+000 2.947809e+000 2.322468e+000 2.937456e+000 2.392709e+000 2.320745e+000 2.393951e+000 1.934455e+000 1.903338e+000 1.713970e-001 2.345829e-001 3.011668e-001 3.175518e-001 4.915718e-001 4.106918e-001 4.110464e-001 4.772315e-001 4.262098e-001 4.317413e-001 4.357724e-001 3.351835e-001 2.618288e-001
<GCONST> 1.206834e+002
<STATE> 3
<MEAN> 39
 -8.080057e+000 -4.397956e+000 -5.602444e+000 -3.161441e+000 -5.115096e+000 -9.568460e+000 -2.229844e+000 -1.000791e+001 -5.694971e+000 -1.377009e+000 -4.887826e-001 -6.351567e+000 5.775392e+001 5.119716e-002 -5.594039e-004 2.576805e-003 -1.445136e-002 -5.035904e-003 -3.161961e-002 -7.070228e-004 -3.465215e-002 -9.189053e-003 -9.317780e-003 2.070023e-003 -2.535618e-002 1.645892e-001 3.454574e-004 -3.348488e-004 -8.639798e-004 -5.292390e-004 -1.549344e-004 -6.061338e-004 -7.306759e-004 -1.551963e-004 1.933343e-004 9.157212e-004 4.251597e-004 -4.044349e-004 1.784637e-003
<VARIANCE> 39
 7.130878e+001 4.418982e+001 5.893517e+001 3.524988e+001 6.200374e+001 6.922639e+001 3.854373e+001 7.748296e+001 5.317889e+001 3.279760e+001 3.100210e+001 4.685007e+001 1.733270e+002 1.386283e+000 1.801315e+000 2.445498e+000 2.033171e+000 3.603994e+000 2.988503e+000 2.356567e+000 2.969310e+000 2.397641e+000 2.339067e+000 2.422572e+000 1.953293e+000 1.955317e+000 1.749652e-001 2.358105e-001 3.028574e-001 3.247022e-001 4.956276e-001 4.160191e-001 4.168890e-001 4.831687e-001 4.266171e-001 4.344598e-001 4.398926e-001 3.388031e-001 2.691838e-001
<GCONST> 1.208388e+002
<STATE> 4
<MEAN> 39
 -7.920189e+000 -4.561386e+000 -5.775449e+000 -3.496504e+000 -5.059789e+000 -9.617641e+000 -2.125607e+000 -1.014564e+001 -5.533852e+000 -1.492255e+000 -4.717471e-001 -6.463464e+000 5.908923e+001 3.926209e-002 -2.954080e-003 -5.076861e-003 -1.762329e-002 -8.771962e-003 -2.921068e-002 -5.152493e-003 -2.594496e-002 -9.189647e-003 -1.648117e-003 2.620269e-003 -2.160580e-002 1.355850e-001 -7.255482e-004 -1.842679e-004 -7.661652e-004 -3.439038e-004 -3.225510e-004 1.300455e-004 -5.277783e-004 5.335511e-004 -1.850605e-004 6.428490e-004 6.298219e-005 1.648123e-004 -2.211186e-003
<VARIANCE> 39
 6.476091e+001 4.439612e+001 5.956239e+001 3.560477e+001 6.126191e+001 6.461411e+001 3.826014e+001 7.325372e+001 5.278006e+001 3.306076e+001 3.105205e+001 4.498597e+001 1.137183e+002 1.344108e+000 1.783805e+000 2.417995e+000 2.083399e+000 3.619754e+000 2.968543e+000 2.380510e+000 2.968019e+000 2.379699e+000 2.359339e+000 2.419454e+000 1.969854e+000 1.688289e+000 1.665991e-001 2.323168e-001 2.955521e-001 3.356494e-001 4.977913e-001 4.156120e-001 4.205162e-001 4.826793e-001 4.238628e-001 4.403283e-001 4.383220e-001 3.447380e-001 2.277047e-001
<GCONST> 1.198137e+002
<TRANSP> 5
 0.000000e+000 1.000000e+000 0.000000e+000 0.000000e+000 0.000000e+000
 0.000000e+000 7.796165e-001 2.203835e-001 0.000000e+000 0.000000e+000
 0.000000e+000 0.000000e+000 7.796172e-001 2.203828e-001 0.000000e+000
 0.000000e+000 0.000000e+000 0.000000e+000 9.135873e-001 8.641271e-002
 0.000000e+000 0.000000e+000 0.000000e+000 0.000000e+000 0.000000e+000
<ENDHMM>
~h "eh"
<BEGINHMM>
<NUMSTATES> 5
<STATE> 2
<MEAN> 39
 -8.799037e+000 -3.578192e+000 -5.466756e+000 -3.551392e+000 -3.886150e+000 -1.154601e+001 -2.893539e+000 -1.057102e+001 -6.123245e+000 1.661628e-001 -1.355857e+000 -6.449964e+000 6.114341e+001 2.476725e-002 1.070132e-003 -9.997763e-003 -1.265156e-002 1.707081e-002 -7.765784e-003 -9.370739e-003 -2.081974e-002 3.318228e-003 -6.574422e-003 -1.840585e-002 -8.941703e-003 4.892666e-002 -4.477530e-004 4.344578e-004 9.037771e-004 -1.571711e-004 -4.285043e-004 4.000531e-004 1.982563e-004 4.488857e-004 4.029608e-004 -1.122031e-003 1.162580e-004 6.585537e-004 -5.708540e-005
<VARIANCE> 39
 9.147683e+001 3.734040e+001 4.747417e+001 2.940221e+001 7.001179e+001 5.917034e+001 5.780260e+001 9.510514e+001 4.550965e+001 4.268922e+001 3.252768e+001 4.217992e+001 1.033417e+002 2.550595e+000 2.262105e+000 2.238504e+000 1.828461e+000 3.610881e+000 3.376665e+000 2.924446e+000 3.980158e+000 3.132845e+000 3.526172e+000 2.820403e+000 2.609444e+000 1.727285e+000 2.835116e-001 3.204374e-001 3.282207e-001 3.147499e-001 5.347493e-001 5.471441e-001 5.175894e-001 6.083746e-001 5.553672e-001 6.782027e-001 5.481460e-001 4.449024e-001 2.491487e-001
<GCONST> 1.256612e+002
<STATE> 3
<MEAN> 39
 -8.691006e+000 -3.570884e+000 -5.504389e+000 -3.612477e+000 -3.814104e+000 -1.157828e+001 -2.939011e+000 -1.066483e+001 -6.099308e+000 1.249155e-001 -1.436907e+000 -6.485119e+000 6.136354e+001 2.263672e-002 2.393221e-003 -6.271019e-003 -1.294746e-002 1.427963e-002 -5.264655e-003 -9.140486e-003 -1.955415e-002 4.828853e-003 -1.163593e-002 -1.772964e-002 -6.087870e-003 4.703044e-002 -6.572318e-004 2.394246e-004 7.956343e-004 -7.774172e-005 -5.506913e-004 5.928409e-004 2.951487e-004 4.824424e-004 3.074747e-004 -1.028963e-003 2.659564e-004 7.737591e-004 -3.655597e-004
<VARIANCE> 39
 8.944297e+001 3.653753e+001 4.655356e+001 2.827154e+001 6.864111e+001 5.774513e+001 5.835265e+001 9.429853e+001 4.533992e+001 4.317144e+001 3.255927e+001 4.199730e+001 9.102944e+001 2.525630e+000 2.250214e+000 2.242762e+000 1.803185e+000 3.549865e+000 3.329084e+000 2.921894e+000 3.950875e+000 3.166769e+000 3.567908e+000 2.856078e+000 2.621187e+000 1.760761e+000 2.819891e-001 3.207573e-001 3.323967e-001 3.134999e-001 5.279999e-001 5.392842e-001 5.152259e-001 6.063764e-001 5.606027e-001 6.861131e-001 5.589576e-001 4.477017e-001 2.541185e-001
<GCONST> 1.254202e+002
<STATE> 4
<MEAN> 39
 -8.483798e+000 -3.594660e+000 -5.559802e+000 -3.766065e+000 -3.625335e+000 -1.144947e+001 -3.088514e+000 -1.080462e+001 -5.977514e+000 -7.897916e-002 -1.478577e+000 -6.487502e+000 6.178968e+001 1.702596e-002 1.790867e-003 -5.888264e-004 -1.110050e-002 3.582601e-003 4.272765e-003 -8.568766e-003 -1.816799e-002 7.900561e-003 -1.922539e-002 -1.268144e-002 6.533534e-004 2.882719e-002 -6.918695e-004 -4.358288e-005 5.981374e-004 1.936609e-004 -1.094501e-003 1.146157e-003 4.104094e-004 4.389730e-004 1.666861e-004 -7.895881e-004 6.717196e-004 9.685098e-004 -1.658724e-003
<VARIANCE> 39
 8.481353e+001 3.601875e+001 4.418370e+001 2.629975e+001 6.458513e+001 5.511320e+001 5.863875e+001 9.239951e+001 4.565378e+001 4.402149e+001 3.282928e+001 4.102266e+001 6.573222e+001 2.432800e+000 2.216728e+000 2.199690e+000 1.757539e+000 3.367970e+000 3.175839e+000 2.865523e+000 3.902274e+000 3.216885e+000 3.567399e+000 2.896028e+000 2.604466e+000 1.664814e+000 2.717572e-001 3.164856e-001 3.314788e-001 3.108187e-001 5.059783e-001 5.121753e-001 5.011576e-001 6.016055e-001 5.680255e-001 6.836330e-001 5.707059e-001 4.460414e-001 2.392342e-001
<GCONST> 1.243035e+002
<TRANSP> 5
 0.000000e+000 1.000000e+000 0.000000e+000 0.000000e+000 0.000000e+000
 0.000000e+000 7.796847e-001 2.203154e-001 0.000000e+000 0.000000e+000
 0.000000e+000 0.000000e+000 7.796851e-001 2.203149e-001 0.000000e+000
 0.000000e+000 0.000000e+000 0.000000e+000 9.102743e-001 8.972576e-002
 0.000000e+000 0.000000e+000 0.000000e+000 0.000000e+000 0.000000e+000
<ENDHMM>
~h "ey"
<BEGINHMM>
<NUMSTATES> 5
<STATE> 2
<MEAN> 39
 -1.037785e+001 -3.016662e+000 -3.077236e+000 -3.023176e+000 -6.772390e+000 -1.029403e+001 -1.318090e+000 -9.097810e+000 -5.535378e+000 -1.014783e+000 -4.011678e-001 -4.884511e+000 5.622853e+001 8.609883e-003 1.030238e-002 5.656794e-003 -7.118106e-003 6.087939e-003 -5.026266e-004 -4.440160e-003 -5.669638e-003 8.660402e-003 -6.460619e-003 -4.410313e-003 -2.898128e-003 4.882861e-002 1.200665e-003 6.498101e-004 5.277708e-004 -3.399690e-004 4.806955e-004 4.324246e-004 -6.262424e-004 -1.427572e-003 -1.240170e-003 -1.881646e-003 -1.310274e-003 -8.331960e-004 1.426551e-003
<VARIANCE> 39
 6.374147e+001 3.107463e+001 4.740436e+001 2.639764e+001 9.654099e+001 7.445847e+001 4.076424e+001 9.202522e+001 5.389912e+001 4.087363e+001 3.028975e+001 3.633426e+001 1.860266e+002 1.420612e+000 1.823161e+000 1.902868e+000 1.676975e+000 4.491584e+000 3.546487e+000 2.514695e+000 3.665729e+000 3.094630e+000 3.062754e+000 2.421814e+000 2.064777e+000 1.536907e+000 1.652390e-001 2.609897e-001 2.561862e-001 2.876680e-001 5.973603e-001 5.283213e-001 4.380722e-001 5.380057e-001 5.272976e-001 5.503094e-001 4.390890e-001 3.676228e-001 1.902858e-001
<GCONST> 1.217570e+002
<STATE> 3
<MEAN> 39
 -1.030611e+001 -2.960291e+000 -3.049364e+000 -3.080992e+000 -6.739980e+000 -1.029629e+001 -1.335991e+000 -9.130512e+000 -5.501632e+000 -1.072439e+000 -4.315867e-001 -4.908791e+000 5.653353e+001 1.547888e-002 1.270154e-002 5.939436e-003 -1.188614e-002 6.413201e-003 -6.667129e-004 -5.672548e-003 -8.723759e-003 6.522806e-003 -1.166571e-002 -9.214242e-003 -6.543558e-003 5.926788e-002 1.422775e-003 4.641491e-004 5.437005e-005 -9.895804e-004 3.474425e-005 -1.223249e-004 -8.876855e-005 -5.827654e-004 -5.299020e-004 -1.023947e-003 -9.250901e-004 -7.852457e-004 2.252890e-003
<VARIANCE> 39
 6.203408e+001 3.130965e+001 4.708846e+001 2.653308e+001 9.694553e+001 7.387080e+001 4.041919e+001 9.045190e+001 5.332821e+001 4.078769e+001 3.006913e+001 3.584907e+001 1.736212e+002 1.436196e+000 1.839378e+000 1.885211e+000 1.683111e+000 4.478788e+000 3.543375e+000 2.509956e+000 3.637419e+000 3.087265e+000 3.055162e+000 2.423990e+000 2.058239e+000 1.605732e+000 1.687016e-001 2.625062e-001 2.553019e-001 2.892453e-001 5.968777e-001 5.286166e-001 4.367220e-001 5.341576e-001 5.276378e-001 5.492209e-001 4.415762e-001 3.660982e-001 2.008827e-001
<GCONST> 1.217136e+002
<STATE> 4
<MEAN> 39
 -1.006240e+001 -2.788898e+000 -2.821574e+000 -3.401500e+000 -6.705927e+000 -9.951405e+000 -1.359549e+000 -9.212838e+000 -5.128068e+000 -1.446423e+000 -2.955649e-001 -4.796741e+000 5.733243e+001 2.923077e-002 1.046088e-002 4.050183e-003 -1.687900e-002 2.032153e-003 -7.054115e-003 -9.829885e-003 -1.986584e-002 3.003618e-003 -1.190923e-002 -8.893038e-003 -1.206227e-002 9.099292e-002 9.336946e-004 -1.089210e-004 -8.003935e-005 -1.621422e-004 -2.834834e-004 -5.490083e-004 -2.408157e-004 -8.648235e-004 -3.421405e-004 2.076489e-004 -2.036163e-004 -5.466096e-004 1.411780e-003
<VARIANCE> 39
 5.397719e+001 3.034925e+001 4.554421e+001 2.571036e+001 9.978344e+001 6.933463e+001 3.801788e+001 8.679667e+001 5.073324e+001 3.923374e+001 3.022008e+001 3.275301e+001 1.338276e+002 1.396706e+000 1.812043e+000 1.805496e+000 1.658180e+000 4.423182e+000 3.390432e+000 2.382329e+000 3.530205e+000 2.949453e+000 2.904961e+000 2.429667e+000 1.967977e+000 1.821417e+000 1.701022e-001 2.560110e-001 2.458425e-001 2.883726e-001 5.857847e-001 5.067310e-001 4.118690e-001 5.175287e-001 5.056238e-001 5.213749e-001 4.360697e-001 3.516189e-001 2.303995e-001
<GCONST> 1.204355e+002
<TRANSP> 5
 0.000000e+000 1.000000e+000 0.000000e+000 0.000000e+000 0.000000e+000
 0.000000e+000 7.817078e-001 2.182921e-001 0.000000e+000 0.000000e+000
 0.000000e+000 0.000000e+000 7.817071e-001 2.182929e-001 0.000000e+000
 0.000000e+000 0.000000e+000 0.000000e+000 9.190814e-001 8.091866e-002
 0.000000e+000 0.000000e+000 0.000000e+000 0.000000e+000 0.000000e+000
<ENDHMM>
~h "ia"
<BEGINHMM>
<NUMSTATES> 5
<STATE> 2
<MEAN> 39
 -5.832883e+000 -2.256468e+000 -4.618420e+000 -3.141970e+000 -6.749290e+000 -1.275730e+001 -5.253970e+000 -1.299991e+001 -7.592082e+000 -2.706286e+000 -3.753248e-001 -4.917967e+000 6.050385e+001 3.249110e-002 5.266841e-004 -9.257365e-003 -1.186952e-002 -1.158819e-003 -5.868646e-003 -5.261175e-003 -2.518832e-002 3.619790e-003 2.221387e-003 2.778567e-002 2.176343e-002 7.304137e-002 -1.348427e-003 -7.055191e-004 -9.122680e-004 -6.881843e-004 1.501697e-003 1.446531e-003 1.009642e-003 1.997856e-003 1.617122e-003 1.037775e-003 4.016506e-004 1.878255e-004 -5.247146e-004
<VARIANCE> 39
 6.687494e+001 3.722267e+001 5.323334e+001 4.533133e+001 6.725148e+001 8.297059e+001 5.370100e+001 8.017867e+001 5.406000e+001 4.210245e+001 4.052895e+001 4.012732e+001 9.811008e+001 1.546305e+000 1.863169e+000 2.122891e+000 2.126509e+000 3.874170e+000 3.338647e+000 2.702787e+000 3.296870e+000 2.822069e+000 3.074195e+000 2.440689e+000 2.234982e+000 1.338818e+000 1.617288e-001 2.644124e-001 2.656711e-001 3.181212e-001 5.237481e-001 4.448521e-001 4.564644e-001 5.111645e-001 4.859336e-001 5.471475e-001 4.339982e-001 3.929906e-001 1.628757e-001
<GCONST> 1.220088e+002
<STATE> 3
<MEAN> 39
 -5.682744e+000 -2.261884e+000 -4.674842e+000 -3.208945e+000 -6.741243e+000 -1.277802e+001 -5.275936e+000 -1.310863e+001 -7.569052e+000 -2.686580e+000 -2.427659e-001 -4.819812e+000 6.085825e+001 2.477418e-002 -3.147098e-003 -1.422323e-002 -1.507544e-002 5.923780e-003 2.023604e-003 -6.734240e-004 -1.509494e-002 1.142811e-002 7.225189e-003 2.883588e-002 2.241140e-002 6.603106e-002 -1.625302e-003 -7.944891e-004 -1.032860e-003 -6.664432e-004 1.558237e-003 1.632640e-003 1.001049e-003 2.128096e-003 1.560153e-003 9.253552e-004 4.049356e-005 -6.810093e-005 -1.368063e-003
<VARIANCE> 39
 6.482816e+001 3.674998e+001 5.361980e+001 4.511125e+001 6.735724e+001 8.238623e+001 5.402290e+001 7.834556e+001 5.407715e+001 4.196612e+001 4.059467e+001 3.973911e+001 8.327740e+001 1.526510e+000 1.842847e+000 2.118458e+000 2.112862e+000 3.867041e+000 3.312196e+000 2.703243e+000 3.287247e+000 2.812019e+000 3.095986e+000 2.434049e+000 2.246618e+000 1.304928e+000 1.586940e-001 2.623577e-001 2.644852e-001 3.152910e-001 5.220506e-001 4.421034e-001 4.581518e-001 5.117787e-001 4.832528e-001 5.504217e-001 4.324768e-001 3.957664e-001 1.577779e-001
<GCONST> 1.216326e+002
<STATE> 4
<MEAN> 39
 -5.437439e+000 -2.359415e+000 -4.879759e+000 -3.423859e+000 -6.571325e+000 -1.259546e+001 -5.257751e+000 -1.314959e+001 -7.415103e+000 -2.665015e+000 1.713496e-001 -4.487905e+000 6.133134e+001 8.395637e-003 -8.990516e-003 -2.501895e-002 -2.210276e-002 2.002482e-002 2.184086e-002 9.295483e-003 6.424959e-003 2.804413e-002 1.734771e-002 2.687603e-002 2.106823e-002 4.162847e-002 -2.268428e-003 -7.733277e-004 -8.053954e-004 -3.079170e-004 1.517314e-003 2.016522e-003 1.299539e-003 2.636863e-003 1.751393e-003 7.578576e-004 -5.941289e-004 -4.665934e-004 -3.007171e-003
<VARIANCE> 39
 6.216910e+001 3.574646e+001 5.433133e+001 4.522301e+001 6.695845e+001 8.199957e+001 5.378423e+001 7.489003e+001 5.434723e+001 4.167091e+001 4.148454e+001 3.897998e+001 6.085262e+001 1.449687e+000 1.774827e+000 2.110498e+000 2.083954e+000 3.796278e+000 3.203906e+000 2.664518e+000 3.207500e+000 2.770705e+000 3.123334e+000 2.441007e+000 2.256612e+000 1.143996e+000 1.476736e-001 2.529733e-001 2.609346e-001 3.090134e-001 5.107881e-001 4.293748e-001 4.560770e-001 5.045786e-001 4.740244e-001 5.559490e-001 4.370317e-001 4.029664e-001 1.346000e-001
<GCONST> 1.205259e+002
<TRANSP> 5
 0.000000e+000 1.000000e+000 0.000000e+000 0.000000e+000 0.000000e+000
 0.000000e+000 7.776231e-001 2.223770e-001 0.000000e+000 0.000000e+000
 0.000000e+000 0.000000e+000 7.776222e-001 2.223778e-001 0.000000e+000
 0.000000e+000 0.000000e+000 0.000000e+000 9.091274e-001 9.087261e-002
 0.000000e+000 0.000000e+000 0.000000e+000 0.000000e+000 0.000000e+000
<ENDHMM>
~h "ih"
<BEGINHMM>
<NUMSTATES> 5
<STATE> 2
<MEAN> 39
 -1.212426e+001 -2.737069e+000 -4.140654e+000 -2.365571e+000 -4.424646e+000 -1.131862e+001 -8.113343e-001 -7.722258e+000 -6.432472e+000 -8.594809e-001 2.409505e-001 -5.166173e+000 5.842041e+001 -1.095884e-002 3.438172e-003 2.059502e-002 7.252137e-003 1.260310e-002 -3.147987e-002 3.448005e-002 1.707076e-002 -1.472462e-002 -7.390012e-004 5.912824e-003 2.754072e-003 8.535912e-002 1.617533e-003 4.268934e-004 9.360931e-006 -6.148235e-004 -4.364633e-004 -3.859455e-004 -9.366607e-004 -1.335968e-003 3.586150e-004 1.786152e-005 -1.710987e-004 2.680699e-005 2.236035e-003
<VARIANCE> 39
 8.195084e+001 2.906771e+001 4.270693e+001 3.027811e+001 7.795066e+001 6.480193e+001 4.503479e+001 8.618189e+001 5.004794e+001 3.603564e+001 3.051915e+001 3.601368e+001 1.276368e+002 2.290336e+000 1.775276e+000 1.923346e+000 1.745984e+000 4.565258e+000 3.635447e+000 2.544774e+000 4.168167e+000 2.852539e+000 2.839284e+000 2.420734e+000 2.185457e+000 1.633093e+000 2.516778e-001 2.766591e-001 2.530895e-001 2.982898e-001 6.673439e-001 5.629376e-001 4.514542e-001 6.347586e-001 4.913953e-001 5.600094e-001 4.415540e-001 3.981754e-001 2.298738e-001
<GCONST> 1.228149e+002
<STATE> 3
<MEAN> 39
 -1.215595e+001 -2.719118e+000 -4.044363e+000 -2.335844e+000 -4.370944e+000 -1.147499e+001 -6.662704e-001 -7.663485e+000 -6.499012e+000 -8.594618e-001 2.678813e-001 -5.157162e+000 5.884294e+001 -4.581099e-003 5.189813e-003 2.065551e-002 4.996857e-003 1.028493e-002 -3.240394e-002 2.903995e-002 1.021637e-002 -1.353652e-002 -1.119213e-003 4.097691e-003 2.558572e-003 9.134169e-002 1.457721e-003 3.872473e-004 1.169840e-004 -4.700590e-004 -6.238719e-004 -2.802766e-004 -1.245172e-003 -1.665311e-003 1.827068e-004 -6.246031e-005 -4.923264e-004 -1.202461e-004 1.300525e-003
<VARIANCE> 39
 8.046832e+001 2.870525e+001 4.202339e+001 3.030149e+001 7.875719e+001 6.403143e+001 4.467182e+001 8.540897e+001 5.007055e+001 3.611224e+001 3.076727e+001 3.524431e+001 1.097537e+002 2.330713e+000 1.787989e+000 1.905838e+000 1.759536e+000 4.625800e+000 3.693184e+000 2.569155e+000 4.195058e+000 2.873984e+000 2.875413e+000 2.454104e+000 2.191808e+000 1.694750e+000 2.571550e-001 2.804514e-001 2.515783e-001 3.009947e-001 6.787033e-001 5.719786e-001 4.559979e-001 6.393641e-001 4.940749e-001 5.688744e-001 4.470782e-001 4.009153e-001 2.387761e-001
<GCONST> 1.228966e+002
<STATE> 4
<MEAN> 39
 -1.217940e+001 -2.840517e+000 -4.008193e+000 -2.473508e+000 -4.160249e+000 -1.154558e+001 -4.298349e-001 -7.565368e+000 -6.294373e+000 -9.096110e-001 3.643519e-001 -5.051037e+000 5.948397e+001 3.742336e-004 4.267958e-003 1.644571e-002 6.413103e-004 4.386489e-003 -2.588551e-002 1.788398e-002 1.018204e-004 -1.048188e-002 -3.290382e-003 -1.587637e-003 3.163545e-003 7.221522e-002 9.557315e-004 1.114244e-006 -1.968415e-004 -4.064096e-004 -9.291747e-004 5.831470e-004 -1.240094e-003 -1.423979e-003 1.455750e-004 -1.951686e-004 -7.797513e-004 -7.510666e-005 -1.609150e-003
<VARIANCE> 39
 7.456290e+001 2.766879e+001 4.055572e+001 3.049451e+001 7.876946e+001 6.186962e+001 4.231415e+001 8.122498e+001 5.025994e+001 3.524990e+001 3.097818e+001 3.380999e+001 7.197790e+001 2.264729e+000 1.744864e+000 1.843103e+000 1.774818e+000 4.656434e+000 3.678834e+000 2.572063e+000 4.125504e+000 2.832761e+000 2.904685e+000 2.465053e+000 2.166886e+000 1.565098e+000 2.488116e-001 2.794468e-001 2.446730e-001 3.048681e-001 6.861702e-001 5.690117e-001 4.630252e-001 6.275727e-001 4.843532e-001 5.782005e-001 4.471161e-001 3.981054e-001 2.209422e-001
<GCONST> 1.218197e+002
<TRANSP> 5
 0.000000e+000 1.000000e+000 0.000000e+000 0.000000e+000 0.000000e+000
 0.000000e+000 7.764887e-001 2.235114e-001 0.000000e+000 0.000000e+000
 0.000000e+000 0.000000e+000 7.764890e-001 2.235111e-001 0.000000e+000
 0.000000e+000 0.000000e+000 0.000000e+000 9.115743e-001 8.842567e-002
 0.000000e+000 0.000000e+000 0.000000e+000 0.000000e+000 0.000000e+000
<ENDHMM>
~h "iy"
<BEGINHMM>
<NUMSTATES> 5
<STATE> 2
<MEAN> 39
 -8.228363e+000 -2.891325e+000 -3.023115e+000 -2.922542e+000 -6.591377e+000 -1.170967e+001 -4.017354e+000 -1.143310e+001 -6.613519e+000 -1.311424e+000 -1.044775e+000 -6.598142e+000 6.064830e+001 1.912590e-002 8.846208e-003 7.383535e-004 4.042793e-005 -8.142342e-004 -1.715213e-002 -3.319512e-003 -2.693187e-002 -2.102150e-002 -2.121368e-002 -9.069676e-003 -1.194656e-002 5.610030e-002 -4.481637e-004 -3.846111e-004 -2.066466e-004 8.534707e-004 -5.575377e-005 -5.449102e-005 1.539250e-004 -4.080604e-004 -3.511846e-004 -1.962626e-005 2.064810e-004 4.727608e-004 -1.638448e-003
<VARIANCE> 39
 6.635821e+001 4.219304e+001 4.997267e+001 4.420725e+001 8.921349e+001 7.134504e+001 5.270922e+001 1.021899e+002 6.071252e+001 4.448610e+001 3.558498e+001 3.690654e+001 5.186637e+001 2.048941e+000 2.182912e+000 2.320494e+000 2.493382e+000 4.757718e+000 3.493387e+000 3.327938e+000 4.194764e+000 3.210569e+000 2.939331e+000 2.704286e+000 2.319586e+000 1.111047e+000 2.157428e-001 3.124693e-001 2.998468e-001 4.168409e-001 6.869543e-001 5.240930e-001 5.952701e-001 6.114429e-001 5.497862e-001 5.530750e-001 5.049894e-001 4.278479e-001 1.521917e-001
<GCONST> 1.251678e+002
<STATE> 3
<MEAN> 39
 -8.151537e+000 -2.854506e+000 -3.022926e+000 -2.911079e+000 -6.598002e+000 -1.178039e+001 -4.027335e+000 -1.155941e+001 -6.714010e+000 -1.412703e+000 -1.088641e+000 -6.644067e+000 6.086258e+001 1.643393e-002 7.209224e-003 -3.836537e-004 4.242608e-003 -8.085525e-004 -1.599086e-002 -1.729809e-003 -2.792557e-002 -2.169469e-002 -2.130907e-002 -7.944195e-003 -8.906697e-003 4.640594e-002 -5.334700e-004 -3.945195e-004 -2.542480e-004 9.359759e-004 -1.711904e-004 1.251736e-004 2.797123e-004 -8.173391e-005 4.892652e-006 1.356876e-004 4.112707e-004 7.856145e-004 -2.139036e-003
<VARIANCE> 39
 6.539560e+001 4.206203e+001 5.065121e+001 4.350556e+001 8.879752e+001 7.129816e+001 5.369333e+001 1.015266e+002 6.040086e+001 4.485862e+001 3.602845e+001 3.685342e+001 4.360355e+001 2.029948e+000 2.169130e+000 2.335471e+000 2.468148e+000 4.741021e+000 3.502111e+000 3.334175e+000 4.181771e+000 3.222102e+000 2.933354e+000 2.717854e+000 2.334414e+000 1.037480e+000 2.131028e-001 3.104802e-001 2.997483e-001 4.138834e-001 6.837603e-001 5.256795e-001 5.945165e-001 6.094855e-001 5.526947e-001 5.515273e-001 5.069849e-001 4.295861e-001 1.408038e-001
<GCONST> 1.248180e+002
<STATE> 4
<MEAN> 39
 -8.094226e+000 -2.795008e+000 -3.091048e+000 -2.966858e+000 -6.494145e+000 -1.167899e+001 -4.041965e+000 -1.168381e+001 -6.726931e+000 -1.684805e+000 -1.117310e+000 -6.541041e+000 6.098953e+001 8.134922e-003 5.710213e-003 -5.204776e-003 8.240044e-003 3.175755e-003 -4.717987e-003 6.628087e-003 -2.223305e-002 -1.604604e-002 -2.281493e-002 -6.183869e-003 1.289790e-003 2.134132e-002 -6.814997e-004 -2.786927e-004 -3.665303e-004 6.866135e-004 8.255702e-005 6.377664e-004 5.697202e-004 6.368208e-004 7.707094e-004 2.127250e-004 5.130218e-004 1.195573e-003 -2.021346e-003
<VARIANCE> 39
 6.311825e+001 4.077150e+001 5.148394e+001 4.179033e+001 8.620554e+001 7.118995e+001 5.457691e+001 9.937139e+001 6.006847e+001 4.460204e+001 3.635083e+001 3.710527e+001 3.413921e+001 1.930841e+000 2.104628e+000 2.319415e+000 2.375468e+000 4.586799e+000 3.439225e+000 3.276598e+000 4.074144e+000 3.206088e+000 2.877456e+000 2.685768e+000 2.331931e+000 8.715845e-001 2.017426e-001 3.023153e-001 2.945228e-001 4.009002e-001 6.594503e-001 5.184042e-001 5.822589e-001 5.954493e-001 5.516140e-001 5.394898e-001 4.998961e-001 4.274909e-001 1.150315e-001
<GCONST> 1.235492e+002
<TRANSP> 5
 0.000000e+000 1.000000e+000 0.000000e+000 0.000000e+000 0.000000e+000
 0.000000e+000 7.782826e-001 2.217173e-001 0.000000e+000 0.000000e+000
 0.000000e+000 0.000000e+000 7.782826e-001 2.217174e-001 0.000000e+000
 0.000000e+000 0.000000e+000 0.000000e+000 9.098625e-001 9.013747e-002
 0.000000e+000 0.000000e+000 0.000000e+000 0.000000e+000 0.000000e+000
<ENDHMM>
~h "ow"
<BEGINHMM>
<NUMSTATES> 5
<STATE> 2
<MEAN> 39
 -6.215942e+000 -2.739969e+000 -5.508044e+000 -3.837960e+000 -5.657634e+000 -1.147882e+001 -4.450281e+000 -1.203962e+001 -6.126383e+000 -2.046765e+000 2.526876e-001 -4.463933e+000 6.131887e+001 -4.530581e-002 -1.729169e-002 -1.238910e-002 -6.025934e-003 3.428189e-002 4.388764e-002 4.228831e-002 5.347886e-002 4.258629e-002 9.581524e-003 -6.894705e-003 -9.598881e-003 -1.844944e-002 -1.139320e-003 3.737743e-004 1.485947e-003 9.920066e-004 -6.749426e-004 -4.931690e-004 5.988319e-004 8.132590e-005 -7.004812e-004 -7.267696e-004 -1.073094e-003 -8.613851e-004 -1.005019e-003
<VARIANCE> 39
 6.512679e+001 3.419849e+001 5.159758e+001 4.127490e+001 6.628870e+001 7.458941e+001 5.460725e+001 7.689956e+001 5.198936e+001 3.800828e+001 3.541863e+001 3.732901e+001 4.036376e+001 1.417242e+000 1.669318e+000 1.984213e+000 2.015508e+000 3.559349e+000 2.970168e+000 2.589610e+000 3.214085e+000 2.569570e+000 2.919038e+000 2.297370e+000 2.156698e+000 7.834303e-001 1.424210e-001 2.409049e-001 2.481259e-001 2.990210e-001 4.932108e-001 4.243973e-001 4.524265e-001 5.017867e-001 4.429059e-001 5.304180e-001 4.138952e-001 3.839771e-001 9.033546e-002
<GCONST> 1.177556e+002
<STATE> 3
<MEAN> 39
 -6.438766e+000 -2.812484e+000 -5.544930e+000 -3.852942e+000 -5.506026e+000 -1.128199e+001 -4.250088e+000 -1.178839e+001 -5.936006e+000 -2.013421e+000 2.036784e-001 -4.521008e+000 6.121688e+001 -4.989634e-002 -1.520290e-002 -4.956081e-003 -1.244623e-003 3.050312e-002 4.045316e-002 4.426851e-002 5.271429e-002 3.848017e-002 5.782237e-003 -1.126778e-002 -1.285431e-002 -2.212093e-002 -9.069412e-004 5.123886e-004 1.778766e-003 1.176443e-003 -9.203643e-004 -9.211772e-004 2.321833e-004 -3.395424e-004 -9.643719e-004 -7.963484e-004 -6.957227e-004 -3.832971e-004 -7.504479e-004
<VARIANCE> 39
 6.556190e+001 3.406873e+001 5.088594e+001 4.049734e+001 6.628466e+001 7.340291e+001 5.399657e+001 7.674158e+001 5.119730e+001 3.746688e+001 3.463128e+001 3.739686e+001 3.991096e+001 1.421600e+000 1.659165e+000 1.965149e+000 1.994650e+000 3.521789e+000 2.953175e+000 2.574345e+000 3.204413e+000 2.542186e+000 2.871814e+000 2.287336e+000 2.139436e+000 7.642252e-001 1.434565e-001 2.395765e-001 2.468682e-001 2.973512e-001 4.897490e-001 4.256312e-001 4.512497e-001 4.982414e-001 4.384915e-001 5.238007e-001 4.138530e-001 3.800871e-001 8.883181e-002
<GCONST> 1.174495e+002
<STATE> 4
<MEAN> 39
 -6.924966e+000 -2.905076e+000 -5.490418e+000 -3.845513e+000 -5.107633e+000 -1.074404e+001 -3.822330e+000 -1.119941e+001 -5.482813e+000 -2.067511e+000 1.062263e-001 -4.578247e+000 6.081779e+001 -5.587145e-002 -1.095228e-002 9.384057e-003 7.762412e-003 2.247877e-002 3.100822e-002 4.328743e-002 4.897581e-002 3.024311e-002 -1.862331e-003 -1.629120e-002 -1.429133e-002 -2.792506e-002 -3.098137e-004 4.136602e-004 1.557984e-003 1.183444e-003 -1.084120e-003 -1.282104e-003 -3.287658e-004 -8.055039e-004 -1.176260e-003 -8.841539e-004 4.679703e-005 4.859814e-004 -1.769590e-004
<VARIANCE> 39
 6.437125e+001 3.357072e+001 4.846678e+001 3.871208e+001 6.471667e+001 7.033862e+001 5.185462e+001 7.542738e+001 4.945384e+001 3.573376e+001 3.338316e+001 3.782644e+001 4.031855e+001 1.374179e+000 1.590210e+000 1.888804e+000 1.922055e+000 3.374684e+000 2.858882e+000 2.500585e+000 3.125949e+000 2.450936e+000 2.739292e+000 2.250261e+000 2.073519e+000 7.279179e-001 1.393057e-001 2.281071e-001 2.401786e-001 2.903166e-001 4.713425e-001 4.188016e-001 4.397804e-001 4.828648e-001 4.244942e-001 5.052466e-001 4.100941e-001 3.689378e-001 8.574399e-002
<GCONST> 1.162548e+002
<TRANSP> 5
 0.000000e+000 1.000000e+000 0.000000e+000 0.000000e+000 0.000000e+000
 0.000000e+000 7.776093e-001 2.223907e-001 0.000000e+000 0.000000e+000
 0.000000e+000 0.000000e+000 7.776088e-001 2.223913e-001 0.000000e+000
 0.000000e+000 0.000000e+000 0.000000e+000 9.090925e-001 9.090748e-002
 0.000000e+000 0.000000e+000 0.000000e+000 0.000000e+000 0.000000e+000
<ENDHMM>
~h "th"
<BEGINHMM>
<NUMSTATES> 5
<STATE> 2
<MEAN> 39
 -9.133771e+000 -3.313852e+000 -3.250532e+000 -2.661289e+000 -6.296041e+000 -1.108533e+001 -3.765625e+000 -1.051860e+001 -5.906312e+000 -6.507183e-001 -6.515531e-001 -6.024659e+000 5.796960e+001 1.121998e-002 5.289193e-003 1.496818e-002 9.582198e-003 -1.375583e-002 -1.095555e-002 -9.211170e-003 -2.548201e-002 -1.562985e-002 -2.648706e-003 -8.336520e-003 -1.517264e-002 4.796366e-002 3.129801e-004 6.900756e-004 -1.254055e-004 -6.803821e-004 7.432087e-004 1.197302e-003 -3.294236e-005 -6.966088e-005 -8.708967e-004 -2.163633e-003 -8.290460e-004 2.277039e-005 -2.466008e-004
<VARIANCE> 39
 7.672925e+001 4.092078e+001 4.847293e+001 4.430775e+001 8.957002e+001 7.736201e+001 4.720919e+001 1.018854e+002 5.958702e+001 4.107903e+001 3.256957e+001 3.890485e+001 1.575078e+002 1.954437e+000 2.187833e+000 2.162515e+000 2.473802e+000 4.739418e+000 3.400501e+000 3.272223e+000 3.986957e+000 2.985684e+000 2.952072e+000 2.509614e+000 2.291791e+000 1.077108e+000 2.053042e-001 3.136418e-001 2.804694e-001 4.085760e-001 6.800848e-001 4.970627e-001 5.899007e-001 5.824685e-001 5.090017e-001 5.517035e-001 4.650036e-001 4.321042e-001 1.453854e-001
<GCONST> 1.253434e+002
<STATE> 3
<MEAN> 39
 -9.071801e+000 -3.279444e+000 -3.188269e+000 -2.642757e+000 -6.352017e+000 -1.112592e+001 -3.807682e+000 -1.062328e+001 -5.981777e+000 -6.881318e-001 -7.010545e-001 -6.092390e+000 5.820438e+001 1.393721e-002 8.142093e-003 1.240407e-002 2.859329e-003 -1.130337e-002 -7.529168e-003 -7.467632e-003 -2.173801e-002 -1.612113e-002 -9.737039e-003 -1.109409e-002 -1.479916e-002 5.029974e-002 5.745218e-004 6.257200e-004 -6.073798e-004 -1.505473e-003 5.791096e-004 6.772152e-004 4.423326e-004 8.826719e-004 -4.236012e-005 -1.460303e-003 -5.296644e-004 1.068472e-004 6.383753e-004
<VARIANCE> 39
 7.574638e+001 4.117947e+001 4.837815e+001 4.456943e+001 9.000070e+001 7.684376e+001 4.739839e+001 1.021909e+002 5.998363e+001 4.153104e+001 3.280598e+001 3.863283e+001 1.485177e+002 1.970595e+000 2.199086e+000 2.164940e+000 2.482109e+000 4.757496e+000 3.410161e+000 3.273723e+000 4.023954e+000 3.018515e+000 2.958969e+000 2.531021e+000 2.279777e+000 1.095036e+000 2.073476e-001 3.151546e-001 2.809675e-001 4.096777e-001 6.835331e-001 4.994716e-001 5.895828e-001 5.860840e-001 5.130835e-001 5.531021e-001 4.696679e-001 4.285967e-001 1.485649e-001
<GCONST> 1.254408e+002
<STATE> 4
<MEAN> 39
 -8.909796e+000 -3.191812e+000 -3.090190e+000 -2.780283e+000 -6.318160e+000 -1.110288e+001 -3.953177e+000 -1.069699e+001 -5.953544e+000 -8.065161e-001 -6.752813e-001 -6.130786e+000 5.882764e+001 2.231689e-002 1.081332e-002 7.279722e-003 -8.588408e-003 -8.531251e-003 -1.223796e-002 -6.407641e-003 -1.929131e-002 -1.485879e-002 -1.404234e-002 -9.501847e-003 -1.395396e-002 6.821837e-002 6.523470e-004 2.588377e-004 -4.987877e-004 -8.730147e-004 4.268135e-004 -3.359820e-004 2.593891e-004 2.219246e-004 1.257337e-004 -4.336166e-004 1.842621e-004 3.818034e-005 1.396996e-003
<VARIANCE> 39
 7.255875e+001 4.138563e+001 4.762945e+001 4.509743e+001 8.978378e+001 7.368860e+001 4.789095e+001 1.026728e+002 5.993994e+001 4.162853e+001 3.298765e+001 3.753175e+001 1.196711e+002 2.018866e+000 2.193607e+000 2.176285e+000 2.510672e+000 4.734206e+000 3.357774e+000 3.270717e+000 4.071755e+000 3.073531e+000 2.930532e+000 2.547570e+000 2.271024e+000 1.212011e+000 2.140694e-001 3.152603e-001 2.835535e-001 4.158617e-001 6.842697e-001 4.963782e-001 5.895302e-001 5.921680e-001 5.269316e-001 5.507441e-001 4.756840e-001 4.278689e-001 1.676477e-001
<GCONST> 1.254890e+002
<TRANSP> 5
 0.000000e+000 1.000000e+000 0.000000e+000 0.000000e+000 0.000000e+000
 0.000000e+000 7.782942e-001 2.217058e-001 0.000000e+000 0.000000e+000
 0.000000e+000 0.000000e+000 7.782952e-001 2.217048e-001 0.000000e+000
 0.000000e+000 0.000000e+000 0.000000e+000 9.098951e-001 9.010492e-002
 0.000000e+000 0.000000e+000 0.000000e+000 0.000000e+000 0.000000e+000
<ENDHMM>
~h "uw"
<BEGINHMM>
<NUMSTATES> 5
<STATE> 2
<MEAN> 39
 -9.460904e+000 -2.390842e+000 -3.155435e+000 -2.786980e+000 -5.686087e+000 -1.066681e+001 -3.302851e+000 -1.014092e+001 -6.681739e+000 -2.314600e+000 -5.418610e-001 -5.096695e+000 5.828755e+001 1.870725e-002 1.792502e-002 4.315327e-003 -1.049415e-002 7.243195e-003 -1.414020e-002 -4.159385e-003 -1.734762e-002 -5.933738e-003 -2.126872e-002 -1.153705e-002 -7.878707e-003 7.331465e-002 1.308272e-003 -8.321051e-006 -6.654190e-004 -5.182852e-004 -1.984713e-004 -1.327817e-003 -5.450209e-004 -9.731668e-004 -4.619473e-004 -6.278922e-005 -9.470985e-005 -4.271669e-004 2.543757e-003
<VARIANCE> 39
 6.872244e+001 4.417590e+001 3.241875e+001 3.471083e+001 6.369692e+001 6.392316e+001 5.261448e+001 1.037115e+002 5.951913e+001 4.171087e+001 3.449247e+001 3.273866e+001 1.157122e+002 1.997344e+000 2.065252e+000 1.470871e+000 1.941736e+000 3.223732e+000 2.851546e+000 2.723264e+000 4.388693e+000 2.761121e+000 2.717019e+000 2.365219e+000 1.916426e+000 1.446018e+000 2.219076e-001 2.784493e-001 2.084600e-001 3.089454e-001 4.709444e-001 4.233821e-001 4.642502e-001 6.165215e-001 4.692253e-001 4.912887e-001 4.198592e-001 3.480444e-001 2.080184e-001
<GCONST> 1.209453e+002
<STATE> 3
<MEAN> 39
 -9.360572e+000 -2.310922e+000 -3.145036e+000 -2.841865e+000 -5.657894e+000 -1.075054e+001 -3.327549e+000 -1.023365e+001 -6.719388e+000 -2.412484e+000 -5.940751e-001 -5.142659e+000 5.866036e+001 2.375747e-002 1.728345e-002 5.706602e-004 -1.246672e-002 6.189820e-003 -1.969228e-002 -7.641814e-003 -2.185624e-002 -8.277831e-003 -2.122264e-002 -1.245255e-002 -9.779843e-003 8.086531e-002 1.222165e-003 -1.877651e-004 -8.605509e-004 -5.108732e-004 -3.208310e-004 -1.076017e-003 -6.935373e-004 -9.918312e-004 -3.930523e-004 -8.233421e-005 -2.317829e-004 -4.768564e-004 1.584403e-003
<VARIANCE> 39
 6.679737e+001 4.410157e+001 3.201102e+001 3.452338e+001 6.340835e+001 6.303087e+001 5.262687e+001 1.027302e+002 5.979443e+001 4.182965e+001 3.482933e+001 3.240129e+001 9.917576e+001 1.985124e+000 2.056772e+000 1.447217e+000 1.923693e+000 3.174630e+000 2.822922e+000 2.691251e+000 4.361619e+000 2.727641e+000 2.711263e+000 2.376359e+000 1.914445e+000 1.467110e+000 2.207386e-001 2.773425e-001 2.063557e-001 3.058615e-001 4.641242e-001 4.197966e-001 4.587467e-001 6.130202e-001 4.642819e-001 4.893921e-001 4.223897e-001 3.471807e-001 2.115420e-001
<GCONST> 1.205822e+002
<STATE> 4
<MEAN> 39
 -9.033307e+000 -2.184713e+000 -3.147348e+000 -2.988136e+000 -5.647322e+000 -1.091453e+001 -3.476065e+000 -1.051639e+001 -6.928419e+000 -2.642087e+000 -6.081090e-001 -5.289259e+000 5.945437e+001 2.733855e-002 1.240974e-002 -1.124137e-002 -1.556548e-002 3.841873e-003 -2.330349e-002 -1.243885e-002 -2.576367e-002 -1.122130e-002 -1.752974e-002 -1.460344e-002 -1.205258e-002 7.293596e-002 5.640235e-004 -6.339218e-004 -1.203776e-003 -2.856101e-004 -1.665890e-004 -3.551500e-006 -5.475104e-004 -6.821943e-004 -1.131223e-004 1.772767e-004 -4.321966e-004 -1.595761e-004 -7.759362e-004
<VARIANCE> 39
 6.344203e+001 4.445658e+001 3.167533e+001 3.507408e+001 6.308246e+001 6.125023e+001 5.276871e+001 1.012449e+002 6.076001e+001 4.257925e+001 3.605702e+001 3.182115e+001 6.716084e+001 1.922552e+000 2.031481e+000 1.400873e+000 1.902720e+000 3.090111e+000 2.777407e+000 2.645170e+000 4.291662e+000 2.667297e+000 2.714578e+000 2.417544e+000 1.909926e+000 1.329060e+000 2.119227e-001 2.723784e-001 1.996226e-001 2.989125e-001 4.507769e-001 4.127018e-001 4.502301e-001 6.004645e-001 4.544380e-001 4.867509e-001 4.309184e-001 3.457048e-001 1.910208e-001
<GCONST> 1.195753e+002
<TRANSP> 5
 0.000000e+000 1.000000e+000 0.000000e+000 0.000000e+000 0.000000e+000
 0.000000e+000 7.794535e-001 2.205466e-001 0.000000e+000 0.000000e+000
 0.000000e+000 0.000000e+000 7.794527e-001 2.205472e-001 0.000000e+000
 0.000000e+000 0.000000e+000 0.000000e+000 9.103345e-001 8.966545e-002
 0.000000e+000 0.000000e+000 0.000000e+000 0.000000e+000 0.000000e+000
<ENDHMM>
~h "sil"
<BEGINHMM>
<NUMSTATES> 5
<STATE> 2
<MEAN> 39
 -1.748482e+001 -3.039380e+000 -5.523313e+000 -3.305089e+000 -2.221816e+000 -2.645981e+000 -3.285316e-002 -2.998284e+000 -7.190728e-001 -2.533766e+000 -1.376940e+000 -8.350766e-001 3.822051e+001 -4.993957e-002 -1.403571e-001 1.048081e-002 4.636549e-002 3.021470e-001 1.040099e-001 2.961300e-002 1.584174e-001 1.921253e-001 -1.138017e-001 5.432184e-002 1.378080e-001 -2.001792e-002 4.287629e-002 4.248768e-002 1.610548e-003 -5.931582e-002 -1.426249e-001 -9.090608e-002 -6.376409e-002 3.034162e-002 5.482512e-002 8.667023e-002 -4.257287e-002 -6.958024e-003 5.695048e-003
<VARIANCE> 39
 2.214979e+001 2.102983e+000 4.395333e+000 7.745687e+000 7.713334e+000 1.264727e+001 9.145629e+000 1.857160e+001 1.017638e+001 1.073725e+001 1.063639e+001 9.299363e+000 2.654294e+002 1.237433e-001 1.878904e-001 3.657443e-001 5.195858e-001 1.067132e+000 7.823619e-001 9.247050e-001 1.101023e+000 1.073454e+000 1.123656e+000 9.376854e-001 8.705190e-001 5.951647e-002 2.439929e-002 3.214420e-002 7.769240e-002 9.853470e-002 1.699040e-001 1.575226e-001 1.900464e-001 2.164142e-001 2.291790e-001 2.068492e-001 1.846254e-001 1.837596e-001 1.111125e-002
<GCONST> 6.544202e+001
<STATE> 3
<MEAN> 39
 -1.750412e+001 -3.312041e+000 -5.686067e+000 -3.442351e+000 -2.003932e+000 -2.778429e+000 -1.200681e-001 -2.353169e+000 2.489271e-001 -2.179102e+000 -1.292298e+000 -5.068175e-001 3.823665e+001 -5.651308e-003 -5.944505e-002 -3.610842e-002 -1.912184e-002 4.519166e-003 -5.025845e-002 -2.552147e-002 9.478445e-002 1.839368e-001 5.484768e-002 -3.109300e-003 5.779446e-002 2.911474e-002 2.967850e-003 1.123239e-002 -7.823805e-003 -2.083306e-003 -4.610278e-002 -2.238010e-002 -6.089413e-003 -2.551974e-002 -1.684203e-002 1.766106e-002 -4.773756e-003 -2.134406e-002 1.208892e-002
<VARIANCE> 39
 2.087199e+001 2.218075e+000 4.762327e+000 7.548813e+000 6.419640e+000 1.208574e+001 8.571359e+000 2.430976e+001 1.036854e+001 1.321653e+001 1.162620e+001 1.104959e+001 2.663859e+002 9.924249e-002 1.899952e-001 4.294233e-001 5.196607e-001 6.366928e-001 7.436314e-001 8.982857e-001 1.396267e+000 1.314213e+000 1.234604e+000 1.031138e+000 1.090509e+000 1.081471e-001 2.125031e-002 4.095254e-002 8.694202e-002 1.016176e-001 1.380714e-001 1.591911e-001 1.857982e-001 2.636529e-001 2.771973e-001 2.563034e-001 1.982650e-001 2.377008e-001 2.128570e-002
<GCONST> 6.837230e+001
<STATE> 4
<MEAN> 39
 -1.690415e+001 -3.489275e+000 -5.607119e+000 -3.376549e+000 -2.101763e+000 -3.460143e+000 -3.847649e-001 -3.154439e+000 3.506175e-001 -2.180791e+000 -1.130486e+000 -7.547816e-001 4.059169e+001 1.309138e-002 -4.466986e-002 2.423999e-002 6.118529e-002 4.124646e-003 -4.344136e-002 -4.684424e-002 -1.127593e-001 -2.494409e-002 -9.606358e-002 -1.375927e-002 -1.825625e-002 1.501778e-001 4.750950e-003 8.585569e-003 1.064363e-002 3.574996e-003 -2.193854e-003 -3.268784e-004 -9.284511e-003 -1.097364e-002 -2.161913e-002 -7.471149e-003 4.772024e-003 -1.371912e-002 2.469661e-004
<VARIANCE> 39
 2.274483e+001 4.417598e+000 7.114548e+000 9.886556e+000 9.783976e+000 1.416972e+001 1.015705e+001 2.804231e+001 1.371810e+001 2.022011e+001 1.242459e+001 1.307974e+001 2.692751e+002 3.150779e-001 3.935514e-001 5.068244e-001 6.065887e-001 7.239008e-001 8.148564e-001 9.958166e-001 1.537995e+000 1.484984e+000 1.762277e+000 1.168023e+000 1.270552e+000 1.003092e+000 5.359437e-002 6.682330e-002 9.298783e-002 1.096713e-001 1.252064e-001 1.536993e-001 1.966291e-001 2.740087e-001 2.834025e-001 3.406923e-001 2.179191e-001 2.635355e-001 1.594901e-001
<GCONST> 8.130763e+001
<TRANSP> 5
 0.000000e+000 1.000000e+000 0.000000e+000 0.000000e+000 0.000000e+000
 0.000000e+000 7.923859e-001 2.076141e-001 0.000000e+000 0.000000e+000
 0.000000e+000 0.000000e+000 7.923857e-001 2.076143e-001 0.000000e+000
 0.000000e+000 0.000000e+000 0.000000e+000 9.312332e-001 6.876683e-002
 0.000000e+000 0.000000e+000 0.000000e+000 0.000000e+000 0.000000e+000
<ENDHMM>
