~o
<STREAMINFO> 1 39
<VECSIZE> 39<NULLD><MFCC_D_A_0><DIAGC>
~s "silst"
<MEAN> 39
 -1.266693e+001 -2.525918e+000 -4.951461e+000 -4.422636e+000 -1.663000e+000 -5.311486e+000 3.390405e-001 -5.612659e+000 -3.618780e-001 -3.540639e+000 -1.279010e+000 -2.150873e+000 5.470533e+001 -3.549334e-002 -2.404832e-002 -4.589830e-002 -3.964800e-002 7.009880e-004 2.825978e-002 -9.230940e-005 9.617883e-003 5.926940e-002 3.818136e-002 3.832381e-003 3.341263e-002 -2.808370e-002 6.852272e-003 -3.368104e-003 1.140603e-002 1.185011e-002 -1.185985e-002 -2.876222e-002 -1.125962e-002 -1.276549e-002 -3.390531e-002 -2.672128e-003 2.239623e-003 -1.201964e-002 2.184689e-002
<VARIANCE> 39
 1.517197e+000 3.667105e+000 5.507139e+000 8.041427e+000 7.777330e+000 9.556761e+000 1.101089e+001 1.247760e+001 1.232932e+001 1.368075e+001 1.548256e+001 1.142029e+001 1.266809e+000 1.109663e-001 1.984954e-001 4.017433e-001 6.925978e-001 8.341442e-001 9.549037e-001 1.079213e+000 1.384168e+000 1.364321e+000 1.484122e+000 1.533666e+000 1.254521e+000 6.558506e-002 2.525174e-002 4.045142e-002 8.145790e-002 1.406427e-001 1.780464e-001 1.974238e-001 2.266142e-001 2.922488e-001 2.822825e-001 3.111559e-001 3.164496e-001 2.596616e-001 1.491355e-002
<GCONST> 6.411430e+001
~h "f"
<BEGINHMM>
<NUMSTATES> 5
<STATE> 2
<MEAN> 39
 -1.220866e+001 -8.795279e+000 -7.482584e+000 2.315124e+000 -2.369896e+000 -7.349561e+000 -2.203668e+000 -5.994767e+000 -2.280491e+000 2.451890e+000 1.682732e+000 -5.418234e+000 5.973816e+001 -5.447984e-001 -6.125121e-001 -6.278613e-001 3.751835e-001 -4.158081e-001 -9.464441e-002 -9.672323e-002 1.254204e-001 -1.087825e-001 7.038419e-001 5.099475e-001 6.680470e-002 1.364306e-001 6.599333e-002 2.512232e-001 1.244008e-001 -1.009931e-001 -7.939604e-002 -1.007759e-001 -9.090743e-002 -1.248434e-001 -1.456532e-001 -1.663576e-001 -3.678480e-002 3.657763e-002 -1.066268e-002
<VARIANCE> 39
 6.854783e+000 1.873680e+001 1.722368e+001 2.134181e+001 2.077143e+001 2.371361e+001 2.093200e+001 1.952387e+001 2.398260e+001 3.105076e+001 2.101735e+001 1.587623e+001 5.508140e+000 5.300013e-001 1.881944e+000 1.090066e+000 1.601648e+000 1.914645e+000 2.107756e+000 2.387551e+000 2.434561e+000 2.533115e+000 3.033002e+000 1.844839e+000 1.664874e+000 2.798032e-001 6.720281e-002 2.103764e-001 1.523222e-001 2.851313e-001 4.699323e-001 4.780258e-001 4.924737e-001 3.960933e-001 4.592659e-001 5.135284e-001 3.574933e-001 3.543106e-001 4.695215e-002
<GCONST> 9.728629e+001
<STATE> 3
<MEAN> 39
 -1.421039e+001 -8.812376e+000 -8.687312e+000 3.114993e+000 -3.920927e+000 -7.595927e+000 -3.057459e+000 -6.766490e+000 -3.690115e+000 3.519085e+000 3.628812e+000 -4.454602e+000 5.975706e+001 1.660303e-001 -1.646892e-001 -1.073288e-001 -1.793135e-001 1.949811e-001 -5.512074e-004 8.141553e-002 -1.148436e-001 -1.157644e-001 -5.312758e-002 1.334410e-001 -5.206914e-002 -5.096397e-003 1.674434e-001 -3.641839e-002 6.855110e-003 -1.649802e-001 3.800739e-003 -8.868570e-002 4.673117e-002 1.394819e-002 3.859205e-002 -9.557759e-002 -8.578184e-002 -6.378831e-004 -2.111286e-002
<VARIANCE> 39
 2.085124e+000 8.406774e+000 8.813542e+000 7.833380e+000 7.349159e+000 1.398875e+001 1.100653e+001 1.596306e+001 1.320974e+001 1.690524e+001 1.662830e+001 1.521814e+001 3.499304e+000 2.125931e-001 6.411231e-001 5.065944e-001 6.311359e-001 8.296666e-001 8.642301e-001 1.038437e+000 1.140029e+000 1.174545e+000 1.580768e+000 1.193058e+000 1.022269e+000 1.521625e-001 2.869683e-002 9.968260e-002 8.966066e-002 1.260069e-001 1.582828e-001 1.804836e-001 2.102977e-001 2.815899e-001 2.780370e-001 3.707684e-001 2.723495e-001 2.170410e-001 1.915126e-002
<GCONST> 7.063176e+001
<STATE> 4
<MEAN> 39
 -1.127546e+001 -9.708858e+000 -9.637996e+000 -8.609464e-002 -3.658084e+000 -9.445070e+000 -2.137812e+000 -6.901765e+000 -3.734809e+000 1.861172e+000 3.809402e+000 -4.586555e+000 5.968501e+001 1.849472e+000 2.128176e+000 4.968665e-001 -2.311159e+000 -1.776477e+000 -1.543032e+000 -5.486583e-001 -1.341380e-001 1.519777e-001 -1.229257e+000 -9.989027e-001 -1.277298e-001 1.400179e-001 5.801229e-001 9.988324e-001 2.521586e-001 -6.515322e-001 -8.065906e-001 -4.137872e-001 -4.069923e-001 -2.311832e-001 9.572207e-003 -2.887704e-001 -4.401606e-001 -1.498455e-001 2.482651e-001
<VARIANCE> 39
 6.598767e+000 1.756361e+001 8.282557e+000 1.897563e+001 1.455218e+001 1.661288e+001 1.429355e+001 1.684873e+001 1.517206e+001 1.648462e+001 1.857019e+001 1.457352e+001 3.679171e+000 2.393509e+000 5.801570e+000 9.970798e-001 3.496437e+000 4.441767e+000 2.923176e+000 2.517866e+000 1.887359e+000 1.359532e+000 2.281844e+000 2.465264e+000 1.562346e+000 5.014691e-001 1.591075e-001 5.572768e-001 1.429245e-001 3.723331e-001 4.856505e-001 3.905899e-001 3.550584e-001 3.925861e-001 2.735319e-001 3.678743e-001 3.365512e-001 2.660583e-001 9.562434e-002
<GCONST> 9.863113e+001
<TRANSP> 5
 0.000000e+000 1.000000e+000 0.000000e+000 0.000000e+000 0.000000e+000
 0.000000e+000 8.650622e-001 1.349378e-001 0.000000e+000 0.000000e+000
 0.000000e+000 0.000000e+000 7.605850e-001 2.394150e-001 0.000000e+000
 0.000000e+000 0.000000e+000 0.000000e+000 6.338692e-001 3.661308e-001
 0.000000e+000 0.000000e+000 0.000000e+000 0.000000e+000 0.000000e+000
<ENDHMM>
~h "k"
<BEGINHMM>
<NUMSTATES> 5
<STATE> 2
<MEAN> 39
 -1.595610e+001 -4.497236e+000 -7.901269e+000 -6.507269e+000 -2.783907e+000 -7.528256e+000 1.402444e-001 -4.602114e+000 -3.338393e-001 -2.697982e+000 -7.051228e-001 -1.616002e+000 5.465495e+001 -4.649729e-002 1.043166e-001 -9.010053e-002 -1.399044e-001 8.017915e-002 1.112186e-001 -8.560350e-002 1.141679e-002 1.170901e-001 -3.511557e-002 -7.577448e-002 -2.296506e-002 -4.484550e-002 7.106500e-002 -3.903723e-002 2.213563e-002 9.690615e-003 -4.285599e-002 4.579139e-003 -6.190735e-002 -6.627311e-002 -1.430110e-002 4.348920e-002 7.822889e-003 -3.606655e-002 -1.821138e-002
<VARIANCE> 39
 1.045909e+001 4.563025e+000 6.908148e+000 1.556527e+001 1.073149e+001 1.746510e+001 1.691427e+001 1.753751e+001 2.296724e+001 1.516284e+001 1.619480e+001 1.187320e+001 1.112866e+001 1.722902e-001 4.482190e-001 4.329675e-001 9.230167e-001 9.137931e-001 1.187217e+000 1.175757e+000 1.135818e+000 1.456485e+000 1.677283e+000 1.620684e+000 1.422293e+000 1.282043e-001 7.743348e-002 7.088780e-002 8.644019e-002 1.696300e-001 1.853435e-001 2.146331e-001 2.460037e-001 2.757695e-001 3.120314e-001 3.423622e-001 3.425118e-001 3.156852e-001 3.404843e-002
<GCONST> 7.805099e+001
<STATE> 3
<MEAN> 39
 -2.337592e+001 -8.830921e-001 -7.585803e+000 -8.807949e-002 1.659304e+000 -1.222841e+001 3.225287e+000 3.682180e-001 -5.951339e+000 -3.518350e+000 1.367749e+000 -1.960207e+000 6.278640e+001 2.166407e-001 3.087034e-001 7.680307e-002 -7.106598e-001 3.847864e-001 5.290150e-001 -7.782664e-001 -5.132633e-001 2.076983e-001 1.971849e-001 -3.892515e-001 -3.663877e-001 -2.441086e-001 1.794773e-001 -2.236628e-001 1.524874e-001 2.307664e-002 -1.096796e-001 -8.821665e-002 9.818746e-003 1.424670e-002 -1.005668e-001 1.312773e-001 1.274330e-001 -5.006354e-002 -2.742708e-002
<VARIANCE> 39
 8.650311e+000 7.991945e+000 1.294060e+001 1.577442e+001 2.990277e+001 4.612583e+001 3.206044e+001 2.411838e+001 3.293566e+001 3.487769e+001 3.108366e+001 1.992518e+001 4.757801e+000 3.308413e-001 5.068454e-001 5.548124e-001 1.020873e+000 1.074110e+000 1.405303e+000 1.315754e+000 1.828868e+000 1.537732e+000 1.636938e+000 1.537887e+000 1.448265e+000 1.262322e-001 8.224502e-002 9.479783e-002 1.022443e-001 1.777916e-001 2.475158e-001 2.627181e-001 2.504711e-001 4.026191e-001 2.827469e-001 3.632577e-001 2.861855e-001 2.765011e-001 2.904449e-002
<GCONST> 8.649663e+001
<STATE> 4
<MEAN> 39
 -2.052247e+001 -1.842753e+000 -5.092752e+000 -5.299303e+000 3.950313e+000 -1.174698e+001 1.026562e+000 6.758020e-001 -7.973095e+000 -5.537205e-001 -5.799124e-001 -3.938562e+000 6.125528e+001 1.324996e+000 -7.880768e-001 5.786819e-001 -5.740117e-001 -6.268772e-001 8.197301e-001 -1.072481e+000 -2.349229e-001 6.870435e-001 1.377588e-002 2.294305e-001 -4.947046e-001 -7.005429e-001 2.018429e-001 -1.856101e-001 -5.444048e-002 2.970072e-001 -2.768604e-001 6.266505e-002 1.642648e-003 -2.163057e-001 2.217209e-001 -6.847545e-002 6.707744e-002 8.918102e-002 -5.938744e-002
<VARIANCE> 39
 1.219156e+001 1.015137e+001 9.120274e+000 2.030527e+001 2.380478e+001 3.051161e+001 2.895101e+001 2.432857e+001 2.366094e+001 2.289162e+001 2.126503e+001 1.643635e+001 6.254767e+000 1.017602e+000 1.017715e+000 9.098429e-001 1.319448e+000 2.035199e+000 1.992398e+000 1.878271e+000 2.473262e+000 2.095527e+000 2.135025e+000 1.968127e+000 1.400703e+000 5.300401e-001 1.232798e-001 1.616658e-001 1.606474e-001 2.462961e-001 3.933554e-001 3.919514e-001 3.350749e-001 4.443383e-001 3.188195e-001 3.541985e-001 3.153125e-001 3.299847e-001 5.874154e-002
<GCONST> 9.567973e+001
<TRANSP> 5
 0.000000e+000 1.000000e+000 0.000000e+000 0.000000e+000 0.000000e+000
 0.000000e+000 8.913690e-001 1.086310e-001 0.000000e+000 0.000000e+000
 0.000000e+000 0.000000e+000 7.953479e-001 2.046521e-001 0.000000e+000
 0.000000e+000 0.000000e+000 0.000000e+000 6.777480e-001 3.222520e-001
 0.000000e+000 0.000000e+000 0.000000e+000 0.000000e+000 0.000000e+000
<ENDHMM>
~h "n"
<BEGINHMM>
<NUMSTATES> 5
<STATE> 2
<MEAN> 39
 -2.629220e+000 -1.712199e-001 -3.357763e+000 -2.667014e+000 -6.461557e+000 -1.235055e+001 -9.356875e+000 -2.084626e+001 -1.085656e+001 -4.004733e+000 -2.727103e+000 -8.494950e+000 6.225485e+001 5.195342e-001 -4.772006e-001 -9.992792e-001 -6.014057e-001 1.096433e-001 2.247410e-001 -3.876675e-001 -4.884973e-001 3.209520e-001 7.840194e-001 -6.330696e-002 -6.534390e-001 5.053331e-001 2.658918e-001 -5.337232e-001 -7.243963e-001 -2.349423e-001 9.243135e-002 -7.269581e-002 1.102033e-001 3.141706e-001 3.658981e-001 5.005137e-001 8.690155e-002 -3.391425e-001 3.644171e-001
<VARIANCE> 39
 1.158317e+001 1.695052e+001 2.864641e+001 2.922659e+001 3.028168e+001 3.109794e+001 3.024772e+001 3.488266e+001 2.845799e+001 3.638877e+001 2.885238e+001 2.457722e+001 9.335723e+000 1.896967e+000 3.201941e+000 7.641007e+000 3.025515e+000 3.045335e+000 3.722083e+000 2.924085e+000 3.098200e+000 4.477203e+000 6.363763e+000 3.323216e+000 3.250647e+000 1.816483e+000 1.704324e-001 2.472637e-001 5.709118e-001 4.946136e-001 5.735664e-001 6.268058e-001 5.212734e-001 5.719386e-001 6.004115e-001 9.409375e-001 6.679857e-001 3.720228e-001 1.251608e-001
<GCONST> 1.184336e+002
<STATE> 3
<MEAN> 39
 1.171646e+000 -1.053203e+001 -1.315494e+001 -4.789570e+000 -5.583126e+000 -1.368689e+001 -3.535517e+000 -1.648196e+001 -9.367060e+000 1.167154e+000 -1.562929e+000 -1.469865e+001 6.923406e+001 -2.542280e-001 2.080768e-001 7.980410e-001 3.024813e-001 -6.980829e-001 -5.126496e-001 5.512344e-001 4.102683e-001 -1.992729e-001 -1.673279e-001 9.813813e-002 3.099708e-001 -8.675101e-002 -1.268161e-001 2.227158e-001 3.000112e-001 1.021205e-001 -1.158282e-002 7.443119e-002 -6.164653e-003 -7.616653e-002 -1.284843e-001 -1.842568e-001 7.425072e-003 1.580135e-001 -1.642286e-001
<VARIANCE> 39
 1.267966e+001 4.609630e+001 8.543532e+001 3.175964e+001 9.508171e+001 7.511304e+001 7.452233e+001 4.290054e+001 4.777884e+001 3.850935e+001 3.591037e+001 3.153786e+001 1.581380e+001 5.527545e-001 2.630753e+000 4.767667e+000 1.756956e+000 5.052605e+000 3.310519e+000 2.945481e+000 3.096762e+000 3.253134e+000 2.684034e+000 3.597106e+000 2.073621e+000 7.920204e-001 8.572493e-002 2.610424e-001 5.509723e-001 3.111659e-001 6.835644e-001 5.065694e-001 5.649460e-001 5.224990e-001 6.013214e-001 5.746699e-001 6.316295e-001 3.745331e-001 8.367913e-002
<GCONST> 1.188502e+002
<STATE> 4
<MEAN> 39
 -3.995575e+000 2.052924e+000 1.734387e+000 -5.863213e-001 -9.135201e+000 -1.392229e+001 -5.893378e+000 -1.727706e+001 -1.142830e+001 -5.655994e+000 -2.289652e+000 -5.542561e+000 6.140586e+001 -5.716017e-001 3.678921e-001 1.231142e-001 1.625206e-001 1.183715e+000 1.130589e+000 2.833887e-001 4.586656e-001 2.968723e-001 -5.957169e-001 -4.519190e-001 2.417760e-001 -5.980896e-001 -6.282352e-002 -2.216535e-001 -2.430153e-001 -1.647880e-002 1.509706e-001 3.581433e-002 5.776873e-002 2.225050e-001 2.349745e-001 1.767782e-001 -1.521342e-002 -1.249123e-001 4.289412e-002
<VARIANCE> 39
 9.655089e+000 1.129256e+001 1.385825e+001 1.649314e+001 4.994348e+001 4.502597e+001 4.361382e+001 3.752156e+001 3.360079e+001 4.157938e+001 3.158707e+001 2.203123e+001 8.155716e+000 3.642822e-001 1.144736e+000 1.174038e+000 9.759339e-001 2.217047e+000 2.005028e+000 2.524165e+000 2.479120e+000 2.239296e+000 2.042930e+000 1.753757e+000 1.368367e+000 2.657742e-001 6.085281e-002 1.541448e-001 1.738080e-001 2.018148e-001 3.512508e-001 3.772869e-001 4.203545e-001 4.088583e-001 3.356809e-001 3.743142e-001 3.499795e-001 2.333981e-001 3.182949e-002
<GCONST> 9.663515e+001
<TRANSP> 5
 0.000000e+000 1.000000e+000 0.000000e+000 0.000000e+000 0.000000e+000
 0.000000e+000 6.301350e-001 3.698650e-001 0.000000e+000 0.000000e+000
 0.000000e+000 0.000000e+000 8.535773e-001 1.464228e-001 0.000000e+000
 0.000000e+000 0.000000e+000 0.000000e+000 8.328521e-001 1.671479e-001
 0.000000e+000 0.000000e+000 0.000000e+000 0.000000e+000 0.000000e+000
<ENDHMM>
~h "r"
<BEGINHMM>
<NUMSTATES> 5
<STATE> 2
<MEAN> 39
 3.973946e+000 -3.929316e+000 -1.222865e+001 -4.067220e+000 -5.100222e+000 -1.585476e+001 -1.539679e+001 -2.335690e+001 -7.907667e+000 2.951106e+000 5.591736e+000 -4.123368e+000 6.725654e+001 1.032406e+000 3.877983e-001 7.887785e-001 7.140898e-001 -1.020395e+000 -1.740033e+000 -1.141007e+000 -7.603515e-001 2.099373e-001 4.539408e-001 -8.038582e-001 -8.876345e-001 7.092742e-001 -8.172988e-001 -4.231290e-001 7.158597e-001 5.547435e-001 -3.852591e-001 1.481657e-002 8.749982e-001 8.855266e-001 3.300961e-001 7.877672e-002 -5.098529e-001 -4.605091e-001 -3.185350e-001
<VARIANCE> 39
 1.160608e+001 2.461329e+001 2.565374e+001 3.576159e+001 1.986566e+001 4.048322e+001 4.931076e+001 3.277565e+001 3.458636e+001 3.140032e+001 2.181745e+001 3.189947e+001 1.079692e+001 4.871828e+000 3.881156e+000 2.682138e+000 3.986727e+000 5.324852e+000 3.431415e+000 6.128547e+000 5.461453e+000 3.584634e+000 3.462480e+000 3.190322e+000 4.235643e+000 1.370700e+000 2.353349e-001 7.995707e-001 3.032222e-001 4.734257e-001 6.034549e-001 4.664835e-001 9.339427e-001 6.354656e-001 8.024350e-001 9.421300e-001 4.332587e-001 7.910417e-001 1.039462e-001
<GCONST> 1.222937e+002
<STATE> 3
<MEAN> 39
 2.711350e+000 -5.640150e+000 -4.439465e+000 1.879133e+000 -1.338390e+001 -2.340484e+001 -1.339122e+001 -2.151620e+001 -6.275105e+000 4.140338e+000 2.710571e-001 -8.739003e+000 6.773634e+001 -1.386898e+000 3.541369e-001 3.415781e+000 9.512930e-001 -2.823371e+000 -3.521987e-001 2.832383e+000 8.979102e-001 -1.386905e+000 -9.082262e-001 -6.794799e-001 -5.269191e-001 -5.804310e-001 -3.037519e-001 3.790706e-001 9.614054e-002 -4.993056e-001 2.393560e-001 8.497505e-001 5.039776e-001 2.492029e-002 -6.799345e-001 -4.887775e-001 4.167696e-001 3.455473e-001 -2.497725e-001
<VARIANCE> 39
 8.991688e+000 3.030135e+001 4.476640e+001 4.762566e+001 7.414451e+001 6.796278e+001 5.430214e+001 4.203328e+001 4.333390e+001 2.968109e+001 3.175347e+001 3.970079e+001 9.695337e+000 8.066949e-001 3.013330e+000 2.169662e+000 2.636409e+000 9.506198e+000 3.442974e+000 3.447911e+000 4.375254e+000 4.551346e+000 3.316188e+000 3.246923e+000 1.753104e+000 7.880414e-001 1.122326e-001 4.028961e-001 4.399296e-001 3.296060e-001 8.633959e-001 3.586929e-001 1.010416e+000 5.988286e-001 7.045406e-001 5.272454e-001 5.786072e-001 4.491052e-001 5.955444e-002
<GCONST> 1.189667e+002
<STATE> 4
<MEAN> 39
 -3.948872e+000 -4.567357e-001 -4.857439e+000 -6.040009e+000 -7.927668e+000 -9.827148e+000 -2.676283e+000 -1.203563e+001 -5.553427e+000 -3.191148e-001 1.580138e+000 -4.717445e+000 6.197428e+001 -1.462246e+000 1.418133e-001 9.251351e-001 3.942205e-001 3.858433e-001 8.183124e-001 1.121403e+000 1.091258e+000 4.403143e-002 -5.795391e-001 -4.207048e-001 -1.293771e-001 -8.258235e-001 1.434938e-001 -1.010323e-001 -3.516212e-001 -1.186850e-001 1.278585e-001 -6.191394e-002 -3.051881e-001 -2.738057e-001 3.496680e-002 1.052873e-001 6.970242e-002 1.121851e-001 9.868609e-002
<VARIANCE> 39
 3.494447e+001 2.286288e+001 5.064358e+001 6.895146e+001 1.151432e+002 7.934619e+001 2.604440e+001 5.853292e+001 4.294854e+001 2.994099e+001 3.792892e+001 3.571439e+001 1.649036e+001 1.319523e+000 2.157362e+000 2.656546e+000 3.747370e+000 4.030025e+000 2.466163e+000 3.661087e+000 4.185904e+000 4.460175e+000 3.352466e+000 2.805762e+000 2.068324e+000 5.304661e-001 1.545279e-001 2.838934e-001 4.202724e-001 5.447958e-001 1.024774e+000 5.059162e-001 5.024027e-001 5.012813e-001 4.655458e-001 6.215193e-001 4.663200e-001 3.026240e-001 9.212854e-002
<GCONST> 1.201214e+002
<TRANSP> 5
 0.000000e+000 1.000000e+000 0.000000e+000 0.000000e+000 0.000000e+000
 0.000000e+000 6.766635e-001 3.233365e-001 0.000000e+000 0.000000e+000
 0.000000e+000 0.000000e+000 5.528707e-001 4.471293e-001 0.000000e+000
 0.000000e+000 0.000000e+000 0.000000e+000 7.047762e-001 2.952238e-001
 0.000000e+000 0.000000e+000 0.000000e+000 0.000000e+000 0.000000e+000
<ENDHMM>
~h "s"
<BEGINHMM>
<NUMSTATES> 5
<STATE> 2
<MEAN> 39
 -1.079001e+001 -1.547450e+000 -1.647518e+000 4.735114e-002 -8.899897e-001 -1.093843e+001 -4.713666e+000 -1.032865e+001 -7.422299e+000 -2.080729e+000 -1.075853e+000 -5.690171e+000 6.016975e+001 -1.430241e+000 -6.817140e-001 -2.911267e-001 5.835059e-001 1.371385e+000 7.302039e-001 1.429850e+000 1.919091e+000 4.908805e-001 3.594688e-001 -3.658802e-002 -7.902320e-002 5.655437e-002 -2.889738e-001 3.411898e-002 -2.378094e-001 -2.839002e-001 -9.659643e-002 -9.086905e-002 4.615431e-001 3.688715e-001 -1.252177e-002 1.766193e-001 1.515208e-001 1.361646e-001 1.345420e-001
<VARIANCE> 39
 3.178255e+001 2.615419e+001 2.436587e+001 2.194235e+001 3.012517e+001 3.764874e+001 5.986914e+001 7.530341e+001 4.203603e+001 4.056168e+001 3.481805e+001 2.083645e+001 1.745205e+001 3.955414e+000 1.743207e+000 1.803209e+000 2.464429e+000 4.501369e+000 4.581296e+000 5.064238e+000 9.582014e+000 3.750049e+000 3.429696e+000 2.883192e+000 2.002590e+000 1.776309e+000 1.951499e-001 4.363229e-001 2.643979e-001 3.712537e-001 5.114746e-001 6.381648e-001 6.053013e-001 9.572778e-001 5.747527e-001 5.480576e-001 4.756273e-001 4.373662e-001 2.173587e-001
<GCONST> 1.215283e+002
<STATE> 3
<MEAN> 39
 -1.780335e+001 -2.827656e+000 -4.558267e+000 -6.285552e-001 2.979887e+000 -9.749405e+000 3.077188e+000 -1.790380e+000 -6.892441e+000 3.998562e-001 4.302981e-001 -4.188443e+000 6.143741e+001 -1.359915e+000 6.180020e-002 -9.384643e-001 -7.885417e-001 3.469647e-001 -2.854020e-001 7.854327e-001 9.717309e-001 2.044702e-001 6.292495e-001 3.999700e-001 5.348471e-001 2.406285e-001 2.938586e-001 1.840537e-001 7.607098e-002 -1.166700e-001 -3.432489e-001 -2.323150e-001 -5.570629e-001 -6.369116e-001 -1.716149e-001 -1.703909e-001 -1.380258e-001 -5.418177e-002 -5.360870e-003
<VARIANCE> 39
 1.272806e+001 1.734255e+001 1.353700e+001 2.589557e+001 2.731358e+001 3.228532e+001 3.803304e+001 3.571548e+001 2.548857e+001 3.001490e+001 2.537985e+001 1.498772e+001 8.644965e+000 1.898220e+000 1.084279e+000 1.067592e+000 1.742290e+000 2.429342e+000 2.625337e+000 3.567630e+000 4.673815e+000 2.527313e+000 2.595294e+000 1.965642e+000 1.864365e+000 4.054980e-001 1.625660e-001 1.869766e-001 1.768543e-001 3.256593e-001 3.955068e-001 5.336266e-001 6.182773e-001 7.575432e-001 5.299851e-001 4.680223e-001 3.759223e-001 3.302642e-001 5.501856e-002
<GCONST> 1.049115e+002
<STATE> 4
<MEAN> 39
 -2.175534e+001 -1.697305e+000 -7.244217e+000 -3.057948e+000 3.164943e+000 -1.125090e+001 2.406891e+000 -2.561665e+000 -7.172687e+000 2.125285e+000 -3.602327e-001 -3.424732e+000 6.227177e+001 9.622234e-002 -1.416522e-001 -6.783022e-003 -6.320935e-002 -2.230030e-001 -9.058787e-002 -1.081012e-002 -1.229733e-001 1.093684e-001 -2.948540e-002 -1.131274e-002 -1.122426e-002 -4.856215e-002 2.080384e-001 -6.631505e-002 8.150572e-002 3.060788e-002 -1.265101e-001 -6.082975e-002 -2.536648e-002 -2.640181e-002 2.887824e-002 -5.050989e-002 4.584788e-002 -7.417810e-003 -1.734874e-002
<VARIANCE> 39
 1.054804e+001 8.009470e+000 1.135667e+001 1.926649e+001 2.398490e+001 2.785257e+001 2.516333e+001 2.388170e+001 2.075866e+001 2.688006e+001 2.545363e+001 1.685648e+001 4.940877e+000 7.017329e-001 5.121641e-001 6.259114e-001 9.482267e-001 1.330632e+000 1.456825e+000 1.655515e+000 1.634822e+000 1.601517e+000 1.829956e+000 1.841982e+000 1.460874e+000 1.613217e-001 1.464878e-001 7.734377e-002 1.266415e-001 1.976699e-001 2.581868e-001 2.998622e-001 3.321727e-001 3.177401e-001 3.165512e-001 3.505377e-001 3.607805e-001 2.991179e-001 3.338035e-002
<GCONST> 8.794185e+001
<TRANSP> 5
 0.000000e+000 1.000000e+000 0.000000e+000 0.000000e+000 0.000000e+000
 0.000000e+000 5.384675e-001 4.615325e-001 0.000000e+000 0.000000e+000
 0.000000e+000 0.000000e+000 5.922966e-001 4.077034e-001 0.000000e+000
 0.000000e+000 0.000000e+000 0.000000e+000 8.964306e-001 1.035694e-001
 0.000000e+000 0.000000e+000 0.000000e+000 0.000000e+000 0.000000e+000
<ENDHMM>
~h "t"
<BEGINHMM>
<NUMSTATES> 5
<STATE> 2
<MEAN> 39
 -4.330388e+000 -1.976544e+000 6.531971e+000 -2.006786e+000 -2.229333e+001 -2.023015e+001 -8.865960e-001 -2.047995e+001 -1.283852e+001 3.878791e+000 -5.361395e-001 -1.114126e+001 6.649823e+001 4.836474e-002 5.378905e-001 3.670861e-001 2.275004e-001 6.828629e-001 4.289281e-001 -3.344344e-001 -1.569119e-001 -2.434665e-001 -5.382631e-001 -2.410640e-001 -5.416412e-002 -1.321820e-001 -1.781562e-001 1.868835e-002 -2.050034e-001 -3.142473e-002 4.789565e-001 3.848525e-001 1.149036e-002 2.602707e-001 2.509090e-001 -1.551349e-001 -4.717857e-002 1.787687e-001 -2.399886e-001
<VARIANCE> 39
 7.119627e+000 4.178755e+001 3.071316e+001 1.565360e+001 9.773608e+001 5.698162e+001 5.292597e+001 7.416673e+001 3.794810e+001 5.982233e+001 4.652176e+001 2.277638e+001 2.352997e+001 1.030579e+000 1.929684e+000 2.800945e+000 1.652064e+000 1.090061e+001 6.135725e+000 3.029039e+000 7.151142e+000 4.127945e+000 4.159902e+000 3.406076e+000 2.301918e+000 2.847003e+000 8.457815e-002 3.626032e-001 2.713222e-001 3.280151e-001 6.972013e-001 5.446776e-001 5.073659e-001 6.479987e-001 5.330161e-001 5.653492e-001 5.033423e-001 3.144852e-001 1.836996e-001
<GCONST> 1.210250e+002
<STATE> 3
<MEAN> 39
 -1.177661e+001 -1.613663e+000 -2.793697e+000 -2.589512e+000 -4.817135e-001 -3.930630e+000 -1.356604e-001 -7.157210e+000 -2.033356e+000 -3.528536e+000 -2.659654e+000 -4.289888e+000 5.646210e+001 -9.753788e-001 -1.101035e+000 -7.412961e-001 -4.494575e-001 -2.500739e-001 -6.095909e-002 3.065269e-001 8.804116e-001 2.344774e-001 1.213908e+000 1.053555e+000 4.447352e-001 3.152170e-001 -2.799678e-002 1.232087e-002 2.381246e-001 -2.627452e-002 -4.523897e-001 -5.256487e-001 -1.167777e-001 -1.165274e-001 -5.624112e-001 7.716832e-002 2.304919e-001 -9.010057e-002 3.187787e-001
<VARIANCE> 39
 6.281489e+000 1.623566e+001 1.315227e+001 1.282172e+001 1.560963e+001 1.713185e+001 1.642933e+001 1.938034e+001 2.100589e+001 3.300852e+001 2.123647e+001 1.332349e+001 4.470375e+000 6.134493e-001 1.220301e+000 1.643960e+000 1.154447e+000 3.270420e+000 4.212140e+000 2.467049e+000 3.082536e+000 5.717764e+000 2.877947e+000 2.274427e+000 1.775048e+000 1.418092e+000 1.274693e-001 2.546217e-001 1.950072e-001 2.928666e-001 7.576714e-001 5.708161e-001 4.334138e-001 7.681158e-001 5.945210e-001 8.778172e-001 3.817114e-001 3.341187e-001 1.030606e-001
<GCONST> 1.028038e+002
<STATE> 4
<MEAN> 39
 -1.752460e+001 -9.208867e+000 -2.167772e+000 -1.043324e+000 -5.635762e+000 -1.149168e+001 1.419852e+000 5.730399e-001 -9.315009e+000 -1.037392e+000 6.666174e+000 -2.175671e+000 6.212845e+001 2.685350e-001 -4.778197e-001 8.288540e-002 7.701141e-001 -1.689793e-001 -7.332733e-001 1.904359e-001 4.789391e-001 -2.879207e-001 -7.250521e-001 2.144088e-001 2.103182e-001 -4.872027e-002 3.698984e-001 2.907855e-001 -5.954624e-002 -1.758795e-003 1.107124e-001 1.997517e-001 -1.808804e-001 -4.824395e-001 3.090318e-001 -7.487714e-002 -3.695642e-001 -7.447553e-002 -2.203939e-001
<VARIANCE> 39
 1.397156e+001 2.479278e+001 1.311862e+001 2.712762e+001 2.417671e+001 2.980118e+001 3.048896e+001 3.299804e+001 2.616124e+001 3.594210e+001 2.360818e+001 1.995702e+001 8.474274e+000 2.078310e+000 2.239086e+000 1.150242e+000 2.154361e+000 1.935644e+000 2.912446e+000 2.760202e+000 4.382989e+000 3.560403e+000 2.639624e+000 2.943426e+000 1.926278e+000 9.734785e-001 2.338355e-001 4.891914e-001 2.164240e-001 4.348894e-001 3.997290e-001 4.443808e-001 6.273000e-001 7.998752e-001 5.834368e-001 6.290554e-001 4.577881e-001 3.880222e-001 1.233178e-001
<GCONST> 1.108755e+002
<TRANSP> 5
 0.000000e+000 1.000000e+000 0.000000e+000 0.000000e+000 0.000000e+000
 0.000000e+000 8.961581e-001 1.038419e-001 0.000000e+000 0.000000e+000
 0.000000e+000 0.000000e+000 8.527541e-001 1.472458e-001 0.000000e+000
 0.000000e+000 0.000000e+000 0.000000e+000 8.719364e-001 1.280637e-001
 0.000000e+000 0.000000e+000 0.000000e+000 0.000000e+000 0.000000e+000
<ENDHMM>
~h "v"
<BEGINHMM>
<NUMSTATES> 5
<STATE> 2
<MEAN> 39
 1.586524e+000 -7.257935e+000 -1.611527e+001 -1.344941e+001 -7.505483e+000 -5.393086e+000 1.012000e+000 -1.209583e+001 -4.820402e+000 1.875590e+000 1.780233e+000 -9.160855e+000 6.658443e+001 2.676268e+000 2.330900e-001 -1.905284e+000 -2.373611e+000 -3.042104e-001 1.572657e+000 6.961452e-001 -2.290000e+000 -1.144830e+000 -1.888209e-003 2.466154e-001 -7.424363e-001 1.653206e+000 -4.932772e-001 -4.015450e-001 3.581507e-001 8.265116e-001 5.301535e-001 -2.686498e-002 -2.806890e-001 -6.878460e-002 -2.366372e-001 5.729646e-003 -3.469824e-002 -1.553835e-001 -2.212374e-002
<VARIANCE> 39
 5.327757e+001 2.699811e+001 3.400129e+001 7.182852e+001 3.275039e+001 4.963050e+001 3.549107e+001 4.923534e+001 2.243639e+001 2.686104e+001 2.529806e+001 3.747919e+001 3.405558e+001 5.364610e+000 5.327847e+000 3.435377e+000 1.017526e+001 6.017238e+000 2.500307e+000 2.866534e+000 2.498731e+000 2.184289e+000 2.186477e+000 3.910367e+000 4.441749e+000 2.971795e+000 1.101936e+000 7.822767e-001 7.358968e-001 1.485273e+000 9.140639e-001 7.497175e-001 4.888811e-001 7.096360e-001 4.870313e-001 5.125228e-001 3.801561e-001 6.194640e-001 5.454695e-001
<GCONST> 1.305506e+002
<STATE> 3
<MEAN> 39
 3.806780e+000 -1.611563e+001 -1.824223e+001 -8.915344e+000 -3.816735e-002 -7.372408e+000 -1.471235e+000 -1.618667e+001 -8.754091e+000 1.808282e+000 -3.185772e+000 -1.714641e+001 7.274448e+001 -5.241697e-001 -3.702054e-001 1.020351e+000 1.296955e+000 -4.252508e-001 -2.047973e+000 -5.007588e-001 7.881390e-001 1.569801e-001 -1.292606e-001 -5.479595e-001 2.653781e-002 -7.109189e-002 -9.179395e-002 3.873062e-001 3.783714e-001 -4.680137e-002 -5.720358e-001 -2.936708e-001 1.332625e-001 2.889962e-001 9.922498e-002 -7.884807e-002 1.030605e-001 3.444357e-001 -1.819915e-001
<VARIANCE> 39
 8.493346e+000 2.807208e+001 2.365097e+001 4.131277e+001 3.343700e+001 1.005715e+002 4.237429e+001 5.179749e+001 3.537295e+001 4.393052e+001 4.600906e+001 2.508137e+001 8.037061e+000 2.168430e-001 2.939146e+000 1.505521e+000 1.496033e+000 6.401307e+000 3.790383e+000 2.654811e+000 4.442964e+000 2.720759e+000 2.038690e+000 3.728705e+000 3.166189e+000 5.522711e-001 9.120287e-002 1.743042e-001 1.786471e-001 2.521251e-001 4.103410e-001 4.850753e-001 4.468016e-001 5.858616e-001 4.720351e-001 5.551504e-001 7.068896e-001 2.664380e-001 5.795719e-002
<GCONST> 1.098870e+002
<STATE> 4
<MEAN> 39
 -9.071182e-002 -5.553997e+000 -2.870110e+000 -1.341227e+000 -1.435683e+001 -2.172872e+001 -3.613787e+000 -1.345894e+001 -1.016015e+001 1.960956e+000 3.452736e+000 -8.879789e+000 6.697991e+001 -6.279073e-001 1.990131e+000 1.347093e+000 3.646523e-001 2.143663e-001 7.084019e-001 -4.867395e-001 -6.274220e-001 -6.207747e-001 -9.136354e-001 6.534082e-001 1.127956e+000 -1.236493e+000 -1.283773e-001 -1.617800e-001 -1.645935e-001 1.404299e-002 6.242390e-001 4.565243e-001 4.329551e-002 1.228969e-001 1.229303e-001 -2.423225e-001 -5.155916e-001 -2.441269e-001 -3.482391e-002
<VARIANCE> 39
 1.579409e+001 4.712358e+001 5.689632e+001 4.354764e+001 7.018167e+001 7.913687e+001 5.305847e+001 7.947264e+001 5.405632e+001 4.917953e+001 5.231915e+001 3.120398e+001 1.859976e+001 5.770819e-001 2.023540e+000 3.048362e+000 2.431100e+000 9.278134e+000 6.587809e+000 2.954695e+000 4.407045e+000 5.606585e+000 5.234644e+000 7.112170e+000 2.858536e+000 4.946464e-001 8.533609e-002 3.373987e-001 3.494993e-001 4.977854e-001 7.176639e-001 7.389260e-001 5.917953e-001 1.059747e+000 9.550830e-001 7.790009e-001 1.110961e+000 5.479466e-001 6.252485e-002
<GCONST> 1.258437e+002
<TRANSP> 5
 0.000000e+000 1.000000e+000 0.000000e+000 0.000000e+000 0.000000e+000
 0.000000e+000 6.928098e-001 3.071902e-001 0.000000e+000 0.000000e+000
 0.000000e+000 0.000000e+000 8.144096e-001 1.855904e-001 0.000000e+000
 0.000000e+000 0.000000e+000 0.000000e+000 8.458596e-001 1.541404e-001
 0.000000e+000 0.000000e+000 0.000000e+000 0.000000e+000 0.000000e+000
<ENDHMM>
~h "w"
<BEGINHMM>
<NUMSTATES> 5
<STATE> 2
<MEAN> 39
 -5.917000e+000 3.704642e+000 -1.517291e+000 -4.415048e+000 -4.454545e+000 -9.980534e+000 -7.329097e+000 -1.424699e+001 -7.961312e+000 -9.846607e+000 -7.634245e+000 -8.005982e+000 5.840987e+001 9.701021e-001 4.710145e-001 -3.914932e-001 -9.963871e-001 -1.367721e+000 -1.233786e+000 -9.223061e-001 -5.992391e-001 -1.555705e-001 3.020706e-001 1.286593e-001 -1.130736e-001 5.777795e-001 2.915540e-001 6.757524e-002 -2.630708e-001 -5.354028e-001 -5.543026e-001 -2.408731e-001 1.010160e-001 1.255786e-001 2.048595e-001 3.213177e-001 3.212635e-001 1.795259e-001 1.687239e-001
<VARIANCE> 39
 1.122858e+001 1.004646e+001 8.204892e+000 1.160360e+001 2.387003e+001 2.981270e+001 2.843647e+001 2.247122e+001 1.807604e+001 2.043541e+001 2.193777e+001 2.038622e+001 5.015249e+000 1.417131e+000 1.268563e+000 1.088063e+000 2.006126e+000 3.246330e+000 2.560492e+000 1.729551e+000 1.659801e+000 2.039824e+000 2.953140e+000 3.182887e+000 2.347937e+000 4.715378e-001 1.700813e-001 2.152739e-001 2.121943e-001 3.023671e-001 3.491585e-001 4.325220e-001 4.910930e-001 3.751040e-001 3.406782e-001 4.328341e-001 4.619158e-001 3.985858e-001 7.339235e-002
<GCONST> 9.935445e+001
<STATE> 3
<MEAN> 39
 1.465405e+000 6.986995e+000 -6.338403e+000 -1.611695e+001 -1.755398e+001 -1.776444e+001 -9.794261e+000 -1.396921e+001 -4.758131e+000 -4.598143e+000 -2.886845e+000 -5.781843e+000 6.262889e+001 1.905719e+000 -4.183413e-001 -2.800678e+000 -3.838703e+000 -2.169169e+000 1.055738e+000 2.206953e+000 1.013076e+000 7.538593e-001 5.441624e-001 5.650436e-001 -4.844579e-001 1.408369e+000 -2.462699e-001 -8.805835e-001 -5.096973e-001 3.355301e-001 1.325764e+000 1.621380e+000 9.529281e-001 -1.383926e-001 -4.521564e-001 -5.368309e-001 -3.254641e-001 -5.333318e-001 9.875546e-002
<VARIANCE> 39
 6.479794e+000 4.898048e+000 1.529423e+001 2.508196e+001 1.502874e+001 1.440300e+001 1.790343e+001 1.633085e+001 1.766115e+001 1.440652e+001 1.491596e+001 1.236031e+001 2.938609e+000 8.274969e-001 1.719416e+000 1.392276e+000 1.742243e+000 4.317950e+000 5.513685e+000 3.205913e+000 2.076748e+000 2.341125e+000 2.453387e+000 1.912726e+000 1.984388e+000 3.863668e-001 1.262068e-001 1.801145e-001 2.242467e-001 6.376584e-001 5.819122e-001 3.724437e-001 4.322094e-001 5.884725e-001 4.606272e-001 3.320463e-001 3.643688e-001 3.109359e-001 3.507939e-002
<GCONST> 9.637656e+001
<STATE> 4
<MEAN> 39
 5.326780e+000 -3.494907e-001 -1.729218e+001 -2.347422e+001 -1.413712e+001 -4.875959e+000 9.812937e-001 -1.411600e+001 -7.166686e+000 -6.257155e+000 -2.649327e+000 -1.001587e+001 6.746604e+001 3.311718e-001 -3.072073e+000 -2.243308e+000 2.946632e-001 3.187987e+000 3.584424e+000 1.587889e+000 -1.688706e+000 -1.543579e+000 -9.257769e-002 5.342931e-001 -1.235568e+000 1.332890e+000 -4.553845e-001 -3.154941e-001 6.747075e-001 1.281853e+000 7.405072e-001 -6.737261e-001 -9.388186e-001 -4.796016e-001 -1.711572e-001 3.548686e-001 7.022520e-002 -1.521116e-001 -1.377009e-001
<VARIANCE> 39
 4.105915e+000 2.031865e+001 1.383184e+001 1.257355e+001 3.382332e+001 3.486155e+001 1.914155e+001 2.490290e+001 2.901112e+001 2.662234e+001 2.118341e+001 1.905625e+001 5.589810e+000 4.772790e-001 9.078445e-001 1.480129e+000 2.870087e+000 1.999890e+000 3.254402e+000 3.791874e+000 2.573802e+000 2.389472e+000 2.256081e+000 1.618431e+000 1.880399e+000 3.183461e-001 6.570556e-002 2.058821e-001 1.443954e-001 3.133221e-001 8.914436e-001 9.847508e-001 3.586199e-001 5.867249e-001 5.996771e-001 4.618865e-001 2.750103e-001 3.244979e-001 2.398201e-002
<GCONST> 9.876622e+001
<TRANSP> 5
 0.000000e+000 1.000000e+000 0.000000e+000 0.000000e+000 0.000000e+000
 0.000000e+000 8.378627e-001 1.621373e-001 0.000000e+000 0.000000e+000
 0.000000e+000 0.000000e+000 6.714334e-001 3.285666e-001 0.000000e+000
 0.000000e+000 0.000000e+000 0.000000e+000 7.043797e-001 2.956203e-001
 0.000000e+000 0.000000e+000 0.000000e+000 0.000000e+000 0.000000e+000
<ENDHMM>
~h "z"
<BEGINHMM>
<NUMSTATES> 5
<STATE> 2
<MEAN> 39
 -5.411745e+000 2.742059e+000 1.482263e+000 -5.604038e-001 -6.705248e+000 -1.234552e+001 -7.127997e+000 -1.740394e+001 -1.037214e+001 -7.352514e+000 -5.322663e+000 -6.933630e+000 5.961135e+001 1.713873e-002 4.425913e-001 3.894918e-001 3.348311e-001 3.824393e-001 4.156721e-001 4.923641e-002 -3.272857e-002 -3.025037e-001 -1.161144e+000 -1.161065e+000 -5.456451e-001 -4.727591e-002 -1.663901e-001 -1.434471e-001 -2.160863e-001 -1.046865e-001 1.494463e-001 2.068409e-001 2.392633e-001 3.098343e-001 2.053727e-001 1.036889e-001 4.261874e-002 -2.463963e-002 -8.123370e-002
<VARIANCE> 39
 1.173723e+001 7.882487e+000 1.271084e+001 1.374722e+001 3.180884e+001 2.757260e+001 3.407665e+001 3.470472e+001 2.292676e+001 2.153553e+001 2.051354e+001 1.903251e+001 7.896234e+000 1.831656e+000 6.890709e-001 1.654343e+000 1.857656e+000 4.685959e+000 4.220454e+000 3.009183e+000 5.117657e+000 3.221298e+000 2.191777e+000 2.017468e+000 1.677325e+000 1.123532e+000 1.689508e-001 1.483928e-001 2.351020e-001 3.029531e-001 5.065485e-001 5.217859e-001 4.563888e-001 3.700445e-001 2.891641e-001 4.710872e-001 3.506596e-001 3.263038e-001 1.384227e-001
<GCONST> 1.042441e+002
<STATE> 3
<MEAN> 39
 -7.932492e+000 3.445972e+000 2.911897e-001 -1.733626e-001 -1.523305e+000 -8.471203e+000 -5.611982e+000 -1.358955e+001 -9.740629e+000 -1.198796e+001 -9.725501e+000 -9.753077e+000 5.803187e+001 -7.699106e-001 -3.819259e-001 -5.802607e-001 9.796856e-002 5.839159e-001 3.837416e-001 6.609299e-001 7.578638e-001 4.016282e-001 4.091527e-001 -3.853585e-002 1.269940e-001 -1.587876e-001 2.491154e-002 -6.661953e-002 -6.474125e-002 -4.997285e-002 -2.417196e-001 -3.697047e-001 -4.155438e-002 -1.666340e-001 -1.026628e-001 3.690997e-001 2.829021e-001 1.816188e-001 1.352779e-001
<VARIANCE> 39
 5.285660e+000 4.874425e+000 6.979078e+000 1.189992e+001 1.138157e+001 2.067515e+001 1.880150e+001 1.647106e+001 1.232224e+001 1.372210e+001 1.421205e+001 1.564627e+001 3.322815e+000 5.225338e-001 5.491931e-001 6.882278e-001 7.439595e-001 1.701677e+000 2.840894e+000 1.856221e+000 1.926427e+000 1.886428e+000 1.948361e+000 1.989704e+000 1.339808e+000 3.125771e-001 6.613542e-002 7.224229e-002 1.093727e-001 1.483846e-001 2.618463e-001 2.911540e-001 2.850504e-001 2.606910e-001 2.288459e-001 3.205910e-001 3.218010e-001 2.631733e-001 2.670112e-002
<GCONST> 8.098692e+001
<STATE> 4
<MEAN> 39
 -1.317501e+001 4.989094e-002 -4.646281e+000 -1.246848e+000 -6.323450e-001 -7.474110e+000 -2.773853e-001 -7.452264e+000 -5.533706e+000 -4.503868e+000 -4.162883e+000 -4.882277e+000 5.763009e+001 -2.329720e-001 5.820263e-002 -3.421990e-002 -4.952597e-002 -2.794008e-001 -1.168634e+000 -2.088054e-001 -1.686643e-001 -5.553870e-001 2.345067e-001 2.210248e-001 1.760035e-001 4.559839e-001 2.922565e-001 1.082867e-001 2.964117e-001 4.644699e-002 -1.928732e-001 -4.197808e-001 -3.599621e-001 -2.837594e-001 -3.161012e-001 -2.370353e-001 -6.988880e-002 -6.778503e-002 1.337842e-001
<VARIANCE> 39
 9.634482e+000 8.769979e+000 1.056453e+001 1.543675e+001 1.552797e+001 2.905411e+001 2.673748e+001 2.916786e+001 2.702907e+001 3.189507e+001 2.637559e+001 1.492670e+001 3.947071e+000 8.963816e-001 6.690157e-001 1.347877e+000 1.014412e+000 1.261706e+000 2.362881e+000 2.158526e+000 2.785781e+000 2.572752e+000 2.569991e+000 1.834638e+000 1.116447e+000 2.684507e-001 1.743619e-001 1.341541e-001 1.607302e-001 2.249311e-001 2.856789e-001 4.080037e-001 3.956344e-001 4.934938e-001 3.699805e-001 4.133905e-001 3.534926e-001 2.360555e-001 3.749019e-002
<GCONST> 9.356244e+001
<TRANSP> 5
 0.000000e+000 1.000000e+000 0.000000e+000 0.000000e+000 0.000000e+000
 0.000000e+000 7.155719e-001 2.844281e-001 0.000000e+000 0.000000e+000
 0.000000e+000 0.000000e+000 8.137882e-001 1.862118e-001 0.000000e+000
 0.000000e+000 0.000000e+000 0.000000e+000 8.343639e-001 1.656361e-001
 0.000000e+000 0.000000e+000 0.000000e+000 0.000000e+000 0.000000e+000
<ENDHMM>
~h "ah"
<BEGINHMM>
<NUMSTATES> 5
<STATE> 2
<MEAN> 39
 3.525580e+000 -1.262219e+001 -1.955918e+001 -1.371932e+001 -1.053023e+000 -1.690904e+000 -9.371966e-001 -1.954409e+001 -1.033968e+001 -1.922551e+000 -7.703215e-001 -1.604723e+001 7.113333e+001 -4.761005e-001 -1.755562e+000 2.832546e-001 2.603717e+000 1.367372e+000 -1.669373e+000 -1.030267e+000 4.318611e-001 3.085198e-001 1.229722e+000 -5.034754e-001 -1.477101e+000 3.703399e-001 -4.119605e-002 5.484805e-001 3.502179e-001 1.011616e-001 -7.191194e-001 -8.724582e-001 -1.832003e-001 7.023551e-001 3.475956e-001 -8.509650e-002 -2.716327e-001 2.300307e-001 -2.434891e-001
<VARIANCE> 39
 8.614224e+000 2.779764e+001 1.231029e+001 3.407640e+001 3.998223e+001 4.698140e+001 3.316953e+001 2.814322e+001 3.584062e+001 3.906385e+001 2.757907e+001 3.329279e+001 1.068580e+001 1.722908e-001 1.455076e+000 8.649102e-001 1.194330e+000 2.597721e+000 4.066583e+000 1.596412e+000 2.962040e+000 2.024540e+000 1.792107e+000 1.900482e+000 1.881658e+000 3.423575e-001 3.350200e-002 1.427717e-001 1.694813e-001 2.395718e-001 2.584506e-001 4.878646e-001 3.922731e-001 3.518428e-001 3.855423e-001 4.016859e-001 3.428672e-001 4.183809e-001 3.173778e-002
<GCONST> 9.820353e+001
<STATE> 3
<MEAN> 39
 1.811306e+000 -1.385161e+001 -1.608534e+001 -2.636947e+000 -2.962937e+000 -1.628502e+001 -6.605646e+000 -1.214818e+001 -7.175172e+000 1.120867e+000 -4.990397e+000 -1.911821e+001 7.043544e+001 -4.783844e-001 1.385926e+000 1.660311e+000 1.596988e+000 -1.189545e+000 -2.426576e+000 -1.232946e+000 1.055037e+000 5.198593e-001 -1.757623e-001 7.743395e-002 9.663895e-001 -8.562672e-001 -9.240767e-002 7.010827e-001 4.995336e-001 -4.628366e-001 -1.801700e-001 6.984359e-001 1.426125e-001 -6.163254e-001 -2.215703e-001 -3.070700e-001 4.023953e-001 6.451980e-001 -3.194886e-001
<VARIANCE> 39
 9.998116e+000 2.012617e+001 1.418670e+001 2.396023e+001 3.640154e+001 5.492154e+001 3.044311e+001 3.098663e+001 2.779899e+001 3.230750e+001 3.244097e+001 2.335748e+001 1.136924e+001 2.324772e-001 1.861733e+000 1.655871e+000 1.720605e+000 1.304475e+000 2.500306e+000 2.165388e+000 2.735915e+000 1.700442e+000 1.476643e+000 2.391437e+000 2.047902e+000 4.510670e-001 5.187788e-002 1.601781e-001 2.603164e-001 2.603993e-001 2.668315e-001 4.661359e-001 4.496264e-001 4.355200e-001 3.286557e-001 2.709892e-001 3.452036e-001 2.865428e-001 3.493414e-002
<GCONST> 9.872297e+001
<STATE> 4
<MEAN> 39
 -2.454319e-001 -5.089619e+000 -5.751024e+000 4.801621e-001 -8.091268e+000 -1.946070e+001 -9.644915e+000 -1.392477e+001 -6.808307e+000 -1.129437e-001 -1.668152e+000 -1.199879e+001 6.580369e+001 -1.058791e+000 2.764908e+000 3.269825e+000 1.293351e-001 -1.114797e+000 1.052084e+000 3.540513e-001 -1.549428e+000 -1.261164e+000 -1.361581e+000 7.385566e-001 2.655595e+000 -1.620735e+000 -1.054786e-002 -2.874866e-001 -3.457960e-001 -2.843683e-001 2.419119e-001 5.904312e-001 4.857447e-001 -1.299119e-001 -3.808585e-001 -2.877004e-001 -2.524877e-001 -7.660694e-002 1.398517e-001
<VARIANCE> 39
 1.050267e+001 1.986276e+001 1.978866e+001 2.439868e+001 3.500224e+001 3.144663e+001 2.560823e+001 3.895574e+001 3.813660e+001 3.817155e+001 3.649814e+001 2.827391e+001 1.103877e+001 2.891997e-001 9.568793e-001 1.655343e+000 1.359023e+000 1.525033e+000 1.760786e+000 2.156095e+000 2.355076e+000 2.459939e+000 1.797074e+000 1.564791e+000 1.343592e+000 1.858676e-001 5.775979e-002 2.078214e-001 3.058980e-001 2.395620e-001 2.718551e-001 3.910891e-001 3.448231e-001 5.074661e-001 4.220684e-001 2.490912e-001 2.869250e-001 2.843216e-001 5.296209e-002
<GCONST> 9.769840e+001
<TRANSP> 5
 0.000000e+000 1.000000e+000 0.000000e+000 0.000000e+000 0.000000e+000
 0.000000e+000 8.052139e-001 1.947861e-001 0.000000e+000 0.000000e+000
 0.000000e+000 0.000000e+000 7.621580e-001 2.378420e-001 0.000000e+000
 0.000000e+000 0.000000e+000 0.000000e+000 6.035038e-001 3.964962e-001
 0.000000e+000 0.000000e+000 0.000000e+000 0.000000e+000 0.000000e+000
<ENDHMM>
~h "ao"
<BEGINHMM>
<NUMSTATES> 5
<STATE> 2
<MEAN> 39
 2.846884e+000 7.706882e+000 -6.154574e+000 -1.599298e+001 -1.860537e+001 -1.874123e+001 -8.047221e+000 -1.096107e+001 -3.361403e+000 -5.015724e+000 -3.680942e+000 -7.063672e+000 6.374592e+001 1.969028e+000 2.462424e+000 5.499151e-001 -2.188794e+000 -2.220202e+000 -1.053132e+000 -1.180825e+000 -8.193638e-001 8.770581e-002 -4.889989e-001 -8.602564e-001 -4.337328e-001 8.313298e-001 -8.645443e-001 -1.069863e+000 -1.751162e-001 8.889171e-001 8.392457e-001 4.781007e-001 2.523268e-001 1.564046e-001 3.498888e-002 4.682386e-001 5.083081e-001 1.716330e-001 -2.573516e-001
<VARIANCE> 39
 8.433495e+000 8.832541e+000 6.883456e+000 1.764082e+001 1.172242e+001 1.160815e+001 1.136885e+001 1.462943e+001 1.172649e+001 1.175035e+001 1.178634e+001 1.059504e+001 2.741395e+000 2.900800e+000 4.509726e+000 7.728829e-001 3.639308e+000 3.026878e+000 1.924984e+000 1.682504e+000 2.094907e+000 1.377229e+000 1.768687e+000 2.298397e+000 1.247625e+000 4.960782e-001 1.286745e-001 2.509695e-001 1.193740e-001 2.618944e-001 1.968826e-001 3.419122e-001 2.406938e-001 3.740821e-001 2.219551e-001 2.702116e-001 2.977745e-001 2.503648e-001 5.477064e-002
<GCONST> 8.912749e+001
<STATE> 3
<MEAN> 39
 2.597299e+000 8.977142e+000 -4.566761e+000 -1.662834e+001 -1.994294e+001 -2.060409e+001 -1.068515e+001 -1.190922e+001 -2.052121e+000 -3.414783e+000 -3.061230e+000 -6.580908e+000 6.374646e+001 -2.228270e-001 -1.428343e-001 4.808277e-003 1.177344e-001 1.636325e-001 1.358508e-001 6.298634e-002 -4.040705e-002 -1.382446e-002 7.975877e-003 -4.296689e-002 1.047777e-001 -1.070071e-001 -3.826108e-002 -8.529092e-002 -6.337401e-002 5.406608e-002 1.415499e-001 1.516863e-001 1.022494e-001 -3.905402e-002 -8.207882e-002 -2.803926e-002 3.023677e-002 5.013096e-002 -1.622610e-002
<VARIANCE> 39
 8.742620e+000 2.801617e+000 1.005748e+001 2.084636e+001 1.020708e+001 2.170927e+001 2.986013e+001 2.693782e+001 1.983779e+001 1.832002e+001 1.719171e+001 1.263475e+001 3.104248e+000 1.224042e-001 2.067216e-001 3.867134e-001 5.373880e-001 6.902346e-001 8.715574e-001 1.026081e+000 1.425465e+000 1.006378e+000 1.103267e+000 1.157606e+000 9.120641e-001 5.525097e-002 2.488421e-002 4.628380e-002 6.355517e-002 8.710880e-002 1.415527e-001 1.364374e-001 1.805191e-001 2.953117e-001 1.928370e-001 1.858965e-001 2.444706e-001 1.711277e-001 1.049241e-002
<GCONST> 6.670730e+001
<STATE> 4
<MEAN> 39
 -9.339205e-001 4.091111e+000 -7.232071e+000 -1.432278e+001 -1.347696e+001 -1.373722e+001 -7.407405e+000 -1.434589e+001 -4.575454e+000 -2.679832e+000 -8.390527e-001 -3.843807e+000 6.208613e+001 -6.884769e-001 -1.080209e+000 -3.006050e-001 1.297633e+000 2.231381e+000 1.424430e+000 -1.593894e-002 -1.207278e+000 -7.833302e-001 6.306357e-001 8.706880e-001 3.446523e-001 -2.628421e-001 -1.852107e-001 -7.181534e-002 2.156846e-001 4.237825e-001 2.961026e-001 -4.028010e-002 -1.343249e-001 1.711442e-001 1.721914e-001 1.375767e-001 -8.225831e-002 -2.388801e-001 -7.110837e-002
<VARIANCE> 39
 2.955331e+001 1.106262e+001 1.573434e+001 3.176483e+001 3.011358e+001 3.136502e+001 2.489901e+001 6.431922e+001 4.505410e+001 2.513652e+001 2.024517e+001 1.303522e+001 1.344812e+001 6.416917e-001 6.453022e-001 1.004211e+000 2.019686e+000 2.216486e+000 1.993215e+000 2.653927e+000 3.397550e+000 2.234832e+000 2.744826e+000 2.207100e+000 1.836752e+000 3.324301e-001 1.474158e-001 1.536820e-001 2.320702e-001 3.118995e-001 3.498209e-001 4.077466e-001 4.409060e-001 8.493824e-001 4.924054e-001 6.049244e-001 5.085441e-001 3.462990e-001 4.875960e-002
<GCONST> 1.034282e+002
<TRANSP> 5
 0.000000e+000 1.000000e+000 0.000000e+000 0.000000e+000 0.000000e+000
 0.000000e+000 7.540387e-001 2.459613e-001 0.000000e+000 0.000000e+000
 0.000000e+000 0.000000e+000 9.146299e-001 8.537010e-002 0.000000e+000
 0.000000e+000 0.000000e+000 0.000000e+000 8.083947e-001 1.916053e-001
 0.000000e+000 0.000000e+000 0.000000e+000 0.000000e+000 0.000000e+000
<ENDHMM>
~h "ay"
<BEGINHMM>
<NUMSTATES> 5
<STATE> 2
<MEAN> 39
 -9.742978e+000 -2.642992e+000 -3.372022e+000 1.053660e-001 -5.260577e+000 -8.765394e+000 -3.029795e+000 -9.203138e+000 -6.171831e+000 -1.786344e+000 -1.375928e+000 -5.496682e+000 5.910413e+001 -2.503573e-002 -1.570580e-001 -6.829076e-003 -4.844419e-002 6.340174e-002 1.483868e-001 -1.301921e-001 -2.381943e-001 1.395532e-001 -8.304349e-002 -1.858086e-001 -1.199906e-001 -6.150572e-002 6.927920e-002 -1.686152e-001 -4.904686e-002 1.123585e-002 6.435686e-002 -6.479484e-002 -7.638525e-002 -8.051147e-002 5.915279e-002 1.700442e-001 9.879602e-002 -9.093945e-002 7.378656e-002
<VARIANCE> 39
 2.066640e+001 2.531263e+001 2.578091e+001 1.600387e+001 1.828135e+001 2.443061e+001 2.408781e+001 4.405379e+001 2.025274e+001 3.163755e+001 2.331768e+001 1.518675e+001 5.794509e+000 2.866538e-001 6.430165e-001 5.276466e-001 8.032158e-001 1.215426e+000 1.312648e+000 1.336416e+000 1.584070e+000 1.473596e+000 1.473485e+000 1.723394e+000 1.300318e+000 2.520013e-001 5.245246e-002 1.074034e-001 1.200708e-001 1.654570e-001 1.993192e-001 2.364150e-001 2.461109e-001 2.791317e-001 2.555899e-001 2.498266e-001 2.793019e-001 3.043638e-001 3.514092e-002
<GCONST> 8.659370e+001
<STATE> 3
<MEAN> 39
 -8.681173e+000 -3.202538e+000 -2.344162e+000 5.637789e-001 -6.240869e+000 -1.011190e+001 -4.249665e+000 -1.159359e+001 -7.033231e+000 -1.651921e+000 -1.274706e+000 -6.771085e+000 5.996143e+001 2.839940e-001 -3.754431e-001 7.714691e-002 1.656307e-001 9.368877e-002 -3.283515e-001 -6.391321e-001 -6.864617e-001 -5.496916e-002 8.422913e-002 -7.737704e-002 -4.801830e-001 1.744216e-001 2.308546e-001 -7.766560e-002 -2.799735e-001 -2.760548e-001 -4.492764e-003 -1.010210e-001 1.989552e-002 -8.889120e-002 -1.121339e-002 3.695898e-002 1.243492e-001 -8.307122e-002 1.049158e-001
<VARIANCE> 39
 2.387258e+001 2.890593e+001 2.674744e+001 1.286498e+001 2.642231e+001 3.109636e+001 3.972034e+001 5.629715e+001 3.125202e+001 3.579634e+001 2.623173e+001 1.581196e+001 6.821127e+000 3.901495e-001 9.938367e-001 5.851325e-001 1.185434e+000 1.657394e+000 1.484779e+000 1.948900e+000 1.957054e+000 1.621956e+000 1.470464e+000 1.462682e+000 1.988719e+000 3.279230e-001 7.706474e-002 1.669441e-001 1.687202e-001 1.747753e-001 2.729130e-001 3.754047e-001 3.579787e-001 3.683811e-001 3.416747e-001 3.560334e-001 3.379406e-001 3.160019e-001 5.288683e-002
<GCONST> 9.573007e+001
<STATE> 4
<MEAN> 39
 -1.001167e+001 -6.652081e+000 -4.265272e+000 1.264354e+000 -5.054180e+000 -9.815272e+000 -4.321097e+000 -9.867374e+000 -5.797542e+000 1.104392e+000 1.237372e+000 -6.785869e+000 5.993688e+001 7.667890e-001 -1.625836e-001 -5.307460e-001 -1.084718e+000 -4.459243e-002 -2.951162e-001 1.498122e-001 -2.391811e-001 2.721266e-001 -2.820288e-001 1.898875e-001 -1.980787e-001 5.900187e-002 6.808001e-001 2.941738e-001 -6.900197e-001 -9.516923e-001 -2.842450e-001 2.196078e-001 3.168129e-001 -1.457210e-001 -6.862105e-002 -1.012503e-001 -4.253771e-002 -4.547806e-002 3.120180e-001
<VARIANCE> 39
 2.019371e+001 3.363468e+001 2.553430e+001 1.335365e+001 2.188657e+001 2.138823e+001 3.272150e+001 4.851630e+001 2.779266e+001 3.198750e+001 2.796358e+001 1.573687e+001 5.105905e+000 6.606550e-001 1.393807e+000 8.681723e-001 2.514237e+000 1.554401e+000 1.847772e+000 2.238825e+000 2.169501e+000 1.939190e+000 1.819177e+000 1.435728e+000 1.816794e+000 2.975645e-001 2.687667e-001 4.164165e-001 3.008968e-001 4.611740e-001 4.554511e-001 3.870081e-001 4.189028e-001 4.293206e-001 4.009199e-001 3.552778e-001 2.941382e-001 3.272817e-001 1.162555e-001
<GCONST> 1.023391e+002
<TRANSP> 5
 0.000000e+000 1.000000e+000 0.000000e+000 0.000000e+000 0.000000e+000
 0.000000e+000 4.929428e-001 5.070571e-001 0.000000e+000 0.000000e+000
 0.000000e+000 0.000000e+000 8.337998e-002 9.166200e-001 0.000000e+000
 0.000000e+000 0.000000e+000 0.000000e+000 4.029052e-001 5.970948e-001
 0.000000e+000 0.000000e+000 0.000000e+000 0.000000e+000 0.000000e+000
<ENDHMM>
~h "eh"
<BEGINHMM>
<NUMSTATES> 5
<STATE> 2
<MEAN> 39
 -9.316598e+000 -5.981747e+000 -7.775761e+000 -5.927544e+000 -4.713399e+000 -1.709215e+001 -1.560870e+000 -5.895771e+000 -3.364857e+000 2.060738e+000 -6.442831e-001 -5.790868e+000 6.377127e+001 4.904517e+000 -1.752217e+000 -8.243288e-001 -5.900000e-001 -2.412745e+000 -1.835082e+000 -1.641029e+000 -1.756297e+000 1.484214e+000 7.738666e-001 -1.109638e+000 -1.344651e+000 2.213565e+000 4.469756e-002 -2.797006e-001 -1.710924e-001 1.238779e-001 3.586366e-001 2.534406e-001 1.545674e-001 -1.297493e-001 -2.128465e-001 2.803279e-001 -5.812806e-001 -5.263820e-001 6.637052e-001
<VARIANCE> 39
 6.300060e+001 1.069880e+001 1.591803e+001 1.430664e+001 3.706977e+001 3.315493e+001 3.403503e+001 3.457944e+001 2.180022e+001 2.235840e+001 2.937155e+001 1.811548e+001 1.785446e+001 1.459440e+000 1.637607e+000 1.522414e+000 1.764578e+000 1.918664e+000 3.499054e+000 2.631031e+000 2.724809e+000 1.909851e+000 2.575920e+000 3.776477e+000 2.686657e+000 2.754210e+000 1.315089e+000 2.114356e-001 2.620855e-001 2.941814e-001 7.360750e-001 6.777200e-001 7.343887e-001 7.100997e-001 4.382887e-001 5.397105e-001 4.893193e-001 3.345542e-001 3.929288e-001
<GCONST> 1.144338e+002
<STATE> 3
<MEAN> 39
 2.977904e+000 -1.347564e+001 -1.022770e+001 -5.557145e+000 -8.575511e+000 -2.037237e+001 -2.246825e+000 -9.741811e+000 -1.170694e+000 5.176769e+000 -6.480726e+000 -1.324902e+001 7.417374e+001 8.812021e-001 -1.674711e+000 -5.465465e-001 4.737730e-001 1.048962e+000 7.240418e-001 1.956088e-001 1.003002e-001 -5.464137e-001 -5.174599e-002 -1.029679e+000 -2.576104e+000 1.437374e+000 -1.208851e+000 4.691326e-001 -3.391073e-002 3.210926e-002 7.789764e-001 6.760651e-001 -1.650064e-001 1.445580e-001 -4.968391e-001 -4.706218e-001 4.774749e-001 1.576595e-001 -1.004001e+000
<VARIANCE> 39
 2.675110e+000 1.724329e+001 1.447963e+001 1.384287e+001 1.651494e+001 3.986253e+001 2.405314e+001 1.910306e+001 1.770419e+001 1.237781e+001 1.204474e+001 2.092158e+001 7.431383e+000 1.831261e+000 1.670968e+000 1.137164e+000 1.049443e+000 2.205156e+000 1.892954e+000 2.124132e+000 2.716457e+000 1.598273e+000 2.000756e+000 1.547302e+000 1.210638e+000 1.881965e+000 2.385895e-001 3.709561e-001 2.171093e-001 2.716475e-001 3.569359e-001 4.462169e-001 5.149595e-001 7.937317e-001 2.923912e-001 2.964225e-001 2.991277e-001 3.729357e-001 9.815134e-002
<GCONST> 9.830583e+001
<STATE> 4
<MEAN> 39
 2.478287e+000 -1.562550e+001 -1.361848e+001 -5.111289e+000 -3.743866e+000 -1.619493e+001 -5.975073e+000 -1.254370e+001 -4.343019e+000 3.117538e+000 -8.804047e+000 -1.929865e+001 7.336791e+001 1.434754e-001 2.017334e-001 -1.218616e+000 -1.942454e-001 6.640986e-001 1.200850e+000 -1.190598e+000 -1.964978e+000 -5.371961e-001 3.516986e-001 5.973331e-001 -5.214303e-001 -5.158671e-001 4.372635e-002 7.546551e-001 1.302553e-001 -2.146096e-001 -5.021764e-001 -6.334505e-002 -1.160099e-001 -4.988288e-001 -2.149277e-002 3.073621e-001 8.977364e-001 9.477158e-001 -3.640953e-001
<VARIANCE> 39
 4.840720e+000 1.460748e+001 1.832533e+001 2.017662e+001 1.850791e+001 3.633202e+001 2.611321e+001 2.966188e+001 2.789991e+001 2.534862e+001 1.693458e+001 1.570782e+001 7.257271e+000 2.369934e-001 1.814912e+000 9.371136e-001 1.231062e+000 1.376019e+000 1.345458e+000 1.686247e+000 2.495833e+000 1.567270e+000 2.596585e+000 3.254456e+000 2.805829e+000 2.222528e-001 5.918159e-002 1.677764e-001 2.352126e-001 2.099286e-001 2.191286e-001 1.844647e-001 3.431431e-001 4.464102e-001 3.294861e-001 4.391516e-001 3.312209e-001 3.471791e-001 5.232416e-002
<GCONST> 9.285094e+001
<TRANSP> 5
 0.000000e+000 1.000000e+000 0.000000e+000 0.000000e+000 0.000000e+000
 0.000000e+000 7.450738e-001 2.549263e-001 0.000000e+000 0.000000e+000
 0.000000e+000 0.000000e+000 6.045681e-001 3.954319e-001 0.000000e+000
 0.000000e+000 0.000000e+000 0.000000e+000 7.254485e-001 2.745515e-001
 0.000000e+000 0.000000e+000 0.000000e+000 0.000000e+000 0.000000e+000
<ENDHMM>
~h "ey"
<BEGINHMM>
<NUMSTATES> 5
<STATE> 2
<MEAN> 39
 -9.867320e+000 5.708472e-001 -1.793256e+000 -2.371132e+000 -8.344679e-001 -5.601384e+000 -1.395545e+000 -7.910907e+000 -3.022468e+000 -5.336196e+000 -2.727278e+000 -4.115263e+000 5.643832e+001 -1.146942e+000 -6.083288e-001 -5.962697e-001 -2.629848e-001 1.044073e+000 1.223716e+000 6.808497e-001 1.294962e+000 1.488522e+000 5.604098e-003 -3.732781e-001 1.166829e-001 -8.634050e-001 1.879067e-001 -2.158678e-001 -5.516577e-002 -1.836482e-001 -7.301560e-001 -4.739440e-001 1.082521e-001 -1.973284e-001 -1.385061e-001 3.083532e-001 2.385262e-001 6.382777e-002 2.311800e-001
<VARIANCE> 39
 9.280055e+000 9.052011e+000 1.391759e+001 1.633682e+001 1.230006e+001 1.528011e+001 2.116966e+001 3.192433e+001 2.442925e+001 1.418446e+001 1.983314e+001 2.032532e+001 5.186673e+000 1.103126e+000 8.814290e-001 1.487070e+000 1.893398e+000 3.088454e+000 3.783013e+000 3.473866e+000 3.793183e+000 2.890853e+000 1.794902e+000 2.785795e+000 2.729127e+000 5.435753e-001 9.200659e-002 1.854761e-001 2.266542e-001 2.980548e-001 4.777132e-001 5.096133e-001 3.918447e-001 4.379737e-001 3.582660e-001 3.221827e-001 5.673540e-001 4.256772e-001 6.676793e-002
<GCONST> 9.966182e+001
<STATE> 3
<MEAN> 39
 -1.244201e+001 -2.013232e+000 -4.178789e+000 -3.919823e+000 -9.493376e-001 -4.615608e+000 3.770681e-001 -5.405429e+000 5.431800e-001 -3.273966e+000 -2.161302e+000 -3.015921e+000 5.476472e+001 -1.385049e-001 -3.311248e-001 -3.257574e-001 -4.370232e-001 -4.917669e-001 -2.481884e-001 2.581115e-001 1.716639e-001 2.774121e-001 4.451890e-001 1.793850e-001 2.269877e-001 -3.779120e-002 2.805420e-001 -9.410361e-002 1.389856e-001 1.074497e-001 -5.701661e-001 -5.447796e-001 7.460867e-002 -3.286242e-001 -4.041018e-001 1.935130e-001 2.334027e-002 -1.956941e-001 3.660668e-001
<VARIANCE> 39
 1.888013e+000 2.890316e+000 6.233102e+000 6.980181e+000 6.548482e+000 6.637866e+000 1.036993e+001 1.169703e+001 1.156955e+001 1.490625e+001 1.278144e+001 9.384274e+000 1.129701e+000 2.706481e-001 3.946585e-001 6.547921e-001 8.023065e-001 1.562164e+000 1.475399e+000 1.246187e+000 1.786041e+000 1.542710e+000 1.473641e+000 1.673410e+000 1.354041e+000 2.546888e-001 7.034905e-002 1.838517e-001 1.300862e-001 1.614393e-001 4.999842e-001 4.108072e-001 4.115855e-001 3.541734e-001 3.071074e-001 4.645462e-001 3.095113e-001 2.922671e-001 1.097771e-001
<GCONST> 7.652368e+001
<STATE> 4
<MEAN> 39
 -1.173276e+001 -3.863251e+000 -4.998425e+000 -5.119825e+000 -5.387927e+000 -7.598502e+000 2.396734e+000 -5.564979e+000 -3.965161e-001 -1.407598e+000 -1.727505e+000 -3.491322e+000 5.588934e+001 1.288430e+000 -1.706375e+000 4.991810e-001 5.154107e-001 -4.411523e+000 -3.453079e+000 1.321154e+000 -1.228795e+000 -1.594145e+000 2.036985e+000 3.672668e-001 -1.386760e+000 2.331612e+000 4.568262e-001 -2.508209e-001 5.530999e-001 2.999007e-001 -1.185852e+000 -1.051778e+000 1.478630e-001 -3.257591e-001 -6.058021e-001 5.380669e-001 4.489548e-001 -5.109296e-001 8.444948e-001
<VARIANCE> 39
 3.271646e+000 6.944772e+000 7.831593e+000 8.120748e+000 2.934983e+001 2.411702e+001 1.884793e+001 1.652857e+001 1.622028e+001 2.873040e+001 1.612862e+001 1.119047e+001 5.071841e+000 6.695376e-001 1.286152e+000 1.580146e+000 1.193703e+000 4.306587e+000 4.356684e+000 2.256184e+000 2.760934e+000 2.335443e+000 4.966878e+000 2.263870e+000 1.748809e+000 1.676981e+000 7.878231e-002 2.188960e-001 1.934317e-001 2.006844e-001 5.855149e-001 6.489603e-001 4.089628e-001 4.401114e-001 4.363770e-001 6.194358e-001 5.531489e-001 2.865716e-001 1.370541e-001
<GCONST> 9.868149e+001
<TRANSP> 5
 0.000000e+000 1.000000e+000 0.000000e+000 0.000000e+000 0.000000e+000
 0.000000e+000 4.864061e-001 5.135939e-001 0.000000e+000 0.000000e+000
 0.000000e+000 0.000000e+000 7.042429e-001 2.957571e-001 0.000000e+000
 0.000000e+000 0.000000e+000 0.000000e+000 6.158765e-001 3.841235e-001
 0.000000e+000 0.000000e+000 0.000000e+000 0.000000e+000 0.000000e+000
<ENDHMM>
~h "ia"
<BEGINHMM>
<NUMSTATES> 5
<STATE> 2
<MEAN> 39
 -7.992502e+000 1.713446e+000 7.388715e-001 -1.298074e-001 -6.204123e+000 -2.447035e+001 -9.764636e+000 -1.540504e+001 -1.538827e+001 -6.942508e+000 -5.801000e+000 -6.128190e+000 6.371336e+001 1.776423e+000 -8.643016e-001 1.003790e+000 2.287983e-001 -2.205418e+000 -2.563469e+000 -1.321301e+000 -8.702682e-001 -1.028478e+000 1.272760e-001 8.391834e-001 1.325660e-001 1.207829e+000 1.835138e-001 -3.907780e-001 -8.752619e-002 1.092069e-001 -4.255094e-001 4.186719e-001 2.927381e-001 4.569015e-002 2.384874e-001 9.915522e-002 2.366958e-001 -1.904632e-002 6.437244e-002
<VARIANCE> 39
 1.543287e+001 1.182198e+001 1.113115e+001 1.381006e+001 2.630896e+001 3.908183e+001 2.817369e+001 2.504206e+001 2.163248e+001 1.881856e+001 3.023291e+001 1.248455e+001 5.962908e+000 1.422580e+000 1.692669e+000 1.107941e+000 1.458259e+000 2.391872e+000 3.021519e+000 2.585203e+000 2.589803e+000 2.016955e+000 1.649339e+000 1.853665e+000 1.416318e+000 2.671875e-001 2.097630e-001 1.454880e-001 2.008557e-001 2.153554e-001 2.503870e-001 4.328727e-001 4.804304e-001 4.140267e-001 2.932776e-001 2.804226e-001 3.189251e-001 2.684446e-001 3.516836e-002
<GCONST> 9.645583e+001
<STATE> 3
<MEAN> 39
 1.904158e+000 -8.247309e+000 1.760148e+000 3.526779e+000 -2.037559e+001 -2.836252e+001 -1.065009e+001 -2.036814e+001 -1.475974e+001 -1.553864e+000 1.906936e+000 -5.216198e+000 7.021260e+001 9.339908e-001 -7.367718e-001 -1.338622e+000 1.882754e-001 2.190005e-001 9.276805e-001 -4.849167e-001 -1.115207e+000 1.080633e+000 1.579979e+000 6.666859e-001 -2.511482e-001 3.288228e-001 -2.099324e-001 4.476983e-001 -4.053131e-001 -3.001517e-001 8.938139e-001 4.066127e-001 -2.084104e-001 -1.242998e-002 8.054338e-002 -3.221637e-002 -3.232455e-002 7.106066e-002 -2.664136e-001
<VARIANCE> 39
 5.766951e+000 2.938030e+001 2.464622e+001 1.757948e+001 2.561807e+001 2.505329e+001 2.575463e+001 2.341488e+001 3.770068e+001 4.702194e+001 1.909925e+001 2.278782e+001 6.547245e+000 3.605047e-001 2.030530e+000 2.744461e+000 1.671927e+000 7.803382e+000 2.465557e+000 2.742159e+000 2.346803e+000 3.156039e+000 2.525412e+000 2.018031e+000 1.976481e+000 5.546633e-001 6.080283e-002 2.410007e-001 2.302757e-001 3.514076e-001 3.781532e-001 3.645788e-001 4.308469e-001 5.380270e-001 7.176040e-001 8.306188e-001 4.325402e-001 5.837274e-001 3.763859e-002
<GCONST> 1.047285e+002
<STATE> 4
<MEAN> 39
 4.991256e+000 -2.237930e+000 -1.393987e+001 -8.539963e+000 -6.965168e+000 -1.444586e+001 -1.367610e+001 -2.281008e+001 -1.092371e+001 -1.128475e+000 6.225643e+000 5.792561e-001 6.733166e+001 -1.874362e-002 3.229662e-001 -6.892422e-001 -9.859343e-001 4.653133e-001 9.047714e-001 4.673814e-001 4.079241e-001 1.443856e-001 -2.456987e-001 2.515482e-001 5.137772e-001 -1.701637e-001 -5.841411e-002 -1.403793e-001 2.283690e-001 1.576779e-001 -2.862451e-001 -1.686137e-001 1.993034e-001 1.376869e-001 4.443696e-002 5.383642e-002 -9.993541e-002 -1.162323e-001 4.535402e-002
<VARIANCE> 39
 7.344343e+000 2.455943e+001 2.475241e+001 4.561317e+001 2.763195e+001 2.985213e+001 4.325058e+001 2.509773e+001 3.053183e+001 5.129264e+001 2.746030e+001 3.631626e+001 6.881884e+000 1.876191e-001 2.109128e+000 1.205065e+000 1.953225e+000 2.984164e+000 1.647520e+000 3.049149e+000 1.732062e+000 2.915479e+000 5.361001e+000 2.660739e+000 4.131982e+000 3.967045e-001 3.624288e-002 2.185626e-001 1.891048e-001 2.350967e-001 4.019933e-001 2.533109e-001 5.527174e-001 3.636467e-001 5.773814e-001 8.883249e-001 5.294328e-001 6.131052e-001 3.923504e-002
<GCONST> 1.043329e+002
<TRANSP> 5
 0.000000e+000 1.000000e+000 0.000000e+000 0.000000e+000 0.000000e+000
 0.000000e+000 8.167142e-001 1.832858e-001 0.000000e+000 0.000000e+000
 0.000000e+000 0.000000e+000 8.664278e-001 1.335722e-001 0.000000e+000
 0.000000e+000 0.000000e+000 0.000000e+000 9.224775e-001 7.752252e-002
 0.000000e+000 0.000000e+000 0.000000e+000 0.000000e+000 0.000000e+000
<ENDHMM>
~h "ih"
<BEGINHMM>
<NUMSTATES> 5
<STATE> 2
<MEAN> 39
 -1.683762e+001 -4.995382e+000 -3.677292e+000 -2.521942e+000 -3.678608e+000 -1.565555e+001 4.167451e+000 -3.149366e+000 -7.483920e+000 -6.791014e-001 2.902073e+000 -1.977259e+000 6.120615e+001 3.410684e+000 7.295655e-002 2.090000e+000 -9.267528e-002 -3.478119e+000 -2.756994e+000 -1.808397e+000 -2.058486e+000 -1.450447e+000 -2.314990e-001 7.072088e-001 -3.278926e-001 5.590240e-001 7.840213e-001 3.148240e-001 4.215366e-001 2.731666e-001 -9.683678e-001 -5.768140e-001 -4.879995e-001 -1.199977e+000 -5.030704e-001 3.550846e-001 -6.709620e-002 -3.933183e-001 6.091097e-001
<VARIANCE> 39
 1.612787e+001 7.213027e+000 1.093032e+001 1.353820e+001 2.713842e+001 2.963987e+001 2.873321e+001 2.670965e+001 1.641404e+001 1.950594e+001 2.005392e+001 1.342268e+001 4.520354e+000 2.327347e+000 1.333630e+000 1.029938e+000 1.208843e+000 3.621391e+000 2.661487e+000 3.152220e+000 6.115115e+000 2.250544e+000 2.303144e+000 2.055544e+000 1.951691e+000 1.296733e+000 2.535029e-001 2.303260e-001 1.605580e-001 2.457691e-001 3.752709e-001 4.073216e-001 5.840855e-001 6.259178e-001 3.789021e-001 4.501997e-001 3.650808e-001 2.849483e-001 1.056127e-001
<GCONST> 1.022704e+002
<STATE> 3
<MEAN> 39
 -1.663888e+000 -1.853933e+000 8.215617e+000 6.475579e-001 -2.271809e+001 -2.488699e+001 -1.532680e+000 -2.097964e+001 -1.777897e+001 4.156099e+000 3.654830e+000 -9.575556e+000 6.738192e+001 5.856398e-001 8.369771e-001 9.918665e-001 5.402877e-001 -2.314710e-001 8.603359e-001 -4.058215e-003 -1.199206e+000 -6.038781e-001 2.162393e-001 -6.576816e-001 -1.076468e+000 -1.498722e-001 -7.315628e-001 6.346653e-002 -5.784743e-001 -6.336863e-002 1.345983e+000 9.047249e-001 2.067115e-001 8.907745e-001 6.314691e-001 -5.234641e-001 -3.196369e-001 3.329180e-001 -5.135772e-001
<VARIANCE> 39
 5.141608e+000 1.861455e+001 1.747956e+001 1.792610e+001 2.634546e+001 3.123033e+001 2.978085e+001 3.275257e+001 2.779386e+001 3.741277e+001 2.644075e+001 3.369153e+001 8.807958e+000 4.170093e+000 1.812419e+000 2.777018e+000 1.635663e+000 1.612386e+001 6.642468e+000 3.326837e+000 7.929723e+000 4.603133e+000 5.723845e+000 3.316731e+000 2.856550e+000 3.126364e+000 2.626455e-001 3.469234e-001 2.877580e-001 3.219123e-001 6.467156e-001 4.227000e-001 8.710954e-001 6.394073e-001 5.248483e-001 9.709852e-001 4.467828e-001 6.708617e-001 1.643396e-001
<GCONST> 1.192966e+002
<STATE> 4
<MEAN> 39
 -1.284371e+001 -3.929248e+000 -2.383481e+000 2.168423e+000 -2.742598e+000 -1.070636e+001 2.824916e+000 -6.113107e+000 -8.428121e+000 -1.270678e+000 2.624192e-001 -5.632149e+000 6.028558e+001 -1.521084e+000 -5.159716e-001 -1.217047e+000 1.845334e-002 1.213524e+000 -1.755456e-003 6.913028e-001 1.793737e+000 5.530181e-001 -2.952779e-001 3.235638e-001 9.525973e-001 5.376881e-002 5.380417e-002 2.519207e-002 1.073009e-001 -1.016528e-001 -3.772291e-001 -2.490289e-001 -1.188016e-002 -2.047141e-001 -1.557897e-001 2.288175e-001 1.123843e-001 -1.244699e-001 1.739015e-001
<VARIANCE> 39
 4.317908e+001 4.070518e+001 3.328237e+001 2.357720e+001 3.459122e+001 5.970175e+001 3.601958e+001 6.441983e+001 4.171435e+001 4.389959e+001 4.311673e+001 3.125529e+001 1.475852e+001 1.401403e+000 4.442609e+000 2.207786e+000 2.345293e+000 8.540556e+000 9.584075e+000 2.681931e+000 3.989450e+000 6.300007e+000 7.433230e+000 4.720743e+000 3.046418e+000 2.110265e+000 2.682141e-001 9.228425e-001 3.159689e-001 4.538572e-001 1.493378e+000 1.551353e+000 5.644774e-001 6.690566e-001 9.684004e-001 1.508707e+000 9.673530e-001 6.322099e-001 2.815229e-001
<GCONST> 1.312628e+002
<TRANSP> 5
 0.000000e+000 1.000000e+000 0.000000e+000 0.000000e+000 0.000000e+000
 0.000000e+000 7.062263e-001 2.937737e-001 0.000000e+000 0.000000e+000
 0.000000e+000 0.000000e+000 8.721254e-001 1.278746e-001 0.000000e+000
 0.000000e+000 0.000000e+000 0.000000e+000 9.165578e-001 8.344223e-002
 0.000000e+000 0.000000e+000 0.000000e+000 0.000000e+000 0.000000e+000
<ENDHMM>
~h "iy"
<BEGINHMM>
<NUMSTATES> 5
<STATE> 2
<MEAN> 39
 -1.858026e+000 -1.805876e-001 1.052326e+001 1.124418e+000 -2.426574e+001 -2.056380e+001 -3.600519e+000 -2.550575e+001 -1.871413e+001 -5.183849e-001 -6.994015e-001 -1.306427e+001 6.593450e+001 -5.681884e-001 1.061652e+000 5.064798e-001 -6.047083e-001 1.119459e+000 1.393812e+000 3.274229e-001 -1.771934e-001 -5.049027e-001 -4.358027e-001 -6.481568e-001 -5.340991e-001 -5.253036e-001 1.093545e-001 -6.991953e-002 -5.332277e-001 9.051217e-002 6.385742e-001 -1.118651e-001 -4.914598e-001 2.006198e-001 4.933975e-001 1.421935e-002 -1.479936e-001 1.318203e-001 -2.777690e-002
<VARIANCE> 39
 2.970737e+000 1.601338e+001 1.078916e+001 1.426723e+001 2.337296e+001 2.810676e+001 3.021780e+001 2.364676e+001 3.097640e+001 3.437999e+001 3.177851e+001 1.773460e+001 4.730218e+000 2.370362e-001 1.011366e+000 1.221901e+000 1.118783e+000 2.209991e+000 2.075479e+000 2.407542e+000 2.020243e+000 2.815694e+000 2.433597e+000 2.012770e+000 1.408220e+000 2.074225e-001 2.493799e-002 1.446593e-001 2.334791e-001 1.813927e-001 6.888602e-001 3.352838e-001 5.534752e-001 3.828745e-001 5.437483e-001 4.171811e-001 4.320365e-001 2.613698e-001 3.294652e-002
<GCONST> 9.299600e+001
<STATE> 3
<MEAN> 39
 -3.919955e+000 3.675047e+000 8.462721e+000 -2.562089e-001 -1.532398e+001 -1.677348e+001 -5.879867e+000 -2.325254e+001 -1.787597e+001 -4.444200e+000 -4.536790e+000 -1.288770e+001 6.269672e+001 -4.432675e-001 3.660977e-001 -1.049356e+000 -9.393745e-003 2.280070e+000 8.317846e-001 -5.042316e-001 1.194424e+000 6.708088e-001 -1.214010e+000 -5.848170e-001 6.600188e-001 -6.637211e-001 -7.939289e-002 -2.117081e-001 -2.375418e-001 2.078822e-002 1.213701e-001 1.286567e-001 1.026258e-001 2.724182e-001 3.253638e-001 8.013583e-003 -4.542746e-003 1.901165e-001 -1.202399e-002
<VARIANCE> 39
 5.558265e+000 1.002968e+001 1.258808e+001 1.700049e+001 1.950672e+001 2.242535e+001 2.792554e+001 3.034871e+001 2.371407e+001 2.478572e+001 3.877501e+001 2.022498e+001 3.346751e+000 3.826048e-001 9.139297e-001 9.857078e-001 1.376043e+000 3.404894e+000 1.909138e+000 2.045490e+000 2.576065e+000 2.373146e+000 1.856568e+000 2.149596e+000 1.879072e+000 2.436106e-001 1.024387e-001 1.173005e-001 1.599699e-001 2.391218e-001 6.091961e-001 4.544369e-001 4.238873e-001 4.565680e-001 4.937031e-001 3.939712e-001 4.249744e-001 2.663018e-001 3.377278e-002
<GCONST> 9.457504e+001
<STATE> 4
<MEAN> 39
 -6.289605e+000 4.030360e+000 2.513375e+000 -1.784433e+000 -6.073574e+000 -1.158568e+001 -7.378870e+000 -1.803146e+001 -1.270757e+001 -9.890701e+000 -8.328204e+000 -9.252963e+000 5.932156e+001 -6.469740e-001 -4.641328e-001 -9.702366e-001 -1.031097e-001 1.319327e+000 9.654742e-001 4.118167e-001 1.251372e+000 1.343712e+000 1.676094e-002 1.445415e-002 7.528077e-001 -5.065410e-001 -5.577521e-002 -1.503056e-001 6.843992e-002 2.507980e-002 -2.925533e-001 -7.741486e-002 1.878712e-001 4.952101e-003 2.596666e-002 3.498421e-001 2.538106e-001 -2.154552e-002 6.125579e-002
<VARIANCE> 39
 7.089952e+000 8.275723e+000 1.197763e+001 1.388466e+001 2.285742e+001 2.225553e+001 2.874466e+001 3.613767e+001 2.450225e+001 1.801030e+001 2.182782e+001 2.055505e+001 3.468016e+000 5.950468e-001 6.959859e-001 1.085503e+000 1.124413e+000 2.752915e+000 2.060920e+000 2.405018e+000 3.168407e+000 2.974934e+000 1.899413e+000 2.180257e+000 1.689045e+000 2.138129e-001 6.431453e-002 1.253336e-001 1.654876e-001 2.166266e-001 3.909186e-001 2.931806e-001 4.481886e-001 5.052872e-001 4.626423e-001 3.787589e-001 2.908217e-001 2.818263e-001 2.511797e-002
<GCONST> 9.232945e+001
<TRANSP> 5
 0.000000e+000 1.000000e+000 0.000000e+000 0.000000e+000 0.000000e+000
 0.000000e+000 8.151394e-001 1.848606e-001 0.000000e+000 0.000000e+000
 0.000000e+000 0.000000e+000 7.793106e-001 2.206894e-001 0.000000e+000
 0.000000e+000 0.000000e+000 0.000000e+000 7.930126e-001 2.069875e-001
 0.000000e+000 0.000000e+000 0.000000e+000 0.000000e+000 0.000000e+000
<ENDHMM>
~h "ow"
<BEGINHMM>
<NUMSTATES> 5
<STATE> 2
<MEAN> 39
 -1.182632e+001 -1.894401e+000 -4.483809e+000 -3.729647e+000 -7.486072e-001 -4.899875e+000 -5.354574e-001 -6.807326e+000 -5.603141e-002 -1.692183e+000 2.588459e-001 -2.213821e+000 5.537446e+001 -1.560963e-001 -8.222121e-002 -4.861129e-002 -3.807600e-002 -1.103467e-001 -1.443819e-001 -3.402681e-002 -6.778782e-002 -5.533934e-002 5.864319e-002 3.045614e-003 1.572378e-001 -7.303509e-002 9.937593e-002 2.216372e-002 -2.895980e-002 -3.972687e-002 -5.416835e-002 -6.776378e-002 -6.091976e-002 -6.134876e-002 -9.431086e-002 4.242642e-003 -2.539596e-002 -7.827433e-002 7.811870e-002
<VARIANCE> 39
 9.253878e+000 6.018509e+000 8.485462e+000 8.212677e+000 1.113451e+001 1.543549e+001 1.549690e+001 1.742916e+001 1.136293e+001 1.396403e+001 1.119153e+001 1.159821e+001 5.791306e+000 1.948013e-001 2.610577e-001 5.002408e-001 7.966461e-001 1.009777e+000 1.294584e+000 1.371071e+000 1.252121e+000 1.125338e+000 1.335779e+000 1.081631e+000 1.425710e+000 9.824311e-002 5.029554e-002 5.906450e-002 9.444245e-002 1.650621e-001 1.732559e-001 2.653803e-001 3.099327e-001 2.822572e-001 2.301027e-001 2.688479e-001 2.077770e-001 2.617918e-001 2.190013e-002
<GCONST> 7.279413e+001
<STATE> 3
<MEAN> 39
 -1.149407e+001 -9.570253e-001 -6.168869e+000 -3.289513e+000 -2.817950e+000 -7.157910e+000 -1.529056e+000 -6.650348e+000 -2.425762e+000 -5.371932e-001 -2.889555e-001 -2.892179e+000 5.827566e+001 -1.664674e-001 -4.516438e-002 -1.003586e-001 5.682055e-002 -2.264044e-001 -2.957337e-001 4.675239e-002 -1.672462e-001 -7.064494e-001 -4.027738e-001 -5.741723e-001 -1.951727e-001 1.443537e-001 7.227705e-002 1.128997e-002 9.129516e-002 1.240221e-001 1.655123e-001 1.192390e-001 -8.187181e-002 8.777839e-005 -7.810527e-002 -2.084936e-001 -8.481943e-002 -1.988366e-001 8.831131e-002
<VARIANCE> 39
 3.850825e+001 1.590694e+001 2.191323e+001 2.952243e+001 2.397726e+001 2.144738e+001 2.012339e+001 3.234794e+001 1.679141e+001 1.902490e+001 1.920215e+001 1.866137e+001 1.268669e+001 4.158773e-001 2.993327e-001 6.055556e-001 1.081944e+000 1.341352e+000 1.177158e+000 1.641407e+000 1.770164e+000 1.709925e+000 1.595156e+000 1.374801e+000 1.395440e+000 1.676570e-001 7.599203e-002 1.043850e-001 1.504001e-001 2.678743e-001 2.113914e-001 3.057498e-001 3.230827e-001 3.605809e-001 2.778539e-001 4.891737e-001 3.103388e-001 2.701109e-001 3.803955e-002
<GCONST> 8.968171e+001
<STATE> 4
<MEAN> 39
 -7.549319e+000 -3.596098e+000 -7.136602e+000 -2.884875e+000 -2.694669e+000 -7.310464e+000 -5.471192e-001 -8.749292e+000 -3.273695e+000 -5.584587e-001 -1.532897e+000 -5.548302e+000 6.087192e+001 -5.308868e-001 -1.044164e-001 5.476161e-001 6.524935e-001 2.134079e-001 -9.400721e-002 1.833407e-001 3.109218e-001 -4.517876e-001 -3.902951e-001 -4.352660e-001 -6.751817e-001 -9.747820e-002 -6.879275e-002 4.174241e-002 1.143355e-001 -7.294888e-002 6.205361e-002 7.013885e-002 -7.762339e-002 1.310092e-001 8.602504e-002 4.611812e-003 2.208442e-001 1.326121e-001 -3.281066e-002
<VARIANCE> 39
 7.692159e+001 4.039169e+001 3.923521e+001 2.656124e+001 2.342679e+001 1.453694e+001 2.335117e+001 3.627493e+001 1.705189e+001 4.300245e+001 2.467422e+001 3.373958e+001 4.687840e+001 9.018227e-001 1.113780e+000 1.000181e+000 1.470336e+000 1.683109e+000 1.176113e+000 2.051222e+000 2.421270e+000 1.848138e+000 2.871835e+000 2.048053e+000 2.181681e+000 9.759480e-001 1.286757e-001 1.388064e-001 1.409840e-001 2.709229e-001 2.678747e-001 1.814294e-001 2.998979e-001 2.868245e-001 3.568949e-001 3.362562e-001 3.862134e-001 6.155598e-001 9.386866e-002
<GCONST> 1.035368e+002
<TRANSP> 5
 0.000000e+000 1.000000e+000 0.000000e+000 0.000000e+000 0.000000e+000
 0.000000e+000 8.139359e-001 1.860641e-001 0.000000e+000 0.000000e+000
 0.000000e+000 0.000000e+000 3.106249e-001 6.893751e-001 0.000000e+000
 0.000000e+000 0.000000e+000 0.000000e+000 3.573940e-001 6.426061e-001
 0.000000e+000 0.000000e+000 0.000000e+000 0.000000e+000 0.000000e+000
<ENDHMM>
~h "sp"
<BEGINHMM>
<NUMSTATES> 3
<STATE> 2
~s "silst"
<TRANSP> 3
 0.000000e+000 2.847822e-001 7.152178e-001
 0.000000e+000 9.692932e-001 3.070683e-002
 0.000000e+000 0.000000e+000 0.000000e+000
<ENDHMM>
~h "th"
<BEGINHMM>
<NUMSTATES> 5
<STATE> 2
<MEAN> 39
 -1.101463e+001 -2.202308e+000 -6.990380e-001 -1.201895e+000 2.191834e+000 -1.038301e+001 -4.748198e+000 -7.374805e+000 -6.868186e+000 -1.299331e+000 -1.682360e+000 -5.933218e+000 6.066566e+001 -2.225062e+000 -1.160003e+000 -1.149121e-001 -8.825036e-002 1.774907e+000 5.222962e-001 1.288320e+000 3.195401e+000 7.391880e-001 6.283571e-001 4.330314e-002 -9.806816e-002 1.118299e-001 -1.142142e-002 2.457163e-002 -1.568654e-001 -4.393876e-001 -4.892314e-001 -2.279657e-001 -5.577158e-002 -7.058755e-002 -1.252567e-001 6.776189e-002 2.283683e-001 3.967327e-002 1.527953e-001
<VARIANCE> 39
 2.886772e+001 1.841222e+001 2.046967e+001 2.264006e+001 3.514265e+001 3.493051e+001 7.026871e+001 8.811391e+001 4.492727e+001 3.643807e+001 2.786778e+001 2.121246e+001 8.371984e+000 1.708477e+000 1.318308e+000 2.761034e+000 4.238227e+000 3.496010e+000 3.840302e+000 3.779178e+000 5.027425e+000 3.971603e+000 2.946190e+000 3.121636e+000 2.403863e+000 4.434100e-001 2.415088e-001 3.089367e-001 3.242167e-001 4.681478e-001 6.103435e-001 6.739632e-001 9.184157e-001 1.329961e+000 6.116860e-001 5.240486e-001 6.027259e-001 4.020208e-001 4.815623e-002
<GCONST> 1.175605e+002
<STATE> 3
<MEAN> 39
 -1.936683e+001 -5.959135e+000 -2.939193e+000 -6.787809e+000 2.526925e+000 -8.844687e+000 -3.395532e+000 8.448405e-001 -5.325314e+000 1.076433e+000 1.362011e+000 -5.204404e+000 6.194429e+001 -1.852207e-001 -6.706936e-001 7.138791e-002 -2.378484e-001 -1.104513e+000 6.320552e-001 -4.233782e-001 -4.567188e-001 5.524048e-001 1.772574e-001 1.269660e-001 1.240910e-001 2.759685e-001 3.147403e-001 -1.797821e-001 3.460656e-002 3.929437e-001 -2.827060e-001 2.590582e-002 1.153584e-001 -4.312856e-001 1.642189e-001 1.529617e-001 -1.574250e-001 -8.378757e-002 -5.937871e-002
<VARIANCE> 39
 7.316746e+000 1.156365e+001 8.415352e+000 1.331118e+001 2.616146e+001 3.269255e+001 3.252494e+001 2.245294e+001 2.662476e+001 3.340137e+001 2.856885e+001 2.341209e+001 4.611652e+000 9.797055e-001 1.221106e+000 9.459974e-001 1.914509e+000 3.404938e+000 1.960043e+000 2.828293e+000 3.245894e+000 3.230112e+000 2.869253e+000 2.903018e+000 2.167114e+000 2.032930e-001 9.112296e-002 1.679358e-001 1.829477e-001 3.936588e-001 4.577263e-001 4.634589e-001 6.624033e-001 5.514467e-001 5.696492e-001 7.043766e-001 6.067562e-001 5.489110e-001 3.424099e-002
<GCONST> 1.016093e+002
<STATE> 4
<MEAN> 39
 -1.328384e+001 -1.452960e+001 -5.756061e+000 2.710986e+000 -4.060816e+000 -8.270150e+000 -3.584021e+000 -8.916424e+000 -4.442529e-001 6.655910e+000 1.364944e+000 -8.016007e+000 6.171817e+001 2.119775e+000 4.548957e-001 -1.211620e+000 1.027801e+000 5.904310e-001 -1.448931e+000 -9.858998e-001 -2.153705e+000 -8.819639e-001 9.147990e-002 7.477556e-001 -1.482660e-001 -6.464771e-002 4.022356e-001 7.850447e-001 -6.515117e-002 -6.009055e-001 1.957819e-001 -3.308259e-001 -7.147299e-001 -2.367649e-001 -5.139058e-001 -4.966623e-001 2.537764e-001 3.406745e-001 2.359978e-001
<VARIANCE> 39
 1.209772e+001 1.756179e+001 2.096067e+001 3.215705e+001 4.085823e+001 2.807665e+001 2.702529e+001 2.403318e+001 2.174280e+001 2.738710e+001 2.658554e+001 2.776669e+001 4.290940e+000 1.791695e+000 6.631952e+000 1.478036e+000 7.582448e+000 4.924699e+000 2.492175e+000 6.386142e+000 4.689393e+000 3.917945e+000 5.588393e+000 3.375120e+000 5.455507e+000 7.485634e-001 2.052405e-001 4.396498e-001 4.235586e-001 9.834104e-001 1.731573e+000 6.164266e-001 6.871251e-001 8.746457e-001 6.050211e-001 6.802255e-001 7.272128e-001 9.462428e-001 1.985324e-001
<GCONST> 1.214252e+002
<TRANSP> 5
 0.000000e+000 1.000000e+000 0.000000e+000 0.000000e+000 0.000000e+000
 0.000000e+000 7.225311e-001 2.774689e-001 0.000000e+000 0.000000e+000
 0.000000e+000 0.000000e+000 8.844456e-001 1.155544e-001 0.000000e+000
 0.000000e+000 0.000000e+000 0.000000e+000 8.485718e-001 1.514283e-001
 0.000000e+000 0.000000e+000 0.000000e+000 0.000000e+000 0.000000e+000
<ENDHMM>
~h "uw"
<BEGINHMM>
<NUMSTATES> 5
<STATE> 2
<MEAN> 39
 -6.217796e+000 -7.492145e+000 -8.993233e-001 5.157049e+000 -1.026181e+001 -1.832097e+001 -4.896701e+000 -1.107579e+001 -1.190396e+001 -3.565369e+000 4.648274e+000 -3.548062e+000 6.325598e+001 3.828904e+000 3.087608e+000 8.427973e-001 -1.946576e-001 -1.402508e+000 -9.285513e-001 -3.026890e+000 -5.669433e+000 -1.441375e+000 4.958332e-001 -1.392301e+000 -1.568866e+000 1.391120e+000 -1.608765e-001 1.370960e-002 1.257165e-001 -1.830460e-001 1.399067e-002 2.551095e-001 7.291012e-002 1.098557e-001 -1.762138e-001 1.635750e-001 -3.061813e-002 -1.858684e-001 3.137991e-001
<VARIANCE> 39
 3.730154e+001 3.263911e+001 1.760749e+001 2.175419e+001 3.764706e+001 3.143563e+001 4.888252e+001 1.156307e+002 2.744624e+001 2.519101e+001 2.437331e+001 2.347676e+001 1.662604e+001 8.588395e-001 1.797370e+000 8.708186e-001 2.205986e+000 1.987044e+000 2.716027e+000 2.701815e+000 4.015709e+000 2.254259e+000 2.732412e+000 2.332879e+000 1.698906e+000 1.062309e+000 6.533163e-001 5.541748e-001 2.563207e-001 2.346392e-001 7.580839e-001 4.741175e-001 8.485036e-001 1.970411e+000 4.471127e-001 4.871697e-001 4.207852e-001 3.446553e-001 4.129327e-001
<GCONST> 1.158819e+002
<STATE> 3
<MEAN> 39
 2.592373e+000 -1.213924e-001 -2.441720e-001 3.316705e+000 -1.034648e+001 -1.704411e+001 -1.193530e+001 -2.578595e+001 -1.659619e+001 -4.071629e-001 2.305061e+000 -1.002503e+001 6.749878e+001 1.497954e-001 1.304502e+000 -3.108099e-001 -1.344030e+000 8.374704e-001 9.683295e-001 -4.793531e-001 -9.494805e-001 -3.758276e-001 -4.866602e-001 -5.130631e-001 -1.857940e-001 -4.220227e-001 -4.850684e-001 -2.087226e-001 -7.492879e-002 -1.188752e-001 1.375585e-001 9.562052e-002 2.466905e-001 5.956016e-001 2.047635e-001 -3.177170e-001 -3.211435e-002 3.369227e-001 -3.016547e-001
<VARIANCE> 39
 2.608225e+000 2.095854e+001 1.335248e+001 3.763239e+001 2.361187e+001 4.087904e+001 2.528453e+001 3.904860e+001 3.453934e+001 4.064886e+001 3.019308e+001 2.625922e+001 6.925239e+000 5.496754e-001 8.354799e-001 7.801999e-001 1.264545e+000 1.459107e+000 1.158182e+000 1.472631e+000 1.976270e+000 1.719736e+000 2.213368e+000 1.558303e+000 1.806118e+000 4.166176e-001 2.311511e-001 1.956620e-001 1.626957e-001 2.558159e-001 3.589439e-001 2.971599e-001 2.790673e-001 5.118021e-001 3.142230e-001 2.956713e-001 2.792327e-001 2.524294e-001 1.219704e-001
<GCONST> 9.622852e+001
<STATE> 4
<MEAN> 39
 -1.408931e+000 6.986651e+000 -1.439654e-002 -4.951343e+000 -7.936292e+000 -1.413709e+001 -1.265367e+001 -2.249707e+001 -1.407896e+001 -9.673781e+000 -5.317344e+000 -6.479468e+000 6.153123e+001 -5.074550e-001 -2.215957e-001 -1.082999e-002 8.474419e-002 3.328898e-001 1.854756e-001 1.860754e-001 6.018343e-001 5.668602e-001 -1.344922e-001 -2.991641e-001 1.517038e-001 -3.342298e-001 -5.971647e-002 -1.963678e-001 -3.695346e-002 1.537950e-001 3.277955e-002 2.054850e-002 1.400530e-001 1.967878e-001 1.182583e-001 1.607471e-001 9.684041e-002 -3.958395e-002 2.696837e-002
<VARIANCE> 39
 1.014317e+001 7.295445e+000 8.324300e+000 1.742409e+001 2.094362e+001 2.516157e+001 2.207606e+001 2.958321e+001 2.636994e+001 2.942930e+001 2.852411e+001 1.876706e+001 4.706457e+000 2.793935e-001 9.550396e-001 6.780368e-001 1.220869e+000 1.375301e+000 1.579546e+000 1.802921e+000 2.063576e+000 1.708314e+000 2.379908e+000 1.813001e+000 1.473567e+000 1.242901e-001 5.069807e-002 1.010907e-001 1.150833e-001 1.727907e-001 2.314960e-001 2.689424e-001 3.383988e-001 3.952675e-001 3.035523e-001 3.329480e-001 2.791265e-001 2.653138e-001 1.655823e-002
<GCONST> 8.609747e+001
<TRANSP> 5
 0.000000e+000 1.000000e+000 0.000000e+000 0.000000e+000 0.000000e+000
 0.000000e+000 7.330148e-001 2.669852e-001 0.000000e+000 0.000000e+000
 0.000000e+000 0.000000e+000 8.192487e-001 1.807513e-001 0.000000e+000
 0.000000e+000 0.000000e+000 0.000000e+000 9.194299e-001 8.057016e-002
 0.000000e+000 0.000000e+000 0.000000e+000 0.000000e+000 0.000000e+000
<ENDHMM>
~h "sil"
<BEGINHMM>
<NUMSTATES> 5
<STATE> 2
<MEAN> 39
 -2.093716e+001 -3.590751e+000 -5.384666e+000 -1.502413e+000 -2.205550e+000 -9.585947e-001 -6.859823e-001 3.290568e-001 8.815193e-001 3.731198e-002 -3.228065e-001 7.249768e-001 2.443029e+001 2.319333e-001 6.311331e-002 1.244598e-001 3.137657e-002 1.526247e-001 -2.313839e-002 6.208238e-002 -1.612319e-002 1.090787e-001 -3.836612e-002 2.110295e-002 -4.515003e-002 6.359007e-001 3.989363e-003 9.319767e-003 -5.319587e-003 -2.617705e-002 -4.412172e-002 -3.817116e-002 -1.615805e-002 -2.259233e-002 -7.714313e-003 8.766155e-003 -9.094930e-003 -1.568786e-002 4.402597e-002
<VARIANCE> 39
 1.245213e+001 2.521376e+000 4.801558e+000 3.121961e+000 6.636506e+000 4.975678e+000 7.143664e+000 1.231762e+001 9.869603e+000 9.216369e+000 6.534642e+000 6.821912e+000 6.905411e+001 9.878206e-001 2.840211e-001 5.592641e-001 3.230543e-001 6.438761e-001 4.852787e-001 7.666913e-001 1.309669e+000 1.246471e+000 1.274895e+000 6.693107e-001 1.078242e+000 4.751525e+000 1.813903e-001 4.712399e-002 1.154567e-001 6.191294e-002 1.172674e-001 9.839714e-002 1.515896e-001 2.355745e-001 2.536487e-001 2.770272e-001 1.290049e-001 2.407773e-001 6.906328e-001
<GCONST> 7.190789e+001
<STATE> 3
~s "silst"
<STATE> 4
<MEAN> 39
 -1.260417e+001 -2.090018e+000 -3.467556e+000 -4.499936e+000 -1.352594e+000 -5.536060e+000 -4.702579e-001 -5.684666e+000 3.957306e-001 -3.822690e+000 -4.659892e-001 -2.526808e+000 5.308920e+001 -7.346642e-002 -1.837482e-001 -1.131369e-001 -5.659913e-002 -1.550221e-001 -2.272640e-001 -2.021268e-001 -2.311508e-001 -1.589206e-001 -1.421775e-001 -5.648100e-002 -8.465400e-002 8.784340e-002 3.231222e-002 1.266620e-002 2.080834e-002 2.551922e-002 -7.331395e-003 -9.333475e-003 -3.123624e-002 7.735120e-003 -4.843751e-002 2.614408e-002 -3.441832e-003 -3.149856e-002 -4.659089e-002
<VARIANCE> 39
 2.620710e+000 5.266377e+000 6.678301e+000 7.498994e+000 8.250038e+000 9.868553e+000 1.079173e+001 1.389566e+001 1.337261e+001 1.643257e+001 1.426130e+001 1.203934e+001 4.827327e+000 3.280664e-001 5.765380e-001 6.278546e-001 9.330584e-001 9.472410e-001 1.179133e+000 1.242031e+000 1.591614e+000 1.647985e+000 2.049613e+000 1.540696e+000 1.434958e+000 3.967894e-001 7.130304e-002 1.165070e-001 1.284126e-001 1.724848e-001 1.942082e-001 2.190681e-001 2.543333e-001 3.000858e-001 3.215859e-001 3.940750e-001 3.261650e-001 2.919032e-001 2.080708e-001
<GCONST> 7.909854e+001
<TRANSP> 5
 0.000000e+000 1.000000e+000 0.000000e+000 0.000000e+000 0.000000e+000
 0.000000e+000 9.578827e-001 1.453792e-002 2.757935e-002 0.000000e+000
 0.000000e+000 0.000000e+000 9.710817e-001 2.891831e-002 0.000000e+000
 0.000000e+000 3.628644e-003 0.000000e+000 9.198718e-001 7.649945e-002
 0.000000e+000 0.000000e+000 0.000000e+000 0.000000e+000 0.000000e+000
<ENDHMM>
