~o
<STREAMINFO> 1 39
<VECSIZE> 39<NULLD><MFCC_D_A_0><DIAGC>
~s "silst"
<MEAN> 39
 -1.250439e+001 -2.388600e+000 -4.577042e+000 -4.242919e+000 -1.549211e+000 -5.208484e+000 1.158415e-001 -5.880847e+000 -6.187016e-001 -3.914307e+000 -1.578275e+000 -2.498551e+000 5.479590e+001 -8.992305e-002 -8.690068e-002 -7.077476e-002 -3.573758e-002 -1.721135e-002 8.554424e-003 -3.121665e-002 -3.826748e-002 3.654617e-002 2.760679e-002 6.591714e-003 3.442747e-002 -2.468775e-002 1.950085e-002 1.168057e-002 2.832943e-002 7.866188e-003 -3.094275e-002 -6.194201e-002 -4.231212e-002 -1.544395e-002 -5.194754e-002 2.065333e-002 2.960545e-002 -1.057964e-002 3.159439e-002
<VARIANCE> 39
 1.943348e+000 4.947411e+000 6.350682e+000 9.387664e+000 8.397785e+000 1.033308e+001 1.178231e+001 1.353401e+001 1.378998e+001 1.578103e+001 1.657678e+001 1.264422e+001 2.265637e+000 1.961764e-001 3.947710e-001 5.153712e-001 8.381775e-001 9.585270e-001 1.153593e+000 1.261214e+000 1.644120e+000 1.727876e+000 1.846549e+000 1.681977e+000 1.354561e+000 1.511385e-001 4.221580e-002 7.432427e-002 9.950431e-002 1.647147e-001 2.049655e-001 2.369282e-001 2.620639e-001 3.310071e-001 3.439839e-001 3.720336e-001 3.418708e-001 2.784211e-001 3.621748e-002
<GCONST> 7.356456e+001
~h "f"
<BEGINHMM>
<NUMSTATES> 5
<STATE> 2
<MEAN> 39
 -1.271218e+001 -3.010462e+000 -4.649922e+000 -3.192086e+000 -1.979663e+000 -6.061928e+000 -5.903513e-001 -5.904394e+000 -4.918058e-001 -2.538148e+000 3.390252e-001 -2.264220e+000 5.392722e+001 -7.623908e-002 -1.481307e-001 -1.247314e-001 1.004917e-001 5.272867e-003 5.513618e-002 7.989350e-003 9.541210e-002 6.114372e-002 1.832979e-001 1.168077e-001 -7.538592e-003 2.106811e-002 3.097409e-002 -1.359091e-002 -1.340446e-002 8.913273e-004 -1.587318e-002 -2.831789e-002 -1.961512e-002 6.295164e-004 -2.885210e-002 6.035987e-003 -7.914018e-003 -4.224836e-002 3.292517e-002
<VARIANCE> 39
 5.882377e+000 7.989218e+000 6.809856e+000 1.581424e+001 8.363157e+000 1.098033e+001 1.258665e+001 1.298395e+001 1.344983e+001 1.718008e+001 1.341527e+001 1.335084e+001 2.965468e+001 2.304356e-001 5.675470e-001 5.463558e-001 7.744391e-001 9.785009e-001 1.146870e+000 1.425107e+000 1.348278e+000 1.234060e+000 1.851514e+000 1.329139e+000 1.338383e+000 1.005994e-001 3.381202e-002 6.087559e-002 7.255795e-002 1.416512e-001 1.989144e-001 2.241900e-001 3.120781e-001 2.491835e-001 2.501500e-001 3.489113e-001 2.451798e-001 2.739307e-001 1.971973e-002
<GCONST> 7.532967e+001
<STATE> 3
<MEAN> 39
 -1.940229e+001 -4.881931e+000 -6.248569e+000 -5.258257e-001 -2.674898e+000 -2.486549e+000 -1.211662e+000 -1.311471e+000 -8.899315e-002 6.677012e-001 3.523622e-001 -4.082576e-001 3.261795e+001 -5.176190e-002 -1.524184e-001 -1.355367e-001 6.544565e-002 -4.172926e-002 -1.777238e-002 -5.225120e-002 8.226266e-003 6.359030e-002 2.431790e-001 1.733250e-001 -1.567820e-002 4.561774e-002 2.116868e-002 -1.628592e-002 -1.142957e-002 -1.760159e-002 5.464362e-003 -2.811717e-002 -1.314649e-002 -5.115546e-002 -3.478441e-002 7.362650e-004 -1.145773e-002 -3.630946e-002 1.246076e-002
<VARIANCE> 39
 1.840994e+001 7.160748e+000 5.238672e+000 1.083545e+001 6.892307e+000 1.393733e+001 9.355883e+000 2.601544e+001 1.335542e+001 1.050626e+001 1.060028e+001 1.345224e+001 2.848671e+002 1.399232e-001 3.806089e-001 5.217074e-001 5.371888e-001 6.352295e-001 6.525876e-001 9.214246e-001 1.424857e+000 1.367037e+000 1.429514e+000 8.939576e-001 1.016328e+000 6.190480e-002 1.687032e-002 4.910825e-002 7.758949e-002 7.687524e-002 9.783738e-002 1.387708e-001 2.085706e-001 2.492198e-001 2.699325e-001 2.896109e-001 1.624699e-001 2.247195e-001 8.248293e-003
<GCONST> 6.906128e+001
<STATE> 4
<MEAN> 39
 -1.096089e+001 -7.658574e+000 -9.131257e+000 -2.796716e-001 -4.942799e+000 -9.406043e+000 -3.181227e+000 -7.082426e+000 -3.280609e+000 2.277026e+000 2.206248e+000 -5.103252e+000 6.004880e+001 9.548082e-001 9.550778e-001 5.300235e-002 -1.167089e+000 -1.099655e+000 -8.315191e-001 -3.870911e-001 -1.991300e-001 -6.732824e-002 -4.280651e-001 -3.761645e-001 -2.035165e-001 2.775702e-001 1.650272e-001 2.652902e-001 1.030177e-001 -1.928377e-001 -1.656030e-001 -8.145151e-002 -7.236680e-002 -7.518748e-002 -1.792078e-003 -1.184416e-001 -1.172353e-001 -1.862839e-002 4.571818e-002
<VARIANCE> 39
 3.118999e+001 4.147470e+001 1.090557e+001 4.736629e+001 3.573550e+001 3.018746e+001 1.641895e+001 1.733556e+001 1.732139e+001 2.986401e+001 2.232568e+001 1.391813e+001 2.536019e+001 3.083445e+000 5.986345e+000 1.156947e+000 4.418013e+000 4.193495e+000 2.436769e+000 2.223857e+000 1.810797e+000 1.518994e+000 2.908489e+000 2.351968e+000 1.356239e+000 5.170611e-001 2.695090e-001 7.322788e-001 1.672665e-001 4.965709e-001 6.475953e-001 4.259778e-001 3.718089e-001 3.306727e-001 2.871119e-001 5.125234e-001 4.081930e-001 2.877992e-001 7.350491e-002
<GCONST> 1.090323e+002
<TRANSP> 5
 0.000000e+000 1.000000e+000 0.000000e+000 0.000000e+000 0.000000e+000
 0.000000e+000 8.052588e-001 1.947412e-001 0.000000e+000 0.000000e+000
 0.000000e+000 0.000000e+000 8.216100e-001 1.783900e-001 0.000000e+000
 0.000000e+000 0.000000e+000 0.000000e+000 8.760207e-001 1.239793e-001
 0.000000e+000 0.000000e+000 0.000000e+000 0.000000e+000 0.000000e+000
<ENDHMM>
~h "k"
<BEGINHMM>
<NUMSTATES> 5
<STATE> 2
<MEAN> 39
 -1.514176e+001 -3.943066e+000 -7.610938e+000 -5.920784e+000 -2.349925e+000 -6.848498e+000 -4.754215e-001 -5.207123e+000 -4.445133e-001 -3.005961e+000 -9.041925e-001 -1.765570e+000 5.474775e+001 4.191462e-002 -2.043919e-002 -1.646978e-002 -7.123888e-002 -1.244914e-002 4.902594e-002 -1.594559e-002 -6.193441e-002 9.131269e-002 2.386500e-002 -3.367322e-002 -1.738852e-002 -6.464186e-002 8.788501e-003 -1.697588e-002 2.496278e-002 1.897960e-002 -1.025116e-002 -4.260547e-002 1.290283e-003 1.311604e-002 -4.658938e-002 6.513686e-003 1.237435e-002 -7.314997e-003 1.652935e-002
<VARIANCE> 39
 8.863066e+000 6.110007e+000 6.006155e+000 1.227828e+001 9.514475e+000 1.153073e+001 1.085362e+001 1.280949e+001 1.550790e+001 1.507159e+001 1.428652e+001 1.180970e+001 7.027000e+000 1.835709e-001 2.770813e-001 3.719455e-001 7.800832e-001 7.965628e-001 1.006020e+000 9.748524e-001 1.269187e+000 1.376538e+000 1.701540e+000 1.601631e+000 1.322442e+000 1.189010e-001 3.639223e-002 5.268954e-002 7.716094e-002 1.484679e-001 1.650855e-001 1.855233e-001 2.029446e-001 2.440819e-001 2.919078e-001 3.606630e-001 3.399621e-001 2.733237e-001 2.256964e-002
<GCONST> 7.174676e+001
<STATE> 3
<MEAN> 39
 -1.943613e+001 -2.222361e+000 -5.851199e+000 -4.835493e-001 -6.630484e-001 -1.030874e+001 2.479534e+000 -1.979043e+000 -5.048238e+000 -3.846822e+000 9.078500e-001 -3.152878e+000 6.046486e+001 5.688717e-002 1.288264e-001 2.701089e-002 -2.976037e-001 1.535223e-001 3.026316e-001 -2.224591e-001 -2.223352e-001 5.336496e-002 5.123951e-002 -2.120021e-001 -1.971401e-001 -9.890960e-002 3.832843e-002 -1.159922e-001 7.421740e-002 4.552675e-002 2.924749e-002 -1.202195e-001 -7.797146e-003 3.038470e-002 -1.679060e-001 5.961948e-002 5.086058e-002 -4.600572e-002 5.498985e-002
<VARIANCE> 39
 2.543794e+001 1.048469e+001 1.306334e+001 1.257997e+001 2.481223e+001 3.788555e+001 2.272082e+001 2.141317e+001 2.516373e+001 2.881517e+001 3.295060e+001 1.685601e+001 1.223733e+001 1.701041e-001 3.742623e-001 5.019704e-001 8.859210e-001 1.025796e+000 9.677203e-001 1.228168e+000 1.334983e+000 1.127307e+000 1.681301e+000 1.495597e+000 1.507107e+000 6.062160e-002 4.241331e-002 5.679939e-002 9.999276e-002 1.996440e-001 2.231627e-001 2.559005e-001 2.435771e-001 3.794406e-001 3.472900e-001 3.496789e-001 3.737228e-001 3.133727e-001 2.826407e-002
<GCONST> 8.337491e+001
<STATE> 4
<MEAN> 39
 -1.839861e+001 -1.543427e+000 -5.865127e+000 -1.952931e+000 9.337935e-001 -8.985087e+000 2.061273e+000 -2.622828e+000 -3.573066e+000 -2.955942e+000 -1.336685e+000 -2.687240e+000 5.933712e+001 1.619552e-001 -3.002118e-001 6.062176e-002 -2.604693e-001 2.054159e-001 8.226062e-002 -4.582457e-001 -1.043817e-001 -2.681753e-001 2.429318e-001 1.310971e-001 -4.997731e-001 -1.976237e-002 7.006476e-002 -2.807406e-001 4.757918e-002 3.808693e-002 -1.050695e-001 -2.370529e-001 -1.132631e-001 2.115107e-002 -2.530408e-001 2.685673e-001 2.850633e-001 -6.522851e-002 1.300799e-001
<VARIANCE> 39
 3.082901e+001 5.400967e+000 1.268194e+001 1.506883e+001 2.310913e+001 3.532423e+001 1.951332e+001 2.420853e+001 2.733422e+001 2.473663e+001 1.839320e+001 1.413066e+001 1.911998e+001 1.965781e-001 6.689466e-001 7.822239e-001 9.834830e-001 1.057577e+000 1.414340e+000 1.166330e+000 1.711554e+000 1.434006e+000 1.673552e+000 2.114718e+000 1.280318e+000 1.494127e-001 7.768060e-002 1.151849e-001 1.197883e-001 2.158654e-001 3.160975e-001 2.336852e-001 2.583653e-001 4.503825e-001 3.605814e-001 3.237908e-001 2.466423e-001 4.021571e-001 8.678079e-002
<GCONST> 8.867763e+001
<TRANSP> 5
 0.000000e+000 1.000000e+000 0.000000e+000 0.000000e+000 0.000000e+000
 0.000000e+000 9.150647e-001 8.493534e-002 0.000000e+000 0.000000e+000
 0.000000e+000 0.000000e+000 5.871835e-001 4.128165e-001 0.000000e+000
 0.000000e+000 0.000000e+000 0.000000e+000 1.138746e-001 8.861254e-001
 0.000000e+000 0.000000e+000 0.000000e+000 0.000000e+000 0.000000e+000
<ENDHMM>
~h "n"
<BEGINHMM>
<NUMSTATES> 5
<STATE> 2
<MEAN> 39
 -4.285763e+000 -5.181857e-001 -3.120151e+000 -2.229555e+000 -5.632269e+000 -1.159877e+001 -7.196362e+000 -1.748775e+001 -9.406193e+000 -3.873337e+000 -2.383456e+000 -7.480824e+000 6.120249e+001 2.428140e-001 8.766392e-002 6.272212e-002 -1.164691e-001 -3.144525e-001 -1.235730e-001 -4.057559e-001 -6.603392e-001 -2.033527e-002 2.075201e-001 -2.862730e-001 -3.097933e-001 1.482322e-001 2.237090e-001 -4.568677e-001 -5.588394e-001 -2.018887e-001 1.411481e-002 -8.572865e-002 -1.041532e-003 8.377981e-002 2.597954e-001 4.554529e-001 5.148105e-002 -3.232221e-001 3.347427e-001
<VARIANCE> 39
 2.152004e+001 1.831497e+001 2.639979e+001 2.593825e+001 3.646428e+001 3.901641e+001 4.477599e+001 5.538161e+001 3.477265e+001 3.465582e+001 3.126791e+001 2.103148e+001 1.169944e+001 2.189184e+000 3.371962e+000 5.732105e+000 2.565034e+000 4.102911e+000 4.513041e+000 3.038920e+000 3.536253e+000 4.437449e+000 6.671315e+000 3.515716e+000 3.236118e+000 2.089857e+000 1.970102e-001 3.442962e-001 5.950935e-001 4.109375e-001 6.036924e-001 6.783007e-001 4.795084e-001 5.291180e-001 5.897625e-001 8.364584e-001 7.507215e-001 4.071320e-001 1.616053e-001
<GCONST> 1.217606e+002
<STATE> 3
<MEAN> 39
 6.778500e-001 -9.637856e+000 -1.137414e+001 -4.320157e+000 -6.933222e+000 -1.423418e+001 -3.824619e+000 -1.718182e+001 -9.703400e+000 1.462744e+000 -1.231879e+000 -1.401428e+001 6.871416e+001 -1.562529e-001 1.440681e-001 5.140116e-001 1.230058e-001 -5.074270e-001 -2.849809e-001 4.318509e-001 2.454975e-001 -1.953484e-001 -6.083142e-002 1.394708e-001 2.071888e-001 -2.146418e-002 -1.047670e-001 1.654896e-001 1.818840e-001 6.403869e-002 7.820702e-002 1.114102e-001 3.361983e-002 9.169035e-003 -7.713335e-002 -1.904703e-001 -3.203453e-002 1.338874e-001 -1.355625e-001
<VARIANCE> 39
 1.607412e+001 4.768704e+001 9.868752e+001 3.476845e+001 1.025915e+002 7.351006e+001 7.715392e+001 5.049296e+001 4.781928e+001 3.985585e+001 3.602673e+001 3.429940e+001 1.774084e+001 7.539604e-001 3.047174e+000 6.202626e+000 2.195908e+000 5.242868e+000 3.603736e+000 3.222510e+000 3.340457e+000 3.516459e+000 3.332334e+000 3.408359e+000 2.393699e+000 1.045752e+000 8.796421e-002 2.933055e-001 6.505872e-001 3.607531e-001 7.101774e-001 5.094952e-001 5.852685e-001 5.813578e-001 6.323794e-001 6.100246e-001 6.377051e-001 3.870726e-001 9.625432e-002
<GCONST> 1.226732e+002
<STATE> 4
<MEAN> 39
 -4.245328e+000 2.315461e+000 1.580046e+000 -9.275523e-001 -8.711531e+000 -1.363431e+001 -6.313093e+000 -1.757593e+001 -1.143420e+001 -6.153478e+000 -3.142226e+000 -5.812654e+000 6.118029e+001 -5.441799e-001 2.156494e-001 -2.129732e-002 1.367231e-001 1.155673e+000 1.043668e+000 2.668858e-001 5.246149e-001 3.524953e-001 -5.538847e-001 -4.122447e-001 2.108823e-001 -5.303273e-001 -4.680925e-002 -2.057754e-001 -2.102098e-001 -6.954184e-003 9.277668e-002 6.163407e-003 6.973200e-002 2.065014e-001 2.150417e-001 2.064030e-001 4.434234e-002 -1.067244e-001 5.093181e-002
<VARIANCE> 39
 1.029213e+001 1.109430e+001 1.553194e+001 1.669166e+001 4.714302e+001 4.295071e+001 3.855657e+001 3.912957e+001 3.208094e+001 4.083777e+001 3.095178e+001 2.207310e+001 7.868449e+000 3.530897e-001 1.052250e+000 9.993728e-001 1.022445e+000 2.181438e+000 1.984049e+000 2.353969e+000 2.490694e+000 2.208562e+000 2.008532e+000 1.792658e+000 1.463245e+000 2.422260e-001 6.055666e-002 1.450418e-001 1.782606e-001 2.134680e-001 3.538335e-001 3.749119e-001 4.016788e-001 4.051341e-001 3.328332e-001 3.620912e-001 3.261737e-001 2.557107e-001 3.071559e-002
<GCONST> 9.605178e+001
<TRANSP> 5
 0.000000e+000 1.000000e+000 0.000000e+000 0.000000e+000 0.000000e+000
 0.000000e+000 6.407173e-001 3.592826e-001 0.000000e+000 0.000000e+000
 0.000000e+000 0.000000e+000 8.664921e-001 1.335079e-001 0.000000e+000
 0.000000e+000 0.000000e+000 0.000000e+000 8.484531e-001 1.515469e-001
 0.000000e+000 0.000000e+000 0.000000e+000 0.000000e+000 0.000000e+000
<ENDHMM>
~h "r"
<BEGINHMM>
<NUMSTATES> 5
<STATE> 2
<MEAN> 39
 1.369092e-001 -4.467221e+000 -9.532043e+000 -2.555413e+000 -4.837868e+000 -1.387118e+001 -9.567890e+000 -1.725911e+001 -5.838849e+000 1.993704e+000 1.899179e+000 -7.221867e+000 6.580947e+001 -8.817270e-001 -8.918744e-002 1.319463e+000 1.126542e+000 -2.279816e-001 -4.680399e-001 5.963030e-001 1.060862e+000 3.910244e-001 9.822196e-002 -7.750560e-001 -7.171581e-001 -2.910772e-001 -3.977751e-001 -1.250369e-001 2.768428e-001 6.755062e-002 -2.774345e-001 8.154919e-002 4.884470e-001 2.432554e-001 -5.711676e-002 -3.792446e-002 -6.686638e-002 2.769209e-002 -1.777611e-001
<VARIANCE> 39
 4.573071e+001 4.173480e+001 5.163497e+001 3.894255e+001 5.547187e+001 7.477424e+001 1.019838e+002 7.938853e+001 4.610514e+001 4.139394e+001 3.802773e+001 3.688007e+001 2.230335e+001 2.829800e+000 3.574726e+000 3.074222e+000 2.800378e+000 6.596551e+000 4.944756e+000 4.665669e+000 4.619230e+000 3.460270e+000 4.311628e+000 2.985707e+000 3.117106e+000 1.737965e+000 4.136766e-001 7.111242e-001 6.859149e-001 5.143341e-001 8.109686e-001 6.065979e-001 1.183557e+000 8.647776e-001 7.083597e-001 7.452299e-001 4.993367e-001 5.173679e-001 2.003140e-001
<GCONST> 1.320284e+002
<STATE> 3
<MEAN> 39
 9.515545e-001 -5.824801e+000 -2.438963e+000 2.471502e+000 -1.417351e+001 -2.232239e+001 -1.048411e+001 -2.033062e+001 -7.432210e+000 4.115787e+000 1.106462e+000 -8.524307e+000 6.729919e+001 -1.122179e+000 2.524318e-001 2.834837e+000 3.227999e-001 -3.146142e+000 -4.525329e-001 2.418094e+000 3.312725e-001 -1.181785e+000 -5.147687e-001 -5.985394e-001 -4.544387e-001 -4.151919e-001 -1.695668e-001 3.361596e-001 -3.170850e-003 -4.714904e-001 1.978415e-001 5.940106e-001 2.409621e-001 -6.767070e-002 -5.483125e-001 -4.514016e-001 3.724142e-001 3.209490e-001 -1.932575e-001
<VARIANCE> 39
 3.403037e+001 2.652147e+001 4.936488e+001 4.729036e+001 9.125146e+001 9.207340e+001 8.531665e+001 7.065623e+001 4.061238e+001 2.590203e+001 3.565046e+001 3.033036e+001 1.434972e+001 3.897496e-001 2.071013e+000 4.374752e+000 2.493222e+000 7.006424e+000 3.361480e+000 4.261364e+000 3.094885e+000 4.694909e+000 2.280356e+000 3.879347e+000 2.580028e+000 4.077353e-001 1.913061e-001 3.444002e-001 5.263729e-001 3.645577e-001 8.923929e-001 6.392890e-001 1.065143e+000 5.220716e-001 9.089466e-001 5.156937e-001 7.029626e-001 4.094627e-001 8.430756e-002
<GCONST> 1.222822e+002
<STATE> 4
<MEAN> 39
 -4.365690e+000 -2.082641e-001 -4.871525e+000 -7.010591e+000 -9.778126e+000 -1.104813e+001 -2.887260e+000 -1.200574e+001 -4.922745e+000 -7.286472e-001 1.675739e+000 -3.532128e+000 6.138992e+001 -8.788887e-001 1.911766e-001 8.023775e-001 2.773902e-001 4.088598e-002 3.688363e-001 7.067060e-001 4.444706e-001 -1.622854e-001 -6.402044e-001 -5.223212e-001 -2.702054e-001 -5.613808e-001 6.059903e-002 -2.400034e-002 -1.219292e-001 4.882281e-002 2.793096e-001 9.109349e-002 -1.574499e-001 -1.451522e-001 -6.656655e-002 1.880793e-002 4.742946e-002 -4.894735e-003 2.817720e-002
<VARIANCE> 39
 3.567230e+001 2.372459e+001 4.795938e+001 6.529944e+001 8.401884e+001 7.764494e+001 2.971079e+001 5.574475e+001 3.708837e+001 2.741312e+001 3.272447e+001 3.209787e+001 1.718773e+001 5.459196e-001 9.587389e-001 2.658864e+000 2.601275e+000 3.916301e+000 2.079316e+000 2.644758e+000 2.474147e+000 4.052237e+000 2.551665e+000 2.396997e+000 1.754084e+000 3.357152e-001 1.149078e-001 1.547180e-001 3.157738e-001 3.993515e-001 6.227044e-001 4.157866e-001 3.249861e-001 3.955610e-001 3.888147e-001 5.090692e-001 4.054505e-001 3.127720e-001 6.471081e-002
<GCONST> 1.114054e+002
<TRANSP> 5
 0.000000e+000 1.000000e+000 0.000000e+000 0.000000e+000 0.000000e+000
 0.000000e+000 7.447751e-001 2.552249e-001 0.000000e+000 0.000000e+000
 0.000000e+000 0.000000e+000 5.343782e-001 4.656218e-001 0.000000e+000
 0.000000e+000 0.000000e+000 0.000000e+000 6.920838e-001 3.079162e-001
 0.000000e+000 0.000000e+000 0.000000e+000 0.000000e+000 0.000000e+000
<ENDHMM>
~h "s"
<BEGINHMM>
<NUMSTATES> 5
<STATE> 2
<MEAN> 39
 -1.059508e+001 -7.969658e-001 -2.080359e+000 -2.702837e-001 -2.064292e+000 -1.110525e+001 -3.920188e+000 -1.121676e+001 -8.239613e+000 -1.797313e+000 -8.030114e-001 -5.536934e+000 6.003273e+001 -1.498848e+000 -6.564745e-001 -1.985935e-001 5.438017e-001 1.674335e+000 6.176122e-001 1.236997e+000 1.846062e+000 2.909075e-001 4.286126e-001 3.872052e-002 -1.262978e-001 3.354923e-001 -2.129630e-001 -8.332474e-002 -1.546692e-001 -2.190379e-001 -1.004132e-001 -1.321289e-001 3.224154e-001 4.041644e-001 1.115894e-001 1.638851e-001 1.103388e-001 8.661882e-002 1.346293e-001
<VARIANCE> 39
 5.225979e+001 2.370347e+001 3.336874e+001 3.137087e+001 5.283214e+001 4.690565e+001 6.343436e+001 9.641338e+001 4.149996e+001 4.322697e+001 3.734169e+001 2.265930e+001 5.016769e+001 3.383646e+000 2.058931e+000 2.080972e+000 2.849289e+000 4.483176e+000 4.869135e+000 5.458715e+000 9.011651e+000 3.712929e+000 4.023448e+000 2.909457e+000 2.163168e+000 3.075884e+000 2.690988e-001 4.397547e-001 3.307311e-001 4.662369e-001 5.960515e-001 7.104226e-001 6.559284e-001 1.090250e+000 6.483386e-001 6.022192e-001 4.976895e-001 4.355836e-001 3.882246e-001
<GCONST> 1.281879e+002
<STATE> 3
<MEAN> 39
 -1.813819e+001 -2.568605e+000 -4.774345e+000 -5.304174e-001 3.130517e+000 -9.700023e+000 3.231566e+000 -1.827691e+000 -6.596642e+000 1.445037e-001 8.118364e-002 -4.073132e+000 6.157406e+001 -1.349051e+000 -9.478772e-002 -8.712814e-001 -8.761759e-001 3.454020e-001 -5.785263e-001 6.458732e-001 1.046496e+000 7.944794e-002 8.340181e-001 5.926375e-001 5.915252e-001 3.266819e-001 3.337594e-001 1.497245e-001 1.024151e-001 -8.865224e-002 -3.934858e-001 -2.349768e-001 -5.714982e-001 -6.132034e-001 -1.830261e-001 -1.657477e-001 -8.124622e-002 -4.867536e-002 -3.836697e-002
<VARIANCE> 39
 1.501065e+001 1.580285e+001 1.368726e+001 2.528893e+001 2.878035e+001 3.298706e+001 4.116944e+001 3.544728e+001 2.600146e+001 3.184547e+001 2.494575e+001 1.532102e+001 7.491271e+000 1.867968e+000 1.206058e+000 1.147098e+000 1.570734e+000 2.419890e+000 2.438631e+000 3.661019e+000 4.128160e+000 2.676049e+000 2.637922e+000 1.825132e+000 1.748829e+000 4.485911e-001 1.712518e-001 2.140732e-001 1.885382e-001 3.303943e-001 4.003808e-001 5.313289e-001 6.371668e-001 7.899716e-001 5.107951e-001 4.966345e-001 3.825665e-001 3.474276e-001 1.003392e-001
<GCONST> 1.060132e+002
<STATE> 4
<MEAN> 39
 -2.124623e+001 -2.198696e+000 -7.037074e+000 -3.117988e+000 2.816072e+000 -1.170548e+001 2.190109e+000 -2.251456e+000 -6.991892e+000 1.949058e+000 9.453851e-002 -3.512532e+000 6.217201e+001 3.700677e-001 -2.058325e-001 -2.313886e-002 -1.067186e-001 -3.508457e-001 -1.168122e-001 -1.647144e-001 -1.967316e-001 1.950666e-001 -4.012066e-002 -2.572134e-002 -8.357903e-002 -1.319063e-002 2.289250e-001 -6.533085e-002 4.455448e-002 3.396963e-002 -1.208758e-001 -2.399350e-002 -3.174048e-002 -7.034166e-002 4.360589e-002 -3.692573e-002 -2.987729e-002 -3.409019e-002 2.533133e-002
<VARIANCE> 39
 1.338409e+001 1.077671e+001 1.141645e+001 1.880672e+001 2.563258e+001 2.815991e+001 2.613704e+001 2.488513e+001 2.232092e+001 2.765049e+001 2.616575e+001 1.697838e+001 4.645829e+000 1.905152e+000 6.978067e-001 7.169304e-001 1.039811e+000 1.673851e+000 1.887776e+000 1.952099e+000 1.896159e+000 1.733970e+000 1.878879e+000 1.859142e+000 1.528691e+000 3.454507e-001 1.785051e-001 1.021440e-001 1.373829e-001 2.011697e-001 2.599737e-001 3.151394e-001 3.395424e-001 3.640292e-001 3.189505e-001 3.748175e-001 3.996570e-001 3.147250e-001 9.280238e-002
<GCONST> 9.398763e+001
<TRANSP> 5
 0.000000e+000 1.000000e+000 0.000000e+000 0.000000e+000 0.000000e+000
 0.000000e+000 6.028853e-001 3.971147e-001 0.000000e+000 0.000000e+000
 0.000000e+000 0.000000e+000 5.779920e-001 4.220080e-001 0.000000e+000
 0.000000e+000 0.000000e+000 0.000000e+000 9.106005e-001 8.939943e-002
 0.000000e+000 0.000000e+000 0.000000e+000 0.000000e+000 0.000000e+000
<ENDHMM>
~h "t"
<BEGINHMM>
<NUMSTATES> 5
<STATE> 2
<MEAN> 39
 -5.198949e+000 -2.054750e+000 4.003342e+000 -1.961237e+000 -1.724015e+001 -1.655593e+001 -7.840952e-001 -1.737302e+001 -1.041059e+001 2.010101e+000 -8.529358e-001 -9.531026e+000 6.469684e+001 -7.807242e-002 7.883990e-002 1.501046e-001 1.684094e-001 3.228441e-001 2.617336e-001 3.198359e-003 8.090076e-002 -1.999992e-002 -1.021387e-001 -2.474019e-002 -3.157419e-002 3.626813e-002 -1.101089e-001 -1.772029e-002 -8.565540e-002 -6.152046e-002 1.171862e-001 9.987671e-002 -2.081140e-002 1.090819e-001 8.722166e-002 -7.523827e-003 4.548518e-002 8.595565e-002 -8.002889e-002
<VARIANCE> 39
 1.850507e+001 4.090312e+001 4.950703e+001 1.732496e+001 1.640081e+002 9.314423e+001 4.856165e+001 9.096106e+001 5.219656e+001 6.533537e+001 4.336405e+001 3.009912e+001 3.929408e+001 1.541507e+000 2.640218e+000 3.114028e+000 1.846360e+000 1.153074e+001 7.172155e+000 3.487278e+000 7.176954e+000 4.883357e+000 5.076639e+000 3.380817e+000 2.574300e+000 3.400625e+000 1.330176e-001 3.582866e-001 3.200513e-001 3.531287e-001 1.139179e+000 8.498418e-001 5.482459e-001 8.678498e-001 6.495090e-001 7.995160e-001 5.483077e-001 3.676056e-001 2.896172e-001
<GCONST> 1.299587e+002
<STATE> 3
<MEAN> 39
 -1.362679e+001 -4.312154e+000 -3.921861e+000 -3.898197e+000 -2.487618e+000 -5.508139e+000 -2.768719e-001 -6.020800e+000 -2.421923e+000 2.576387e-001 6.679105e-001 -3.441046e+000 5.812071e+001 -1.187403e+000 -1.101573e+000 -1.955537e-001 -3.129709e-001 -1.023468e+000 -1.404050e+000 -7.377847e-002 7.960787e-001 -1.502042e+000 1.032346e+000 1.668916e+000 3.289452e-001 1.158886e+000 -3.250330e-002 1.906247e-001 3.322782e-001 2.865177e-001 6.225836e-003 -2.798192e-001 9.173042e-002 2.398211e-001 -5.006791e-001 -4.978493e-001 3.405738e-002 -3.422701e-002 1.011931e-001
<VARIANCE> 39
 8.619772e+000 1.879150e+001 1.167881e+001 1.280125e+001 2.306809e+001 2.780668e+001 2.373591e+001 2.050377e+001 2.700182e+001 2.871962e+001 2.299234e+001 1.541217e+001 1.149101e+001 7.688417e-001 1.700637e+000 1.731123e+000 1.345993e+000 2.411434e+000 2.848236e+000 2.546857e+000 3.153586e+000 4.053158e+000 3.449981e+000 2.149666e+000 1.884333e+000 9.343643e-001 1.699768e-001 3.060103e-001 2.486959e-001 3.035414e-001 5.827779e-001 6.587690e-001 5.363474e-001 6.130120e-001 7.528074e-001 6.476578e-001 4.252684e-001 3.922246e-001 2.131455e-001
<GCONST> 1.068172e+002
<STATE> 4
<MEAN> 39
 -1.729280e+001 -1.007426e+001 -2.388544e+000 2.884150e-002 -5.545311e+000 -1.188103e+001 1.561090e+000 7.769131e-001 -9.146987e+000 -1.477563e+000 6.949697e+000 -2.204455e+000 6.216320e+001 5.905694e-001 -3.220139e-001 -4.809720e-003 8.277665e-001 -1.523578e-001 -6.268764e-001 5.249488e-002 6.145830e-002 -6.702536e-002 -6.775438e-001 -1.103335e-002 1.133777e-001 -1.974231e-001 4.097817e-001 3.556403e-001 -4.860772e-002 -8.986465e-002 2.486154e-002 1.566872e-001 -2.679466e-001 -6.159442e-001 2.403634e-001 1.554987e-002 -3.741854e-001 -9.616695e-002 -1.481012e-001
<VARIANCE> 39
 1.491298e+001 2.475415e+001 1.660128e+001 2.698539e+001 2.429330e+001 2.951220e+001 3.020696e+001 3.580171e+001 2.865016e+001 3.357960e+001 2.401796e+001 2.125423e+001 8.025395e+000 2.050719e+000 2.764026e+000 1.125479e+000 2.236243e+000 1.926647e+000 2.794032e+000 2.955098e+000 5.082713e+000 2.969569e+000 2.590540e+000 2.754923e+000 2.073885e+000 7.063282e-001 2.363297e-001 4.930481e-001 2.161203e-001 3.949798e-001 4.155276e-001 4.672876e-001 6.191307e-001 8.114057e-001 6.640801e-001 5.448252e-001 4.815975e-001 3.987814e-001 1.645570e-001
<GCONST> 1.115182e+002
<TRANSP> 5
 0.000000e+000 1.000000e+000 0.000000e+000 0.000000e+000 0.000000e+000
 0.000000e+000 9.118668e-001 8.813323e-002 0.000000e+000 0.000000e+000
 0.000000e+000 0.000000e+000 7.100597e-001 2.899403e-001 0.000000e+000
 0.000000e+000 0.000000e+000 0.000000e+000 8.607342e-001 1.392659e-001
 0.000000e+000 0.000000e+000 0.000000e+000 0.000000e+000 0.000000e+000
<ENDHMM>
~h "v"
<BEGINHMM>
<NUMSTATES> 5
<STATE> 2
<MEAN> 39
 -6.587257e-001 -7.631188e+000 -1.439026e+001 -1.124837e+001 -6.790227e+000 -6.533893e+000 1.107719e-003 -1.091712e+001 -4.781074e+000 1.408106e+000 1.328923e+000 -8.844904e+000 6.554472e+001 2.385370e+000 1.645002e-001 -1.785189e+000 -2.335967e+000 -2.163035e-001 1.274814e+000 6.760994e-001 -1.783968e+000 -7.270251e-001 -1.774713e-001 -7.583473e-002 -7.812595e-001 1.365799e+000 -1.498009e-001 -2.289757e-001 6.074245e-002 4.208662e-001 2.911794e-001 5.414814e-002 -1.736304e-001 -2.008051e-001 -1.717799e-001 1.278442e-001 5.735533e-003 -1.429280e-001 1.056218e-001
<VARIANCE> 39
 6.634197e+001 3.176342e+001 4.005695e+001 8.632972e+001 3.151601e+001 4.780775e+001 3.274353e+001 4.451929e+001 2.282062e+001 2.360760e+001 3.333311e+001 3.693663e+001 3.740133e+001 5.085774e+000 4.233507e+000 3.529024e+000 8.803248e+000 5.113583e+000 2.929449e+000 2.838071e+000 3.190498e+000 2.401431e+000 2.261558e+000 2.264908e+000 3.353036e+000 2.802114e+000 1.338477e+000 8.729018e-001 8.772304e-001 2.040980e+000 1.103158e+000 6.902426e-001 5.355321e-001 6.877606e-001 4.580567e-001 4.468231e-001 5.039288e-001 6.069863e-001 5.107522e-001
<GCONST> 1.312973e+002
<STATE> 3
<MEAN> 39
 3.930726e+000 -1.599468e+001 -1.878246e+001 -9.539664e+000 5.980632e-001 -6.346932e+000 -1.487979e+000 -1.671014e+001 -8.824425e+000 1.710889e+000 -3.488421e+000 -1.753272e+001 7.279404e+001 -4.632366e-001 -7.499279e-001 6.417730e-001 1.399335e+000 9.171421e-002 -1.849870e+000 -6.241741e-001 6.303920e-001 2.259619e-001 2.744291e-002 -7.977382e-001 -3.647863e-001 6.334751e-002 -6.593503e-002 4.012623e-001 3.525794e-001 -4.096084e-002 -6.511419e-001 -3.820057e-001 1.369152e-001 3.447222e-001 1.574317e-001 -2.990270e-002 1.787020e-001 4.332913e-001 -1.905098e-001
<VARIANCE> 39
 8.374105e+000 2.669544e+001 2.008576e+001 3.811748e+001 2.859601e+001 9.090798e+001 4.229907e+001 4.156268e+001 3.532157e+001 4.072209e+001 4.645287e+001 2.660037e+001 7.621354e+000 2.838006e-001 1.949846e+000 1.482475e+000 1.415474e+000 5.247381e+000 4.335627e+000 2.586601e+000 4.712328e+000 2.635105e+000 2.170335e+000 2.943732e+000 2.206039e+000 3.964019e-001 8.670054e-002 1.942936e-001 1.672389e-001 2.308189e-001 3.233738e-001 4.343872e-001 4.456377e-001 4.790004e-001 4.354780e-001 3.853406e-001 5.966449e-001 3.321133e-001 6.442466e-002
<GCONST> 1.069570e+002
<STATE> 4
<MEAN> 39
 -5.160692e-002 -8.234897e+000 -4.968291e+000 -1.101662e+000 -1.227816e+001 -2.063378e+001 -3.454849e+000 -1.278183e+001 -8.570083e+000 3.009719e+000 1.702446e+000 -1.071121e+001 6.796872e+001 -4.603303e-001 1.857404e+000 1.173481e+000 2.627907e-001 -4.832337e-001 2.979216e-001 -4.541049e-001 -7.707781e-001 -7.317210e-001 -3.580239e-001 1.410846e+000 1.324368e+000 -1.102371e+000 -1.293640e-001 7.708699e-002 -9.344290e-005 -4.077951e-002 4.446242e-001 4.027719e-001 1.353031e-002 1.039336e-002 -6.237502e-002 -3.362492e-001 -2.895697e-001 -1.562540e-002 -1.050853e-001
<VARIANCE> 39
 2.031363e+001 4.733664e+001 7.183705e+001 4.139338e+001 9.048238e+001 9.083164e+001 5.296245e+001 7.675906e+001 5.475488e+001 4.719728e+001 6.322746e+001 3.709182e+001 2.111732e+001 4.969656e-001 2.506240e+000 3.247601e+000 2.331159e+000 8.890929e+000 6.397274e+000 2.977684e+000 4.902749e+000 4.911684e+000 4.498754e+000 5.908833e+000 3.050480e+000 4.918169e-001 9.520379e-002 3.567948e-001 4.567967e-001 4.742177e-001 8.689646e-001 8.032247e-001 5.819070e-001 1.018337e+000 9.028893e-001 8.582558e-001 1.263641e+000 5.913509e-001 6.577647e-002
<GCONST> 1.277157e+002
<TRANSP> 5
 0.000000e+000 1.000000e+000 0.000000e+000 0.000000e+000 0.000000e+000
 0.000000e+000 7.502244e-001 2.497756e-001 0.000000e+000 0.000000e+000
 0.000000e+000 0.000000e+000 8.054469e-001 1.945531e-001 0.000000e+000
 0.000000e+000 0.000000e+000 0.000000e+000 8.615156e-001 1.384844e-001
 0.000000e+000 0.000000e+000 0.000000e+000 0.000000e+000 0.000000e+000
<ENDHMM>
~h "w"
<BEGINHMM>
<NUMSTATES> 5
<STATE> 2
<MEAN> 39
 -4.824318e+000 4.095746e+000 -1.789733e+000 -5.422706e+000 -5.990312e+000 -1.128622e+001 -8.038419e+000 -1.434708e+001 -7.613894e+000 -8.757959e+000 -6.558972e+000 -7.691132e+000 5.893587e+001 1.305367e+000 6.878502e-001 -5.151449e-001 -1.424892e+000 -1.857289e+000 -1.505419e+000 -9.771140e-001 -4.998265e-001 1.294312e-001 5.312847e-001 3.061585e-001 2.265177e-002 7.286189e-001 2.535538e-001 -3.560876e-002 -3.753970e-001 -5.939139e-001 -4.660650e-001 -1.574350e-002 3.008125e-001 1.921838e-001 1.966300e-001 2.737212e-001 2.727298e-001 9.874813e-002 1.794004e-001
<VARIANCE> 39
 1.358368e+001 1.272303e+001 9.348197e+000 1.400285e+001 2.991240e+001 3.222124e+001 2.722110e+001 2.406911e+001 1.879509e+001 2.366454e+001 2.707519e+001 2.087625e+001 5.999070e+000 1.652013e+000 1.413908e+000 1.449229e+000 3.095278e+000 4.299016e+000 2.590066e+000 1.836513e+000 1.986902e+000 2.328138e+000 3.155705e+000 3.731808e+000 2.445408e+000 6.241562e-001 1.895062e-001 3.039801e-001 2.269446e-001 3.443758e-001 5.139967e-001 6.988146e-001 6.079540e-001 4.089172e-001 3.873989e-001 4.907434e-001 5.112139e-001 4.362257e-001 6.686911e-002
<GCONST> 1.053893e+002
<STATE> 3
<MEAN> 39
 1.915362e+000 7.127168e+000 -6.873324e+000 -1.726173e+001 -1.840804e+001 -1.785791e+001 -9.419887e+000 -1.363186e+001 -4.376173e+000 -4.566873e+000 -2.982312e+000 -6.132325e+000 6.293632e+001 1.757582e+000 -6.909547e-001 -2.951279e+000 -3.683622e+000 -1.682616e+000 1.606097e+000 2.614025e+000 1.086208e+000 6.661477e-001 3.391712e-001 3.471314e-001 -7.267596e-001 1.379406e+000 -2.885455e-001 -9.234779e-001 -4.436727e-001 5.157200e-001 1.468330e+000 1.606364e+000 8.440181e-001 -2.758996e-001 -5.608717e-001 -5.312623e-001 -2.943931e-001 -5.077664e-001 8.681329e-002
<VARIANCE> 39
 5.698478e+000 4.566881e+000 1.538535e+001 2.099492e+001 1.155528e+001 1.503381e+001 1.923470e+001 1.754185e+001 1.783477e+001 1.396319e+001 1.505436e+001 1.285437e+001 2.529260e+000 6.764297e-001 1.335598e+000 1.268581e+000 1.758937e+000 3.727006e+000 4.273133e+000 2.347018e+000 1.988008e+000 2.358193e+000 2.476040e+000 1.685679e+000 1.650559e+000 3.550878e-001 1.185716e-001 1.706655e-001 2.114542e-001 5.448046e-001 5.000470e-001 4.191035e-001 4.533722e-001 5.767452e-001 4.253932e-001 3.196415e-001 3.474264e-001 3.245751e-001 3.420612e-002
<GCONST> 9.364672e+001
<STATE> 4
<MEAN> 39
 5.329830e+000 1.221794e-001 -1.715633e+001 -2.362498e+001 -1.436053e+001 -5.129232e+000 9.199126e-001 -1.393923e+001 -7.040712e+000 -6.291993e+000 -2.822056e+000 -9.900046e+000 6.730433e+001 3.694770e-001 -3.079866e+000 -2.328025e+000 2.170105e-001 3.177787e+000 3.760363e+000 1.693305e+000 -1.660864e+000 -1.583689e+000 -1.395751e-001 5.334700e-001 -1.259497e+000 1.345042e+000 -4.746363e-001 -3.562045e-001 6.821197e-001 1.326289e+000 7.944481e-001 -6.353720e-001 -9.526026e-001 -5.154997e-001 -1.992383e-001 3.402483e-001 8.394486e-002 -1.595701e-001 -1.341393e-001
<VARIANCE> 39
 3.934522e+000 1.548580e+001 1.269510e+001 1.221396e+001 3.183603e+001 3.176947e+001 1.853101e+001 2.350422e+001 2.821864e+001 2.590059e+001 2.006810e+001 1.815713e+001 4.718126e+000 4.650644e-001 9.039532e-001 1.403519e+000 2.781603e+000 2.028004e+000 3.006550e+000 3.695489e+000 2.581732e+000 2.438770e+000 2.167498e+000 1.672117e+000 1.841191e+000 3.232965e-001 6.446182e-002 1.812220e-001 1.455941e-001 2.937345e-001 8.615490e-001 9.743856e-001 3.560959e-001 5.495573e-001 5.661157e-001 4.760956e-001 2.764740e-001 3.252310e-001 2.215003e-002
<GCONST> 9.715180e+001
<TRANSP> 5
 0.000000e+000 1.000000e+000 0.000000e+000 0.000000e+000 0.000000e+000
 0.000000e+000 8.141031e-001 1.858969e-001 0.000000e+000 0.000000e+000
 0.000000e+000 0.000000e+000 6.210437e-001 3.789563e-001 0.000000e+000
 0.000000e+000 0.000000e+000 0.000000e+000 6.785921e-001 3.214079e-001
 0.000000e+000 0.000000e+000 0.000000e+000 0.000000e+000 0.000000e+000
<ENDHMM>
~h "z"
<BEGINHMM>
<NUMSTATES> 5
<STATE> 2
<MEAN> 39
 -4.170983e+000 3.157713e+000 7.389874e-001 -1.687550e+000 -7.315300e+000 -1.343973e+001 -8.794842e+000 -1.874195e+001 -1.110492e+001 -6.721395e+000 -4.223268e+000 -6.976979e+000 6.045869e+001 -2.993064e-001 4.142908e-001 4.473033e-001 5.877315e-001 9.240967e-001 7.451279e-001 2.565284e-003 2.827989e-001 -3.263135e-002 -1.182372e+000 -1.184978e+000 -4.927175e-001 -2.947339e-001 -2.263127e-001 -1.542490e-001 -2.010118e-001 -9.482966e-002 1.705898e-001 2.502180e-001 3.340916e-001 4.211754e-001 2.503542e-001 3.613003e-002 -5.088926e-002 -3.686160e-002 -9.302542e-002
<VARIANCE> 39
 1.415821e+001 6.803406e+000 1.864014e+001 3.002159e+001 3.143488e+001 2.841679e+001 3.710253e+001 3.867715e+001 2.027941e+001 3.174581e+001 3.372159e+001 1.815211e+001 8.448053e+000 1.740732e+000 8.790008e-001 1.718252e+000 2.430475e+000 4.133654e+000 4.524149e+000 3.794311e+000 5.077969e+000 3.097477e+000 3.225627e+000 2.864247e+000 1.886181e+000 1.102674e+000 1.322491e-001 1.586731e-001 2.426256e-001 3.381583e-001 4.446750e-001 5.089574e-001 5.370046e-001 4.618221e-001 3.196321e-001 6.999097e-001 5.508338e-001 3.218123e-001 9.627146e-002
<GCONST> 1.086696e+002
<STATE> 3
<MEAN> 39
 -8.080486e+000 3.314420e+000 2.017585e-002 -6.717906e-002 -1.169770e+000 -8.539293e+000 -5.542651e+000 -1.326616e+001 -9.488781e+000 -1.152845e+001 -9.419534e+000 -9.281240e+000 5.805395e+001 -7.104116e-001 -3.487999e-001 -5.816630e-001 6.039164e-002 4.537195e-001 1.538950e-001 5.051203e-001 6.333444e-001 3.124653e-001 4.485630e-001 -4.571280e-002 1.539423e-001 -8.570282e-002 3.500284e-002 -4.348659e-002 -4.969035e-002 -6.195813e-002 -2.506435e-001 -3.920486e-001 -6.556282e-002 -1.652533e-001 -1.148899e-001 3.056862e-001 2.456525e-001 1.428044e-001 1.395272e-001
<VARIANCE> 39
 5.532479e+000 5.433916e+000 7.001669e+000 1.253941e+001 1.086477e+001 2.448173e+001 2.187035e+001 1.875650e+001 1.277093e+001 1.626885e+001 1.670216e+001 1.740372e+001 3.567359e+000 5.211554e-001 5.856939e-001 7.187750e-001 7.273624e-001 1.538653e+000 2.918999e+000 2.141963e+000 2.030462e+000 1.790430e+000 2.153315e+000 2.165103e+000 1.378632e+000 3.139198e-001 6.519902e-002 8.145382e-002 1.085110e-001 1.522702e-001 2.605063e-001 2.954217e-001 3.295908e-001 2.665502e-001 2.235347e-001 3.789589e-001 3.564894e-001 2.740137e-001 2.667211e-002
<GCONST> 8.310118e+001
<STATE> 4
<MEAN> 39
 -1.308562e+001 1.527936e-001 -4.963716e+000 -1.174592e+000 -1.031426e+000 -7.776737e+000 -7.622771e-001 -7.593312e+000 -5.402553e+000 -4.486033e+000 -4.076861e+000 -4.794288e+000 5.761413e+001 -3.322320e-001 7.918093e-002 -6.691049e-002 -4.700535e-002 -2.703430e-001 -1.077390e+000 -8.769578e-002 -1.910687e-001 -4.847960e-001 3.081478e-001 2.519046e-001 1.988615e-001 4.409486e-001 2.316984e-001 6.965388e-002 3.061457e-001 4.807366e-003 -1.245318e-001 -3.466627e-001 -2.625660e-001 -2.401211e-001 -2.966716e-001 -2.140857e-001 -5.922977e-002 -7.516759e-002 1.089124e-001
<VARIANCE> 39
 7.007711e+000 9.627487e+000 9.941383e+000 1.512207e+001 1.542409e+001 3.438935e+001 2.974653e+001 3.026411e+001 3.209834e+001 2.915880e+001 2.603153e+001 1.494223e+001 4.421389e+000 4.781264e-001 6.085035e-001 9.675428e-001 9.749858e-001 1.185718e+000 2.021890e+000 1.672849e+000 2.501844e+000 2.268877e+000 1.947345e+000 1.484779e+000 1.093630e+000 2.141587e-001 9.579092e-002 1.313123e-001 1.350752e-001 1.767156e-001 2.178977e-001 3.926414e-001 3.478665e-001 4.508855e-001 3.703239e-001 3.268827e-001 3.172492e-001 2.241049e-001 2.879790e-002
<GCONST> 8.898737e+001
<TRANSP> 5
 0.000000e+000 1.000000e+000 0.000000e+000 0.000000e+000 0.000000e+000
 0.000000e+000 7.194836e-001 2.805164e-001 0.000000e+000 0.000000e+000
 0.000000e+000 0.000000e+000 8.269299e-001 1.730701e-001 0.000000e+000
 0.000000e+000 0.000000e+000 0.000000e+000 8.009472e-001 1.990528e-001
 0.000000e+000 0.000000e+000 0.000000e+000 0.000000e+000 0.000000e+000
<ENDHMM>
~h "ah"
<BEGINHMM>
<NUMSTATES> 5
<STATE> 2
<MEAN> 39
 3.504631e+000 -1.262918e+001 -1.950482e+001 -1.358039e+001 -1.332711e+000 -1.944766e+000 -8.642341e-001 -1.913062e+001 -1.022305e+001 -1.967085e+000 -7.753950e-001 -1.597834e+001 7.107522e+001 -4.640277e-001 -1.720228e+000 2.446807e-001 2.542193e+000 1.356841e+000 -1.622224e+000 -1.008476e+000 3.990147e-001 2.812170e-001 1.166941e+000 -4.830826e-001 -1.375963e+000 3.667215e-001 -4.565112e-002 5.444936e-001 3.547343e-001 1.096109e-001 -6.697406e-001 -8.439663e-001 -2.019992e-001 6.377604e-001 3.326783e-001 -7.127617e-002 -2.513014e-001 2.299882e-001 -2.403416e-001
<VARIANCE> 39
 9.209541e+000 2.882837e+001 1.230845e+001 3.791934e+001 4.306951e+001 4.843539e+001 3.302182e+001 3.030099e+001 3.598262e+001 3.911810e+001 2.799137e+001 3.316245e+001 1.067326e+001 1.809223e-001 1.609026e+000 9.179544e-001 1.235880e+000 2.854430e+000 4.237376e+000 1.694870e+000 3.342817e+000 2.038052e+000 1.830887e+000 1.938208e+000 1.992208e+000 3.865643e-001 3.516475e-002 1.479889e-001 1.739294e-001 2.479327e-001 2.903412e-001 5.288400e-001 4.060338e-001 3.942844e-001 3.865954e-001 4.073215e-001 3.560871e-001 4.084499e-001 3.253330e-002
<GCONST> 9.993355e+001
<STATE> 3
<MEAN> 39
 1.981868e+000 -1.309565e+001 -1.516189e+001 -2.014951e+000 -4.058510e+000 -1.797005e+001 -7.628206e+000 -1.215566e+001 -6.809472e+000 1.439718e+000 -4.888157e+000 -1.881459e+001 7.030740e+001 -5.549676e-001 1.735465e+000 2.053586e+000 1.436203e+000 -1.264300e+000 -1.972838e+000 -1.117430e+000 6.252330e-001 3.089700e-001 -3.247966e-001 3.270801e-001 1.274869e+000 -1.031415e+000 -1.131165e-001 6.306714e-001 4.864148e-001 -4.786628e-001 -1.343082e-001 8.036996e-001 2.488085e-001 -6.467417e-001 -3.089465e-001 -3.329401e-001 3.640165e-001 6.233725e-001 -2.984262e-001
<VARIANCE> 39
 7.822096e+000 2.123087e+001 1.776761e+001 2.544090e+001 3.504530e+001 4.605521e+001 2.988549e+001 3.044546e+001 2.766770e+001 3.342410e+001 3.328173e+001 2.417158e+001 9.900021e+000 2.643989e-001 1.950348e+000 1.966362e+000 1.786861e+000 1.192570e+000 3.506486e+000 2.166026e+000 3.378441e+000 1.934421e+000 1.602402e+000 2.340255e+000 2.132288e+000 4.765365e-001 5.012626e-002 1.868569e-001 2.474331e-001 2.637267e-001 2.855941e-001 4.253251e-001 4.731110e-001 4.269913e-001 3.555696e-001 2.703216e-001 3.508066e-001 2.932010e-001 3.690177e-002
<GCONST> 9.990468e+001
<STATE> 4
<MEAN> 39
 -1.562161e+000 -3.332464e+000 -3.229001e+000 1.046404e+000 -7.276884e+000 -1.609265e+001 -7.159760e+000 -1.412468e+001 -7.735313e+000 -1.075614e+000 -6.023028e-001 -9.226501e+000 6.407631e+001 -9.129052e-001 2.150095e+000 2.429746e+000 -9.809840e-003 -6.260637e-001 9.618117e-001 5.503355e-001 -8.930310e-001 -8.816218e-001 -1.221462e+000 4.837502e-001 2.144249e+000 -1.340668e+000 2.051964e-002 -3.151792e-001 -3.910751e-001 -1.778580e-001 2.128224e-001 3.169697e-001 2.678559e-001 6.072857e-003 -1.288285e-001 -1.044985e-001 -2.462685e-001 -1.982238e-001 1.599871e-001
<VARIANCE> 39
 1.544980e+001 1.877006e+001 2.786823e+001 2.452454e+001 3.909591e+001 4.703942e+001 3.440508e+001 3.977870e+001 4.393782e+001 3.632151e+001 3.368229e+001 3.200956e+001 1.579170e+001 3.701801e-001 1.792005e+000 3.061140e+000 1.060736e+000 2.009474e+000 1.756880e+000 1.735120e+000 3.374371e+000 3.150959e+000 1.886394e+000 1.539823e+000 2.517689e+000 3.850384e-001 5.318854e-002 1.602430e-001 1.993193e-001 2.269555e-001 2.517347e-001 3.566563e-001 3.327546e-001 4.708199e-001 5.057510e-001 3.047544e-001 2.632094e-001 2.749809e-001 3.896446e-002
<GCONST> 1.018437e+002
<TRANSP> 5
 0.000000e+000 1.000000e+000 0.000000e+000 0.000000e+000 0.000000e+000
 0.000000e+000 8.241647e-001 1.758353e-001 0.000000e+000 0.000000e+000
 0.000000e+000 0.000000e+000 7.734142e-001 2.265858e-001 0.000000e+000
 0.000000e+000 0.000000e+000 0.000000e+000 5.277690e-001 4.722309e-001
 0.000000e+000 0.000000e+000 0.000000e+000 0.000000e+000 0.000000e+000
<ENDHMM>
~h "ao"
<BEGINHMM>
<NUMSTATES> 5
<STATE> 2
<MEAN> 39
 3.869721e+000 8.925981e+000 -5.980521e+000 -1.737530e+001 -1.942833e+001 -1.831196e+001 -8.455802e+000 -1.146602e+001 -3.071759e+000 -4.816429e+000 -3.771582e+000 -7.017745e+000 6.420085e+001 6.651621e-001 8.244019e-001 3.161561e-001 -9.344754e-001 -9.883336e-001 -4.021768e-001 -7.568516e-001 -5.158713e-001 2.140014e-001 1.114426e-001 -1.303679e-001 -9.018251e-002 3.591749e-001 -9.396103e-001 -1.079515e+000 -1.266046e-001 9.238471e-001 8.615662e-001 2.991162e-001 2.473568e-001 2.783694e-001 7.074033e-002 3.523557e-001 4.496770e-001 2.036107e-001 -3.744355e-001
<VARIANCE> 39
 1.025593e+001 7.193097e+000 7.931991e+000 1.612046e+001 1.433595e+001 1.468214e+001 1.525622e+001 1.547810e+001 1.261856e+001 1.324883e+001 1.316638e+001 1.154617e+001 3.671794e+000 5.312833e-001 8.165673e-001 6.037652e-001 1.084500e+000 7.696615e-001 1.028626e+000 1.352464e+000 1.900281e+000 1.387132e+000 1.148294e+000 1.559888e+000 1.120645e+000 1.709767e-001 9.815110e-002 2.457164e-001 1.181652e-001 2.343932e-001 1.953838e-001 3.212516e-001 2.219027e-001 3.773208e-001 2.608092e-001 2.842484e-001 3.062995e-001 2.278816e-001 2.059370e-002
<GCONST> 8.008987e+001
<STATE> 3
<MEAN> 39
 2.488555e+000 8.871099e+000 -4.538521e+000 -1.655780e+001 -1.982133e+001 -2.050369e+001 -1.067146e+001 -1.188687e+001 -2.018403e+000 -3.330936e+000 -2.919272e+000 -6.555262e+000 6.365129e+001 -2.264951e-001 -1.311225e-001 2.657478e-002 1.200489e-001 1.282562e-001 8.837727e-002 5.336555e-002 1.565275e-002 3.267632e-002 -1.360994e-003 -9.195678e-002 6.803779e-002 -1.090849e-001 -3.762128e-002 -7.274791e-002 -5.641881e-002 5.657895e-002 1.306345e-001 1.360540e-001 9.852284e-002 -2.179498e-002 -7.165976e-002 -4.035697e-002 1.254069e-002 4.038580e-002 -1.721816e-002
<VARIANCE> 39
 1.023756e+001 3.816933e+000 1.016680e+001 2.130422e+001 1.151976e+001 2.238697e+001 3.070621e+001 2.817986e+001 2.063428e+001 1.887063e+001 1.708492e+001 1.302861e+001 3.801450e+000 1.278920e-001 2.048425e-001 3.721889e-001 5.404165e-001 6.664044e-001 8.230269e-001 9.968028e-001 1.423464e+000 9.736822e-001 1.060770e+000 1.068204e+000 8.931540e-001 5.747466e-002 2.472119e-002 4.492323e-002 6.307758e-002 9.056584e-002 1.346788e-001 1.327077e-001 1.762316e-001 2.818383e-001 1.877694e-001 1.812059e-001 2.274103e-001 1.688740e-001 1.044662e-002
<GCONST> 6.717741e+001
<STATE> 4
<MEAN> 39
 -1.127075e+000 4.983604e+000 -6.383746e+000 -1.438102e+001 -1.482967e+001 -1.494706e+001 -7.132219e+000 -1.235791e+001 -3.792735e+000 -4.129896e+000 -2.745103e+000 -4.700948e+000 6.193852e+001 -6.541788e-001 -1.155980e+000 -5.106273e-001 9.959595e-001 2.015387e+000 1.750202e+000 4.727962e-001 -1.090374e+000 -9.684707e-001 4.531644e-001 9.551036e-001 6.226470e-001 -2.094112e-001 -8.687074e-002 -1.625592e-001 1.970689e-002 3.146043e-001 3.441978e-001 9.874130e-002 -1.559197e-001 -1.728001e-001 1.161310e-002 3.300131e-001 1.758333e-001 -9.132257e-002 -1.908048e-002
<VARIANCE> 39
 3.073223e+001 1.420966e+001 1.329428e+001 4.515721e+001 3.525041e+001 2.983421e+001 2.250739e+001 3.708226e+001 3.598661e+001 2.388151e+001 1.849356e+001 1.235293e+001 1.133533e+001 7.642699e-001 9.699278e-001 7.778200e-001 1.919818e+000 2.159840e+000 1.859025e+000 2.300216e+000 3.580663e+000 2.241809e+000 2.403449e+000 2.182585e+000 1.513618e+000 2.787676e-001 1.022484e-001 1.589929e-001 1.549902e-001 3.416237e-001 4.333383e-001 4.032641e-001 4.034767e-001 4.639409e-001 3.981733e-001 4.701407e-001 3.763679e-001 3.247710e-001 3.467983e-002
<GCONST> 1.000399e+002
<TRANSP> 5
 0.000000e+000 1.000000e+000 0.000000e+000 0.000000e+000 0.000000e+000
 0.000000e+000 5.310727e-001 4.689274e-001 0.000000e+000 0.000000e+000
 0.000000e+000 0.000000e+000 9.123012e-001 8.769871e-002 0.000000e+000
 0.000000e+000 0.000000e+000 0.000000e+000 7.687042e-001 2.312958e-001
 0.000000e+000 0.000000e+000 0.000000e+000 0.000000e+000 0.000000e+000
<ENDHMM>
~h "ay"
<BEGINHMM>
<NUMSTATES> 5
<STATE> 2
<MEAN> 39
 -1.261038e+001 -3.090757e+000 -5.227384e+000 -3.606023e+000 -2.488004e+000 -5.593745e+000 4.013213e-001 -5.721233e+000 -1.331218e+000 -2.858124e+000 -1.051952e+000 -2.938296e+000 5.493596e+001 -4.846837e-002 -6.539959e-002 -1.022337e-001 -7.440378e-002 -8.627603e-003 6.352462e-003 -3.656004e-002 2.766361e-002 1.126367e-001 6.191777e-002 2.560766e-002 6.164547e-002 -2.639679e-002 3.421469e-002 -4.369606e-003 9.198170e-003 -1.918451e-003 -1.391230e-002 -3.378855e-002 -1.161631e-002 -4.259209e-002 -3.307750e-002 2.543715e-003 -2.395448e-002 -3.255041e-002 2.754468e-002
<VARIANCE> 39
 6.204173e+000 6.869965e+000 9.595364e+000 1.534806e+001 1.099980e+001 1.199608e+001 1.409499e+001 1.775742e+001 1.845512e+001 1.773262e+001 1.673144e+001 1.346572e+001 1.700878e+001 1.257320e-001 2.300438e-001 4.315758e-001 7.423056e-001 9.101429e-001 9.432470e-001 1.127746e+000 1.211835e+000 1.235424e+000 1.324883e+000 1.480173e+000 1.279560e+000 7.809547e-002 2.750677e-002 4.688734e-002 9.183629e-002 1.529080e-001 1.946863e-001 1.937722e-001 2.258294e-001 2.507350e-001 2.457961e-001 2.649496e-001 2.936251e-001 2.653378e-001 1.826855e-002
<GCONST> 7.257483e+001
<STATE> 3
<MEAN> 39
 -1.237061e+001 -3.232649e+000 -3.842240e+000 -2.484094e+000 -2.014426e+000 -5.728169e+000 -1.364667e+000 -4.939273e+000 2.450837e-001 -8.127508e-001 7.913790e-002 -3.499135e+000 5.156601e+001 3.692743e-001 -2.584914e-001 -4.029723e-002 3.632006e-002 6.105953e-003 -3.271850e-001 -2.096609e-001 -2.894233e-001 -1.153449e-001 9.462588e-002 -4.041397e-002 -4.169496e-001 1.196268e+000 3.293985e-002 -6.060513e-002 -3.907821e-002 4.450392e-003 -4.541292e-002 -6.611412e-002 -4.536868e-002 -5.234631e-002 -9.033730e-002 1.960655e-002 1.910503e-002 -5.809635e-002 5.079107e-002
<VARIANCE> 39
 2.306730e+001 1.403529e+001 1.584716e+001 1.387587e+001 1.400591e+001 1.697264e+001 1.478781e+001 3.038252e+001 3.098651e+001 2.057584e+001 1.354464e+001 1.786808e+001 1.156375e+002 1.701149e+000 1.101628e+000 1.201092e+000 9.886044e-001 1.270200e+000 1.126476e+000 1.293584e+000 1.417509e+000 1.609459e+000 1.869510e+000 1.389031e+000 1.439388e+000 6.989848e+000 3.259534e-001 1.784194e-001 2.453886e-001 1.924548e-001 2.555801e-001 2.234811e-001 2.552661e-001 2.931571e-001 3.781039e-001 3.868390e-001 3.188417e-001 3.242245e-001 1.215203e+000
<GCONST> 1.012802e+002
<STATE> 4
<MEAN> 39
 -1.067986e+001 -8.463791e+000 -7.778576e+000 1.523737e-001 -4.322584e+000 -9.621515e+000 -4.281797e+000 -7.989284e+000 -4.922002e+000 2.547468e+000 2.082363e+000 -7.510827e+000 6.046323e+001 1.044308e-001 -1.656256e-001 -2.076212e-002 7.268165e-002 -1.685650e-001 -2.966098e-001 -7.190108e-002 -1.448189e-001 -2.100126e-001 -4.956191e-004 -8.691507e-002 -1.777604e-001 1.340332e-001 1.903689e-001 1.304622e-001 -2.695730e-002 -2.276290e-001 -8.282276e-002 -3.115203e-002 1.125644e-001 8.220931e-003 7.431068e-002 -1.190138e-001 -4.479655e-002 1.602118e-002 4.687523e-004
<VARIANCE> 39
 2.989561e+001 1.944909e+001 2.754399e+001 1.929012e+001 1.361998e+001 1.739932e+001 2.044460e+001 4.378060e+001 3.502789e+001 2.553864e+001 2.548018e+001 3.040417e+001 1.409915e+001 3.572767e-001 8.172181e-001 6.951491e-001 9.929537e-001 1.140688e+000 1.389305e+000 1.751276e+000 1.966501e+000 2.290178e+000 1.961561e+000 1.870087e+000 1.535562e+000 2.345091e-001 1.149574e-001 2.146488e-001 2.409464e-001 3.105314e-001 2.629200e-001 2.755962e-001 3.460250e-001 3.632050e-001 4.303488e-001 3.973848e-001 3.296283e-001 2.797121e-001 6.862421e-002
<GCONST> 9.605788e+001
<TRANSP> 5
 0.000000e+000 1.000000e+000 0.000000e+000 0.000000e+000 0.000000e+000
 0.000000e+000 8.998564e-001 1.001436e-001 0.000000e+000 0.000000e+000
 0.000000e+000 0.000000e+000 7.178468e-001 2.821532e-001 0.000000e+000
 0.000000e+000 0.000000e+000 0.000000e+000 6.934909e-001 3.065091e-001
 0.000000e+000 0.000000e+000 0.000000e+000 0.000000e+000 0.000000e+000
<ENDHMM>
~h "eh"
<BEGINHMM>
<NUMSTATES> 5
<STATE> 2
<MEAN> 39
 4.697249e-002 -9.747491e+000 -9.929710e+000 -6.754743e+000 -9.009711e+000 -2.036639e+001 -4.332148e+000 -1.012885e+001 -1.073551e+000 4.384405e+000 -4.049603e+000 -8.878905e+000 6.976357e+001 3.819756e+000 -2.233236e+000 -9.425277e-001 3.051094e-002 -1.146307e+000 -9.353375e-001 -4.020440e-001 -1.310730e+000 7.406380e-001 1.054565e+000 -2.029703e+000 -2.320659e+000 3.180272e+000 -1.232128e+000 6.889652e-002 6.621408e-002 2.964317e-001 1.061266e+000 7.974646e-001 5.095100e-001 5.003388e-001 -6.162094e-001 -2.553231e-001 3.752696e-003 -3.800075e-001 -2.764176e-001
<VARIANCE> 39
 2.077114e+001 2.362374e+001 1.651173e+001 1.403208e+001 2.223758e+001 4.165458e+001 2.383606e+001 2.244754e+001 1.695689e+001 1.499783e+001 2.584246e+001 2.074750e+001 2.567911e+001 3.962819e+000 1.675479e+000 1.372221e+000 1.577969e+000 3.785291e+000 3.413830e+000 3.088275e+000 3.812607e+000 2.223900e+000 1.891714e+000 2.117795e+000 1.860859e+000 1.132134e+000 3.481862e-001 4.049668e-001 2.577484e-001 2.433051e-001 3.279867e-001 4.761211e-001 4.786161e-001 4.658521e-001 2.760547e-001 4.553199e-001 5.226207e-001 3.778110e-001 6.379135e-001
<GCONST> 1.098920e+002
<STATE> 3
<MEAN> 39
 2.791541e+000 -1.377443e+001 -9.741859e+000 -5.175883e+000 -7.481242e+000 -1.944698e+001 -2.285445e+000 -8.442421e+000 -1.586407e+000 5.101449e+000 -6.539409e+000 -1.477641e+001 7.417023e+001 2.192191e-002 -1.189333e+000 -5.064818e-001 4.241148e-001 1.735247e+000 1.357531e+000 -3.635910e-001 2.963001e-001 -9.549154e-001 -4.193309e-001 -4.970266e-001 -2.498114e+000 4.328227e-001 -8.983496e-001 5.024703e-001 -1.715314e-001 -9.128866e-002 4.481807e-001 4.979474e-001 -4.500295e-001 -2.929677e-001 -3.571406e-001 -4.146328e-001 4.801573e-001 3.853201e-001 -1.004262e+000
<VARIANCE> 39
 2.642200e+000 1.779835e+001 1.377656e+001 1.402054e+001 1.428053e+001 3.431450e+001 2.613783e+001 1.670802e+001 1.868308e+001 1.382772e+001 1.037838e+001 1.800406e+001 7.465680e+000 3.879528e-001 1.288216e+000 9.189126e-001 1.094226e+000 1.166873e+000 1.436818e+000 1.788171e+000 2.738283e+000 1.435098e+000 1.730779e+000 1.167249e+000 1.226730e+000 3.174919e-001 1.238410e-001 3.857819e-001 1.347220e-001 2.361715e-001 2.084021e-001 2.900465e-001 3.716802e-001 5.847064e-001 2.419489e-001 3.286739e-001 2.944303e-001 2.871598e-001 1.008415e-001
<GCONST> 8.928106e+001
<STATE> 4
<MEAN> 39
 2.289145e+000 -1.545113e+001 -1.184023e+001 -4.729170e+000 -4.710652e+000 -1.739076e+001 -4.218995e+000 -1.032213e+001 -3.829379e+000 3.297965e+000 -8.143691e+000 -1.846601e+001 7.403816e+001 -8.814093e-002 -4.999001e-001 -1.307943e+000 -8.070280e-002 1.194406e+000 1.269528e+000 -1.264572e+000 -1.576492e+000 -7.333010e-001 -4.780476e-001 -3.989556e-001 -1.440009e+000 -3.066587e-001 -1.014145e-002 6.451442e-001 -1.386173e-001 -2.768171e-001 -3.734255e-001 -3.221526e-003 -3.475339e-001 -6.932499e-001 6.019739e-002 3.232352e-001 6.726385e-001 8.039165e-001 -4.536032e-001
<VARIANCE> 39
 4.093885e+000 1.450764e+001 1.392240e+001 1.598275e+001 1.534635e+001 3.681397e+001 2.502913e+001 2.021382e+001 2.897519e+001 2.555722e+001 1.422294e+001 1.431041e+001 8.412167e+000 2.411983e-001 1.465027e+000 1.108929e+000 1.234237e+000 8.944909e-001 1.285451e+000 1.604736e+000 2.252706e+000 1.219809e+000 1.740838e+000 1.664087e+000 2.084804e+000 2.211346e-001 9.162711e-002 1.782966e-001 1.464439e-001 1.753605e-001 1.930279e-001 1.791181e-001 2.788940e-001 4.106423e-001 3.054849e-001 4.052090e-001 3.277537e-001 3.184819e-001 7.150706e-002
<GCONST> 8.867393e+001
<TRANSP> 5
 0.000000e+000 1.000000e+000 0.000000e+000 0.000000e+000 0.000000e+000
 0.000000e+000 6.773641e-001 3.226359e-001 0.000000e+000 0.000000e+000
 0.000000e+000 0.000000e+000 1.435098e-001 8.564902e-001 0.000000e+000
 0.000000e+000 0.000000e+000 0.000000e+000 4.645253e-001 5.354747e-001
 0.000000e+000 0.000000e+000 0.000000e+000 0.000000e+000 0.000000e+000
<ENDHMM>
~h "ey"
<BEGINHMM>
<NUMSTATES> 5
<STATE> 2
<MEAN> 39
 -9.465565e+000 9.148751e-001 -1.836837e+000 -2.249680e+000 -1.251617e+000 -6.594118e+000 -2.342212e+000 -9.280732e+000 -4.367931e+000 -5.502838e+000 -2.918730e+000 -3.450054e+000 5.663209e+001 -1.128352e+000 -6.828594e-001 -7.321272e-001 -1.708407e-001 1.163628e+000 1.598456e+000 1.086514e+000 1.530137e+000 1.512202e+000 2.930088e-002 -3.033448e-001 2.535582e-001 -8.826025e-001 6.107625e-002 -1.863827e-001 -5.180575e-002 -1.810768e-001 -5.809806e-001 -3.569421e-001 1.833020e-001 -8.273980e-002 -1.402859e-002 2.903500e-001 1.394208e-001 -7.319304e-002 1.947733e-001
<VARIANCE> 39
 1.518076e+001 1.230539e+001 1.478371e+001 2.225575e+001 1.593317e+001 1.579471e+001 2.167283e+001 3.894427e+001 2.757261e+001 1.491578e+001 1.696805e+001 1.517894e+001 1.845759e+001 1.269880e+000 9.051626e-001 1.367652e+000 1.928659e+000 3.654779e+000 3.572082e+000 3.257855e+000 4.159124e+000 2.965419e+000 2.223946e+000 2.620080e+000 2.139776e+000 5.057883e-001 1.362015e-001 2.032553e-001 2.316360e-001 3.698854e-001 5.728033e-001 4.431414e-001 4.363041e-001 4.487103e-001 3.767433e-001 4.501552e-001 4.807536e-001 3.485231e-001 7.480117e-002
<GCONST> 1.034693e+002
<STATE> 3
<MEAN> 39
 -1.252657e+001 -1.535161e+000 -3.861730e+000 -3.105984e+000 -3.374335e-001 -4.041202e+000 6.218001e-001 -5.362604e+000 -6.097369e-001 -4.368782e+000 -3.064257e+000 -3.563906e+000 5.445288e+001 -4.126682e-001 -6.144373e-001 -4.197198e-001 -4.166990e-001 -5.442336e-001 2.920943e-001 8.401741e-001 5.376596e-001 9.321808e-001 7.278743e-001 1.491975e-001 -6.518782e-002 -2.179534e-001 3.260183e-001 -7.879290e-002 1.519218e-001 -4.140211e-002 -8.780516e-001 -9.091259e-001 -8.499966e-002 -4.896851e-001 -4.562533e-001 3.785815e-001 2.827467e-001 -1.017728e-001 5.264325e-001
<VARIANCE> 39
 4.243800e+000 3.396259e+000 9.295367e+000 1.368950e+001 9.121996e+000 1.025556e+001 1.374254e+001 1.498429e+001 1.315984e+001 1.267771e+001 1.624952e+001 1.258933e+001 2.230965e+001 8.984960e-001 6.945630e-001 8.742069e-001 1.462380e+000 2.437576e+000 2.562141e+000 1.835927e+000 2.408845e+000 2.219871e+000 1.935352e+000 2.282947e+000 1.320473e+000 7.206720e-001 1.484648e-001 2.251425e-001 1.730117e-001 2.294047e-001 5.967079e-001 3.118936e-001 6.475188e-001 5.086018e-001 3.708658e-001 3.859573e-001 3.862592e-001 3.651702e-001 1.609594e-001
<GCONST> 9.278035e+001
<STATE> 4
<MEAN> 39
 -1.252772e+001 -1.972125e+000 -4.322411e+000 -4.297236e+000 -1.337434e+000 -4.917197e+000 3.863741e-001 -5.188568e+000 2.830183e-001 -2.999845e+000 -1.740495e+000 -2.836606e+000 5.468535e+001 5.210342e-002 -4.107447e-001 -2.226031e-001 -1.858425e-001 -9.142494e-001 -7.066498e-001 3.501772e-001 -5.593539e-002 -5.458445e-002 6.181521e-001 1.126169e-001 1.511590e-002 3.062264e-001 2.300419e-001 -1.370125e-001 1.504576e-001 1.511380e-001 -5.277364e-001 -5.756485e-001 1.174561e-001 -2.436150e-001 -4.057306e-001 2.006152e-001 4.166345e-002 -2.113396e-001 4.189500e-001
<VARIANCE> 39
 2.518696e+000 3.880395e+000 6.582338e+000 7.343742e+000 8.307384e+000 8.655300e+000 1.012708e+001 1.113913e+001 1.430285e+001 1.510801e+001 1.420855e+001 1.144234e+001 6.411639e+000 4.371217e-001 6.145391e-001 7.354481e-001 8.972273e-001 2.452315e+000 2.013920e+000 1.509248e+000 1.644377e+000 1.827945e+000 2.316963e+000 1.883037e+000 1.391109e+000 6.831634e-001 1.033091e-001 1.620084e-001 1.470249e-001 1.674337e-001 6.464080e-001 4.865108e-001 3.589033e-001 3.282717e-001 3.989833e-001 5.153736e-001 4.000539e-001 3.161529e-001 1.858214e-001
<GCONST> 8.554020e+001
<TRANSP> 5
 0.000000e+000 1.000000e+000 0.000000e+000 0.000000e+000 0.000000e+000
 0.000000e+000 4.293483e-001 5.706517e-001 0.000000e+000 0.000000e+000
 0.000000e+000 0.000000e+000 1.325878e-002 9.867412e-001 0.000000e+000
 0.000000e+000 0.000000e+000 0.000000e+000 7.771459e-001 2.228540e-001
 0.000000e+000 0.000000e+000 0.000000e+000 0.000000e+000 0.000000e+000
<ENDHMM>
~h "ia"
<BEGINHMM>
<NUMSTATES> 5
<STATE> 2
<MEAN> 39
 -9.287965e+000 1.523442e+000 8.779643e-002 -5.625371e-001 -5.306359e+000 -2.275732e+001 -8.179105e+000 -1.431971e+001 -1.461939e+001 -6.310062e+000 -5.296828e+000 -6.017307e+000 6.306380e+001 1.834502e+000 -6.709831e-001 1.198623e+000 2.502033e-001 -2.093895e+000 -2.803469e+000 -1.492390e+000 -1.021536e+000 -1.237998e+000 -2.076449e-002 7.088482e-001 7.506126e-002 1.206779e+000 3.177815e-001 -3.610545e-001 -2.480349e-002 1.593834e-001 -5.214359e-001 2.742231e-001 1.511894e-001 9.728638e-003 1.861659e-001 4.305308e-002 2.393000e-001 -7.529632e-003 1.000876e-001
<VARIANCE> 39
 1.983370e+001 1.176032e+001 1.356831e+001 1.483282e+001 2.474197e+001 5.221096e+001 3.870819e+001 3.596649e+001 2.603692e+001 2.195176e+001 2.996270e+001 1.340635e+001 6.081294e+000 1.454378e+000 1.619327e+000 1.108826e+000 1.446376e+000 2.260315e+000 2.839623e+000 2.494009e+000 2.764826e+000 2.190169e+000 1.996548e+000 1.800886e+000 1.306819e+000 2.637089e-001 2.785318e-001 1.833014e-001 2.309280e-001 2.373406e-001 2.609777e-001 5.933068e-001 5.982314e-001 5.176890e-001 3.508528e-001 3.412896e-001 3.166808e-001 2.766335e-001 4.660176e-002
<GCONST> 1.005632e+002
<STATE> 3
<MEAN> 39
 1.353685e+000 -7.295040e+000 2.413886e+000 3.212239e+000 -2.015929e+001 -2.899874e+001 -1.058023e+001 -1.955534e+001 -1.549296e+001 -2.723555e+000 1.488008e+000 -5.031360e+000 6.975347e+001 1.039802e+000 -9.640268e-001 -1.093031e+000 3.109591e-001 -2.789963e-001 6.700920e-001 -3.595884e-001 -1.008295e+000 9.956275e-001 1.502947e+000 7.140878e-001 -2.495790e-001 4.688495e-001 -2.147346e-001 3.863358e-001 -4.435683e-001 -2.491077e-001 8.840011e-001 4.633993e-001 -1.963373e-001 -8.284516e-002 1.745082e-001 8.785581e-002 -7.507578e-002 -3.651476e-002 -2.540258e-001
<VARIANCE> 39
 6.366159e+000 2.901301e+001 1.941494e+001 1.852331e+001 2.660516e+001 2.234480e+001 2.566619e+001 2.071517e+001 3.107006e+001 3.972285e+001 2.090464e+001 2.217387e+001 6.412792e+000 4.227506e-001 1.774135e+000 2.755585e+000 1.474061e+000 7.591087e+000 2.522647e+000 2.656401e+000 2.441705e+000 3.213037e+000 2.490372e+000 2.131695e+000 2.024630e+000 5.364681e-001 6.344394e-002 2.564342e-001 2.043997e-001 3.679800e-001 4.068657e-001 3.704160e-001 4.753820e-001 5.027971e-001 5.909231e-001 6.271554e-001 4.008352e-001 4.536663e-001 4.017896e-002
<GCONST> 1.034741e+002
<STATE> 4
<MEAN> 39
 4.994144e+000 -2.654788e+000 -1.381135e+001 -8.245336e+000 -7.382707e+000 -1.464398e+001 -1.332974e+001 -2.275335e+001 -1.057055e+001 -5.465155e-001 6.071325e+000 4.407201e-002 6.752062e+001 -3.145256e-002 3.198077e-001 -6.551911e-001 -9.127099e-001 4.687266e-001 9.121924e-001 4.251485e-001 3.223331e-001 1.982782e-001 -6.633548e-002 2.591707e-001 3.266215e-001 -1.745354e-001 -7.960898e-002 -7.879389e-002 2.329548e-001 1.254408e-001 -2.239207e-001 -1.347162e-001 1.726388e-001 1.572350e-001 -3.307893e-003 -2.878316e-002 -8.167323e-002 -5.401856e-002 1.164421e-002
<VARIANCE> 39
 6.854461e+000 2.631967e+001 2.607363e+001 4.847783e+001 3.090449e+001 3.350524e+001 4.583079e+001 2.613909e+001 3.307810e+001 5.619602e+001 2.918420e+001 3.993491e+001 6.830966e+000 2.095154e-001 2.045657e+000 1.488871e+000 2.112056e+000 3.507832e+000 1.816850e+000 3.535711e+000 1.834435e+000 2.831464e+000 5.217411e+000 2.659101e+000 4.046887e+000 3.875557e-001 3.883002e-002 2.436524e-001 1.890288e-001 2.592427e-001 4.228532e-001 2.548036e-001 5.514582e-001 3.680184e-001 6.045929e-001 9.226352e-001 5.358365e-001 6.521420e-001 4.688485e-002
<GCONST> 1.065021e+002
<TRANSP> 5
 0.000000e+000 1.000000e+000 0.000000e+000 0.000000e+000 0.000000e+000
 0.000000e+000 7.991399e-001 2.008600e-001 0.000000e+000 0.000000e+000
 0.000000e+000 0.000000e+000 8.639216e-001 1.360784e-001 0.000000e+000
 0.000000e+000 0.000000e+000 0.000000e+000 9.294338e-001 7.056622e-002
 0.000000e+000 0.000000e+000 0.000000e+000 0.000000e+000 0.000000e+000
<ENDHMM>
~h "ih"
<BEGINHMM>
<NUMSTATES> 5
<STATE> 2
<MEAN> 39
 -1.849202e+001 -5.023211e+000 -4.691590e+000 -2.219051e+000 -2.043320e+000 -1.434779e+001 5.241942e+000 -2.560534e+000 -6.964729e+000 -3.913032e-001 2.293158e+000 -2.098435e+000 6.122811e+001 2.835084e+000 -1.273205e-001 1.885647e+000 -2.100539e-001 -2.891608e+000 -2.295477e+000 -1.352604e+000 -1.258893e+000 -1.164126e+000 -3.779002e-001 7.862008e-001 -7.389780e-002 1.739633e-001 9.229416e-001 3.519002e-001 4.858823e-001 2.011350e-001 -1.050532e+000 -7.305410e-001 -6.794062e-001 -1.175233e+000 -5.159164e-001 2.553022e-001 -3.039718e-002 -3.447892e-001 5.357667e-001
<VARIANCE> 39
 9.328607e+000 6.465645e+000 1.020541e+001 1.300342e+001 2.054654e+001 2.480138e+001 2.251583e+001 1.948780e+001 1.534782e+001 2.094291e+001 2.297000e+001 1.342776e+001 4.499321e+000 2.414531e+000 1.186427e+000 1.029775e+000 1.061194e+000 3.582047e+000 2.688018e+000 3.288742e+000 4.791836e+000 2.009472e+000 2.020064e+000 2.007957e+000 1.966315e+000 8.229729e-001 1.147870e-001 1.643141e-001 1.448491e-001 2.303187e-001 2.955861e-001 2.773222e-001 3.508946e-001 6.100061e-001 3.493555e-001 4.571395e-001 3.893404e-001 2.971007e-001 1.416222e-001
<GCONST> 9.737360e+001
<STATE> 3
<MEAN> 39
 -2.715015e+000 -3.352391e+000 6.309618e+000 8.302769e-001 -2.077791e+001 -2.501727e+001 -1.127863e+000 -1.778663e+001 -1.578584e+001 2.960157e+000 4.616466e+000 -7.358057e+000 6.703266e+001 1.268320e+000 4.307243e-001 1.404624e+000 6.242873e-001 -1.853354e+000 -2.697555e-001 -1.217087e-003 -2.017907e+000 -1.319933e+000 8.922953e-001 7.304360e-002 -1.279654e+000 5.620549e-001 -7.681405e-001 1.339400e-001 -4.069469e-001 -7.500107e-002 1.099450e+000 8.552355e-001 3.014118e-001 6.368055e-001 4.119926e-001 -1.679772e-001 -3.164681e-001 5.764370e-002 -4.303603e-001
<VARIANCE> 39
 1.526717e+001 2.253300e+001 2.734381e+001 2.172292e+001 6.080136e+001 4.732372e+001 2.914411e+001 5.005429e+001 3.782323e+001 3.589090e+001 2.172948e+001 3.143205e+001 1.450573e+001 5.606674e+000 3.075661e+000 2.987580e+000 1.808801e+000 1.227381e+001 8.182523e+000 4.097607e+000 8.144458e+000 4.150030e+000 3.800876e+000 2.792665e+000 2.821364e+000 2.902648e+000 3.358602e-001 6.402522e-001 3.815154e-001 3.956261e-001 1.308281e+000 8.480293e-001 8.678142e-001 9.350649e-001 7.309108e-001 9.997013e-001 5.258653e-001 6.532283e-001 3.517269e-001
<GCONST> 1.281491e+002
<STATE> 4
<MEAN> 39
 -1.304464e+001 -2.647947e+000 -1.313248e+000 1.181486e+000 -4.291263e+000 -1.249173e+001 2.423525e+000 -7.117069e+000 -1.021776e+001 -6.320065e-001 2.674145e-001 -6.052687e+000 6.148611e+001 -1.077044e+000 -1.383806e-002 -9.629584e-001 -1.308818e-001 1.473709e+000 6.987860e-001 1.757450e-001 1.258236e+000 8.497405e-001 -5.476207e-001 -2.740813e-001 6.145341e-001 -3.613909e-001 5.351769e-002 -6.883126e-002 -1.753318e-002 -4.043246e-002 -1.645195e-001 -9.051704e-002 -1.114388e-002 -5.702934e-002 2.351224e-002 5.154562e-002 8.412146e-002 1.928292e-002 6.218446e-002
<VARIANCE> 39
 6.698339e+001 3.294613e+001 5.039376e+001 2.675651e+001 8.277216e+001 6.083318e+001 3.996858e+001 1.148099e+002 5.186517e+001 4.797165e+001 3.973492e+001 4.031773e+001 1.557724e+001 1.930255e+000 3.595009e+000 2.010202e+000 2.178620e+000 8.051641e+000 7.935250e+000 3.065630e+000 4.799056e+000 5.026163e+000 6.715756e+000 4.694021e+000 3.039007e+000 1.960468e+000 2.636195e-001 6.190350e-001 3.511669e-001 3.843821e-001 1.425506e+000 1.209432e+000 5.488190e-001 8.077262e-001 8.785933e-001 1.461448e+000 8.014342e-001 6.650499e-001 2.396021e-001
<GCONST> 1.327006e+002
<TRANSP> 5
 0.000000e+000 1.000000e+000 0.000000e+000 0.000000e+000 0.000000e+000
 0.000000e+000 6.973397e-001 3.026603e-001 0.000000e+000 0.000000e+000
 0.000000e+000 0.000000e+000 8.503604e-001 1.496397e-001 0.000000e+000
 0.000000e+000 0.000000e+000 0.000000e+000 9.353521e-001 6.464787e-002
 0.000000e+000 0.000000e+000 0.000000e+000 0.000000e+000 0.000000e+000
<ENDHMM>
~h "iy"
<BEGINHMM>
<NUMSTATES> 5
<STATE> 2
<MEAN> 39
 -2.109556e+000 5.195414e-001 9.986614e+000 5.409645e-001 -2.320396e+001 -2.024358e+001 -4.394141e+000 -2.573876e+001 -1.832477e+001 -8.069076e-001 -1.917109e+000 -1.330932e+001 6.545585e+001 -5.215325e-001 8.401853e-001 4.423061e-001 -4.144062e-001 9.194256e-001 1.132988e+000 3.120236e-001 -6.698389e-002 -5.469655e-001 -5.343751e-001 -4.810800e-001 -3.525133e-001 -4.877086e-001 8.967518e-002 -6.742907e-002 -4.843005e-001 8.037619e-002 5.740014e-001 -5.877082e-002 -3.884975e-001 2.116029e-001 3.839000e-001 -3.310257e-002 -7.292753e-002 1.754743e-001 -2.946306e-002
<VARIANCE> 39
 3.644497e+000 1.735430e+001 1.134089e+001 1.508181e+001 2.846292e+001 3.067919e+001 3.275361e+001 2.245163e+001 2.971677e+001 3.489567e+001 3.353493e+001 1.703826e+001 5.386005e+000 2.566272e-001 1.024469e+000 1.474378e+000 1.210579e+000 2.744476e+000 2.055947e+000 2.794216e+000 2.103331e+000 3.229484e+000 2.277567e+000 2.040636e+000 1.369201e+000 2.065865e-001 3.354560e-002 1.484266e-001 2.273944e-001 1.966459e-001 8.102446e-001 3.595351e-001 5.726719e-001 3.942419e-001 5.477751e-001 4.068351e-001 4.098779e-001 2.427230e-001 3.421886e-002
<GCONST> 9.518986e+001
<STATE> 3
<MEAN> 39
 -4.039660e+000 3.326106e+000 8.010745e+000 6.956145e-001 -1.402073e+001 -1.685970e+001 -5.302636e+000 -2.176963e+001 -1.799083e+001 -4.930207e+000 -3.758212e+000 -1.223793e+001 6.246506e+001 -6.345480e-001 4.593716e-001 -1.426696e+000 1.178388e-002 3.155657e+000 1.154274e+000 -6.236501e-001 1.713441e+000 1.074373e+000 -1.596335e+000 -7.918316e-001 1.063373e+000 -8.687504e-001 -1.629024e-001 -2.211249e-001 -2.228314e-001 -5.964862e-002 1.654456e-001 3.035724e-001 1.630094e-001 2.719547e-001 5.114024e-001 1.598503e-001 -5.109550e-002 1.218428e-001 -2.319251e-002
<VARIANCE> 39
 6.364619e+000 1.084948e+001 1.566227e+001 1.761871e+001 2.308469e+001 2.591267e+001 2.843636e+001 3.002104e+001 2.554270e+001 2.862774e+001 4.125541e+001 2.507139e+001 3.875963e+000 5.328073e-001 1.015992e+000 8.700272e-001 1.560700e+000 3.002241e+000 2.070490e+000 2.315471e+000 3.117860e+000 2.589971e+000 1.579245e+000 2.408363e+000 2.254189e+000 2.235241e-001 1.198077e-001 1.071854e-001 1.798328e-001 2.593589e-001 6.106563e-001 4.961906e-001 5.223911e-001 4.947742e-001 4.624119e-001 4.257418e-001 4.556766e-001 3.644835e-001 3.550915e-002
<GCONST> 9.793920e+001
<STATE> 4
<MEAN> 39
 -6.192391e+000 4.137639e+000 2.671803e+000 -1.600122e+000 -6.111780e+000 -1.183323e+001 -7.700315e+000 -1.806618e+001 -1.265932e+001 -9.832440e+000 -8.292354e+000 -9.500297e+000 5.939932e+001 -6.151691e-001 -4.280697e-001 -9.468209e-001 -1.411789e-001 1.139603e+000 9.185752e-001 4.305232e-001 1.170530e+000 1.280290e+000 1.132635e-001 2.757915e-002 6.373266e-001 -4.622571e-001 -1.623048e-002 -1.403641e-001 3.202786e-002 -2.868976e-002 -3.454961e-001 -1.123463e-001 1.677478e-001 -1.430047e-002 1.157503e-002 3.346196e-001 2.499745e-001 -2.831024e-002 7.448047e-002
<VARIANCE> 39
 6.246599e+000 8.605381e+000 1.115243e+001 1.338632e+001 2.497286e+001 2.137466e+001 2.749490e+001 3.510072e+001 2.315877e+001 1.818966e+001 2.149039e+001 2.046462e+001 3.264247e+000 6.398292e-001 7.082177e-001 9.992248e-001 9.815122e-001 2.515546e+000 2.256627e+000 2.279647e+000 2.848469e+000 2.710107e+000 2.021827e+000 1.855465e+000 1.572542e+000 2.146382e-001 6.686894e-002 1.319532e-001 1.471645e-001 2.107068e-001 4.565250e-001 3.089714e-001 3.870642e-001 4.850482e-001 3.673532e-001 3.723561e-001 2.933485e-001 2.768096e-001 2.836731e-002
<GCONST> 9.126369e+001
<TRANSP> 5
 0.000000e+000 1.000000e+000 0.000000e+000 0.000000e+000 0.000000e+000
 0.000000e+000 8.598226e-001 1.401773e-001 0.000000e+000 0.000000e+000
 0.000000e+000 0.000000e+000 6.711201e-001 3.288799e-001 0.000000e+000
 0.000000e+000 0.000000e+000 0.000000e+000 8.124897e-001 1.875103e-001
 0.000000e+000 0.000000e+000 0.000000e+000 0.000000e+000 0.000000e+000
<ENDHMM>
~h "ow"
<BEGINHMM>
<NUMSTATES> 5
<STATE> 2
<MEAN> 39
 -1.254514e+001 -2.455360e+000 -4.967793e+000 -4.182048e+000 -1.116426e+000 -5.233749e+000 9.087401e-002 -5.803943e+000 -1.258838e-001 -3.082119e+000 -8.878387e-001 -2.013429e+000 5.465380e+001 -5.469296e-002 -2.842527e-002 -3.265842e-002 -2.665143e-002 -1.118255e-002 -2.670876e-002 -1.652062e-002 1.783282e-003 1.569270e-003 4.192615e-003 1.259887e-002 5.306252e-002 -3.713853e-002 2.346863e-002 5.908460e-003 -1.015132e-002 -1.701524e-002 -1.972857e-002 -1.372549e-002 -1.589033e-002 -7.273896e-003 -1.316525e-002 2.087218e-003 7.130164e-003 -8.896952e-003 1.955595e-002
<VARIANCE> 39
 2.885931e+000 3.695232e+000 6.044488e+000 7.136631e+000 7.650124e+000 9.648783e+000 1.111570e+001 1.402528e+001 1.170682e+001 1.363503e+001 1.441521e+001 1.134331e+001 2.072198e+000 1.177358e-001 1.646663e-001 3.892476e-001 6.837217e-001 8.796248e-001 9.203717e-001 1.067329e+000 1.369124e+000 1.241891e+000 1.323959e+000 1.500365e+000 1.339953e+000 6.245649e-002 2.678459e-002 3.225571e-002 7.768744e-002 1.431008e-001 1.747981e-001 1.919829e-001 2.277263e-001 2.914447e-001 2.611321e-001 2.709241e-001 3.170548e-001 2.855539e-001 1.318852e-002
<GCONST> 6.434180e+001
<STATE> 3
<MEAN> 39
 -1.308647e+001 -1.471557e+000 -5.871511e+000 -2.092729e+000 -1.967832e+000 -6.710050e+000 -1.068917e+000 -6.380890e+000 -2.964070e+000 -1.222767e+000 -1.934601e-001 -3.252635e+000 5.758669e+001 -1.360621e-001 4.895368e-002 -8.674946e-002 -2.221122e-001 -3.785008e-001 -3.338758e-001 -3.420212e-002 -3.105076e-002 -4.117045e-001 -1.465324e-001 -1.354778e-001 -2.780598e-003 5.014550e-002 6.513596e-002 -1.483215e-002 1.812104e-001 9.387439e-002 7.904821e-002 6.843928e-002 -1.497644e-001 -5.585492e-002 4.671025e-002 -1.209541e-001 -1.147128e-001 -1.488776e-001 9.525086e-002
<VARIANCE> 39
 2.622291e+001 1.291851e+001 1.806976e+001 1.978689e+001 1.826704e+001 1.904846e+001 1.694060e+001 3.238768e+001 1.893128e+001 2.354757e+001 2.392957e+001 2.000996e+001 1.159250e+001 2.497408e-001 2.743460e-001 4.903878e-001 8.363961e-001 1.219318e+000 1.113642e+000 1.339206e+000 1.698367e+000 1.439424e+000 1.890852e+000 1.526864e+000 1.098688e+000 8.061244e-002 8.000962e-002 8.961341e-002 1.150037e-001 2.170975e-001 2.626320e-001 3.641852e-001 2.388959e-001 3.976333e-001 2.755714e-001 4.629692e-001 3.596890e-001 2.817804e-001 3.861596e-002
<GCONST> 8.588780e+001
<STATE> 4
<MEAN> 39
 -1.238042e+001 -2.075416e+000 -5.017667e+000 -3.075968e+000 -1.764544e+000 -7.476902e+000 -1.381873e+000 -6.553341e+000 -2.664114e+000 -1.911245e+000 -1.445105e+000 -3.467154e+000 5.748384e+001 -8.869490e-002 -2.144208e-002 3.569385e-001 1.924524e-001 -1.874386e-001 -8.581044e-002 -4.842878e-001 -2.775323e-001 -3.657693e-001 -3.703231e-001 -2.683836e-001 -1.389668e-001 2.589763e-001 5.906589e-002 -3.699638e-002 1.602549e-001 7.180240e-002 8.167534e-002 9.378242e-002 -9.426446e-002 -4.173165e-002 1.524794e-002 -1.353841e-003 3.908344e-002 -1.253375e-001 1.471688e-001
<VARIANCE> 39
 2.690570e+001 1.592163e+001 1.843158e+001 2.397278e+001 1.771533e+001 1.560325e+001 2.183309e+001 3.291847e+001 2.645911e+001 2.392395e+001 2.824386e+001 1.779743e+001 1.332451e+001 7.369584e-001 6.765160e-001 8.502166e-001 1.006467e+000 1.216839e+000 1.191792e+000 1.235348e+000 1.646540e+000 1.909392e+000 2.062182e+000 1.721899e+000 1.509920e+000 3.182548e-001 1.229374e-001 1.290286e-001 1.580340e-001 2.647987e-001 3.004629e-001 2.479319e-001 3.087076e-001 2.780317e-001 3.827736e-001 2.969870e-001 3.934260e-001 3.623305e-001 6.573768e-002
<GCONST> 9.348415e+001
<TRANSP> 5
 0.000000e+000 1.000000e+000 0.000000e+000 0.000000e+000 0.000000e+000
 0.000000e+000 9.542961e-001 4.570396e-002 0.000000e+000 0.000000e+000
 0.000000e+000 0.000000e+000 2.753392e-001 7.246608e-001 0.000000e+000
 0.000000e+000 0.000000e+000 0.000000e+000 1.491796e-001 8.508204e-001
 0.000000e+000 0.000000e+000 0.000000e+000 0.000000e+000 0.000000e+000
<ENDHMM>
~h "sp"
<BEGINHMM>
<NUMSTATES> 3
<STATE> 2
~s "silst"
<TRANSP> 3
 0.000000e+000 3.443182e-001 6.556818e-001
 0.000000e+000 9.580486e-001 4.195137e-002
 0.000000e+000 0.000000e+000 0.000000e+000
<ENDHMM>
~h "th"
<BEGINHMM>
<NUMSTATES> 5
<STATE> 2
<MEAN> 39
 -9.731174e+000 -1.628493e+000 -1.386211e+000 -2.352588e+000 1.146742e+000 -1.076863e+001 -5.426596e+000 -9.122262e+000 -7.735576e+000 -1.289861e+000 -1.239226e+000 -5.859596e+000 6.117596e+001 -2.061437e+000 -1.047839e+000 -1.679792e-002 2.253663e-001 1.971148e+000 6.233273e-001 8.572302e-001 2.704315e+000 7.333015e-001 6.856233e-001 8.341473e-002 -1.609517e-001 1.326949e-002 -8.436514e-002 -3.681141e-003 -6.863370e-002 -3.266930e-001 -4.259369e-001 -2.106224e-001 -1.024330e-002 1.486058e-001 1.836019e-002 3.938825e-002 1.379861e-001 -1.650130e-002 1.030660e-001
<VARIANCE> 39
 4.408874e+001 1.764883e+001 2.774614e+001 3.749429e+001 4.410654e+001 4.001202e+001 7.088515e+001 9.808432e+001 4.069678e+001 3.579027e+001 2.900717e+001 2.148697e+001 9.768993e+000 1.878187e+000 1.432361e+000 2.589305e+000 4.723635e+000 3.543523e+000 3.900902e+000 4.615001e+000 6.491388e+000 3.766400e+000 2.952878e+000 3.329716e+000 2.223606e+000 5.011718e-001 2.725475e-001 2.924697e-001 4.041974e-001 5.617606e-001 5.964125e-001 6.563325e-001 9.392831e-001 1.478920e+000 6.422957e-001 5.086604e-001 6.854464e-001 4.576267e-001 6.226407e-002
<GCONST> 1.211663e+002
<STATE> 3
<MEAN> 39
 -1.929834e+001 -5.726497e+000 -2.953880e+000 -6.615830e+000 3.040948e+000 -9.333436e+000 -3.283305e+000 1.164301e+000 -5.607111e+000 1.211360e+000 1.500698e+000 -5.463114e+000 6.175993e+001 -2.719150e-001 -5.686013e-001 2.549342e-002 -3.979126e-001 -9.475424e-001 5.970758e-001 -5.215473e-001 -2.253278e-001 5.017039e-001 5.191745e-002 2.067283e-001 1.594942e-001 2.760012e-001 3.099869e-001 -1.754561e-001 6.309563e-002 3.291637e-001 -3.477099e-001 7.853172e-002 9.378615e-002 -4.494259e-001 1.941285e-001 1.010142e-001 -1.607662e-001 -2.794699e-002 -4.244187e-002
<VARIANCE> 39
 8.354052e+000 1.086035e+001 7.780857e+000 1.299571e+001 2.384231e+001 2.943632e+001 3.183127e+001 2.089257e+001 2.375149e+001 3.302156e+001 2.786856e+001 2.249287e+001 5.124977e+000 8.461664e-001 1.011801e+000 9.357609e-001 1.707466e+000 3.017939e+000 2.031955e+000 2.676723e+000 2.949461e+000 2.889116e+000 2.524245e+000 2.777251e+000 2.239303e+000 1.965897e-001 9.395919e-002 1.693241e-001 1.628218e-001 3.326715e-001 4.097291e-001 3.954101e-001 6.309755e-001 5.290571e-001 5.159627e-001 6.907833e-001 5.838177e-001 5.078089e-001 3.215175e-002
<GCONST> 9.931699e+001
<STATE> 4
<MEAN> 39
 -1.009146e+001 -1.155858e+001 -6.649007e+000 8.718786e-001 -3.885533e+000 -9.788579e+000 -6.930501e+000 -1.211699e+001 -2.499588e+000 4.900434e+000 2.657866e+000 -6.274915e+000 6.266056e+001 2.433874e+000 6.670001e-001 -9.075607e-001 5.808325e-001 -1.442418e-001 -1.556682e+000 -1.380427e+000 -2.416422e+000 -7.742090e-001 7.827858e-002 4.205252e-001 -1.163145e-002 3.953849e-001 9.600499e-002 2.865505e-001 5.968340e-002 -1.480556e-001 5.780204e-002 -3.280898e-001 -2.513985e-001 7.441100e-002 -1.895045e-001 -1.165275e-001 -3.011489e-002 -8.203787e-002 1.317475e-001
<VARIANCE> 39
 5.862912e+001 3.965124e+001 2.591488e+001 3.752635e+001 3.256279e+001 3.946454e+001 5.668002e+001 6.928634e+001 3.624743e+001 3.255864e+001 2.924921e+001 3.235957e+001 7.251292e+000 2.173410e+000 6.557855e+000 1.905271e+000 6.991603e+000 5.949676e+000 2.967658e+000 6.640149e+000 4.309187e+000 4.264483e+000 5.003367e+000 3.554393e+000 5.183278e+000 1.301073e+000 5.165693e-001 1.037801e+000 4.698381e-001 1.341412e+000 1.446613e+000 5.817115e-001 1.198790e+000 1.069970e+000 9.635511e-001 9.619533e-001 8.351164e-001 1.274460e+000 2.003288e-001
<GCONST> 1.327285e+002
<TRANSP> 5
 0.000000e+000 1.000000e+000 0.000000e+000 0.000000e+000 0.000000e+000
 0.000000e+000 7.509342e-001 2.490657e-001 0.000000e+000 0.000000e+000
 0.000000e+000 0.000000e+000 8.780648e-001 1.219352e-001 0.000000e+000
 0.000000e+000 0.000000e+000 0.000000e+000 8.919285e-001 1.080715e-001
 0.000000e+000 0.000000e+000 0.000000e+000 0.000000e+000 0.000000e+000
<ENDHMM>
~h "uw"
<BEGINHMM>
<NUMSTATES> 5
<STATE> 2
<MEAN> 39
 -4.487615e+000 -5.834241e+000 -4.906105e-001 4.551268e+000 -1.109037e+001 -1.883636e+001 -6.451545e+000 -1.339531e+001 -1.220942e+001 -3.447055e+000 3.747524e+000 -3.994053e+000 6.387777e+001 3.860587e+000 3.036658e+000 9.581942e-001 -1.767673e-001 -1.605886e+000 -9.499089e-001 -3.047922e+000 -5.627985e+000 -1.511051e+000 6.169069e-001 -1.392125e+000 -1.652584e+000 1.653583e+000 -3.805210e-001 -2.043464e-001 8.656387e-003 -1.285018e-001 2.042907e-001 3.279094e-001 2.931913e-001 4.513775e-001 -7.195136e-002 1.050020e-001 9.333917e-002 -1.387443e-001 1.722373e-001
<VARIANCE> 39
 3.207861e+001 3.253497e+001 1.848281e+001 3.230989e+001 3.789806e+001 3.072350e+001 3.751848e+001 9.659629e+001 3.085126e+001 2.687038e+001 2.466250e+001 2.347006e+001 1.717598e+001 9.513615e-001 2.201322e+000 7.849661e-001 2.467687e+000 1.701833e+000 2.446995e+000 2.909117e+000 5.277467e+000 2.298081e+000 2.873870e+000 2.462725e+000 1.592750e+000 6.801810e-001 5.541935e-001 4.387738e-001 2.251781e-001 2.691906e-001 7.164165e-001 4.377607e-001 6.756381e-001 1.531557e+000 4.245459e-001 4.708847e-001 3.856258e-001 3.309141e-001 4.233857e-001
<GCONST> 1.147565e+002
<STATE> 3
<MEAN> 39
 2.695312e+000 -2.487410e-001 -1.139468e-001 3.669744e+000 -1.052105e+001 -1.738220e+001 -1.183356e+001 -2.556674e+001 -1.649419e+001 -4.671818e-001 2.259491e+000 -1.007187e+001 6.770013e+001 1.682977e-001 1.357621e+000 -3.687154e-001 -1.448751e+000 8.802971e-001 1.061457e+000 -4.961968e-001 -1.054154e+000 -4.316609e-001 -4.901599e-001 -5.302798e-001 -2.483905e-001 -4.379619e-001 -5.127333e-001 -2.146334e-001 -9.157173e-002 -1.465142e-001 1.352093e-001 1.209759e-001 2.483156e-001 6.176733e-001 2.019914e-001 -3.259339e-001 -2.137397e-002 3.612540e-001 -3.239684e-001
<VARIANCE> 39
 2.620172e+000 2.211701e+001 1.289162e+001 3.638127e+001 2.410093e+001 3.889884e+001 2.422323e+001 3.867125e+001 3.639230e+001 4.083802e+001 2.950522e+001 2.632509e+001 7.050536e+000 5.592433e-001 8.331724e-001 7.655346e-001 1.127112e+000 1.476130e+000 1.050070e+000 1.411623e+000 1.757917e+000 1.707091e+000 2.235958e+000 1.598927e+000 1.803812e+000 4.185829e-001 2.291468e-001 2.086769e-001 1.555401e-001 2.475906e-001 3.579286e-001 2.817236e-001 2.836486e-001 5.219064e-001 3.258748e-001 2.992111e-001 2.751078e-001 2.550250e-001 1.175888e-001
<GCONST> 9.582185e+001
<STATE> 4
<MEAN> 39
 -1.110426e+000 6.922238e+000 -1.120116e-001 -5.095233e+000 -8.461407e+000 -1.433982e+001 -1.270623e+001 -2.269499e+001 -1.412659e+001 -9.197970e+000 -4.977458e+000 -6.732579e+000 6.177560e+001 -4.784467e-001 -1.656303e-001 7.747112e-003 5.635393e-002 3.001899e-001 1.544446e-001 1.286116e-001 5.312042e-001 5.257698e-001 -1.601699e-001 -2.938299e-001 1.884875e-001 -3.250638e-001 -5.419380e-002 -1.862890e-001 -3.336632e-002 1.437043e-001 2.984160e-002 -3.317723e-003 1.164233e-001 1.850738e-001 1.226567e-001 1.477104e-001 8.260394e-002 -2.537113e-002 2.813356e-002
<VARIANCE> 39
 8.636891e+000 7.739213e+000 8.907665e+000 1.819011e+001 2.086839e+001 2.548291e+001 2.124900e+001 3.183556e+001 2.909641e+001 3.519980e+001 3.187959e+001 1.973265e+001 4.619616e+000 2.771858e-001 9.062122e-001 6.316538e-001 1.136502e+000 1.332311e+000 1.516259e+000 1.718014e+000 1.891679e+000 1.648217e+000 2.306370e+000 1.797507e+000 1.437303e+000 1.207812e-001 4.555135e-002 9.405668e-002 1.137619e-001 1.685066e-001 2.310268e-001 2.519881e-001 3.049403e-001 3.678544e-001 2.928218e-001 3.326188e-001 2.823652e-001 2.615420e-001 1.565424e-002
<GCONST> 8.547607e+001
<TRANSP> 5
 0.000000e+000 1.000000e+000 0.000000e+000 0.000000e+000 0.000000e+000
 0.000000e+000 6.918811e-001 3.081190e-001 0.000000e+000 0.000000e+000
 0.000000e+000 0.000000e+000 7.968059e-001 2.031942e-001 0.000000e+000
 0.000000e+000 0.000000e+000 0.000000e+000 9.206133e-001 7.938667e-002
 0.000000e+000 0.000000e+000 0.000000e+000 0.000000e+000 0.000000e+000
<ENDHMM>
~h "sil"
<BEGINHMM>
<NUMSTATES> 5
<STATE> 2
<MEAN> 39
 -1.979875e+001 -3.353590e+000 -5.187540e+000 -2.023678e+000 -2.169188e+000 -1.533548e+000 -5.020939e-001 -3.122018e-001 1.000814e+000 -2.547837e-001 -1.822724e-001 4.211794e-001 2.859291e+001 1.766053e-001 3.718780e-002 7.728568e-002 4.547853e-003 1.230359e-001 -6.677813e-003 6.036410e-002 -2.263202e-002 7.343484e-002 -5.512597e-002 1.759177e-003 -5.223336e-002 5.097118e-001 3.814021e-004 6.462615e-003 -4.615359e-003 -1.564878e-002 -3.495461e-002 -3.218277e-002 -2.873380e-002 -3.811805e-002 -2.723027e-002 -1.342918e-002 -3.158009e-002 -2.226548e-002 9.312308e-003
<VARIANCE> 39
 1.862856e+001 2.966283e+000 5.269232e+000 5.132112e+000 6.724049e+000 7.450109e+000 7.672396e+000 1.458463e+001 9.778743e+000 9.527288e+000 7.160660e+000 7.477072e+000 1.617172e+002 8.507207e-001 2.668386e-001 5.252712e-001 3.588438e-001 6.362442e-001 5.192963e-001 7.511353e-001 1.276634e+000 1.161973e+000 1.239669e+000 7.148349e-001 1.045175e+000 3.901995e+000 1.561899e-001 4.751968e-002 1.115577e-001 7.028683e-002 1.192956e-001 1.090091e-001 1.598878e-001 2.379081e-001 2.457949e-001 2.686457e-001 1.394534e-001 2.339679e-001 6.219858e-001
<GCONST> 7.437450e+001
<STATE> 3
~s "silst"
<STATE> 4
<MEAN> 39
 -1.330576e+001 -2.208217e+000 -3.605264e+000 -4.077859e+000 -1.222190e+000 -5.661278e+000 -1.019038e+000 -6.457155e+000 -2.578641e-001 -3.547130e+000 -2.672168e-001 -2.044314e+000 5.251856e+001 1.940342e-002 -1.692501e-002 -3.529308e-002 -1.177275e-001 -1.794714e-001 -1.733813e-001 -9.483539e-002 2.620973e-002 2.223049e-002 1.157922e-001 1.090385e-001 3.496113e-002 1.661077e-002 4.230078e-002 2.098374e-002 -2.069962e-002 -4.294904e-002 -2.311177e-002 6.809250e-002 9.180416e-002 9.701438e-002 2.622015e-002 1.527059e-002 -4.058722e-002 -1.101140e-002 2.184664e-002
<VARIANCE> 39
 4.307909e+000 3.401106e+000 4.096536e+000 4.476189e+000 5.327937e+000 9.116661e+000 8.772373e+000 1.112434e+001 9.962205e+000 1.303774e+001 9.588757e+000 8.986014e+000 2.884234e+001 2.141163e-001 4.370211e-001 4.450233e-001 6.429298e-001 7.141242e-001 1.105889e+000 1.080138e+000 1.418183e+000 1.551319e+000 1.708514e+000 1.177516e+000 1.140860e+000 2.241616e-001 2.929094e-002 4.740507e-002 5.916036e-002 7.903397e-002 1.174388e-001 1.374055e-001 1.574849e-001 1.886463e-001 1.822824e-001 2.093703e-001 1.637208e-001 1.772468e-001 3.045380e-002
<GCONST> 6.487875e+001
<TRANSP> 5
 0.000000e+000 1.000000e+000 0.000000e+000 0.000000e+000 0.000000e+000
 0.000000e+000 8.623337e-001 8.149250e-002 5.617382e-002 0.000000e+000
 0.000000e+000 0.000000e+000 7.340288e-001 2.659712e-001 0.000000e+000
 0.000000e+000 5.900098e-001 0.000000e+000 1.625662e-001 2.474240e-001
 0.000000e+000 0.000000e+000 0.000000e+000 0.000000e+000 0.000000e+000
<ENDHMM>
