~o
<STREAMINFO> 1 39
<VECSIZE> 39<NULLD><MFCC_D_A_0><DIAGC>
~s "silst"
<MEAN> 39
 -1.261567e+001 -2.433810e+000 -4.760513e+000 -4.438901e+000 -1.614654e+000 -5.288359e+000 2.259488e-001 -5.661871e+000 -3.893550e-001 -3.705989e+000 -1.385263e+000 -2.314892e+000 5.460504e+001 -5.161799e-002 -5.143246e-002 -6.229027e-002 -4.874108e-002 -1.438277e-002 8.599713e-003 -1.928572e-002 -2.988157e-002 4.330793e-002 1.083718e-002 -1.659816e-002 2.338500e-002 -2.148161e-002 1.273919e-002 4.253464e-003 2.313313e-002 1.905840e-002 -8.902146e-003 -3.418934e-002 -1.851715e-002 -1.401375e-002 -3.972662e-002 5.439690e-003 9.055205e-003 -1.324790e-002 2.680360e-002
<VARIANCE> 39
 1.768048e+000 3.984188e+000 5.952826e+000 8.285458e+000 8.016791e+000 9.931767e+000 1.115152e+001 1.293090e+001 1.282420e+001 1.452635e+001 1.575215e+001 1.189082e+001 1.856613e+000 1.576400e-001 2.862552e-001 4.597608e-001 7.743136e-001 9.106950e-001 1.058739e+000 1.160509e+000 1.496792e+000 1.494300e+000 1.619709e+000 1.617234e+000 1.309345e+000 1.165023e-001 3.437716e-002 5.659158e-002 9.189925e-002 1.544906e-001 1.923852e-001 2.153291e-001 2.429278e-001 3.050987e-001 3.018674e-001 3.392970e-001 3.296378e-001 2.700320e-001 2.602328e-002
<GCONST> 6.919463e+001
~h "f"
<BEGINHMM>
<NUMSTATES> 5
<STATE> 2
<MEAN> 39
 -1.302748e+001 -6.018829e+000 -6.057145e+000 8.774742e-001 -2.527273e+000 -6.494514e+000 -1.721154e+000 -6.202995e+000 -2.086916e+000 1.131259e-001 1.400977e+000 -3.824738e+000 5.726303e+001 -2.649924e-001 -3.659903e-001 -4.044070e-001 2.202171e-001 -2.187849e-001 8.959493e-004 -2.394020e-002 1.119491e-001 7.708138e-002 4.979699e-001 2.822397e-001 4.990310e-002 6.139355e-002 9.066612e-002 2.510933e-002 2.738500e-003 -4.763157e-002 -2.288022e-002 -6.894264e-002 -9.551901e-002 -4.504746e-002 -7.306501e-002 -3.421998e-002 -4.112602e-002 -6.830226e-002 6.109739e-002
<VARIANCE> 39
 7.275173e+000 1.273781e+001 1.034118e+001 2.173942e+001 1.133438e+001 1.539065e+001 1.576855e+001 1.908290e+001 1.874434e+001 2.388788e+001 1.680859e+001 1.660149e+001 3.098973e+001 4.123460e-001 1.206233e+000 8.021987e-001 1.112883e+000 1.329249e+000 1.543472e+000 1.834144e+000 1.777961e+000 1.903777e+000 2.462752e+000 1.582503e+000 1.421769e+000 1.597074e-001 4.360067e-002 1.286993e-001 1.001872e-001 1.821517e-001 2.674232e-001 3.022801e-001 3.785085e-001 2.704428e-001 3.378924e-001 4.276788e-001 2.960663e-001 2.566839e-001 2.588228e-002
<GCONST> 8.712287e+001
<STATE> 3
<MEAN> 39
 -1.893511e+001 -5.049037e+000 -6.263982e+000 -5.164176e-001 -2.701581e+000 -2.578987e+000 -1.190110e+000 -1.334887e+000 -1.758259e-001 8.248186e-001 4.516068e-001 -5.652042e-001 3.394596e+001 -4.321359e-002 -2.809659e-001 -2.299827e-001 8.971620e-002 -4.920444e-002 -6.571854e-003 -1.429649e-002 4.292652e-002 7.142341e-002 3.258476e-001 1.939708e-001 -4.547735e-002 8.219303e-002 2.629004e-002 -9.242653e-003 -4.228294e-003 -2.715622e-002 6.527851e-003 -5.666343e-002 -3.319996e-002 -7.937238e-002 -5.108166e-002 -3.876673e-002 -3.118637e-002 -4.758553e-002 1.394116e-002
<VARIANCE> 39
 2.142449e+001 7.986275e+000 5.161977e+000 1.144282e+001 7.142262e+000 1.460369e+001 9.496580e+000 2.521776e+001 1.535362e+001 1.120099e+001 1.072301e+001 1.394011e+001 3.020820e+002 1.894427e-001 6.067654e-001 6.307234e-001 6.693348e-001 7.500761e-001 7.848600e-001 1.084183e+000 1.611743e+000 1.418297e+000 1.657213e+000 1.029210e+000 9.932274e-001 8.858384e-002 1.941111e-002 6.309865e-002 7.725932e-002 8.983428e-002 1.033661e-001 1.561135e-001 2.278228e-001 2.768962e-001 2.988338e-001 3.076068e-001 1.614581e-001 2.281819e-001 9.208953e-003
<GCONST> 7.340382e+001
<STATE> 4
<MEAN> 39
 -1.170597e+001 -9.004849e+000 -9.548059e+000 8.269636e-001 -4.391853e+000 -9.147020e+000 -2.741508e+000 -6.965816e+000 -3.354290e+000 2.551778e+000 2.767832e+000 -4.915634e+000 6.016787e+001 9.083372e-001 9.466855e-001 6.532110e-002 -1.171566e+000 -1.047492e+000 -8.609416e-001 -3.684019e-001 -1.577695e-001 -6.081177e-002 -4.858385e-001 -3.694393e-001 -1.367865e-001 2.124802e-001 2.462329e-001 4.070637e-001 1.431335e-001 -2.854419e-001 -2.485771e-001 -1.336736e-001 -1.246359e-001 -1.058622e-001 -1.324269e-002 -1.671505e-001 -1.720557e-001 -3.567223e-002 6.284447e-002
<VARIANCE> 39
 1.932121e+001 2.906890e+001 1.035582e+001 3.449084e+001 2.692701e+001 2.660577e+001 1.643601e+001 1.675402e+001 1.787074e+001 2.718683e+001 2.052545e+001 1.411539e+001 1.843670e+001 2.969790e+000 5.895888e+000 1.201818e+000 4.259217e+000 4.164715e+000 2.509475e+000 2.232589e+000 1.831615e+000 1.554531e+000 2.768164e+000 2.373983e+000 1.355728e+000 4.864401e-001 1.896423e-001 6.043291e-001 1.541257e-001 4.142162e-001 5.863380e-001 4.127313e-001 3.820451e-001 3.606435e-001 3.198830e-001 4.839712e-001 3.577979e-001 2.870968e-001 7.572752e-002
<GCONST> 1.059659e+002
<TRANSP> 5
 0.000000e+000 1.000000e+000 0.000000e+000 0.000000e+000 0.000000e+000
 0.000000e+000 7.377938e-001 2.622062e-001 0.000000e+000 0.000000e+000
 0.000000e+000 0.000000e+000 7.143040e-001 2.856959e-001 0.000000e+000
 0.000000e+000 0.000000e+000 0.000000e+000 8.642720e-001 1.357280e-001
 0.000000e+000 0.000000e+000 0.000000e+000 0.000000e+000 0.000000e+000
<ENDHMM>
~h "k"
<BEGINHMM>
<NUMSTATES> 5
<STATE> 2
<MEAN> 39
 -1.576906e+001 -4.346412e+000 -7.756566e+000 -6.459756e+000 -2.649508e+000 -7.082023e+000 -2.693263e-001 -4.978190e+000 4.644065e-002 -2.633379e+000 -7.587589e-001 -1.657025e+000 5.447490e+001 -1.860505e-002 4.196554e-002 -6.726199e-002 -1.017914e-001 1.048112e-003 9.120289e-002 -6.583488e-002 -3.915862e-002 1.182428e-001 4.504185e-002 -5.298565e-002 -4.562424e-002 -4.493666e-002 3.709747e-002 -3.048229e-002 3.695952e-002 1.867287e-002 -3.757784e-002 -4.347607e-002 -8.375387e-003 -8.906287e-003 -5.349644e-002 2.667459e-002 2.539423e-002 -2.810375e-002 1.025471e-002
<VARIANCE> 39
 9.481954e+000 5.154027e+000 5.949399e+000 1.344572e+001 1.038144e+001 1.455286e+001 1.231317e+001 1.430311e+001 1.824859e+001 1.511527e+001 1.370510e+001 1.152741e+001 8.719536e+000 1.584465e-001 3.344458e-001 3.861909e-001 8.664278e-001 8.652414e-001 1.101016e+000 1.051970e+000 1.191364e+000 1.429959e+000 1.673609e+000 1.568863e+000 1.402965e+000 1.192984e-001 5.105947e-002 6.730425e-002 8.317511e-002 1.610683e-001 1.886038e-001 2.009532e-001 2.053537e-001 2.494213e-001 3.203557e-001 3.412957e-001 3.389949e-001 2.893850e-001 2.729452e-002
<GCONST> 7.429877e+001
<STATE> 3
<MEAN> 39
 -2.178312e+001 -8.581308e-001 -7.134984e+000 -6.785076e-002 4.930352e-001 -1.143434e+001 2.535961e+000 -1.520628e+000 -5.131976e+000 -3.347865e+000 6.601703e-001 -2.704639e+000 6.193225e+001 1.311613e-001 1.611193e-001 5.899712e-002 -5.489862e-001 2.243683e-001 3.878538e-001 -4.391302e-001 -3.440795e-001 1.109925e-001 1.354227e-001 -1.491332e-001 -3.096152e-001 -1.454269e-001 8.546165e-002 -1.762851e-001 1.223867e-001 5.313919e-002 -3.693852e-002 -1.009867e-001 5.242838e-002 2.596499e-002 -1.688423e-001 3.945092e-002 1.243861e-001 -6.146217e-003 3.606524e-002
<VARIANCE> 39
 1.482543e+001 8.117152e+000 1.649031e+001 1.534631e+001 2.561958e+001 4.144967e+001 2.797824e+001 2.750758e+001 2.632979e+001 3.354161e+001 3.357116e+001 1.965232e+001 7.465423e+000 2.353397e-001 4.609284e-001 5.045614e-001 1.062923e+000 1.146607e+000 1.032750e+000 1.183521e+000 1.627507e+000 1.174965e+000 1.674518e+000 1.542151e+000 1.406510e+000 8.122703e-002 5.913969e-002 7.276620e-002 9.967084e-002 1.942083e-001 2.379679e-001 2.450760e-001 2.320848e-001 3.778834e-001 3.160146e-001 3.935650e-001 2.991043e-001 2.659954e-001 2.972992e-002
<GCONST> 8.502135e+001
<STATE> 4
<MEAN> 39
 -2.013798e+001 -1.058543e+000 -6.288371e+000 -2.324655e+000 2.355297e+000 -1.012178e+001 2.385905e+000 -1.490947e+000 -5.115318e+000 -2.436208e+000 -1.167045e+000 -3.051630e+000 6.067643e+001 3.725096e-001 -3.901998e-001 3.811220e-001 -5.693240e-001 5.250460e-002 3.143071e-001 -5.342907e-001 -1.806701e-001 -3.016114e-001 4.116661e-001 3.287615e-001 -6.728080e-001 -1.377666e-001 1.259386e-001 -3.449952e-001 6.802786e-002 9.535322e-002 -1.771272e-001 -1.621032e-001 -5.358850e-002 8.431046e-002 -1.703946e-001 1.788212e-001 2.821948e-001 -3.282820e-003 5.865321e-002
<VARIANCE> 39
 2.710865e+001 6.693208e+000 1.186769e+001 1.699200e+001 3.144002e+001 3.443773e+001 2.295783e+001 2.533820e+001 2.648423e+001 2.459323e+001 1.979766e+001 1.511676e+001 1.475423e+001 4.166953e-001 9.506282e-001 7.731658e-001 1.308514e+000 1.410519e+000 1.949049e+000 1.656511e+000 2.036022e+000 1.676381e+000 1.696539e+000 2.041997e+000 1.377288e+000 2.676763e-001 8.576704e-002 1.096013e-001 1.189407e-001 2.375058e-001 3.239264e-001 3.170161e-001 2.943510e-001 3.525700e-001 3.431427e-001 4.079962e-001 2.250094e-001 4.553845e-001 9.382563e-002
<GCONST> 9.309785e+001
<TRANSP> 5
 0.000000e+000 1.000000e+000 0.000000e+000 0.000000e+000 0.000000e+000
 0.000000e+000 8.865353e-001 1.134647e-001 0.000000e+000 0.000000e+000
 0.000000e+000 0.000000e+000 6.689356e-001 3.310643e-001 0.000000e+000
 0.000000e+000 0.000000e+000 0.000000e+000 1.454114e-001 8.545886e-001
 0.000000e+000 0.000000e+000 0.000000e+000 0.000000e+000 0.000000e+000
<ENDHMM>
~h "n"
<BEGINHMM>
<NUMSTATES> 5
<STATE> 2
<MEAN> 39
 -3.385897e+000 -1.246266e-001 -2.824512e+000 -2.380980e+000 -6.101648e+000 -1.194206e+001 -8.733896e+000 -1.957515e+001 -1.027586e+001 -4.316800e+000 -2.693439e+000 -8.065185e+000 6.162719e+001 4.151983e-001 -2.684262e-001 -5.978031e-001 -3.924521e-001 -2.205770e-002 9.579989e-002 -4.703850e-001 -6.003164e-001 2.116266e-001 5.208989e-001 -1.974968e-001 -5.696293e-001 3.583770e-001 2.558049e-001 -5.278066e-001 -7.243012e-001 -2.481987e-001 9.125247e-002 -5.340230e-002 8.605727e-002 2.287267e-001 3.448788e-001 5.380514e-001 9.494510e-002 -3.408102e-001 3.663976e-001
<VARIANCE> 39
 1.488892e+001 1.565715e+001 2.573055e+001 2.671730e+001 3.037273e+001 3.501080e+001 3.377306e+001 4.305520e+001 3.023154e+001 3.207659e+001 2.814100e+001 2.235945e+001 9.086669e+000 1.994797e+000 3.108569e+000 6.826679e+000 2.941417e+000 3.281140e+000 3.942356e+000 2.943354e+000 3.287155e+000 4.254252e+000 6.608093e+000 3.444275e+000 3.035661e+000 1.853098e+000 1.710502e-001 2.822478e-001 5.335433e-001 4.409512e-001 5.607477e-001 6.470569e-001 5.038288e-001 5.617014e-001 6.000941e-001 8.294317e-001 6.840460e-001 3.926215e-001 1.312468e-001
<GCONST> 1.185987e+002
<STATE> 3
<MEAN> 39
 9.294904e-001 -1.019295e+001 -1.250327e+001 -4.630413e+000 -6.127371e+000 -1.386285e+001 -3.572018e+000 -1.668419e+001 -9.480579e+000 1.343621e+000 -1.377001e+000 -1.447204e+001 6.903176e+001 -2.238204e-001 1.870291e-001 6.893997e-001 2.371749e-001 -6.001289e-001 -4.058624e-001 5.017397e-001 3.535303e-001 -1.985756e-001 -1.373709e-001 9.546433e-002 2.640416e-001 -7.233681e-002 -1.229174e-001 2.057960e-001 2.679047e-001 9.777261e-002 2.791542e-002 8.456456e-002 7.448515e-003 -4.400332e-002 -1.105698e-001 -2.021188e-001 -2.033535e-002 1.572422e-001 -1.585982e-001
<VARIANCE> 39
 1.469333e+001 4.598967e+001 9.052334e+001 3.218594e+001 9.923066e+001 7.429504e+001 7.527534e+001 4.622665e+001 4.799540e+001 3.843265e+001 3.659639e+001 3.211348e+001 1.654902e+001 6.463803e-001 2.850299e+000 5.358847e+000 1.898216e+000 5.103356e+000 3.486817e+000 3.062092e+000 3.159153e+000 3.360818e+000 2.891548e+000 3.525526e+000 2.217206e+000 9.219734e-001 8.576164e-002 2.623252e-001 5.683291e-001 3.213542e-001 7.035407e-001 5.027436e-001 5.716520e-001 5.404989e-001 6.037928e-001 5.716619e-001 6.502857e-001 3.717948e-001 8.336491e-002
<GCONST> 1.202775e+002
<STATE> 4
<MEAN> 39
 -4.281759e+000 2.188202e+000 1.611000e+000 -6.580728e-001 -8.535627e+000 -1.339107e+001 -5.968634e+000 -1.723222e+001 -1.134362e+001 -6.119927e+000 -2.806622e+000 -5.617607e+000 6.113894e+001 -5.667233e-001 2.407812e-001 1.953689e-002 1.506258e-001 1.151198e+000 1.054915e+000 2.831779e-001 5.104461e-001 3.398032e-001 -5.330423e-001 -4.163611e-001 2.284899e-001 -5.530542e-001 -4.947441e-002 -2.071698e-001 -2.177471e-001 -1.743284e-002 9.647892e-002 3.260750e-003 5.967224e-002 2.106221e-001 2.200381e-001 2.005362e-001 2.356080e-002 -1.069100e-001 5.166978e-002
<VARIANCE> 39
 1.038224e+001 1.074905e+001 1.395156e+001 1.657026e+001 4.788294e+001 4.489967e+001 4.066718e+001 3.807146e+001 3.230802e+001 4.032410e+001 3.094746e+001 2.149524e+001 7.842404e+000 3.635803e-001 1.116314e+000 1.074201e+000 9.820366e-001 2.222393e+000 2.086631e+000 2.433161e+000 2.480222e+000 2.274512e+000 2.071045e+000 1.833467e+000 1.449271e+000 2.520562e-001 6.021479e-002 1.522342e-001 1.748357e-001 2.115597e-001 3.477353e-001 3.945648e-001 4.090248e-001 4.013922e-001 3.381219e-001 3.744861e-001 3.379732e-001 2.503365e-001 3.064113e-002
<GCONST> 9.641360e+001
<TRANSP> 5
 0.000000e+000 1.000000e+000 0.000000e+000 0.000000e+000 0.000000e+000
 0.000000e+000 6.487341e-001 3.512659e-001 0.000000e+000 0.000000e+000
 0.000000e+000 0.000000e+000 8.621379e-001 1.378622e-001 0.000000e+000
 0.000000e+000 0.000000e+000 0.000000e+000 8.417654e-001 1.582346e-001
 0.000000e+000 0.000000e+000 0.000000e+000 0.000000e+000 0.000000e+000
<ENDHMM>
~h "r"
<BEGINHMM>
<NUMSTATES> 5
<STATE> 2
<MEAN> 39
 2.411498e+000 -3.598694e+000 -1.103194e+001 -3.759344e+000 -4.347532e+000 -1.391832e+001 -1.244504e+001 -1.981021e+001 -6.212220e+000 3.105570e+000 3.704561e+000 -5.752120e+000 6.663007e+001 -7.188771e-001 -1.297435e-001 1.333084e+000 1.513727e+000 -2.803895e-002 -6.891156e-001 1.799697e-001 9.907272e-001 6.068380e-001 2.619411e-001 -9.381360e-001 -1.035030e+000 -1.860787e-001 -6.241145e-001 -2.160548e-001 4.333059e-001 1.968374e-001 -3.545282e-001 7.039554e-002 7.151694e-001 5.709632e-001 1.116047e-001 -8.617622e-002 -2.518308e-001 -8.041849e-002 -2.832614e-001
<VARIANCE> 39
 3.043160e+001 3.039839e+001 3.586611e+001 3.991318e+001 3.257576e+001 5.999308e+001 7.853862e+001 6.761469e+001 4.446542e+001 3.589064e+001 3.201612e+001 3.214008e+001 1.667891e+001 3.806886e+000 3.497283e+000 2.645825e+000 2.694896e+000 6.555854e+000 5.052225e+000 5.531370e+000 5.627848e+000 2.995072e+000 4.673462e+000 2.927354e+000 2.957452e+000 1.733559e+000 3.818744e-001 7.860883e-001 6.788573e-001 6.550422e-001 7.452486e-001 5.705838e-001 1.163240e+000 9.717258e-001 7.464131e-001 8.795719e-001 5.088812e-001 6.754957e-001 1.432875e-001
<GCONST> 1.297155e+002
<STATE> 3
<MEAN> 39
 1.184984e+000 -5.832235e+000 -3.280674e+000 2.859257e+000 -1.310399e+001 -2.244663e+001 -1.195317e+001 -2.036752e+001 -6.768044e+000 3.851184e+000 1.730894e-001 -8.883640e+000 6.702728e+001 -1.299830e+000 8.136235e-002 3.059770e+000 5.932218e-001 -3.293489e+000 -4.532357e-001 2.845334e+000 5.870840e-001 -1.314378e+000 -6.867828e-001 -6.072333e-001 -3.961043e-001 -4.189434e-001 -1.530537e-001 3.937058e-001 2.490793e-002 -5.773506e-001 1.321784e-001 6.417252e-001 3.077512e-001 -1.605100e-001 -6.650297e-001 -4.427851e-001 4.641702e-001 3.704469e-001 -1.793651e-001
<VARIANCE> 39
 3.009691e+001 2.824840e+001 3.771080e+001 4.215273e+001 9.130525e+001 9.942372e+001 6.863109e+001 6.615729e+001 3.691994e+001 2.608534e+001 3.512811e+001 3.316999e+001 1.517296e+001 4.290814e-001 2.266784e+000 3.545364e+000 2.674779e+000 6.340892e+000 3.404962e+000 3.387114e+000 3.254822e+000 4.618197e+000 2.596386e+000 3.560322e+000 2.548642e+000 5.027176e-001 1.905904e-001 3.570049e-001 5.255448e-001 2.990519e-001 9.890541e-001 6.548963e-001 1.092252e+000 5.631550e-001 7.416977e-001 5.845237e-001 6.594608e-001 4.040312e-001 8.490365e-002
<GCONST> 1.215916e+002
<STATE> 4
<MEAN> 39
 -4.293830e+000 -5.502220e-001 -4.832957e+000 -6.503949e+000 -9.193797e+000 -1.035978e+001 -2.783669e+000 -1.205057e+001 -5.157986e+000 -5.135889e-001 1.760828e+000 -3.734285e+000 6.149515e+001 -9.878474e-001 2.520865e-001 8.220351e-001 1.666607e-001 -1.409696e-002 4.103127e-001 7.751579e-001 4.688129e-001 -1.375668e-001 -6.475440e-001 -4.948648e-001 -2.072373e-001 -6.276067e-001 1.194103e-001 -1.379042e-002 -1.994381e-001 -3.621873e-003 2.701893e-001 2.419351e-002 -2.669449e-001 -2.073500e-001 -2.112360e-002 4.521960e-002 3.152925e-002 -9.253813e-003 5.163552e-002
<VARIANCE> 39
 3.418073e+001 2.559699e+001 5.105640e+001 7.133720e+001 9.511590e+001 7.973929e+001 2.684824e+001 5.881423e+001 4.046766e+001 2.841808e+001 3.238143e+001 3.272188e+001 1.720415e+001 5.708315e-001 1.235205e+000 2.568038e+000 2.897438e+000 3.349285e+000 2.161830e+000 2.643763e+000 2.534891e+000 4.180037e+000 2.600066e+000 2.444011e+000 1.730528e+000 3.344054e-001 1.259031e-001 1.717277e-001 3.489732e-001 4.449576e-001 7.706445e-001 4.694995e-001 4.082333e-001 4.514149e-001 4.107879e-001 5.149295e-001 3.699821e-001 2.980130e-001 7.078376e-002
<GCONST> 1.132696e+002
<TRANSP> 5
 0.000000e+000 1.000000e+000 0.000000e+000 0.000000e+000 0.000000e+000
 0.000000e+000 7.034645e-001 2.965355e-001 0.000000e+000 0.000000e+000
 0.000000e+000 0.000000e+000 5.184653e-001 4.815346e-001 0.000000e+000
 0.000000e+000 0.000000e+000 0.000000e+000 6.649091e-001 3.350909e-001
 0.000000e+000 0.000000e+000 0.000000e+000 0.000000e+000 0.000000e+000
<ENDHMM>
~h "s"
<BEGINHMM>
<NUMSTATES> 5
<STATE> 2
<MEAN> 39
 -1.133487e+001 -1.311509e+000 -2.292797e+000 5.635380e-002 -1.039983e+000 -1.078967e+001 -3.858073e+000 -1.023273e+001 -7.868481e+000 -1.573598e+000 -5.630652e-001 -5.294414e+000 5.973201e+001 -1.418419e+000 -7.424089e-001 -1.334242e-001 5.666558e-001 1.456514e+000 4.716840e-001 1.310261e+000 1.902376e+000 2.513092e-001 4.322022e-001 4.885235e-002 -1.072611e-001 3.651053e-001 -2.323575e-001 -3.354742e-002 -1.717749e-001 -2.433822e-001 -1.000819e-001 -1.286136e-001 3.826141e-001 4.235026e-001 7.999722e-002 1.302562e-001 1.032122e-001 1.122987e-001 1.145174e-001
<VARIANCE> 39
 4.707915e+001 2.606911e+001 2.894271e+001 2.643331e+001 3.734785e+001 4.129835e+001 6.542722e+001 8.674042e+001 4.081837e+001 4.237151e+001 3.577011e+001 2.183105e+001 4.954726e+001 3.729963e+000 1.983836e+000 1.968974e+000 2.702326e+000 4.488375e+000 4.899179e+000 5.160960e+000 8.330809e+000 3.775534e+000 3.738457e+000 2.812766e+000 2.142820e+000 3.175952e+000 2.741274e-001 4.674077e-001 3.171473e-001 4.337452e-001 5.845202e-001 6.695977e-001 6.327028e-001 1.033050e+000 6.267447e-001 6.112818e-001 4.802377e-001 4.333610e-001 4.329865e-001
<GCONST> 1.267897e+002
<STATE> 3
<MEAN> 39
 -1.845947e+001 -2.709231e+000 -4.683798e+000 -4.267523e-001 3.138211e+000 -1.020559e+001 3.493956e+000 -1.539148e+000 -7.289738e+000 3.277486e-001 3.373446e-001 -4.096996e+000 6.190240e+001 -1.391731e+000 -2.269973e-002 -8.878042e-001 -9.135476e-001 3.931522e-001 -4.519072e-001 7.390815e-001 1.205643e+000 1.636719e-001 7.234373e-001 5.171387e-001 5.750382e-001 2.810397e-001 3.593746e-001 1.511549e-001 7.830460e-002 -1.089925e-001 -3.946754e-001 -2.103072e-001 -5.947438e-001 -6.442169e-001 -1.290990e-001 -1.559594e-001 -9.232098e-002 -5.690084e-002 -4.297064e-002
<VARIANCE> 39
 1.324877e+001 1.722446e+001 1.393504e+001 2.607844e+001 2.940755e+001 3.357027e+001 3.858103e+001 3.646467e+001 2.538728e+001 3.281704e+001 2.593698e+001 1.565014e+001 6.398091e+000 1.984806e+000 1.227559e+000 1.197021e+000 1.535716e+000 2.515704e+000 2.512287e+000 3.716078e+000 4.068132e+000 2.557228e+000 2.827099e+000 1.814654e+000 1.875056e+000 4.457891e-001 1.460609e-001 2.090721e-001 1.813354e-001 3.383167e-001 3.897161e-001 5.536606e-001 5.910245e-001 7.745825e-001 5.330634e-001 4.860989e-001 3.762238e-001 3.494997e-001 6.222038e-002
<GCONST> 1.054369e+002
<STATE> 4
<MEAN> 39
 -2.149358e+001 -1.989735e+000 -7.064312e+000 -3.221547e+000 3.017385e+000 -1.155330e+001 2.275905e+000 -2.112913e+000 -7.089859e+000 1.882624e+000 -9.465803e-002 -3.520874e+000 6.221927e+001 3.312053e-001 -1.972207e-001 -2.966387e-003 -9.900893e-002 -3.310659e-001 -9.606934e-002 -1.564047e-001 -1.804554e-001 1.934659e-001 -5.997250e-002 5.943900e-003 -7.407147e-002 -7.486577e-002 2.325060e-001 -6.581830e-002 5.327396e-002 3.766696e-002 -1.340817e-001 -3.841306e-002 -3.890813e-002 -7.363501e-002 4.425558e-002 -3.750858e-002 -2.181623e-003 -1.729966e-002 1.239530e-002
<VARIANCE> 39
 1.162084e+001 9.554944e+000 1.145920e+001 1.951717e+001 2.433980e+001 2.856086e+001 2.538181e+001 2.425937e+001 2.206597e+001 2.793620e+001 2.610039e+001 1.716037e+001 4.514507e+000 1.490578e+000 6.187979e-001 6.945410e-001 1.031398e+000 1.596787e+000 1.816460e+000 1.916873e+000 1.777349e+000 1.701315e+000 1.868010e+000 1.821098e+000 1.493745e+000 2.577268e-001 1.782167e-001 9.513828e-002 1.410702e-001 2.048642e-001 2.654943e-001 3.140378e-001 3.434841e-001 3.402382e-001 3.160761e-001 3.720509e-001 3.919498e-001 3.112178e-001 7.272776e-002
<GCONST> 9.235979e+001
<TRANSP> 5
 0.000000e+000 1.000000e+000 0.000000e+000 0.000000e+000 0.000000e+000
 0.000000e+000 5.871964e-001 4.128037e-001 0.000000e+000 0.000000e+000
 0.000000e+000 0.000000e+000 5.875778e-001 4.124222e-001 0.000000e+000
 0.000000e+000 0.000000e+000 0.000000e+000 9.086795e-001 9.132046e-002
 0.000000e+000 0.000000e+000 0.000000e+000 0.000000e+000 0.000000e+000
<ENDHMM>
~h "t"
<BEGINHMM>
<NUMSTATES> 5
<STATE> 2
<MEAN> 39
 -4.740306e+000 -2.106769e+000 5.071230e+000 -1.827725e+000 -1.946474e+001 -1.835532e+001 -6.777869e-001 -1.871623e+001 -1.156049e+001 2.856280e+000 -8.721007e-001 -1.020252e+001 6.555715e+001 5.289957e-003 2.477966e-001 2.201474e-001 2.069407e-001 4.777498e-001 3.615348e-001 -1.051046e-001 -2.124830e-002 -9.677035e-002 -2.935130e-001 -1.392156e-001 -6.456997e-002 -3.543914e-002 -1.377887e-001 -1.086203e-002 -1.264486e-001 -5.918255e-002 2.532173e-001 2.379138e-001 -1.245493e-002 1.578136e-001 1.777896e-001 -3.468952e-002 1.639401e-002 1.100649e-001 -1.396445e-001
<VARIANCE> 39
 1.408053e+001 4.311879e+001 4.551270e+001 1.660230e+001 1.403706e+002 7.678036e+001 4.969671e+001 8.358230e+001 4.576859e+001 6.555802e+001 4.530493e+001 2.796440e+001 3.206771e+001 1.346909e+000 2.421926e+000 3.092919e+000 1.658505e+000 1.181221e+001 7.156007e+000 3.302285e+000 7.115157e+000 4.875283e+000 4.665298e+000 3.269896e+000 2.580054e+000 3.157373e+000 1.072431e-001 3.632903e-001 2.925635e-001 3.476405e-001 1.030670e+000 6.821349e-001 4.982786e-001 7.145016e-001 5.712747e-001 7.304950e-001 5.213678e-001 3.609263e-001 2.426328e-001
<GCONST> 1.268907e+002
<STATE> 3
<MEAN> 39
 -1.324307e+001 -3.273466e+000 -3.482944e+000 -3.520818e+000 -1.673562e+000 -4.709178e+000 -1.532604e-001 -6.058208e+000 -2.240925e+000 -1.260454e+000 -5.202999e-001 -3.936130e+000 5.747662e+001 -1.103304e+000 -1.014220e+000 -3.735157e-001 -4.125657e-001 -7.524978e-001 -8.982227e-001 4.680899e-002 8.633729e-001 -7.847745e-001 1.145879e+000 1.442144e+000 3.883199e-001 8.494033e-001 -1.249313e-002 1.131357e-001 2.727453e-001 1.674263e-001 -1.680924e-001 -4.089101e-001 -4.891329e-003 6.331672e-002 -5.338963e-001 -2.632942e-001 1.073279e-001 -2.097694e-002 1.836704e-001
<VARIANCE> 39
 8.356369e+000 1.772838e+001 1.137019e+001 1.228282e+001 1.902921e+001 2.377824e+001 2.082005e+001 1.937091e+001 2.387646e+001 3.141396e+001 2.516436e+001 1.442197e+001 9.354816e+000 6.764944e-001 1.537504e+000 1.600037e+000 1.250869e+000 2.114227e+000 3.031259e+000 2.357062e+000 2.920059e+000 5.091501e+000 3.207561e+000 2.180231e+000 1.707952e+000 1.139270e+000 1.497782e-001 2.717263e-001 2.163700e-001 2.945441e-001 6.241740e-001 6.400362e-001 5.076437e-001 7.291772e-001 7.075935e-001 7.339481e-001 4.349411e-001 3.492335e-001 1.825983e-001
<GCONST> 1.051311e+002
<STATE> 4
<MEAN> 39
 -1.756640e+001 -1.005661e+001 -2.028405e+000 -5.703022e-002 -5.799666e+000 -1.210707e+001 1.833377e+000 1.298169e+000 -9.567206e+000 -1.472222e+000 7.085574e+000 -1.955525e+000 6.228467e+001 6.462581e-001 -4.168132e-001 1.499924e-003 9.054549e-001 -1.073180e-001 -6.225868e-001 9.956498e-002 1.096958e-001 -2.762864e-002 -7.698606e-001 -2.794233e-002 1.181671e-001 -2.637716e-001 4.187715e-001 3.570656e-001 -7.283280e-002 -9.016624e-002 5.057281e-002 1.882905e-001 -2.873127e-001 -6.378382e-001 2.730868e-001 2.273258e-002 -3.811128e-001 -1.038570e-001 -1.694351e-001
<VARIANCE> 39
 1.473786e+001 2.401380e+001 1.343690e+001 2.628615e+001 2.479346e+001 2.831612e+001 3.050309e+001 3.156468e+001 2.685180e+001 3.491057e+001 2.369979e+001 2.027287e+001 8.052268e+000 1.817717e+000 2.617101e+000 1.152952e+000 2.187002e+000 1.883097e+000 2.809073e+000 2.962566e+000 4.779174e+000 2.985690e+000 2.598411e+000 2.573585e+000 2.030643e+000 6.613781e-001 2.403582e-001 4.968461e-001 2.164633e-001 3.948944e-001 3.953950e-001 4.472221e-001 6.120707e-001 7.934380e-001 6.421620e-001 5.595642e-001 4.775862e-001 3.866236e-001 1.528075e-001
<GCONST> 1.103997e+002
<TRANSP> 5
 0.000000e+000 1.000000e+000 0.000000e+000 0.000000e+000 0.000000e+000
 0.000000e+000 9.100857e-001 8.991428e-002 0.000000e+000 0.000000e+000
 0.000000e+000 0.000000e+000 8.200317e-001 1.799683e-001 0.000000e+000
 0.000000e+000 0.000000e+000 0.000000e+000 8.542428e-001 1.457572e-001
 0.000000e+000 0.000000e+000 0.000000e+000 0.000000e+000 0.000000e+000
<ENDHMM>
~h "v"
<BEGINHMM>
<NUMSTATES> 5
<STATE> 2
<MEAN> 39
 -7.139646e-002 -7.887045e+000 -1.499627e+001 -1.184477e+001 -6.929959e+000 -6.062267e+000 6.008855e-001 -1.096451e+001 -4.571755e+000 1.672585e+000 1.437756e+000 -9.072990e+000 6.586026e+001 2.634945e+000 2.084760e-001 -1.932068e+000 -2.477608e+000 -2.654660e-001 1.432927e+000 7.631710e-001 -1.962360e+000 -8.894837e-001 -1.387415e-001 3.948591e-002 -8.054124e-001 1.543436e+000 -2.538275e-001 -2.631020e-001 1.643535e-001 5.500134e-001 3.504236e-001 5.586097e-002 -2.072662e-001 -1.822692e-001 -2.136682e-001 1.005113e-001 4.606286e-002 -1.155861e-001 6.959803e-002
<VARIANCE> 39
 6.489357e+001 2.985290e+001 3.845866e+001 8.507793e+001 3.344946e+001 4.895068e+001 3.314622e+001 4.398067e+001 2.168896e+001 2.294486e+001 3.240251e+001 3.942106e+001 3.775837e+001 4.816334e+000 4.594230e+000 2.985207e+000 9.207394e+000 5.319320e+000 2.755388e+000 2.736502e+000 3.119997e+000 2.367144e+000 2.324866e+000 2.760242e+000 3.484457e+000 2.701144e+000 1.341992e+000 9.008856e-001 8.317111e-001 1.936967e+000 1.080970e+000 7.175163e-001 5.224064e-001 7.007027e-001 4.548674e-001 3.954096e-001 4.604218e-001 6.587543e-001 5.497180e-001
<GCONST> 1.311218e+002
<STATE> 3
<MEAN> 39
 3.961921e+000 -1.616541e+001 -1.873595e+001 -9.322050e+000 5.435257e-001 -6.491967e+000 -1.392962e+000 -1.655089e+001 -8.790310e+000 1.820991e+000 -3.340858e+000 -1.750274e+001 7.284408e+001 -4.624803e-001 -5.825808e-001 7.709363e-001 1.327497e+000 -1.210501e-001 -1.903865e+000 -5.595718e-001 6.568357e-001 1.936205e-001 -2.297997e-003 -6.364273e-001 -1.776640e-001 4.384375e-003 -7.542454e-002 4.008432e-001 3.674127e-001 -5.258349e-002 -6.418647e-001 -3.626215e-001 1.349200e-001 3.147101e-001 1.274638e-001 -6.149440e-002 1.475821e-001 4.119275e-001 -1.864511e-001
<VARIANCE> 39
 8.112671e+000 2.612254e+001 2.009543e+001 3.953401e+001 2.918556e+001 9.165382e+001 4.069436e+001 4.222633e+001 3.526753e+001 4.276518e+001 4.590350e+001 2.490204e+001 7.452667e+000 2.851393e-001 2.363787e+000 1.452658e+000 1.541899e+000 5.634064e+000 4.131569e+000 2.606365e+000 4.682106e+000 2.570464e+000 2.061186e+000 3.526500e+000 2.550519e+000 4.533115e-001 8.113217e-002 1.842690e-001 1.685300e-001 2.383254e-001 3.272290e-001 4.447366e-001 4.395206e-001 4.989338e-001 4.413439e-001 4.425276e-001 5.840296e-001 3.006315e-001 6.052828e-002
<GCONST> 1.075145e+002
<STATE> 4
<MEAN> 39
 -3.196415e-002 -6.868073e+000 -4.082396e+000 -1.341950e+000 -1.296572e+001 -2.069598e+001 -3.403367e+000 -1.306631e+001 -9.201115e+000 2.447540e+000 2.467316e+000 -9.868734e+000 6.743938e+001 -5.579202e-001 1.890699e+000 1.244588e+000 2.849432e-001 -2.307059e-001 4.409996e-001 -4.479887e-001 -6.574255e-001 -6.323116e-001 -6.014154e-001 1.061783e+000 1.256199e+000 -1.162307e+000 -1.385353e-001 -3.940470e-002 -6.481189e-002 1.132382e-004 5.201927e-001 3.950705e-001 8.365389e-003 7.172161e-002 1.422936e-002 -2.869506e-001 -3.951059e-001 -1.180645e-001 -6.895952e-002
<VARIANCE> 39
 1.874205e+001 5.052858e+001 6.685151e+001 4.502708e+001 8.401341e+001 8.951326e+001 5.157475e+001 7.921420e+001 5.513203e+001 4.806753e+001 5.812930e+001 3.389489e+001 2.071447e+001 5.091141e-001 2.570848e+000 3.156871e+000 2.360218e+000 9.311055e+000 6.471875e+000 3.009840e+000 4.713327e+000 5.301204e+000 4.952748e+000 6.466455e+000 3.115128e+000 5.066484e-001 9.669784e-002 3.515909e-001 4.178916e-001 4.944773e-001 8.310453e-001 8.007741e-001 5.997749e-001 1.043859e+000 9.272707e-001 8.534146e-001 1.236294e+000 5.623598e-001 6.475022e-002
<GCONST> 1.277307e+002
<TRANSP> 5
 0.000000e+000 1.000000e+000 0.000000e+000 0.000000e+000 0.000000e+000
 0.000000e+000 7.221413e-001 2.778587e-001 0.000000e+000 0.000000e+000
 0.000000e+000 0.000000e+000 8.061369e-001 1.938630e-001 0.000000e+000
 0.000000e+000 0.000000e+000 0.000000e+000 8.609847e-001 1.390153e-001
 0.000000e+000 0.000000e+000 0.000000e+000 0.000000e+000 0.000000e+000
<ENDHMM>
~h "w"
<BEGINHMM>
<NUMSTATES> 5
<STATE> 2
<MEAN> 39
 -5.299256e+000 4.020871e+000 -1.620214e+000 -5.067122e+000 -5.434156e+000 -1.095030e+001 -8.052065e+000 -1.441976e+001 -7.779157e+000 -9.318477e+000 -7.174943e+000 -7.909188e+000 5.868111e+001 1.217598e+000 6.096448e-001 -4.869663e-001 -1.247839e+000 -1.696402e+000 -1.463561e+000 -1.003198e+000 -5.914109e-001 -1.469874e-002 4.568345e-001 2.786896e-001 -1.006272e-002 7.095180e-001 2.855083e-001 1.699326e-002 -3.453804e-001 -6.119463e-001 -5.452936e-001 -1.112120e-001 2.325459e-001 1.818417e-001 2.141414e-001 3.015495e-001 3.181368e-001 1.513152e-001 1.818885e-001
<VARIANCE> 39
 1.173458e+001 1.101330e+001 8.684095e+000 1.197743e+001 2.629428e+001 3.192299e+001 2.799453e+001 2.293680e+001 1.745059e+001 2.188334e+001 2.263703e+001 2.030769e+001 5.616362e+000 1.461631e+000 1.324293e+000 1.204941e+000 2.486850e+000 3.871233e+000 2.548291e+000 1.752279e+000 1.812210e+000 2.093163e+000 2.972661e+000 3.339191e+000 2.332868e+000 5.004607e-001 1.837351e-001 2.486014e-001 2.115954e-001 2.872872e-001 3.999361e-001 5.864295e-001 5.574180e-001 3.858798e-001 3.350759e-001 4.422051e-001 4.531994e-001 3.857895e-001 6.811114e-002
<GCONST> 1.013600e+002
<STATE> 3
<MEAN> 39
 1.829901e+000 6.992987e+000 -6.854828e+000 -1.700982e+001 -1.822158e+001 -1.780250e+001 -9.424857e+000 -1.371670e+001 -4.529891e+000 -4.500313e+000 -2.712793e+000 -5.983943e+000 6.286658e+001 1.851271e+000 -6.039695e-001 -2.963859e+000 -3.844679e+000 -1.875972e+000 1.461860e+000 2.517382e+000 1.059399e+000 6.995193e-001 4.518316e-001 4.600273e-001 -6.392608e-001 1.421416e+000 -2.805893e-001 -9.204212e-001 -4.684691e-001 4.701327e-001 1.453843e+000 1.643709e+000 8.992894e-001 -2.346119e-001 -5.247536e-001 -5.431901e-001 -3.423265e-001 -5.393953e-001 9.203535e-002
<VARIANCE> 39
 5.940906e+000 4.936935e+000 1.493303e+001 2.182982e+001 1.179399e+001 1.442593e+001 1.819804e+001 1.669809e+001 1.767425e+001 1.324943e+001 1.479622e+001 1.273255e+001 2.724010e+000 7.320645e-001 1.550577e+000 1.198597e+000 1.770643e+000 4.173633e+000 4.749914e+000 2.507589e+000 1.994250e+000 2.347198e+000 2.584284e+000 1.914021e+000 1.812376e+000 3.446041e-001 1.216776e-001 1.741363e-001 2.216391e-001 5.629380e-001 4.770202e-001 3.768360e-001 4.597618e-001 5.728299e-001 4.469540e-001 3.280933e-001 3.632166e-001 3.255933e-001 3.469144e-002
<GCONST> 9.444768e+001
<STATE> 4
<MEAN> 39
 5.321304e+000 -8.760962e-002 -1.722717e+001 -2.357338e+001 -1.423013e+001 -4.949398e+000 9.694284e-001 -1.396256e+001 -7.081982e+000 -6.325269e+000 -2.745393e+000 -9.906002e+000 6.736847e+001 3.511283e-001 -3.076532e+000 -2.283144e+000 2.600671e-001 3.187623e+000 3.682475e+000 1.641056e+000 -1.673633e+000 -1.576334e+000 -1.166572e-001 5.356587e-001 -1.233680e+000 1.336775e+000 -4.651062e-001 -3.357096e-001 6.803979e-001 1.308107e+000 7.649555e-001 -6.659949e-001 -9.546925e-001 -5.056708e-001 -1.864162e-001 3.526424e-001 7.754563e-002 -1.616031e-001 -1.357079e-001
<VARIANCE> 39
 3.994590e+000 1.740847e+001 1.318749e+001 1.225001e+001 3.276493e+001 3.308949e+001 1.880937e+001 2.419282e+001 2.858610e+001 2.617100e+001 2.125011e+001 1.855248e+001 5.037591e+000 4.693405e-001 9.052308e-001 1.449269e+000 2.788086e+000 2.013750e+000 3.070516e+000 3.738866e+000 2.554989e+000 2.413287e+000 2.229605e+000 1.650669e+000 1.882736e+000 3.242906e-001 6.498095e-002 1.908854e-001 1.442233e-001 3.016636e-001 8.766982e-001 9.633290e-001 3.542560e-001 5.630525e-001 5.765957e-001 4.684263e-001 2.788790e-001 3.254437e-001 2.307746e-002
<GCONST> 9.785098e+001
<TRANSP> 5
 0.000000e+000 1.000000e+000 0.000000e+000 0.000000e+000 0.000000e+000
 0.000000e+000 8.203890e-001 1.796110e-001 0.000000e+000 0.000000e+000
 0.000000e+000 0.000000e+000 6.377823e-001 3.622178e-001 0.000000e+000
 0.000000e+000 0.000000e+000 0.000000e+000 6.881874e-001 3.118125e-001
 0.000000e+000 0.000000e+000 0.000000e+000 0.000000e+000 0.000000e+000
<ENDHMM>
~h "z"
<BEGINHMM>
<NUMSTATES> 5
<STATE> 2
<MEAN> 39
 -4.799886e+000 3.061891e+000 1.261550e+000 -1.025456e+000 -7.031226e+000 -1.314401e+001 -8.256105e+000 -1.826670e+001 -1.078653e+001 -7.048922e+000 -4.799758e+000 -7.128212e+000 6.005516e+001 -1.445474e-001 4.341319e-001 4.127716e-001 4.615412e-001 7.095650e-001 6.355854e-001 6.808098e-002 2.461448e-001 -1.300623e-001 -1.222643e+000 -1.179690e+000 -4.946425e-001 -1.799987e-001 -2.061977e-001 -1.571328e-001 -2.187532e-001 -1.129379e-001 1.590274e-001 2.472221e-001 3.170663e-001 3.832236e-001 2.158908e-001 6.234866e-002 -7.194287e-004 -2.939180e-002 -7.878605e-002
<VARIANCE> 39
 1.203041e+001 6.987509e+000 1.377041e+001 1.819312e+001 2.991086e+001 2.675328e+001 3.578188e+001 3.473596e+001 2.031368e+001 2.795921e+001 2.564884e+001 1.869484e+001 7.795804e+000 1.787589e+000 8.102777e-001 1.682692e+000 2.015164e+000 4.231857e+000 4.414242e+000 3.226320e+000 5.038284e+000 3.157461e+000 2.629375e+000 2.430265e+000 1.823663e+000 1.089740e+000 1.424116e-001 1.511684e-001 2.281319e-001 2.892485e-001 4.633153e-001 5.112778e-001 4.794534e-001 3.760345e-001 3.041083e-001 6.308643e-001 4.656144e-001 3.166145e-001 9.657405e-002
<GCONST> 1.053965e+002
<STATE> 3
<MEAN> 39
 -8.057318e+000 3.364732e+000 8.364625e-002 -2.406804e-001 -1.246680e+000 -8.318518e+000 -5.510674e+000 -1.328242e+001 -9.523273e+000 -1.187059e+001 -9.603960e+000 -9.553801e+000 5.796275e+001 -7.307185e-001 -3.617604e-001 -5.732610e-001 6.868143e-002 5.076271e-001 3.066678e-001 6.058758e-001 7.097186e-001 3.621497e-001 4.188550e-001 -5.299592e-002 1.222425e-001 -1.238982e-001 3.486013e-002 -5.364701e-002 -5.322785e-002 -4.820209e-002 -2.520625e-001 -3.936826e-001 -6.741305e-002 -1.847779e-001 -1.139887e-001 3.497293e-001 2.734514e-001 1.567589e-001 1.395160e-001
<VARIANCE> 39
 5.419213e+000 5.145034e+000 6.763386e+000 1.199354e+001 1.096081e+001 2.174782e+001 1.985804e+001 1.793456e+001 1.278095e+001 1.474185e+001 1.524550e+001 1.649441e+001 3.409824e+000 5.237725e-001 5.680075e-001 6.934938e-001 7.153596e-001 1.561100e+000 2.843144e+000 1.952530e+000 1.978463e+000 1.866594e+000 2.106697e+000 2.140227e+000 1.376541e+000 3.126202e-001 6.850050e-002 7.390136e-002 1.089680e-001 1.455548e-001 2.591859e-001 2.904247e-001 3.026680e-001 2.582073e-001 2.273737e-001 3.557991e-001 3.389439e-001 2.686709e-001 2.670956e-002
<GCONST> 8.185923e+001
<STATE> 4
<MEAN> 39
 -1.311948e+001 2.925861e-002 -4.959135e+000 -1.232853e+000 -8.428622e-001 -7.470080e+000 -4.405721e-001 -7.389339e+000 -5.332193e+000 -4.364160e+000 -4.082649e+000 -4.857161e+000 5.757244e+001 -3.295590e-001 5.577681e-002 -8.317794e-002 -4.240621e-002 -2.609547e-001 -1.083660e+000 -1.233412e-001 -1.343335e-001 -4.797118e-001 2.808451e-001 2.468701e-001 2.010029e-001 4.334700e-001 2.519118e-001 1.041610e-001 3.108429e-001 2.420698e-002 -1.418244e-001 -3.852907e-001 -3.170571e-001 -2.744225e-001 -3.188597e-001 -2.515527e-001 -7.868792e-002 -7.137060e-002 1.180313e-001
<VARIANCE> 39
 8.543318e+000 9.073618e+000 9.737459e+000 1.537901e+001 1.558521e+001 2.966514e+001 2.831367e+001 2.931778e+001 2.896236e+001 2.998394e+001 2.592461e+001 1.473815e+001 4.176184e+000 5.976400e-001 6.571489e-001 1.129166e+000 9.682920e-001 1.206686e+000 2.069136e+000 1.890545e+000 2.649425e+000 2.374380e+000 2.224812e+000 1.609287e+000 1.037673e+000 2.277718e-001 1.255707e-001 1.329446e-001 1.480484e-001 1.938093e-001 2.369823e-001 4.089546e-001 3.856248e-001 4.795297e-001 3.679363e-001 3.664708e-001 3.266235e-001 2.207532e-001 3.131269e-002
<GCONST> 9.065225e+001
<TRANSP> 5
 0.000000e+000 1.000000e+000 0.000000e+000 0.000000e+000 0.000000e+000
 0.000000e+000 7.037264e-001 2.962736e-001 0.000000e+000 0.000000e+000
 0.000000e+000 0.000000e+000 8.150042e-001 1.849958e-001 0.000000e+000
 0.000000e+000 0.000000e+000 0.000000e+000 8.140956e-001 1.859044e-001
 0.000000e+000 0.000000e+000 0.000000e+000 0.000000e+000 0.000000e+000
<ENDHMM>
~h "ah"
<BEGINHMM>
<NUMSTATES> 5
<STATE> 2
<MEAN> 39
 3.488358e+000 -1.267744e+001 -1.951576e+001 -1.351650e+001 -1.197607e+000 -1.920783e+000 -9.018599e-001 -1.922463e+001 -1.025854e+001 -1.925122e+000 -7.929917e-001 -1.604893e+001 7.108916e+001 -4.698679e-001 -1.708079e+000 2.614578e-001 2.560226e+000 1.330818e+000 -1.658787e+000 -1.013792e+000 4.288443e-001 2.943506e-001 1.180240e+000 -4.909769e-001 -1.392753e+000 3.556421e-001 -4.333504e-002 5.464042e-001 3.501084e-001 1.033779e-001 -6.807033e-001 -8.405341e-001 -1.909977e-001 6.508837e-001 3.342359e-001 -7.992146e-002 -2.556551e-001 2.355339e-001 -2.404289e-001
<VARIANCE> 39
 9.106426e+000 2.830960e+001 1.222232e+001 3.668773e+001 4.247612e+001 4.810436e+001 3.293780e+001 2.973673e+001 3.585286e+001 3.882220e+001 2.742376e+001 3.264477e+001 1.070453e+001 1.791757e-001 1.575227e+000 8.951414e-001 1.213524e+000 2.779517e+000 4.110992e+000 1.668589e+000 3.250402e+000 2.013703e+000 1.815444e+000 1.922128e+000 1.961681e+000 3.790440e-001 3.461784e-002 1.462173e-001 1.734704e-001 2.435263e-001 2.836611e-001 5.169919e-001 3.971911e-001 3.874072e-001 3.849142e-001 4.003241e-001 3.547481e-001 4.087661e-001 3.241888e-002
<GCONST> 9.937665e+001
<STATE> 3
<MEAN> 39
 1.861142e+000 -1.337496e+001 -1.548970e+001 -2.162863e+000 -3.600878e+000 -1.742854e+001 -7.296526e+000 -1.205168e+001 -6.886478e+000 1.353817e+000 -4.954883e+000 -1.894057e+001 7.029250e+001 -5.331625e-001 1.629473e+000 1.936454e+000 1.493411e+000 -1.256292e+000 -2.164156e+000 -1.143218e+000 7.788082e-001 3.847777e-001 -2.721186e-001 2.508425e-001 1.190282e+000 -9.722828e-001 -1.097663e-001 6.643068e-001 5.051821e-001 -4.809396e-001 -1.519901e-001 7.840593e-001 2.082944e-001 -6.472434e-001 -2.834097e-001 -3.294145e-001 3.925702e-001 6.390931e-001 -3.120599e-001
<VARIANCE> 39
 9.245288e+000 2.021344e+001 1.579522e+001 2.397916e+001 3.588121e+001 4.883752e+001 2.976750e+001 3.076872e+001 2.759637e+001 3.283723e+001 3.376419e+001 2.426864e+001 1.104854e+001 2.559216e-001 1.922785e+000 1.894979e+000 1.730604e+000 1.223111e+000 3.094242e+000 2.227349e+000 3.086975e+000 1.941701e+000 1.523450e+000 2.369183e+000 2.160028e+000 4.704972e-001 5.155268e-002 1.705739e-001 2.470273e-001 2.599400e-001 2.753322e-001 4.473542e-001 4.682604e-001 4.298161e-001 3.536401e-001 2.728389e-001 3.350763e-001 2.921092e-001 3.473129e-002
<GCONST> 9.955497e+001
<STATE> 4
<MEAN> 39
 -6.356820e-001 -4.154535e+000 -4.225500e+000 1.091256e+000 -8.071098e+000 -1.836434e+001 -8.784745e+000 -1.430725e+001 -7.227722e+000 -1.761323e-001 -8.510977e-001 -1.064085e+001 6.528542e+001 -1.003538e+000 2.579176e+000 2.958371e+000 1.506653e-002 -9.396054e-001 1.115798e+000 4.684405e-001 -1.382187e+000 -1.264179e+000 -1.430823e+000 5.670667e-001 2.464980e+000 -1.522819e+000 2.833923e-002 -3.609682e-001 -4.577858e-001 -2.530911e-001 2.537468e-001 4.429591e-001 3.840095e-001 -2.085397e-002 -2.479398e-001 -2.060843e-001 -2.875442e-001 -1.789389e-001 1.854676e-001
<VARIANCE> 39
 1.021810e+001 1.736916e+001 2.055186e+001 2.703843e+001 3.486393e+001 3.485140e+001 3.008319e+001 3.815617e+001 3.738320e+001 3.709288e+001 3.706034e+001 2.906082e+001 9.911180e+000 3.080039e-001 1.081991e+000 2.010650e+000 1.223635e+000 1.690953e+000 1.599277e+000 2.022046e+000 2.694174e+000 2.386095e+000 1.601282e+000 1.574199e+000 1.732917e+000 2.383201e-001 5.154701e-002 1.726002e-001 2.277756e-001 2.299618e-001 2.408696e-001 3.393685e-001 3.438794e-001 4.566182e-001 4.315699e-001 2.527947e-001 2.547303e-001 2.398805e-001 4.022218e-002
<GCONST> 9.698527e+001
<TRANSP> 5
 0.000000e+000 1.000000e+000 0.000000e+000 0.000000e+000 0.000000e+000
 0.000000e+000 8.199403e-001 1.800596e-001 0.000000e+000 0.000000e+000
 0.000000e+000 0.000000e+000 7.669104e-001 2.330896e-001 0.000000e+000
 0.000000e+000 0.000000e+000 0.000000e+000 5.691409e-001 4.308591e-001
 0.000000e+000 0.000000e+000 0.000000e+000 0.000000e+000 0.000000e+000
<ENDHMM>
~h "ao"
<BEGINHMM>
<NUMSTATES> 5
<STATE> 2
<MEAN> 39
 3.842492e+000 8.856366e+000 -6.032635e+000 -1.716171e+001 -1.933911e+001 -1.856518e+001 -8.387127e+000 -1.136078e+001 -3.201167e+000 -4.982147e+000 -4.018920e+000 -7.262412e+000 6.421520e+001 1.222074e+000 1.514620e+000 4.056861e-001 -1.438331e+000 -1.479941e+000 -6.403727e-001 -9.227418e-001 -6.398659e-001 1.702590e-001 -1.076232e-001 -4.240173e-001 -2.884026e-001 5.792473e-001 -9.519239e-001 -1.131426e+000 -1.558816e-001 9.482616e-001 8.935311e-001 3.889392e-001 2.758840e-001 2.363628e-001 5.726364e-002 4.172101e-001 5.152043e-001 2.146009e-001 -3.471726e-001
<VARIANCE> 39
 5.577164e+000 4.029380e+000 7.839877e+000 1.546085e+001 1.148134e+001 1.232889e+001 1.314290e+001 1.492129e+001 1.259950e+001 1.211245e+001 1.217102e+001 1.004986e+001 2.304583e+000 1.714430e+000 2.370688e+000 6.418571e-001 2.167994e+000 1.724607e+000 1.392838e+000 1.554679e+000 2.080000e+000 1.358912e+000 1.369973e+000 1.736146e+000 1.244754e+000 3.724980e-001 9.534322e-002 2.457163e-001 1.305879e-001 2.380807e-001 1.908207e-001 3.519304e-001 2.478214e-001 3.742164e-001 2.244953e-001 2.548737e-001 3.003981e-001 2.211590e-001 2.173715e-002
<GCONST> 8.297044e+001
<STATE> 3
<MEAN> 39
 2.519166e+000 8.967977e+000 -4.476624e+000 -1.649661e+001 -1.987967e+001 -2.069627e+001 -1.079062e+001 -1.194925e+001 -2.001006e+000 -3.309597e+000 -2.959360e+000 -6.551201e+000 6.369318e+001 -2.312383e-001 -1.430847e-001 1.450710e-002 1.308360e-001 1.447864e-001 1.157943e-001 6.284461e-002 -1.678544e-002 9.213217e-003 9.950579e-003 -6.212069e-002 8.762564e-002 -1.135440e-001 -3.304822e-002 -7.395919e-002 -6.245062e-002 4.502187e-002 1.259683e-001 1.467118e-001 1.033505e-001 -2.885499e-002 -7.680095e-002 -3.793357e-002 1.808260e-002 4.798937e-002 -1.432625e-002
<VARIANCE> 39
 8.786271e+000 2.854796e+000 9.860242e+000 2.054643e+001 1.017579e+001 2.132194e+001 2.965692e+001 2.737313e+001 1.982162e+001 1.805630e+001 1.699142e+001 1.279340e+001 3.149543e+000 1.239063e-001 2.032782e-001 3.789253e-001 5.259938e-001 6.503754e-001 8.430852e-001 1.005046e+000 1.410385e+000 9.673184e-001 1.094289e+000 1.100472e+000 8.947280e-001 5.600873e-002 2.285493e-002 4.263860e-002 6.259375e-002 8.336434e-002 1.339744e-001 1.351718e-001 1.790573e-001 2.871045e-001 1.859664e-001 1.790757e-001 2.342726e-001 1.700143e-001 9.749433e-003
<GCONST> 6.588731e+001
<STATE> 4
<MEAN> 39
 -7.743659e-001 4.815026e+000 -6.737689e+000 -1.472397e+001 -1.461516e+001 -1.443987e+001 -7.171163e+000 -1.317215e+001 -3.996167e+000 -3.529309e+000 -1.886872e+000 -4.071854e+000 6.210378e+001 -6.796638e-001 -1.188496e+000 -4.724276e-001 1.139755e+000 2.221520e+000 1.720391e+000 2.927689e-001 -1.224028e+000 -9.456415e-001 5.938485e-001 9.719598e-001 5.525828e-001 -2.460176e-001 -1.327229e-001 -1.373756e-001 1.074831e-001 4.107923e-001 3.653970e-001 2.677153e-002 -1.672462e-001 -3.799669e-002 6.636919e-002 2.656689e-001 5.433317e-002 -2.133085e-001 -4.154484e-002
<VARIANCE> 39
 2.784904e+001 1.017219e+001 1.459379e+001 3.476106e+001 2.692389e+001 3.035909e+001 2.107410e+001 5.007808e+001 4.182215e+001 2.386447e+001 1.877352e+001 1.241204e+001 1.184976e+001 6.277007e-001 6.980545e-001 8.014969e-001 1.831040e+000 2.153250e+000 1.642500e+000 2.462987e+000 3.691236e+000 2.046495e+000 2.802490e+000 2.174900e+000 1.615727e+000 3.113884e-001 1.005494e-001 1.461792e-001 1.822164e-001 3.078399e-001 3.260132e-001 3.873522e-001 3.666000e-001 5.593870e-001 4.421645e-001 5.093023e-001 4.276281e-001 3.479886e-001 3.913537e-002
<GCONST> 9.952440e+001
<TRANSP> 5
 0.000000e+000 1.000000e+000 0.000000e+000 0.000000e+000 0.000000e+000
 0.000000e+000 6.938517e-001 3.061483e-001 0.000000e+000 0.000000e+000
 0.000000e+000 0.000000e+000 9.120470e-001 8.795299e-002 0.000000e+000
 0.000000e+000 0.000000e+000 0.000000e+000 7.943564e-001 2.056436e-001
 0.000000e+000 0.000000e+000 0.000000e+000 0.000000e+000 0.000000e+000
<ENDHMM>
~h "ay"
<BEGINHMM>
<NUMSTATES> 5
<STATE> 2
<MEAN> 39
 -1.244449e+001 -3.284166e+000 -4.676947e+000 -3.095143e+000 -3.431185e+000 -6.777243e+000 -8.779055e-002 -6.220060e+000 -2.284492e+000 -3.028474e+000 -6.989088e-001 -3.212827e+000 5.493029e+001 -5.779503e-002 -8.313850e-002 -1.247725e-001 -8.253297e-002 -3.163087e-002 3.780446e-002 -5.166510e-002 2.693294e-002 1.466486e-001 1.122145e-001 3.963264e-002 6.396224e-002 -2.620924e-002 4.565766e-002 -7.186776e-003 6.663638e-003 1.727305e-002 -5.396061e-003 -3.842793e-002 -3.775882e-002 -7.476476e-002 -4.681065e-002 1.502032e-002 -1.773622e-002 -5.729279e-002 4.212113e-002
<VARIANCE> 39
 8.675941e+000 9.896654e+000 1.262577e+001 1.676141e+001 1.164628e+001 1.191494e+001 1.637757e+001 2.087031e+001 2.144011e+001 1.859547e+001 1.735790e+001 1.314114e+001 2.308200e+001 1.612604e-001 3.028094e-001 4.598786e-001 7.234445e-001 8.848069e-001 9.735610e-001 1.214196e+000 1.227717e+000 1.341824e+000 1.321643e+000 1.530282e+000 1.368325e+000 1.058247e-001 3.705293e-002 6.325170e-002 1.002156e-001 1.488870e-001 1.754790e-001 1.786895e-001 2.342367e-001 2.705829e-001 2.533908e-001 2.595958e-001 2.895195e-001 2.771129e-001 2.446732e-002
<GCONST> 7.656824e+001
<STATE> 3
<MEAN> 39
 -1.175232e+001 -3.101534e+000 -3.745662e+000 -1.909110e+000 -2.604396e+000 -6.018587e+000 -1.469489e+000 -5.648443e+000 -5.998140e-001 -7.303714e-001 -1.303591e-001 -3.747637e+000 5.206115e+001 4.609884e-001 -2.874572e-001 -4.427453e-002 8.636118e-002 -8.399229e-004 -3.950437e-001 -3.383854e-001 -3.886458e-001 -6.853680e-002 1.821429e-001 -5.421379e-002 -5.563693e-001 1.238687e+000 7.452334e-002 -8.621424e-002 -3.806577e-002 1.768228e-002 -5.120953e-002 -1.283454e-001 -1.023064e-001 -1.170840e-001 -1.398762e-001 4.148210e-002 2.677052e-002 -1.098201e-001 1.038396e-001
<VARIANCE> 39
 2.584455e+001 1.724314e+001 1.704205e+001 1.476652e+001 1.779603e+001 1.972283e+001 1.959764e+001 3.927613e+001 3.781604e+001 2.381001e+001 1.374063e+001 1.873348e+001 1.284219e+002 1.648060e+000 1.261490e+000 1.229794e+000 1.029243e+000 1.340205e+000 1.227384e+000 1.511603e+000 1.382909e+000 1.675455e+000 1.910550e+000 1.437806e+000 1.496236e+000 6.980491e+000 3.361549e-001 1.804615e-001 2.475952e-001 1.769157e-001 2.395333e-001 2.242344e-001 2.796747e-001 3.402357e-001 3.936686e-001 4.504907e-001 3.390324e-001 3.284749e-001 1.197218e+000
<GCONST> 1.041442e+002
<STATE> 4
<MEAN> 39
 -1.187319e+001 -8.030093e+000 -6.641391e+000 1.289070e+000 -4.312750e+000 -9.304668e+000 -4.384953e+000 -6.968718e+000 -3.952418e+000 3.034710e+000 2.498365e+000 -6.114469e+000 5.935870e+001 1.289380e-001 -1.840448e-001 -7.555264e-002 -5.328705e-002 -7.179957e-002 -1.467688e-001 -6.328285e-002 -2.681631e-001 -2.116237e-001 6.760301e-002 1.283383e-001 -1.542834e-001 1.386111e-001 2.465258e-001 1.348791e-001 -1.246553e-001 -3.426210e-001 -8.195066e-002 2.353352e-002 1.297800e-001 -2.566003e-002 3.874351e-002 -1.533425e-001 -4.219113e-002 -1.068235e-002 2.439208e-002
<VARIANCE> 39
 1.128225e+001 2.008642e+001 1.652539e+001 1.192206e+001 1.210996e+001 1.608948e+001 2.006089e+001 2.976363e+001 2.503811e+001 2.486468e+001 2.470341e+001 1.499809e+001 5.184633e+000 3.850212e-001 9.753923e-001 6.052490e-001 1.103720e+000 1.127034e+000 1.210062e+000 1.687235e+000 1.983366e+000 2.228673e+000 2.103376e+000 1.666113e+000 1.539062e+000 2.836990e-001 1.529544e-001 2.561267e-001 2.352099e-001 3.535090e-001 2.821260e-001 2.737904e-001 3.658164e-001 3.871720e-001 4.291521e-001 3.963973e-001 3.240625e-001 3.081438e-001 7.625143e-002
<GCONST> 9.251343e+001
<TRANSP> 5
 0.000000e+000 1.000000e+000 0.000000e+000 0.000000e+000 0.000000e+000
 0.000000e+000 7.930008e-001 2.069992e-001 0.000000e+000 0.000000e+000
 0.000000e+000 0.000000e+000 5.395444e-001 4.604555e-001 0.000000e+000
 0.000000e+000 0.000000e+000 0.000000e+000 7.263752e-001 2.736248e-001
 0.000000e+000 0.000000e+000 0.000000e+000 0.000000e+000 0.000000e+000
<ENDHMM>
~h "eh"
<BEGINHMM>
<NUMSTATES> 5
<STATE> 2
<MEAN> 39
 -2.377254e+000 -8.717341e+000 -9.191586e+000 -6.548138e+000 -8.199411e+000 -1.954442e+001 -3.608955e+000 -8.701003e+000 -1.451056e+000 3.536450e+000 -2.938233e+000 -7.592009e+000 6.769627e+001 4.358591e+000 -2.227814e+000 -1.029788e+000 -1.834728e-001 -1.598506e+000 -1.143678e+000 -7.295538e-001 -1.702956e+000 9.865952e-001 1.118141e+000 -2.015667e+000 -2.074188e+000 3.136593e+000 -9.226832e-001 -4.890719e-002 -9.884876e-003 2.758378e-001 9.378641e-001 6.959394e-001 4.472764e-001 3.191338e-001 -5.517220e-001 -1.119234e-001 -2.022310e-001 -4.778290e-001 4.065840e-002
<VARIANCE> 39
 4.315631e+001 2.106594e+001 1.783678e+001 1.300260e+001 2.568439e+001 4.057781e+001 2.691479e+001 3.391394e+001 1.737697e+001 1.853640e+001 3.112238e+001 2.287837e+001 3.225402e+001 3.205466e+000 1.626737e+000 1.293704e+000 1.911551e+000 3.678653e+000 3.557608e+000 3.374997e+000 3.190880e+000 2.313495e+000 1.758171e+000 2.111837e+000 2.242062e+000 1.047025e+000 7.725961e-001 3.654065e-001 2.769417e-001 2.347605e-001 4.262512e-001 5.422368e-001 4.932780e-001 6.723158e-001 3.327343e-001 5.571899e-001 6.130934e-001 3.415885e-001 7.682002e-001
<GCONST> 1.139488e+002
<STATE> 3
<MEAN> 39
 2.732273e+000 -1.378199e+001 -9.831710e+000 -5.187104e+000 -7.576415e+000 -1.974808e+001 -1.982856e+000 -8.486232e+000 -1.452769e+000 4.995073e+000 -6.144140e+000 -1.453231e+001 7.445370e+001 1.354079e-001 -1.267021e+000 -4.661616e-001 3.867982e-001 1.598207e+000 1.162023e+000 -1.857534e-001 4.913346e-001 -8.218909e-001 -3.463217e-001 -4.914162e-001 -2.542411e+000 6.604156e-001 -9.819201e-001 5.230818e-001 -1.294209e-001 -5.876294e-002 5.323920e-001 5.674471e-001 -4.138729e-001 -2.011018e-001 -3.831774e-001 -4.125319e-001 4.768980e-001 3.496921e-001 -1.053233e+000
<VARIANCE> 39
 2.543913e+000 1.860538e+001 1.287241e+001 1.339192e+001 1.464832e+001 3.501913e+001 2.528365e+001 1.563306e+001 1.877697e+001 1.275070e+001 1.036705e+001 1.758360e+001 8.451949e+000 5.065774e-001 1.271605e+000 1.046286e+000 1.057194e+000 1.279379e+000 1.641645e+000 1.835714e+000 2.712306e+000 1.509502e+000 1.681820e+000 1.121625e+000 1.197298e+000 6.077647e-001 1.530898e-001 3.943976e-001 1.451039e-001 2.415056e-001 2.168112e-001 2.928431e-001 3.745640e-001 6.076089e-001 2.619382e-001 3.253537e-001 2.705180e-001 2.896513e-001 1.130090e-001
<GCONST> 9.087437e+001
<STATE> 4
<MEAN> 39
 2.284481e+000 -1.561989e+001 -1.240939e+001 -4.815969e+000 -4.509281e+000 -1.733409e+001 -5.252439e+000 -1.123212e+001 -4.070296e+000 3.111131e+000 -8.548821e+000 -1.895018e+001 7.378702e+001 -2.620457e-003 -2.686081e-001 -1.340115e+000 -9.317003e-002 1.041867e+000 1.225429e+000 -1.344347e+000 -1.841932e+000 -6.904927e-001 -1.369070e-001 -7.577658e-002 -1.114570e+000 -3.715742e-001 4.046126e-002 6.969168e-001 -3.071241e-002 -2.449337e-001 -4.417143e-001 -3.742103e-002 -2.141306e-001 -6.062281e-001 4.283902e-002 3.761321e-001 7.964095e-001 8.667253e-001 -4.013775e-001
<VARIANCE> 39
 4.480727e+000 1.407242e+001 1.571040e+001 1.785806e+001 1.595317e+001 3.456580e+001 2.633257e+001 2.698655e+001 2.875077e+001 2.494365e+001 1.394595e+001 1.552853e+001 7.236342e+000 2.276217e-001 1.475068e+000 1.017348e+000 1.190649e+000 9.595819e-001 1.299793e+000 1.429503e+000 2.282385e+000 1.254945e+000 2.083375e+000 1.915429e+000 2.173361e+000 2.088270e-001 8.155145e-002 1.814979e-001 1.900020e-001 1.719091e-001 2.035162e-001 1.657250e-001 3.164271e-001 4.501577e-001 3.185635e-001 3.856162e-001 3.279165e-001 3.135498e-001 6.340159e-002
<GCONST> 8.949110e+001
<TRANSP> 5
 0.000000e+000 1.000000e+000 0.000000e+000 0.000000e+000 0.000000e+000
 0.000000e+000 7.063228e-001 2.936772e-001 0.000000e+000 0.000000e+000
 0.000000e+000 0.000000e+000 3.046953e-001 6.953048e-001 0.000000e+000
 0.000000e+000 0.000000e+000 0.000000e+000 6.168890e-001 3.831110e-001
 0.000000e+000 0.000000e+000 0.000000e+000 0.000000e+000 0.000000e+000
<ENDHMM>
~h "ey"
<BEGINHMM>
<NUMSTATES> 5
<STATE> 2
<MEAN> 39
 -9.460958e+000 8.789701e-001 -1.466487e+000 -1.987798e+000 -1.111453e+000 -6.711514e+000 -2.350594e+000 -9.337763e+000 -4.473970e+000 -5.763784e+000 -3.286304e+000 -4.050566e+000 5.682589e+001 -1.101460e+000 -6.581808e-001 -7.544696e-001 -2.723153e-001 1.083563e+000 1.490754e+000 8.339933e-001 1.511207e+000 1.726310e+000 1.315398e-001 -3.406511e-001 9.216206e-002 -9.046254e-001 8.163820e-002 -2.138717e-001 -6.197516e-002 -1.915373e-001 -6.354098e-001 -3.762445e-001 1.805621e-001 -8.500818e-002 -5.199254e-002 2.862511e-001 2.047387e-001 2.878999e-002 1.940941e-001
<VARIANCE> 39
 1.121091e+001 1.024280e+001 1.274736e+001 1.863632e+001 1.554128e+001 1.474839e+001 1.883631e+001 3.432441e+001 2.538971e+001 1.345540e+001 1.812589e+001 1.872181e+001 5.823873e+000 1.223039e+000 7.407901e-001 1.278105e+000 1.945781e+000 3.601197e+000 3.755262e+000 3.432274e+000 4.101790e+000 2.765565e+000 2.086169e+000 2.984440e+000 2.094351e+000 4.796227e-001 1.355195e-001 2.040912e-001 2.259670e-001 3.366501e-001 5.399727e-001 4.868399e-001 3.827870e-001 3.418032e-001 3.312722e-001 3.549149e-001 5.259238e-001 3.990610e-001 7.792830e-002
<GCONST> 1.003443e+002
<STATE> 3
<MEAN> 39
 -1.232964e+001 -1.630594e+000 -3.519362e+000 -3.250892e+000 -4.625859e-001 -4.170948e+000 6.673366e-001 -5.648130e+000 -1.926993e-001 -4.112524e+000 -3.360377e+000 -4.081587e+000 5.494253e+001 -3.402815e-001 -7.077754e-001 -4.696093e-001 -6.145019e-001 -8.034238e-001 1.027521e-001 7.442142e-001 4.115680e-001 9.318331e-001 8.385076e-001 3.133503e-001 2.312982e-001 -1.446024e-001 3.629870e-001 -1.376881e-001 1.912179e-001 -1.187658e-002 -9.866157e-001 -9.479641e-001 -4.489658e-002 -5.448717e-001 -5.660528e-001 3.889481e-001 3.205925e-001 -7.428341e-002 5.509292e-001
<VARIANCE> 39
 2.547111e+000 2.838816e+000 7.828958e+000 9.992904e+000 8.188749e+000 8.454172e+000 1.354315e+001 1.383279e+001 9.812450e+000 1.370747e+001 1.656481e+001 8.294497e+000 1.917543e+000 8.687389e-001 7.287277e-001 1.054943e+000 1.314000e+000 3.253589e+000 3.093844e+000 1.792567e+000 2.690667e+000 2.149627e+000 1.997393e+000 2.637375e+000 1.589665e+000 8.837247e-001 1.107900e-001 2.389559e-001 1.589203e-001 1.930784e-001 5.738499e-001 2.900251e-001 6.795387e-001 5.001727e-001 3.346153e-001 4.411478e-001 3.298469e-001 3.584283e-001 1.193944e-001
<GCONST> 8.831844e+001
<STATE> 4
<MEAN> 39
 -1.246932e+001 -2.269633e+000 -4.550405e+000 -4.608310e+000 -1.678727e+000 -5.127234e+000 6.086823e-001 -5.343638e+000 3.921685e-001 -2.899529e+000 -1.660211e+000 -2.531034e+000 5.486536e+001 2.783930e-001 -6.412682e-001 -1.313329e-001 -9.928880e-002 -1.474129e+000 -1.169497e+000 4.860822e-001 -2.386242e-001 -2.979776e-001 8.005322e-001 1.785273e-001 -2.244339e-001 6.088474e-001 2.891757e-001 -1.784355e-001 2.227681e-001 1.971062e-001 -6.964223e-001 -6.908048e-001 1.490179e-001 -2.397971e-001 -4.245219e-001 2.684861e-001 6.821671e-002 -3.233516e-001 4.944623e-001
<VARIANCE> 39
 2.156070e+000 3.530631e+000 5.971194e+000 6.742131e+000 9.124684e+000 9.254400e+000 1.008531e+001 1.223652e+001 1.367387e+001 1.574867e+001 1.266515e+001 1.008887e+001 1.859019e+000 5.653985e-001 9.694406e-001 7.766629e-001 9.441768e-001 4.330660e+000 3.372859e+000 1.672368e+000 1.817315e+000 1.928398e+000 2.855819e+000 1.724651e+000 1.679850e+000 1.339450e+000 9.402724e-002 1.685921e-001 1.766039e-001 1.688184e-001 7.200872e-001 6.141805e-001 3.523398e-001 3.356413e-001 3.872391e-001 5.449255e-001 4.131119e-001 3.032551e-001 1.909439e-001
<GCONST> 8.754337e+001
<TRANSP> 5
 0.000000e+000 1.000000e+000 0.000000e+000 0.000000e+000 0.000000e+000
 0.000000e+000 4.746911e-001 5.253089e-001 0.000000e+000 0.000000e+000
 0.000000e+000 0.000000e+000 6.842848e-002 9.315715e-001 0.000000e+000
 0.000000e+000 0.000000e+000 0.000000e+000 7.860936e-001 2.139064e-001
 0.000000e+000 0.000000e+000 0.000000e+000 0.000000e+000 0.000000e+000
<ENDHMM>
~h "ia"
<BEGINHMM>
<NUMSTATES> 5
<STATE> 2
<MEAN> 39
 -8.678641e+000 1.674746e+000 4.392984e-001 -3.900417e-001 -5.547394e+000 -2.332576e+001 -9.064146e+000 -1.489029e+001 -1.491571e+001 -6.791352e+000 -5.678668e+000 -6.128939e+000 6.321999e+001 1.793784e+000 -7.322333e-001 1.082992e+000 2.341893e-001 -2.114796e+000 -2.682226e+000 -1.400849e+000 -9.891445e-001 -1.135229e+000 2.956104e-002 7.181634e-001 1.095694e-001 1.201442e+000 2.589465e-001 -3.657311e-001 -5.539738e-002 1.395782e-001 -4.796854e-001 3.190089e-001 2.239039e-001 3.061889e-002 2.157431e-001 8.718745e-002 2.402335e-001 1.249619e-003 8.796652e-002
<VARIANCE> 39
 1.684210e+001 1.161375e+001 1.137545e+001 1.420931e+001 2.408561e+001 4.908369e+001 3.412054e+001 3.030342e+001 2.394351e+001 2.002140e+001 3.010904e+001 1.310102e+001 6.626435e+000 1.391206e+000 1.678118e+000 1.135733e+000 1.448880e+000 2.235048e+000 2.903675e+000 2.605574e+000 2.655878e+000 2.107145e+000 1.809724e+000 1.879375e+000 1.380960e+000 2.550817e-001 2.389046e-001 1.554139e-001 1.996785e-001 2.307716e-001 2.511268e-001 5.184463e-001 5.368600e-001 4.521417e-001 3.144918e-001 2.912955e-001 3.163482e-001 2.733537e-001 4.078985e-002
<GCONST> 9.831000e+001
<STATE> 3
<MEAN> 39
 1.631444e+000 -7.623758e+000 2.190563e+000 3.395876e+000 -2.038549e+001 -2.877532e+001 -1.051391e+001 -1.980729e+001 -1.519217e+001 -2.302284e+000 1.708952e+000 -5.073581e+000 6.989642e+001 9.871227e-001 -8.575181e-001 -1.193194e+000 2.688904e-001 -6.049361e-002 7.701489e-001 -4.039991e-001 -1.065950e+000 1.027165e+000 1.559260e+000 6.753801e-001 -2.658309e-001 4.078255e-001 -2.183523e-001 4.116879e-001 -4.351652e-001 -2.827682e-001 9.050658e-001 4.431647e-001 -2.173174e-001 -5.767284e-002 1.357579e-001 4.230099e-002 -6.271613e-002 -8.998723e-003 -2.631016e-001
<VARIANCE> 39
 5.735624e+000 2.908953e+001 2.123960e+001 1.827451e+001 2.422579e+001 2.327208e+001 2.535156e+001 2.139222e+001 3.314959e+001 4.256755e+001 1.942833e+001 2.247274e+001 6.204111e+000 3.812265e-001 1.813276e+000 2.790804e+000 1.540134e+000 7.732360e+000 2.578812e+000 2.719475e+000 2.414879e+000 3.257552e+000 2.431331e+000 2.088609e+000 2.010763e+000 5.268384e-001 6.658405e-002 2.530216e-001 2.111992e-001 3.619724e-001 3.842316e-001 3.682638e-001 4.532964e-001 5.229215e-001 6.350472e-001 6.955007e-001 4.159879e-001 4.980154e-001 3.900123e-002
<GCONST> 1.036847e+002
<STATE> 4
<MEAN> 39
 4.952594e+000 -2.354110e+000 -1.379041e+001 -8.463429e+000 -7.342504e+000 -1.470178e+001 -1.349585e+001 -2.292561e+001 -1.085001e+001 -9.323563e-001 6.046154e+000 3.158585e-001 6.737433e+001 -2.376162e-002 3.308153e-001 -6.783705e-001 -9.545103e-001 4.667380e-001 9.118205e-001 4.296066e-001 3.415963e-001 1.794626e-001 -1.191808e-001 2.614695e-001 3.972110e-001 -1.761134e-001 -7.209776e-002 -1.030808e-001 2.302250e-001 1.410130e-001 -2.484239e-001 -1.414350e-001 1.834018e-001 1.553236e-001 1.620141e-002 9.825442e-003 -8.443625e-002 -8.089715e-002 2.496834e-002
<VARIANCE> 39
 6.991425e+000 2.452749e+001 2.535250e+001 4.741007e+001 3.037837e+001 3.201562e+001 4.478305e+001 2.472305e+001 3.043333e+001 5.408480e+001 2.905857e+001 3.914336e+001 6.437023e+000 1.977911e-001 2.051284e+000 1.362924e+000 2.015654e+000 3.280571e+000 1.732185e+000 3.362909e+000 1.788069e+000 2.860396e+000 5.289788e+000 2.666632e+000 4.077753e+000 3.867401e-001 3.857337e-002 2.367261e-001 1.927814e-001 2.510788e-001 4.129755e-001 2.556747e-001 5.502579e-001 3.680816e-001 5.967097e-001 9.163816e-001 5.327795e-001 6.491858e-001 4.445585e-002
<GCONST> 1.055527e+002
<TRANSP> 5
 0.000000e+000 1.000000e+000 0.000000e+000 0.000000e+000 0.000000e+000
 0.000000e+000 8.147612e-001 1.852388e-001 0.000000e+000 0.000000e+000
 0.000000e+000 0.000000e+000 8.622206e-001 1.377794e-001 0.000000e+000
 0.000000e+000 0.000000e+000 0.000000e+000 9.262431e-001 7.375689e-002
 0.000000e+000 0.000000e+000 0.000000e+000 0.000000e+000 0.000000e+000
<ENDHMM>
~h "ih"
<BEGINHMM>
<NUMSTATES> 5
<STATE> 2
<MEAN> 39
 -1.782561e+001 -5.124040e+000 -4.171382e+000 -2.407347e+000 -2.698293e+000 -1.480338e+001 4.881297e+000 -2.606667e+000 -7.024110e+000 -4.533949e-001 2.756970e+000 -2.042961e+000 6.112573e+001 3.137005e+000 -1.053363e-002 2.004825e+000 -1.513878e-001 -3.183228e+000 -2.544214e+000 -1.638042e+000 -1.662401e+000 -1.294773e+000 -3.196355e-001 6.902043e-001 -2.546648e-001 3.571748e-001 8.773704e-001 3.450568e-001 4.581141e-001 2.390458e-001 -1.027244e+000 -6.800455e-001 -6.041677e-001 -1.239503e+000 -5.443517e-001 3.019385e-001 -7.631043e-002 -3.722326e-001 5.920042e-001
<VARIANCE> 39
 1.069746e+001 6.528847e+000 1.045026e+001 1.240244e+001 2.083105e+001 2.411966e+001 2.400374e+001 2.118954e+001 1.468974e+001 1.975198e+001 2.048568e+001 1.419057e+001 4.421184e+000 2.471004e+000 1.209960e+000 1.012200e+000 1.134830e+000 3.650647e+000 2.753025e+000 3.190919e+000 5.493448e+000 2.149751e+000 2.084138e+000 2.076541e+000 2.066074e+000 1.033473e+000 1.602504e-001 1.998269e-001 1.480606e-001 2.318813e-001 3.179171e-001 3.183019e-001 4.593781e-001 5.489354e-001 3.344411e-001 4.493072e-001 3.636337e-001 2.998115e-001 1.185157e-001
<GCONST> 9.873689e+001
<STATE> 3
<MEAN> 39
 -1.822659e+000 -2.395952e+000 7.650819e+000 4.032102e-001 -2.280474e+001 -2.557834e+001 -1.644246e+000 -2.048011e+001 -1.752500e+001 3.824818e+000 4.278435e+000 -8.656190e+000 6.756657e+001 9.706581e-001 7.455164e-001 1.325838e+000 5.447143e-001 -1.114797e+000 3.642841e-001 -2.313944e-002 -1.772798e+000 -1.025397e+000 7.018015e-001 -3.843895e-001 -1.350385e+000 1.831019e-001 -7.508594e-001 1.266089e-001 -5.143592e-001 -3.277494e-002 1.336483e+000 9.249268e-001 2.230573e-001 8.359420e-001 5.816977e-001 -4.353458e-001 -3.658253e-001 2.250314e-001 -5.131493e-001
<VARIANCE> 39
 7.124305e+000 1.655018e+001 2.018198e+001 1.944844e+001 3.010398e+001 2.732270e+001 2.886049e+001 3.728947e+001 2.962852e+001 3.797578e+001 2.215625e+001 3.437070e+001 8.686317e+000 4.680408e+000 1.803935e+000 2.184283e+000 1.685615e+000 1.316264e+001 6.830411e+000 3.642927e+000 7.051484e+000 3.730256e+000 3.775082e+000 3.043362e+000 2.022321e+000 2.943802e+000 2.768510e-001 3.109440e-001 3.017168e-001 3.481687e-001 7.454544e-001 4.305696e-001 8.832883e-001 7.179034e-001 5.536703e-001 1.016916e+000 4.122818e-001 6.586809e-001 2.008767e-001
<GCONST> 1.188786e+002
<STATE> 4
<MEAN> 39
 -1.302474e+001 -3.244250e+000 -1.881770e+000 1.921002e+000 -3.097364e+000 -1.151322e+001 2.844135e+000 -6.176488e+000 -9.286239e+000 -1.129737e+000 2.152688e-001 -5.848225e+000 6.088002e+001 -1.327574e+000 -2.568374e-001 -1.213072e+000 -6.462421e-002 1.536549e+000 4.707935e-001 3.584929e-001 1.616275e+000 8.556609e-001 -5.939679e-001 -3.376364e-002 9.164814e-001 -2.219448e-001 6.750156e-002 -6.096821e-002 4.933963e-002 -8.752765e-002 -3.438679e-001 -1.871907e-001 -6.369791e-003 -1.817617e-001 -7.664528e-002 2.069684e-001 1.337621e-001 -6.821109e-002 1.319433e-001
<VARIANCE> 39
 5.596363e+001 3.917533e+001 4.217731e+001 2.426751e+001 4.915768e+001 5.932559e+001 3.929683e+001 8.504607e+001 4.532748e+001 4.417655e+001 4.262181e+001 3.666201e+001 1.469957e+001 1.809752e+000 4.369790e+000 2.097068e+000 2.298537e+000 8.994120e+000 9.397097e+000 3.089858e+000 4.661991e+000 5.977321e+000 7.544003e+000 5.064309e+000 3.031693e+000 2.232613e+000 2.891329e-001 8.527903e-001 3.531193e-001 4.242390e-001 1.425661e+000 1.443926e+000 5.663081e-001 7.458151e-001 9.454123e-001 1.463517e+000 9.149367e-001 6.766216e-001 2.678730e-001
<GCONST> 1.332154e+002
<TRANSP> 5
 0.000000e+000 1.000000e+000 0.000000e+000 0.000000e+000 0.000000e+000
 0.000000e+000 6.947069e-001 3.052930e-001 0.000000e+000 0.000000e+000
 0.000000e+000 0.000000e+000 8.633689e-001 1.366311e-001 0.000000e+000
 0.000000e+000 0.000000e+000 0.000000e+000 9.234977e-001 7.650235e-002
 0.000000e+000 0.000000e+000 0.000000e+000 0.000000e+000 0.000000e+000
<ENDHMM>
~h "iy"
<BEGINHMM>
<NUMSTATES> 5
<STATE> 2
<MEAN> 39
 -2.005222e+000 5.796012e-001 1.019557e+001 5.970689e-001 -2.329921e+001 -2.009788e+001 -4.268654e+000 -2.579492e+001 -1.848712e+001 -1.049559e+000 -1.780319e+000 -1.316505e+001 6.549752e+001 -5.155998e-001 8.995993e-001 4.154570e-001 -4.665745e-001 1.045010e+000 1.208920e+000 2.867642e-001 -9.307245e-002 -4.776450e-001 -4.367732e-001 -5.409218e-001 -4.271777e-001 -4.854021e-001 9.277449e-002 -8.988823e-002 -4.851185e-001 1.059129e-001 5.540450e-001 -1.058689e-001 -4.121006e-001 2.160592e-001 4.123620e-001 -1.592866e-002 -8.156247e-002 1.624944e-001 -2.236611e-002
<VARIANCE> 39
 2.987957e+000 1.720862e+001 1.112057e+001 1.529204e+001 2.712688e+001 2.768945e+001 3.174504e+001 2.279606e+001 3.013416e+001 3.329613e+001 3.486186e+001 1.715337e+001 5.270211e+000 2.471066e-001 1.050038e+000 1.268888e+000 1.138228e+000 2.448602e+000 2.141924e+000 2.496241e+000 1.979866e+000 2.832563e+000 2.301543e+000 2.046606e+000 1.385359e+000 2.111312e-001 3.071851e-002 1.423241e-001 2.334606e-001 1.821595e-001 7.595767e-001 3.291258e-001 5.702392e-001 3.852333e-001 5.586926e-001 4.166473e-001 4.195986e-001 2.406938e-001 3.336766e-002
<GCONST> 9.391859e+001
<STATE> 3
<MEAN> 39
 -4.123689e+000 3.259880e+000 8.325806e+000 5.225186e-001 -1.442943e+001 -1.686619e+001 -5.289842e+000 -2.208686e+001 -1.808562e+001 -4.592215e+000 -3.708416e+000 -1.258033e+001 6.257797e+001 -5.898807e-001 4.290172e-001 -1.338363e+000 -1.987744e-002 2.881052e+000 1.033472e+000 -5.997106e-001 1.576546e+000 9.524459e-001 -1.500861e+000 -7.581221e-001 9.047290e-001 -8.245836e-001 -1.290096e-001 -2.157227e-001 -2.471683e-001 -4.356883e-002 1.516872e-001 2.588007e-001 1.412479e-001 2.787189e-001 4.780135e-001 9.174565e-002 -8.397652e-002 1.434326e-001 -2.268364e-002
<VARIANCE> 39
 6.446225e+000 1.112349e+001 1.473175e+001 1.740498e+001 2.160004e+001 2.537290e+001 2.717032e+001 2.981791e+001 2.429097e+001 2.795855e+001 4.014171e+001 2.378344e+001 3.723583e+000 4.986348e-001 1.068150e+000 8.892456e-001 1.543270e+000 3.006060e+000 2.010261e+000 2.237284e+000 3.042848e+000 2.525835e+000 1.642441e+000 2.325682e+000 2.082068e+000 1.834661e-001 1.197222e-001 1.224936e-001 1.701112e-001 2.509809e-001 5.941617e-001 4.897393e-001 4.770975e-001 4.834058e-001 4.800170e-001 4.251851e-001 4.517258e-001 3.380416e-001 3.326912e-002
<GCONST> 9.695604e+001
<STATE> 4
<MEAN> 39
 -6.125926e+000 4.093756e+000 2.694466e+000 -1.580380e+000 -6.215451e+000 -1.177198e+001 -7.630854e+000 -1.812244e+001 -1.277000e+001 -9.842460e+000 -8.344967e+000 -9.601707e+000 5.945842e+001 -6.253213e-001 -4.377926e-001 -9.582344e-001 -1.198962e-001 1.180726e+000 9.547005e-001 4.147798e-001 1.170188e+000 1.313318e+000 1.020299e-001 1.834918e-002 6.669556e-001 -4.719935e-001 -2.943957e-002 -1.377256e-001 4.370880e-002 -1.105574e-002 -3.365322e-001 -1.222227e-001 1.631812e-001 -1.166863e-002 8.433675e-003 3.299498e-001 2.579734e-001 -1.124731e-002 6.473984e-002
<VARIANCE> 39
 6.069412e+000 9.850530e+000 1.154105e+001 1.420170e+001 2.599284e+001 2.208864e+001 2.889183e+001 3.594840e+001 2.358307e+001 1.829845e+001 2.184877e+001 2.030543e+001 3.244542e+000 6.183156e-001 7.010072e-001 1.029159e+000 9.582481e-001 2.486626e+000 2.178667e+000 2.270392e+000 2.847372e+000 2.789804e+000 2.206291e+000 1.946816e+000 1.602322e+000 2.051982e-001 5.960901e-002 1.308377e-001 1.406551e-001 2.049365e-001 4.383617e-001 3.202216e-001 4.130825e-001 4.727936e-001 3.856220e-001 3.815755e-001 2.879862e-001 2.738410e-001 2.407699e-002
<GCONST> 9.140256e+001
<TRANSP> 5
 0.000000e+000 1.000000e+000 0.000000e+000 0.000000e+000 0.000000e+000
 0.000000e+000 8.455775e-001 1.544226e-001 0.000000e+000 0.000000e+000
 0.000000e+000 0.000000e+000 7.027283e-001 2.972717e-001 0.000000e+000
 0.000000e+000 0.000000e+000 0.000000e+000 8.092168e-001 1.907831e-001
 0.000000e+000 0.000000e+000 0.000000e+000 0.000000e+000 0.000000e+000
<ENDHMM>
~h "ow"
<BEGINHMM>
<NUMSTATES> 5
<STATE> 2
<MEAN> 39
 -1.241444e+001 -2.246361e+000 -4.738445e+000 -4.264777e+000 -9.768380e-001 -5.155744e+000 -2.001457e-001 -6.018991e+000 1.530713e-002 -2.840676e+000 -4.924916e-001 -2.019551e+000 5.455162e+001 -6.809700e-002 -3.934802e-002 -3.213566e-002 -1.571375e-002 -3.148681e-002 -5.989493e-002 -2.639355e-002 5.910131e-003 -4.582167e-003 1.521159e-002 4.344924e-002 8.139459e-002 -3.719449e-002 3.189407e-002 1.075017e-002 -1.378206e-002 -1.994140e-002 -1.790323e-002 -1.453251e-002 -1.974425e-002 -1.281630e-002 -2.225773e-002 3.586988e-004 -1.348468e-004 -1.352682e-002 2.392937e-002
<VARIANCE> 39
 3.388624e+000 3.969028e+000 6.208560e+000 7.371907e+000 7.613165e+000 1.037376e+001 1.178639e+001 1.478950e+001 1.189998e+001 1.387319e+001 1.357820e+001 1.150876e+001 2.535190e+000 1.309547e-001 1.689041e-001 4.058769e-001 6.815854e-001 8.661739e-001 9.577483e-001 1.121087e+000 1.410629e+000 1.301444e+000 1.383000e+000 1.398734e+000 1.385838e+000 6.863023e-002 3.034303e-002 3.385546e-002 7.750403e-002 1.459750e-001 1.649441e-001 2.014455e-001 2.414529e-001 3.050672e-001 2.744268e-001 2.862727e-001 2.922476e-001 2.848803e-001 1.507020e-002
<GCONST> 6.586378e+001
<STATE> 3
<MEAN> 39
 -1.280368e+001 -1.523643e+000 -5.831175e+000 -1.732907e+000 -2.181690e+000 -7.106808e+000 -1.348386e+000 -6.335464e+000 -3.056621e+000 -8.896158e-001 -7.878277e-003 -3.567053e+000 5.791140e+001 -1.821923e-001 4.102627e-002 -1.152644e-001 -2.104699e-001 -3.346039e-001 -3.460045e-001 4.268232e-002 -7.963791e-002 -5.631968e-001 -2.212308e-001 -1.082817e-001 1.548525e-001 5.025696e-002 7.090983e-002 -2.074194e-002 1.677477e-001 1.122225e-001 1.103548e-001 1.032306e-001 -1.079111e-001 -7.165199e-002 -3.025369e-002 -1.599368e-001 -1.430385e-001 -1.719297e-001 9.559233e-002
<VARIANCE> 39
 2.734570e+001 1.508053e+001 1.896812e+001 1.843677e+001 2.209074e+001 1.997155e+001 1.668973e+001 3.508384e+001 1.944524e+001 2.702343e+001 2.569388e+001 2.156126e+001 1.152218e+001 3.066993e-001 2.554709e-001 4.822992e-001 9.169869e-001 1.267605e+000 1.281145e+000 1.288193e+000 1.536336e+000 1.466093e+000 1.556535e+000 1.415768e+000 1.468033e+000 8.774225e-002 7.653948e-002 9.340113e-002 1.244981e-001 1.776017e-001 2.314829e-001 3.464945e-001 2.335817e-001 3.977592e-001 2.538559e-001 5.032824e-001 3.158075e-001 2.924545e-001 4.046592e-002
<GCONST> 8.667376e+001
<STATE> 4
<MEAN> 39
 -1.229068e+001 -2.267946e+000 -4.931293e+000 -2.649629e+000 -1.855529e+000 -7.695693e+000 -1.298685e+000 -6.814595e+000 -3.189823e+000 -1.878686e+000 -1.017590e+000 -3.335536e+000 5.766348e+001 -1.547915e-001 -1.028647e-002 3.314681e-001 2.564296e-001 -7.263722e-002 4.557202e-002 -3.118756e-001 -2.979685e-001 -6.679800e-001 -5.160554e-001 -3.510795e-001 -2.507080e-001 2.613389e-001 6.201503e-002 -3.960021e-002 1.399213e-001 7.061527e-002 6.421504e-002 1.080706e-001 -1.307495e-001 -3.551685e-002 5.020816e-002 3.511107e-003 8.769870e-004 -2.101210e-001 1.360089e-001
<VARIANCE> 39
 2.863608e+001 1.718036e+001 2.029513e+001 2.149783e+001 1.981232e+001 1.725493e+001 1.942834e+001 3.496326e+001 2.658162e+001 2.549152e+001 2.729436e+001 1.721451e+001 1.297098e+001 7.677343e-001 6.465594e-001 8.206591e-001 9.310840e-001 1.223897e+000 1.192267e+000 1.362972e+000 1.862968e+000 1.732325e+000 2.177101e+000 1.930275e+000 1.517040e+000 3.708057e-001 1.227156e-001 1.407690e-001 1.654393e-001 2.331822e-001 2.770251e-001 2.448300e-001 2.620783e-001 2.427850e-001 3.631038e-001 3.040766e-001 3.810191e-001 4.008663e-001 6.753558e-002
<GCONST> 9.375640e+001
<TRANSP> 5
 0.000000e+000 1.000000e+000 0.000000e+000 0.000000e+000 0.000000e+000
 0.000000e+000 9.410483e-001 5.895167e-002 0.000000e+000 0.000000e+000
 0.000000e+000 0.000000e+000 2.874277e-001 7.125723e-001 0.000000e+000
 0.000000e+000 0.000000e+000 0.000000e+000 1.479388e-001 8.520612e-001
 0.000000e+000 0.000000e+000 0.000000e+000 0.000000e+000 0.000000e+000
<ENDHMM>
~h "sp"
<BEGINHMM>
<NUMSTATES> 3
<STATE> 2
~s "silst"
<TRANSP> 3
 0.000000e+000 3.217559e-001 6.782440e-001
 0.000000e+000 9.707489e-001 2.925109e-002
 0.000000e+000 0.000000e+000 0.000000e+000
<ENDHMM>
~h "th"
<BEGINHMM>
<NUMSTATES> 5
<STATE> 2
<MEAN> 39
 -1.008788e+001 -1.823947e+000 -1.007644e+000 -1.713542e+000 1.579508e+000 -1.057944e+001 -5.468726e+000 -8.673999e+000 -7.471587e+000 -1.264064e+000 -1.327371e+000 -5.946623e+000 6.102493e+001 -2.161166e+000 -1.092816e+000 -1.646128e-003 1.263640e-001 1.936777e+000 5.673362e-001 1.044618e+000 2.969947e+000 7.350160e-001 6.443125e-001 -4.048125e-003 -1.727101e-001 3.769502e-002 -7.461709e-002 7.094379e-005 -1.110916e-001 -3.957345e-001 -4.507197e-001 -2.253990e-001 9.179018e-003 1.007042e-001 -3.263015e-002 4.868199e-002 1.631699e-001 1.316316e-002 1.288214e-001
<VARIANCE> 39
 3.756199e+001 1.811271e+001 2.471088e+001 2.910330e+001 3.852621e+001 3.682774e+001 7.146656e+001 9.691265e+001 4.122755e+001 3.599775e+001 2.903460e+001 2.050921e+001 9.064972e+000 1.760120e+000 1.397441e+000 2.648114e+000 4.747453e+000 3.405999e+000 3.892002e+000 4.387375e+000 5.670213e+000 3.892253e+000 2.962548e+000 3.294849e+000 2.276141e+000 4.925865e-001 2.685017e-001 3.056543e-001 3.910572e-001 5.063956e-001 5.879503e-001 6.638812e-001 9.228871e-001 1.472509e+000 6.295754e-001 5.020564e-001 6.620607e-001 4.150070e-001 5.636999e-002
<GCONST> 1.196836e+002
<STATE> 3
<MEAN> 39
 -1.941344e+001 -5.785865e+000 -2.889204e+000 -6.714184e+000 3.014281e+000 -9.245996e+000 -3.288012e+000 1.144616e+000 -5.679834e+000 1.187260e+000 1.412221e+000 -5.433709e+000 6.190876e+001 -2.530738e-001 -6.116887e-001 3.860351e-002 -3.646496e-001 -1.023279e+000 6.303078e-001 -4.885751e-001 -3.086770e-001 5.579490e-001 9.314649e-002 1.807612e-001 1.646584e-001 2.762601e-001 3.230705e-001 -1.842909e-001 5.408614e-002 3.608954e-001 -3.437456e-001 6.389176e-002 9.712749e-002 -4.619089e-001 1.942445e-001 1.221907e-001 -1.599922e-001 -4.508720e-002 -4.902693e-002
<VARIANCE> 39
 7.526199e+000 1.105151e+001 7.904943e+000 1.324487e+001 2.430054e+001 3.142114e+001 3.347467e+001 2.129256e+001 2.427789e+001 3.379493e+001 2.896042e+001 2.269473e+001 4.390418e+000 9.071596e-001 1.108274e+000 9.816608e-001 1.749272e+000 3.198348e+000 2.045194e+000 2.722348e+000 3.053965e+000 3.046573e+000 2.671996e+000 2.847781e+000 2.215043e+000 2.009206e-001 8.958517e-002 1.673882e-001 1.691286e-001 3.576872e-001 4.131258e-001 4.268132e-001 6.665986e-001 5.302799e-001 5.273309e-001 7.064960e-001 6.096517e-001 5.197824e-001 3.230952e-002
<GCONST> 1.001602e+002
<STATE> 4
<MEAN> 39
 -1.115469e+001 -1.238305e+001 -6.332945e+000 1.373038e+000 -3.927229e+000 -9.266839e+000 -5.871842e+000 -1.126335e+001 -1.982940e+000 5.328340e+000 2.337692e+000 -6.696142e+000 6.227651e+001 2.455701e+000 7.302589e-001 -1.045361e+000 6.050326e-001 6.823337e-002 -1.528338e+000 -1.365854e+000 -2.481944e+000 -9.415821e-001 -4.406496e-003 5.947824e-001 8.634025e-002 2.993463e-001 2.123390e-001 4.295890e-001 3.824084e-003 -2.838895e-001 1.047686e-001 -3.375328e-001 -4.158256e-001 -1.473400e-002 -2.790807e-001 -2.179334e-001 4.601930e-002 3.216219e-002 1.851705e-001
<VARIANCE> 39
 4.219904e+001 3.464335e+001 2.377927e+001 3.649447e+001 3.483276e+001 3.442801e+001 4.742482e+001 5.623953e+001 3.408101e+001 3.200641e+001 2.848889e+001 3.197369e+001 5.675126e+000 2.268391e+000 6.791926e+000 1.706215e+000 7.536294e+000 5.715765e+000 2.739324e+000 6.964069e+000 4.529322e+000 4.043261e+000 5.221799e+000 3.391134e+000 5.231746e+000 1.277300e+000 3.657595e-001 9.002812e-001 4.277017e-001 1.255952e+000 1.533296e+000 5.906264e-001 9.755098e-001 9.985546e-001 8.887255e-001 9.129696e-001 8.109297e-001 1.213800e+000 1.848220e-001
<GCONST> 1.301449e+002
<TRANSP> 5
 0.000000e+000 1.000000e+000 0.000000e+000 0.000000e+000 0.000000e+000
 0.000000e+000 7.359713e-001 2.640287e-001 0.000000e+000 0.000000e+000
 0.000000e+000 0.000000e+000 8.792030e-001 1.207970e-001 0.000000e+000
 0.000000e+000 0.000000e+000 0.000000e+000 8.805494e-001 1.194507e-001
 0.000000e+000 0.000000e+000 0.000000e+000 0.000000e+000 0.000000e+000
<ENDHMM>
~h "uw"
<BEGINHMM>
<NUMSTATES> 5
<STATE> 2
<MEAN> 39
 -5.077935e+000 -6.436214e+000 -5.404575e-001 4.955242e+000 -1.074039e+001 -1.866875e+001 -6.018215e+000 -1.279986e+001 -1.229870e+001 -3.441969e+000 4.148595e+000 -3.884628e+000 6.365623e+001 3.881429e+000 3.055560e+000 9.430950e-001 -1.461223e-001 -1.569004e+000 -9.456218e-001 -3.077308e+000 -5.727617e+000 -1.527909e+000 6.041626e-001 -1.395523e+000 -1.642601e+000 1.602244e+000 -3.138708e-001 -1.331045e-001 4.607243e-002 -1.553902e-001 1.288646e-001 2.999562e-001 2.266169e-001 3.595581e-001 -1.129697e-001 1.204977e-001 4.141254e-002 -1.490461e-001 2.224265e-001
<VARIANCE> 39
 3.375502e+001 3.092175e+001 1.671511e+001 2.425347e+001 3.711899e+001 3.165155e+001 3.943739e+001 1.031136e+002 2.715602e+001 2.572524e+001 2.250492e+001 2.333027e+001 1.702822e+001 8.259551e-001 1.935438e+000 7.935197e-001 2.153183e+000 1.627039e+000 2.496980e+000 2.770297e+000 4.455540e+000 2.195313e+000 2.693360e+000 2.335561e+000 1.575135e+000 7.266107e-001 5.877494e-001 4.455965e-001 2.340899e-001 2.357235e-001 7.262229e-001 4.697297e-001 6.997291e-001 1.649845e+000 4.297422e-001 4.804291e-001 3.766162e-001 3.426571e-001 4.368952e-001
<GCONST> 1.137175e+002
<STATE> 3
<MEAN> 39
 2.653137e+000 -2.544819e-001 -9.854240e-002 3.687603e+000 -1.047924e+001 -1.735388e+001 -1.184758e+001 -2.563509e+001 -1.659587e+001 -4.866253e-001 2.235395e+000 -1.013836e+001 6.763597e+001 1.514129e-001 1.342126e+000 -3.679813e-001 -1.425732e+000 8.890309e-001 1.061090e+000 -4.968443e-001 -1.048568e+000 -4.133739e-001 -4.774458e-001 -5.289177e-001 -2.398343e-001 -4.467590e-001 -5.002490e-001 -2.106003e-001 -8.872174e-002 -1.432401e-001 1.345001e-001 1.172047e-001 2.514281e-001 6.032964e-001 2.015640e-001 -3.228987e-001 -1.764755e-002 3.600437e-001 -3.151225e-001
<VARIANCE> 39
 2.619458e+000 2.147787e+001 1.318194e+001 3.640540e+001 2.382221e+001 4.005081e+001 2.420267e+001 3.901906e+001 3.513182e+001 4.129298e+001 2.971908e+001 2.590069e+001 6.998533e+000 5.219529e-001 8.464456e-001 7.551244e-001 1.204851e+000 1.456806e+000 1.050655e+000 1.465121e+000 1.783140e+000 1.697507e+000 2.253877e+000 1.568354e+000 1.825902e+000 3.983745e-001 2.275527e-001 2.008882e-001 1.619477e-001 2.549507e-001 3.596085e-001 2.938549e-001 2.819357e-001 5.160145e-001 3.237134e-001 2.983150e-001 2.709665e-001 2.506063e-001 1.201716e-001
<GCONST> 9.581811e+001
<STATE> 4
<MEAN> 39
 -1.202835e+000 6.954917e+000 -8.143356e-004 -4.923104e+000 -8.242568e+000 -1.424363e+001 -1.273304e+001 -2.288895e+001 -1.434515e+001 -9.506840e+000 -5.208935e+000 -6.716806e+000 6.170924e+001 -4.816343e-001 -1.775125e-001 4.017111e-003 6.140385e-002 3.041022e-001 1.659508e-001 1.489154e-001 5.584662e-001 5.347217e-001 -1.695213e-001 -3.091421e-001 1.724891e-001 -3.242979e-001 -5.438153e-002 -1.909130e-001 -3.674947e-002 1.476707e-001 2.928681e-002 -1.635724e-003 1.204525e-001 1.913909e-001 1.208361e-001 1.592135e-001 9.175126e-002 -3.182674e-002 2.864890e-002
<VARIANCE> 39
 8.864457e+000 7.383040e+000 8.740144e+000 1.751192e+001 1.955936e+001 2.459207e+001 2.137474e+001 2.888626e+001 2.555520e+001 3.212910e+001 3.110294e+001 1.925554e+001 4.551328e+000 2.764569e-001 9.318736e-001 6.374997e-001 1.139610e+000 1.307750e+000 1.517591e+000 1.699655e+000 1.915333e+000 1.647926e+000 2.325389e+000 1.797168e+000 1.480731e+000 1.230916e-001 4.600804e-002 9.607881e-002 1.139285e-001 1.729150e-001 2.320951e-001 2.543872e-001 3.069896e-001 3.744675e-001 2.995004e-001 3.335005e-001 2.813041e-001 2.665161e-001 1.554835e-002
<GCONST> 8.512959e+001
<TRANSP> 5
 0.000000e+000 1.000000e+000 0.000000e+000 0.000000e+000 0.000000e+000
 0.000000e+000 7.059568e-001 2.940432e-001 0.000000e+000 0.000000e+000
 0.000000e+000 0.000000e+000 8.045616e-001 1.954384e-001 0.000000e+000
 0.000000e+000 0.000000e+000 0.000000e+000 9.199262e-001 8.007376e-002
 0.000000e+000 0.000000e+000 0.000000e+000 0.000000e+000 0.000000e+000
<ENDHMM>
~h "sil"
<BEGINHMM>
<NUMSTATES> 5
<STATE> 2
<MEAN> 39
 -2.074583e+001 -3.534472e+000 -5.306759e+000 -1.518422e+000 -2.146398e+000 -9.941030e-001 -6.113760e-001 1.945367e-001 9.147644e-001 -9.528026e-002 -3.361807e-001 6.731731e-001 2.513122e+001 1.991006e-001 4.169299e-002 1.059119e-001 1.908807e-002 1.368795e-001 -2.925206e-002 4.600454e-002 -4.592319e-002 8.242929e-002 -7.012637e-002 2.144547e-002 -4.760902e-002 5.936472e-001 -2.553628e-004 8.040856e-003 -1.141096e-002 -3.331857e-002 -5.395805e-002 -4.094201e-002 -2.736236e-002 -1.909924e-002 -1.552684e-002 1.191416e-002 -1.419738e-002 -1.619047e-002 1.448564e-003
<VARIANCE> 39
 1.398504e+001 3.138381e+000 5.565677e+000 3.351758e+000 6.921367e+000 5.127542e+000 7.463729e+000 1.347125e+001 1.003351e+001 9.755543e+000 6.741565e+000 7.128986e+000 8.851196e+001 9.665067e-001 2.942308e-001 5.689535e-001 3.551806e-001 6.498088e-001 4.961094e-001 7.557782e-001 1.316869e+000 1.240980e+000 1.303470e+000 6.788181e-001 1.072363e+000 4.503475e+000 1.777576e-001 5.313201e-002 1.218107e-001 6.551405e-002 1.203086e-001 1.005980e-001 1.586088e-001 2.384176e-001 2.560800e-001 2.765485e-001 1.330245e-001 2.450678e-001 7.252131e-001
<GCONST> 7.360435e+001
<STATE> 3
~s "silst"
<STATE> 4
<MEAN> 39
 -1.313012e+001 -2.069974e+000 -3.115602e+000 -4.271649e+000 -1.279450e+000 -5.765725e+000 -1.138501e+000 -6.179821e+000 1.826545e-001 -3.302350e+000 2.562307e-001 -2.139970e+000 5.205121e+001 9.261762e-003 -7.643525e-003 -3.994372e-003 -5.306735e-002 -1.038839e-001 -1.368191e-001 -1.163912e-001 -4.500091e-002 -9.349008e-002 1.462258e-002 4.813070e-002 -2.096950e-002 2.406940e-002 3.832098e-002 2.430642e-002 -5.856917e-003 -3.566007e-002 -3.604721e-002 2.401379e-002 4.577611e-002 5.258744e-002 -1.023021e-002 -2.517052e-003 -1.351898e-002 -8.408962e-003 1.361627e-002
<VARIANCE> 39
 3.455026e+000 4.054411e+000 3.974649e+000 4.929271e+000 5.481596e+000 8.512801e+000 9.448137e+000 1.260774e+001 1.197264e+001 1.590284e+001 1.131204e+001 1.008757e+001 2.153588e+001 2.309700e-001 4.749478e-001 4.265244e-001 5.462208e-001 6.250631e-001 9.965098e-001 1.053717e+000 1.401835e+000 1.513364e+000 1.812156e+000 1.001145e+000 1.151372e+000 2.667612e-001 3.825976e-002 6.557177e-002 7.384557e-002 8.443049e-002 1.272068e-001 1.493056e-001 1.817934e-001 2.201406e-001 2.184989e-001 2.611165e-001 1.685846e-001 1.870752e-001 5.256596e-002
<GCONST> 6.753683e+001
<TRANSP> 5
 0.000000e+000 1.000000e+000 0.000000e+000 0.000000e+000 0.000000e+000
 0.000000e+000 9.507057e-001 3.747345e-002 1.182077e-002 0.000000e+000
 0.000000e+000 0.000000e+000 8.945395e-001 1.054605e-001 0.000000e+000
 0.000000e+000 3.763401e-002 0.000000e+000 6.904826e-001 2.718834e-001
 0.000000e+000 0.000000e+000 0.000000e+000 0.000000e+000 0.000000e+000
<ENDHMM>
