~o
<STREAMINFO> 1 39
<VECSIZE> 39<NULLD><MFCC_D_A_0><DIAGC>
~h "proto"
<BEGINHMM>
<NUMSTATES> 5
<STATE> 2
<MEAN> 39
 -9.366662e+000 -3.060030e+000 -4.709880e+000 -3.440023e+000 -5.107497e+000 -1.002660e+001 -2.611849e+000 -9.589795e+000 -5.401645e+000 -1.639613e+000 -7.052673e-001 -5.243946e+000 5.751126e+001 1.449755e-002 -3.988541e-003 9.393037e-004 -2.130666e-003 7.245395e-003 -8.169997e-003 8.045698e-006 -1.262425e-002 3.420223e-003 -1.333642e-002 -3.098392e-003 -2.609382e-003 6.365628e-002 9.255473e-004 1.382328e-003 4.023298e-004 -9.561043e-004 -3.513812e-003 -1.918238e-003 -1.697661e-003 -3.877413e-004 -5.038133e-004 1.300995e-003 -6.988320e-004 -1.152030e-003 -8.479685e-006
<VARIANCE> 39
 7.427108e+001 3.688332e+001 4.521877e+001 3.622821e+001 6.728383e+001 6.749603e+001 4.501746e+001 8.309332e+001 5.176457e+001 3.777190e+001 3.107330e+001 3.865064e+001 1.518733e+002 1.581813e+000 1.820504e+000 1.914687e+000 1.939753e+000 3.613018e+000 3.024772e+000 2.483018e+000 3.350806e+000 2.602032e+000 2.686611e+000 2.317615e+000 2.040782e+000 1.262143e+000 1.766835e-001 2.534271e-001 2.494385e-001 3.091798e-001 5.210077e-001 4.556000e-001 4.400859e-001 5.224963e-001 4.563536e-001 5.018663e-001 4.252719e-001 3.660254e-001 1.686885e-001
<GCONST> 1.202552e+002
<STATE> 3
<MEAN> 39
 -9.366662e+000 -3.060030e+000 -4.709880e+000 -3.440023e+000 -5.107497e+000 -1.002660e+001 -2.611849e+000 -9.589795e+000 -5.401645e+000 -1.639613e+000 -7.052673e-001 -5.243946e+000 5.751126e+001 1.449755e-002 -3.988541e-003 9.393037e-004 -2.130666e-003 7.245395e-003 -8.169997e-003 8.045698e-006 -1.262425e-002 3.420223e-003 -1.333642e-002 -3.098392e-003 -2.609382e-003 6.365628e-002 9.255473e-004 1.382328e-003 4.023298e-004 -9.561043e-004 -3.513812e-003 -1.918238e-003 -1.697661e-003 -3.877413e-004 -5.038133e-004 1.300995e-003 -6.988320e-004 -1.152030e-003 -8.479685e-006
<VARIANCE> 39
 7.427108e+001 3.688332e+001 4.521877e+001 3.622821e+001 6.728383e+001 6.749603e+001 4.501746e+001 8.309332e+001 5.176457e+001 3.777190e+001 3.107330e+001 3.865064e+001 1.518733e+002 1.581813e+000 1.820504e+000 1.914687e+000 1.939753e+000 3.613018e+000 3.024772e+000 2.483018e+000 3.350806e+000 2.602032e+000 2.686611e+000 2.317615e+000 2.040782e+000 1.262143e+000 1.766835e-001 2.534271e-001 2.494385e-001 3.091798e-001 5.210077e-001 4.556000e-001 4.400859e-001 5.224963e-001 4.563536e-001 5.018663e-001 4.252719e-001 3.660254e-001 1.686885e-001
<GCONST> 1.202552e+002
<STATE> 4
<MEAN> 39
 -9.366662e+000 -3.060030e+000 -4.709880e+000 -3.440023e+000 -5.107497e+000 -1.002660e+001 -2.611849e+000 -9.589795e+000 -5.401645e+000 -1.639613e+000 -7.052673e-001 -5.243946e+000 5.751126e+001 1.449755e-002 -3.988541e-003 9.393037e-004 -2.130666e-003 7.245395e-003 -8.169997e-003 8.045698e-006 -1.262425e-002 3.420223e-003 -1.333642e-002 -3.098392e-003 -2.609382e-003 6.365628e-002 9.255473e-004 1.382328e-003 4.023298e-004 -9.561043e-004 -3.513812e-003 -1.918238e-003 -1.697661e-003 -3.877413e-004 -5.038133e-004 1.300995e-003 -6.988320e-004 -1.152030e-003 -8.479685e-006
<VARIANCE> 39
 7.427108e+001 3.688332e+001 4.521877e+001 3.622821e+001 6.728383e+001 6.749603e+001 4.501746e+001 8.309332e+001 5.176457e+001 3.777190e+001 3.107330e+001 3.865064e+001 1.518733e+002 1.581813e+000 1.820504e+000 1.914687e+000 1.939753e+000 3.613018e+000 3.024772e+000 2.483018e+000 3.350806e+000 2.602032e+000 2.686611e+000 2.317615e+000 2.040782e+000 1.262143e+000 1.766835e-001 2.534271e-001 2.494385e-001 3.091798e-001 5.210077e-001 4.556000e-001 4.400859e-001 5.224963e-001 4.563536e-001 5.018663e-001 4.252719e-001 3.660254e-001 1.686885e-001
<GCONST> 1.202552e+002
<TRANSP> 5
 0.000000e+000 1.000000e+000 0.000000e+000 0.000000e+000 0.000000e+000
 0.000000e+000 6.000000e-001 4.000000e-001 0.000000e+000 0.000000e+000
 0.000000e+000 0.000000e+000 6.000000e-001 4.000000e-001 0.000000e+000
 0.000000e+000 0.000000e+000 0.000000e+000 7.000000e-001 3.000000e-001
 0.000000e+000 0.000000e+000 0.000000e+000 0.000000e+000 0.000000e+000
<ENDHMM>
