~o
<STREAMINFO> 1 39
<VECSIZE> 39<NULLD><MFCC_D_A_0><DIAGC>
~s "silst"
<MEAN> 39
 -1.480737e+001 -3.706427e+000 -4.578677e+000 -3.079669e+000 -1.168303e+000 -4.360204e+000 -3.459323e-001 -6.520285e+000 -4.470432e-001 -4.974729e+000 -1.495838e+000 -1.423299e+000 4.980828e+001 -5.680571e-002 -1.046381e-001 1.073135e-001 1.800245e-001 -8.400662e-003 -7.574109e-002 -2.213401e-001 -9.462668e-002 -6.485616e-002 -1.424144e-001 9.204067e-002 -2.439782e-001 9.892576e-003 6.700096e-002 1.023225e-001 4.920506e-003 -8.116432e-002 -7.726033e-002 -5.566413e-002 -3.841646e-002 1.366927e-001 -1.087610e-002 1.737366e-001 4.828768e-002 -6.412088e-002 -6.940459e-002
<VARIANCE> 39
 1.451178e+001 7.757814e+000 7.479646e+000 8.404258e+000 7.727177e+000 1.432135e+001 1.022271e+001 1.884787e+001 1.353278e+001 2.728204e+001 1.451583e+001 1.306499e+001 1.465896e+002 2.638088e-001 9.112650e-001 6.060643e-001 9.014474e-001 8.106689e-001 1.219073e+000 1.197882e+000 2.273204e+000 2.067971e+000 3.097137e+000 1.259084e+000 1.808481e+000 5.052735e-001 4.770581e-002 1.428233e-001 1.068584e-001 1.537469e-001 1.739596e-001 2.009617e-001 2.273407e-001 2.801010e-001 3.660744e-001 4.983207e-001 2.359849e-001 2.405781e-001 1.007719e-001
<GCONST> 8.554063e+001
~h "f"
<BEGINHMM>
<NUMSTATES> 5
<STATE> 2
<MEAN> 39
 -1.268194e+001 -2.380121e+000 -4.533847e+000 -3.953799e+000 -1.622779e+000 -5.393479e+000 -6.788909e-002 -5.907372e+000 -1.208446e-001 -2.467104e+000 -4.415541e-001 -1.913800e+000 5.378661e+001 -1.020947e-001 -1.291126e-001 -1.008869e-001 3.991063e-002 6.328949e-002 1.033307e-001 9.339559e-002 1.349784e-001 1.319475e-001 1.436618e-001 7.733082e-002 5.150583e-002 -3.488372e-002 1.888048e-002 -5.505585e-003 -1.813554e-002 -9.113005e-003 -4.388093e-002 -5.667581e-002 -2.978716e-002 -1.656927e-002 -4.162222e-002 -8.005188e-004 4.122473e-003 -4.046002e-002 2.938038e-002
<VARIANCE> 39
 5.875012e+000 5.369144e+000 6.652289e+000 9.684119e+000 9.125239e+000 1.003433e+001 1.097841e+001 1.397151e+001 1.100387e+001 1.453338e+001 1.446061e+001 1.112631e+001 2.870942e+001 1.895623e-001 4.097466e-001 3.841973e-001 6.480120e-001 8.911034e-001 9.982419e-001 1.229442e+000 1.479885e+000 1.209730e+000 1.444090e+000 1.299438e+000 1.235367e+000 7.738456e-002 2.493037e-002 4.609742e-002 7.108324e-002 1.208347e-001 1.864025e-001 2.010503e-001 2.315082e-001 2.889875e-001 2.296008e-001 2.819600e-001 2.601879e-001 2.490837e-001 1.757029e-002
<GCONST> 7.033493e+001
<STATE> 3
<MEAN> 39
 -1.794559e+001 -4.811134e+000 -6.389216e+000 -1.031747e+000 -2.267228e+000 -3.007886e+000 -1.225165e+000 -2.124400e+000 -2.606967e-001 5.103713e-001 1.912526e-002 -1.087690e+000 3.738630e+001 -1.359847e-001 -1.883264e-001 -1.553169e-001 1.055330e-001 -5.460725e-002 -2.435209e-002 1.962635e-003 4.114705e-002 -4.723773e-002 2.322143e-001 1.540184e-001 8.440693e-003 5.759888e-002 3.461996e-002 4.757762e-002 2.067593e-002 -4.294031e-002 -5.433575e-002 -6.067115e-002 -6.133143e-002 -8.859737e-002 -6.222129e-002 -3.964684e-002 -1.291634e-003 -1.552186e-002 6.000251e-003
<VARIANCE> 39
 2.572992e+001 1.110140e+001 9.756229e+000 1.254891e+001 1.106748e+001 1.690553e+001 1.085479e+001 2.628194e+001 1.657662e+001 1.865409e+001 1.086276e+001 1.532846e+001 3.229620e+002 2.457306e-001 5.134737e-001 5.135934e-001 6.374397e-001 7.676409e-001 8.462203e-001 1.059758e+000 1.423428e+000 1.409572e+000 1.608235e+000 9.773117e-001 1.004456e+000 9.466411e-002 2.702085e-002 6.827643e-002 8.418303e-002 1.178970e-001 1.481796e-001 1.698113e-001 2.337585e-001 2.737225e-001 2.961902e-001 3.200448e-001 1.855637e-001 2.252889e-001 1.525558e-002
<GCONST> 7.783363e+001
<STATE> 4
<MEAN> 39
 -1.214831e+001 -5.062389e+000 -6.484246e+000 -1.135480e+000 -2.439871e+000 -5.717975e+000 -1.403438e+000 -5.812284e+000 -2.372548e+000 5.832480e-001 1.026761e+000 -3.520195e+000 5.564505e+001 2.316718e-001 1.405310e-001 -3.776864e-001 -6.154121e-001 -6.835364e-001 -3.243286e-001 -1.202404e-001 -2.375625e-001 -2.706471e-001 3.100867e-002 -2.518304e-002 -2.605620e-001 1.847602e-001 8.597258e-002 1.244012e-001 3.414065e-002 -1.200267e-001 -1.016721e-001 -1.055223e-001 -3.578446e-002 -6.512126e-002 -1.046987e-002 -1.341396e-001 -1.568814e-001 -6.008137e-002 3.450342e-002
<VARIANCE> 39
 3.513430e+001 2.602049e+001 1.942406e+001 4.167448e+001 3.128804e+001 2.893138e+001 1.625753e+001 2.317463e+001 1.800196e+001 2.651662e+001 1.795487e+001 1.661397e+001 1.088765e+002 2.222691e+000 2.233844e+000 1.118845e+000 2.971310e+000 2.251353e+000 1.696971e+000 1.423861e+000 1.954005e+000 1.725433e+000 2.318230e+000 1.836111e+000 1.374669e+000 3.632396e-001 1.774360e-001 3.237932e-001 1.672478e-001 3.684212e-001 3.872217e-001 3.609423e-001 3.085750e-001 2.904587e-001 3.160473e-001 3.716198e-001 3.050604e-001 3.125004e-001 4.846912e-002
<GCONST> 1.034124e+002
<TRANSP> 5
 0.000000e+000 1.000000e+000 0.000000e+000 0.000000e+000 0.000000e+000
 0.000000e+000 8.559877e-001 1.440123e-001 0.000000e+000 0.000000e+000
 0.000000e+000 0.000000e+000 7.985249e-001 2.014751e-001 0.000000e+000
 0.000000e+000 0.000000e+000 0.000000e+000 2.764314e-001 7.235686e-001
 0.000000e+000 0.000000e+000 0.000000e+000 0.000000e+000 0.000000e+000
<ENDHMM>
~h "k"
<BEGINHMM>
<NUMSTATES> 5
<STATE> 2
<MEAN> 39
 -1.439814e+001 -2.999626e+000 -5.882102e+000 -4.719808e+000 -1.757873e+000 -6.316905e+000 -5.918919e-002 -5.038805e+000 -3.710745e-001 -2.835527e+000 -7.195965e-001 -2.075241e+000 5.512884e+001 -5.949847e-003 -1.025659e-002 -2.966596e-002 -7.030243e-003 1.863144e-003 2.811658e-002 2.288938e-002 -4.765392e-002 5.714509e-002 5.637260e-002 -1.754698e-002 2.218196e-002 -4.107414e-002 2.676279e-003 -1.089098e-002 2.907675e-003 -2.300332e-003 -1.527500e-003 -2.804585e-002 3.894802e-003 6.204009e-003 -3.487540e-002 -7.151320e-003 2.494665e-003 -5.387503e-003 1.248415e-002
<VARIANCE> 39
 1.033112e+001 6.002390e+000 8.816407e+000 1.115207e+001 1.018133e+001 1.242223e+001 1.167161e+001 1.358674e+001 1.574303e+001 1.652940e+001 1.618799e+001 1.219741e+001 7.041088e+000 1.829806e-001 2.332489e-001 3.884725e-001 6.937131e-001 7.688299e-001 9.438610e-001 1.033291e+000 1.228624e+000 1.320017e+000 1.650260e+000 1.495273e+000 1.300153e+000 1.096866e-001 2.855927e-002 4.454650e-002 7.558149e-002 1.381758e-001 1.614810e-001 1.849823e-001 2.200034e-001 2.516779e-001 2.740369e-001 3.556593e-001 3.126256e-001 2.655774e-001 1.673938e-002
<GCONST> 7.124360e+001
<STATE> 3
<MEAN> 39
 -1.471519e+001 -2.702227e+000 -5.252310e+000 -3.021612e+000 -7.249157e-001 -6.567341e+000 6.129475e-001 -5.240942e+000 -9.471844e-001 -2.336449e+000 -8.309135e-001 -1.959675e+000 5.585204e+001 3.978990e-002 2.707277e-002 4.514925e-004 -1.584202e-001 -1.420610e-002 1.954705e-001 1.008598e-001 -6.205624e-002 -3.487126e-002 -1.837536e-002 -1.222982e-001 -3.471513e-002 -4.313852e-002 1.258138e-002 -5.585784e-002 2.973819e-002 -3.438829e-002 -8.220415e-003 -2.341146e-002 -9.832642e-003 6.297960e-002 -1.211906e-001 -4.008513e-002 1.295573e-002 -4.557980e-002 4.245638e-002
<VARIANCE> 39
 1.307827e+001 5.447890e+000 7.365184e+000 8.833109e+000 1.075897e+001 1.604201e+001 1.427757e+001 1.383522e+001 1.744670e+001 1.849883e+001 1.596527e+001 1.007692e+001 1.089635e+001 1.234592e-001 2.862046e-001 3.253612e-001 6.598702e-001 7.974612e-001 8.517525e-001 1.076922e+000 1.239935e+000 1.267115e+000 1.524726e+000 1.065674e+000 9.891807e-001 6.469402e-002 2.573516e-002 5.029648e-002 7.023965e-002 1.427663e-001 1.712905e-001 2.087867e-001 2.019675e-001 2.696024e-001 3.287947e-001 3.442921e-001 2.573833e-001 2.273801e-001 2.034147e-002
<GCONST> 7.039024e+001
<STATE> 4
<MEAN> 39
 -1.415262e+001 -2.060228e+000 -4.264657e+000 -3.098700e+000 -9.321771e-001 -5.728341e+000 1.179889e+000 -4.750552e+000 -2.201879e-001 -1.926800e+000 -4.909087e-001 -1.693236e+000 5.542345e+001 2.997636e-002 -3.697320e-002 3.912722e-002 -1.057255e-001 2.751656e-002 9.260017e-002 -5.415659e-002 6.798504e-002 -1.498543e-001 -8.944040e-002 -1.098084e-001 -1.576171e-001 1.986162e-002 2.941374e-002 -3.215406e-002 -7.325484e-003 -1.154701e-002 -2.325257e-002 -9.001780e-002 -7.150523e-002 -1.862396e-002 -1.017908e-001 -1.828642e-002 -2.169975e-002 -9.383792e-002 6.549544e-002
<VARIANCE> 39
 1.429487e+001 4.312320e+000 7.288468e+000 7.663047e+000 9.290538e+000 1.490668e+001 1.260487e+001 1.496353e+001 2.053268e+001 1.598400e+001 1.351004e+001 1.085359e+001 1.132016e+001 1.441426e-001 2.833967e-001 4.014108e-001 6.227494e-001 6.031685e-001 9.248556e-001 9.907634e-001 1.415405e+000 1.483549e+000 1.534919e+000 1.310741e+000 1.072378e+000 8.796345e-002 4.507919e-002 5.518434e-002 8.079025e-002 1.327159e-001 1.640166e-001 2.106998e-001 2.146655e-001 3.481620e-001 2.952479e-001 2.892212e-001 2.550364e-001 1.904280e-001 3.669444e-002
<GCONST> 7.182150e+001
<TRANSP> 5
 0.000000e+000 1.000000e+000 0.000000e+000 0.000000e+000 0.000000e+000
 0.000000e+000 9.597455e-001 4.025448e-002 0.000000e+000 0.000000e+000
 0.000000e+000 0.000000e+000 6.194342e-001 3.805658e-001 0.000000e+000
 0.000000e+000 0.000000e+000 0.000000e+000 5.423445e-001 4.576555e-001
 0.000000e+000 0.000000e+000 0.000000e+000 0.000000e+000 0.000000e+000
<ENDHMM>
~h "n"
<BEGINHMM>
<NUMSTATES> 5
<STATE> 2
<MEAN> 39
 -5.448155e+000 -3.016906e+000 -4.224813e+000 -2.198739e+000 -6.692125e+000 -1.273333e+001 -5.169976e+000 -1.341339e+001 -6.997333e+000 -2.001858e+000 -1.954615e+000 -7.550670e+000 6.208862e+001 1.799716e-001 5.022012e-001 6.205480e-001 2.323226e-003 -8.960075e-001 -4.729751e-001 -4.332775e-002 -5.755482e-001 -4.675103e-001 1.271683e-001 2.135613e-001 8.277913e-002 5.440571e-002 3.707799e-002 -3.184291e-002 -4.479831e-002 -7.576784e-002 1.350088e-002 4.698324e-002 -2.220687e-004 -6.472768e-002 -5.141828e-002 2.056538e-003 -3.096147e-003 -4.448484e-002 5.282626e-002
<VARIANCE> 39
 4.073338e+001 4.291433e+001 4.069973e+001 2.907047e+001 5.276935e+001 5.284956e+001 6.801054e+001 6.966503e+001 3.807603e+001 4.944307e+001 3.805510e+001 3.173138e+001 2.891329e+001 2.180996e+000 3.199740e+000 3.422048e+000 2.381200e+000 4.899701e+000 4.408796e+000 3.195996e+000 4.490702e+000 3.492745e+000 3.830081e+000 3.419697e+000 2.937243e+000 1.878488e+000 2.337279e-001 4.042132e-001 4.849377e-001 3.979545e-001 6.460780e-001 6.301012e-001 5.296012e-001 6.232888e-001 5.168520e-001 6.620197e-001 6.286330e-001 3.916143e-001 1.986728e-001
<GCONST> 1.258238e+002
<STATE> 3
<MEAN> 39
 -4.988361e-001 -5.104607e+000 -7.546055e+000 -4.551617e+000 -8.744373e+000 -1.457920e+001 -5.439112e+000 -1.837847e+001 -1.041200e+001 -6.785972e-002 -1.570934e+000 -1.136413e+001 6.631487e+001 -1.428535e-001 2.202130e-001 2.854799e-001 4.828440e-003 -1.108032e-001 9.521831e-002 1.468789e-001 -6.829090e-002 -2.091543e-001 -1.490098e-001 9.890780e-002 2.014771e-001 -1.321378e-001 -5.693026e-002 -3.355757e-002 -3.303180e-002 1.653783e-002 1.567657e-001 1.066086e-001 4.439956e-002 1.135819e-001 6.728593e-002 -8.196252e-002 -6.867534e-002 1.195381e-002 -2.632502e-002
<VARIANCE> 39
 1.985884e+001 5.211852e+001 9.229674e+001 4.693911e+001 8.311309e+001 6.611532e+001 6.436688e+001 4.800662e+001 4.532424e+001 5.791767e+001 3.975431e+001 3.864361e+001 2.180569e+001 1.101908e+000 3.619902e+000 6.068636e+000 2.781731e+000 4.689021e+000 3.807915e+000 3.392045e+000 3.970991e+000 3.916681e+000 4.843090e+000 3.844585e+000 3.022955e+000 1.351683e+000 1.503703e-001 4.020201e-001 7.353958e-001 4.462141e-001 6.789402e-001 5.836248e-001 5.716563e-001 6.888422e-001 6.642694e-001 8.567532e-001 7.462448e-001 4.864002e-001 1.472479e-001
<GCONST> 1.280518e+002
<STATE> 4
<MEAN> 39
 -3.826202e+000 2.012843e+000 5.153922e-001 -2.528875e+000 -9.758080e+000 -1.411219e+001 -6.628528e+000 -1.793368e+001 -1.096377e+001 -5.172449e+000 -3.083621e+000 -6.779107e+000 6.186080e+001 -4.928382e-001 1.473545e-001 -1.081956e-001 1.324492e-001 1.134094e+000 9.144121e-001 2.191716e-001 5.496224e-001 3.625592e-001 -4.789429e-001 -2.545331e-001 2.552464e-001 -4.784212e-001 -5.273663e-002 -1.413593e-001 -1.472575e-001 1.591128e-002 1.062278e-001 3.073804e-002 1.016072e-001 1.988348e-001 1.767232e-001 1.541435e-001 3.666936e-002 -4.637952e-002 2.210120e-002
<VARIANCE> 39
 1.525004e+001 2.232325e+001 3.542260e+001 2.984104e+001 6.736514e+001 4.944800e+001 3.590902e+001 4.722695e+001 4.039591e+001 5.146500e+001 3.582409e+001 2.575782e+001 1.468162e+001 4.135912e-001 1.061931e+000 1.063181e+000 1.104615e+000 2.463336e+000 2.057532e+000 2.235626e+000 2.682416e+000 2.149618e+000 2.349112e+000 1.974048e+000 1.481782e+000 2.774039e-001 6.662180e-002 1.425548e-001 1.814226e-001 2.143726e-001 3.552938e-001 3.390186e-001 3.771234e-001 4.146965e-001 3.464764e-001 4.103163e-001 3.647560e-001 2.732050e-001 3.659475e-002
<GCONST> 1.018935e+002
<TRANSP> 5
 0.000000e+000 1.000000e+000 0.000000e+000 0.000000e+000 0.000000e+000
 0.000000e+000 7.842253e-001 2.157747e-001 0.000000e+000 0.000000e+000
 0.000000e+000 0.000000e+000 8.656625e-001 1.343375e-001 0.000000e+000
 0.000000e+000 0.000000e+000 0.000000e+000 8.526006e-001 1.473994e-001
 0.000000e+000 0.000000e+000 0.000000e+000 0.000000e+000 0.000000e+000
<ENDHMM>
~h "r"
<BEGINHMM>
<NUMSTATES> 5
<STATE> 2
<MEAN> 39
 -4.590206e+000 -3.751137e+000 -4.131257e+000 -2.632288e+000 -9.053314e+000 -1.393621e+001 -6.276098e+000 -1.438085e+001 -7.006989e+000 6.439034e-001 6.215711e-001 -7.709629e+000 6.375556e+001 -1.242900e-001 1.038521e-001 2.527348e-001 6.019330e-002 -1.371410e-001 4.098677e-002 1.758775e-001 -1.858651e-002 -1.198930e-001 -3.716080e-002 -4.237980e-002 -8.464893e-002 -7.106909e-002 -4.996155e-002 1.885317e-002 1.297359e-002 -3.311104e-002 3.293401e-002 4.507469e-002 4.191113e-002 6.281604e-002 -7.740896e-003 -6.407180e-002 3.253053e-003 4.722710e-002 -3.444859e-002
<VARIANCE> 39
 6.863846e+001 5.300398e+001 6.260329e+001 7.183523e+001 1.197042e+002 7.574634e+001 6.119571e+001 9.679178e+001 4.961078e+001 4.443180e+001 3.956499e+001 3.389778e+001 2.127435e+001 2.478210e+000 2.647575e+000 3.135664e+000 3.375413e+000 7.092159e+000 3.666350e+000 3.749102e+000 4.357001e+000 3.562815e+000 3.202535e+000 3.120622e+000 2.600585e+000 8.383446e-001 2.642632e-001 3.877146e-001 3.588638e-001 5.137036e-001 9.035257e-001 5.091956e-001 6.627806e-001 6.492013e-001 6.448190e-001 6.193039e-001 5.695603e-001 4.685318e-001 1.103314e-001
<GCONST> 1.286554e+002
<STATE> 3
<MEAN> 39
 -2.071178e+000 -2.557087e+000 -3.873785e+000 -3.355869e+000 -1.105668e+001 -1.514599e+001 -6.424793e+000 -1.747387e+001 -7.764765e+000 1.146405e+000 1.695881e+000 -7.110301e+000 6.441512e+001 -6.190823e-001 4.231845e-001 6.690744e-001 -2.460854e-001 -1.518421e-001 2.350160e-001 4.705154e-001 7.395348e-001 8.200599e-002 -8.609016e-001 -4.804636e-001 3.820290e-001 -4.741290e-001 -6.996480e-002 1.488406e-002 3.034011e-002 -6.691654e-002 1.897990e-002 8.776614e-002 7.718489e-002 1.293088e-001 -9.948448e-002 -2.102952e-001 -4.317625e-002 1.364806e-001 -4.924908e-002
<VARIANCE> 39
 4.638909e+001 3.884563e+001 7.456586e+001 5.858460e+001 9.040561e+001 8.302030e+001 7.756950e+001 7.748579e+001 4.927434e+001 4.021187e+001 3.886775e+001 4.448624e+001 2.383259e+001 6.804888e-001 1.736506e+000 2.905095e+000 1.910566e+000 4.948054e+000 2.748783e+000 3.851196e+000 3.467420e+000 3.644483e+000 3.028581e+000 3.349255e+000 2.388220e+000 4.414999e-001 1.425499e-001 2.287131e-001 3.212622e-001 3.280632e-001 6.078877e-001 4.321096e-001 6.093841e-001 4.693540e-001 5.471182e-001 4.808881e-001 5.784706e-001 3.867387e-001 6.239946e-002
<GCONST> 1.202757e+002
<STATE> 4
<MEAN> 39
 -3.056486e+000 1.549146e+000 -4.475052e+000 -8.501758e+000 -1.056222e+001 -1.249215e+001 -5.366254e+000 -1.313272e+001 -5.379268e+000 -2.125813e+000 5.748980e-001 -4.018353e+000 6.170398e+001 -5.761316e-001 7.172037e-002 2.815683e-001 1.064257e-001 3.260721e-001 4.005512e-001 4.228077e-001 5.408462e-001 1.625047e-001 -3.891720e-001 -4.089245e-001 5.557430e-002 -4.251810e-001 -5.057182e-004 -4.604734e-002 -1.155748e-002 9.379900e-002 9.660935e-002 6.399918e-002 -5.537456e-003 -8.111227e-002 -6.100272e-002 6.559214e-002 1.562291e-002 -4.578354e-002 6.968719e-003
<VARIANCE> 39
 3.730377e+001 3.280690e+001 5.528564e+001 5.369200e+001 6.361462e+001 5.859020e+001 4.520065e+001 6.528065e+001 5.026958e+001 2.838932e+001 3.513354e+001 4.599831e+001 1.831967e+001 4.715167e-001 8.623461e-001 1.619405e+000 1.828683e+000 2.491107e+000 1.745129e+000 2.399059e+000 2.557757e+000 2.602327e+000 2.631820e+000 2.055649e+000 1.893729e+000 2.559829e-001 6.384610e-002 1.362508e-001 1.764956e-001 2.338921e-001 2.938038e-001 2.682690e-001 3.393093e-001 4.325350e-001 3.472290e-001 4.140143e-001 3.831747e-001 2.859674e-001 3.727123e-002
<GCONST> 1.061134e+002
<TRANSP> 5
 0.000000e+000 1.000000e+000 0.000000e+000 0.000000e+000 0.000000e+000
 0.000000e+000 9.449214e-001 5.507863e-002 0.000000e+000 0.000000e+000
 0.000000e+000 0.000000e+000 4.230461e-001 5.769539e-001 0.000000e+000
 0.000000e+000 0.000000e+000 0.000000e+000 7.662297e-001 2.337703e-001
 0.000000e+000 0.000000e+000 0.000000e+000 0.000000e+000 0.000000e+000
<ENDHMM>
~h "s"
<BEGINHMM>
<NUMSTATES> 5
<STATE> 2
<MEAN> 39
 -1.078041e+001 -8.190743e-001 -1.157064e+000 -6.564503e-001 -2.857645e+000 -1.031291e+001 -1.256091e+000 -1.014375e+001 -7.658222e+000 -9.398766e-001 -8.961410e-001 -5.927909e+000 6.069634e+001 -1.298867e+000 -2.071083e-001 -3.207327e-001 9.320960e-002 1.304718e+000 5.664440e-001 1.078644e+000 1.640190e+000 3.077613e-001 2.642723e-001 2.123182e-001 6.143916e-002 1.935908e-002 -1.576082e-002 -4.782788e-002 -1.134713e-001 -1.650880e-001 -1.907642e-001 -2.408032e-001 -2.097509e-002 2.535657e-002 -1.471168e-002 6.486273e-002 9.651455e-002 4.039698e-002 1.287290e-001
<VARIANCE> 39
 4.814582e+001 1.876348e+001 3.417767e+001 2.485114e+001 8.016114e+001 5.409046e+001 4.787897e+001 7.534099e+001 4.344478e+001 5.265394e+001 3.757837e+001 2.641755e+001 3.747541e+001 3.339147e+000 2.173281e+000 2.569634e+000 2.109422e+000 5.825725e+000 4.514604e+000 4.491002e+000 7.352843e+000 3.621661e+000 5.042498e+000 3.566370e+000 2.260139e+000 1.540673e+000 2.909418e-001 3.578640e-001 2.750019e-001 3.580410e-001 7.961450e-001 7.329578e-001 7.125562e-001 9.653557e-001 6.586803e-001 8.834845e-001 5.935232e-001 4.214887e-001 1.871538e-001
<GCONST> 1.268195e+002
<STATE> 3
<MEAN> 39
 -1.759721e+001 -2.011477e+000 -5.046780e+000 -1.926675e+000 2.697874e+000 -8.628356e+000 2.295539e+000 -2.108244e+000 -5.583545e+000 -2.094985e-001 3.889203e-001 -3.864851e+000 6.024728e+001 -6.938406e-001 -2.359401e-001 -5.705202e-001 -5.612280e-001 -2.366936e-001 -7.164450e-001 2.755151e-002 3.832087e-001 -2.770084e-002 4.539034e-001 4.254020e-001 3.524930e-001 3.337325e-001 3.156088e-001 3.151208e-002 9.348197e-002 -1.930388e-002 -3.761104e-001 -2.088882e-001 -3.189725e-001 -4.693600e-001 -1.491653e-001 -9.333104e-002 -1.214154e-001 -1.625048e-002 3.999609e-002
<VARIANCE> 39
 2.466083e+001 1.484966e+001 1.255554e+001 2.445870e+001 3.576098e+001 3.326018e+001 3.267828e+001 3.224707e+001 2.934942e+001 2.861919e+001 2.525208e+001 1.678623e+001 2.589746e+001 2.567593e+000 1.571732e+000 1.179080e+000 1.699006e+000 2.782578e+000 2.706890e+000 2.904574e+000 3.339301e+000 2.863593e+000 2.779260e+000 2.456486e+000 1.974202e+000 8.910901e-001 2.171198e-001 2.242773e-001 1.794639e-001 2.946173e-001 4.970474e-001 5.020925e-001 6.033840e-001 6.363249e-001 5.323020e-001 5.355135e-001 4.688933e-001 3.656636e-001 2.076649e-001
<GCONST> 1.104072e+002
<STATE> 4
<MEAN> 39
 -1.910464e+001 -2.982130e+000 -6.647336e+000 -3.488158e+000 1.355504e+000 -1.150978e+001 1.173886e+000 -2.893399e+000 -6.153058e+000 1.606528e+000 3.574044e-001 -3.600895e+000 6.174197e+001 5.846400e-001 -3.187684e-001 -8.357566e-002 -9.322166e-002 -5.002038e-001 -3.747191e-001 -1.749374e-001 -3.139545e-001 1.264436e-001 4.102408e-002 -1.633507e-001 -1.811010e-001 2.308241e-001 1.549994e-001 -3.414007e-002 4.790396e-002 5.087108e-002 -3.001444e-002 6.164234e-005 1.935078e-003 -5.112873e-002 -1.716987e-002 -2.711058e-002 -4.963895e-002 -6.641879e-002 4.575862e-002
<VARIANCE> 39
 3.981718e+001 1.697049e+001 1.354762e+001 2.027754e+001 3.560675e+001 3.679244e+001 2.978773e+001 3.116236e+001 2.697202e+001 2.885642e+001 2.843946e+001 1.845635e+001 1.416287e+001 2.916004e+000 1.015689e+000 8.467163e-001 1.246122e+000 1.880010e+000 2.054144e+000 2.008811e+000 2.188379e+000 1.835142e+000 1.854433e+000 2.144083e+000 1.732957e+000 9.753675e-001 2.759171e-001 1.405511e-001 1.511450e-001 2.236448e-001 3.418943e-001 3.657350e-001 3.881824e-001 4.157726e-001 3.557457e-001 3.660651e-001 4.038877e-001 3.083114e-001 1.269707e-001
<GCONST> 1.031488e+002
<TRANSP> 5
 0.000000e+000 1.000000e+000 0.000000e+000 0.000000e+000 0.000000e+000
 0.000000e+000 7.149699e-001 2.850301e-001 0.000000e+000 0.000000e+000
 0.000000e+000 0.000000e+000 4.901122e-001 5.098878e-001 0.000000e+000
 0.000000e+000 0.000000e+000 0.000000e+000 8.916938e-001 1.083062e-001
 0.000000e+000 0.000000e+000 0.000000e+000 0.000000e+000 0.000000e+000
<ENDHMM>
~h "t"
<BEGINHMM>
<NUMSTATES> 5
<STATE> 2
<MEAN> 39
 -9.348960e+000 -1.908409e+000 -1.030963e+000 -1.168891e+000 -4.304918e+000 -8.880666e+000 -3.518077e-001 -8.388227e+000 -4.353908e+000 -1.387228e+000 -5.173999e-001 -5.022600e+000 5.851736e+001 -6.786005e-001 -3.080131e-001 -5.363563e-002 3.863308e-002 2.378107e-001 3.815917e-001 3.209900e-001 6.810346e-001 4.155077e-001 4.570594e-001 5.249525e-001 4.303589e-001 -2.453310e-001 3.800598e-002 -8.344084e-002 -2.494282e-002 -1.326720e-001 -1.525964e-001 -5.415635e-002 -8.737981e-002 -4.085714e-002 -9.780827e-002 -1.606693e-002 7.528236e-002 -5.521036e-002 1.423680e-001
<VARIANCE> 39
 3.788472e+001 3.358870e+001 3.171535e+001 1.986115e+001 8.319293e+001 7.355708e+001 3.458595e+001 4.957325e+001 3.471963e+001 5.210363e+001 4.049642e+001 1.916376e+001 7.431477e+001 1.312411e+000 2.421300e+000 2.398694e+000 2.093805e+000 5.965510e+000 4.624226e+000 3.780929e+000 5.139014e+000 3.973135e+000 5.007338e+000 4.052919e+000 1.660540e+000 2.107333e+000 1.712095e-001 3.279305e-001 3.387159e-001 3.851480e-001 8.997313e-001 7.738541e-001 6.852044e-001 7.556586e-001 6.502091e-001 8.366460e-001 6.957176e-001 2.746409e-001 2.654893e-001
<GCONST> 1.250705e+002
<STATE> 3
<MEAN> 39
 -1.367884e+001 -4.769472e+000 -2.803846e+000 -2.590933e+000 -3.385382e+000 -6.172756e+000 3.708340e-003 -3.926360e+000 -1.989964e+000 -1.404274e-001 2.216829e+000 -2.389566e+000 5.511689e+001 9.101556e-002 -5.133667e-001 2.439502e-001 -9.671908e-002 -5.838250e-001 -5.229381e-001 -7.026877e-002 3.380152e-001 -4.094380e-001 4.642247e-002 6.682149e-001 8.137677e-003 1.594855e+000 1.110926e-001 1.617442e-001 6.873035e-002 2.507745e-002 -1.003824e-001 -1.285876e-001 -6.737165e-002 -1.588015e-001 -1.913778e-001 -2.609883e-001 -2.294924e-001 -1.713605e-001 5.826715e-002
<VARIANCE> 39
 2.740670e+001 3.021153e+001 1.960675e+001 1.805509e+001 5.412001e+001 4.484762e+001 2.579838e+001 3.823697e+001 3.353292e+001 3.199998e+001 3.186658e+001 1.574436e+001 1.326443e+002 3.660901e+000 3.284267e+000 2.048714e+000 2.186483e+000 5.391157e+000 3.470983e+000 2.846871e+000 4.335183e+000 3.714503e+000 4.098276e+000 3.262973e+000 1.960336e+000 7.937825e+000 5.262576e-001 4.878173e-001 3.548222e-001 4.034340e-001 8.347126e-001 5.625268e-001 5.841470e-001 7.998606e-001 6.237009e-001 7.505589e-001 6.231376e-001 3.627146e-001 1.322477e+000
<GCONST> 1.263296e+002
<STATE> 4
<MEAN> 39
 -1.484673e+001 -7.535711e+000 -2.950158e+000 -1.651596e+000 -4.762795e+000 -9.042507e+000 1.265255e-001 -2.195139e+000 -5.863372e+000 -2.066202e+000 3.822955e+000 -3.379799e+000 5.994273e+001 4.505340e-001 -1.005670e-001 -4.103448e-003 2.964652e-001 -4.094566e-001 -6.266801e-001 -1.766635e-001 -3.423443e-001 -3.022308e-001 -2.256007e-001 -3.001449e-003 -3.885639e-002 1.377426e-001 2.497878e-001 2.299985e-001 4.345098e-002 -4.210927e-002 -4.712996e-002 -3.419573e-002 -1.770750e-001 -3.613014e-001 -1.995657e-002 3.030024e-002 -1.145100e-001 -6.794472e-002 9.943006e-003
<VARIANCE> 39
 2.946306e+001 3.437078e+001 1.997286e+001 3.126245e+001 2.985399e+001 4.127575e+001 2.534534e+001 4.155978e+001 4.004341e+001 3.238304e+001 3.951148e+001 2.881883e+001 2.365190e+001 2.547358e+000 2.925698e+000 1.072337e+000 2.561681e+000 2.398857e+000 2.944300e+000 3.014327e+000 5.137906e+000 2.795044e+000 3.006676e+000 2.922306e+000 2.186526e+000 1.058697e+000 2.492557e-001 4.736386e-001 2.060793e-001 3.990914e-001 4.137662e-001 3.992988e-001 5.526159e-001 8.424090e-001 5.665263e-001 5.898091e-001 4.896503e-001 4.154820e-001 2.172388e-001
<GCONST> 1.168187e+002
<TRANSP> 5
 0.000000e+000 1.000000e+000 0.000000e+000 0.000000e+000 0.000000e+000
 0.000000e+000 6.790105e-001 3.209895e-001 0.000000e+000 0.000000e+000
 0.000000e+000 0.000000e+000 5.589333e-001 4.410667e-001 0.000000e+000
 0.000000e+000 0.000000e+000 0.000000e+000 8.604000e-001 1.396000e-001
 0.000000e+000 0.000000e+000 0.000000e+000 0.000000e+000 0.000000e+000
<ENDHMM>
~h "v"
<BEGINHMM>
<NUMSTATES> 5
<STATE> 2
<MEAN> 39
 -4.590952e+000 -7.945518e+000 -1.104562e+001 -6.464607e+000 -4.963828e+000 -8.617507e+000 -4.174145e-001 -7.960015e+000 -3.075318e+000 2.621304e+000 6.317298e-001 -8.256057e+000 6.339281e+001 1.750016e+000 -1.591013e-001 -1.145722e+000 -1.352727e+000 -1.925379e-001 4.566100e-001 8.830358e-002 -1.090971e+000 -2.535440e-001 7.088878e-003 -2.053579e-001 -9.339001e-001 1.287432e+000 -1.912171e-002 -6.169007e-002 -4.254236e-002 8.983894e-002 1.415346e-001 7.292792e-002 -6.699052e-002 -2.252959e-001 -1.343015e-001 7.024283e-002 4.051704e-002 -5.812407e-002 6.249424e-002
<VARIANCE> 39
 8.582531e+001 3.311277e+001 5.115968e+001 8.686827e+001 3.801764e+001 5.441279e+001 3.080396e+001 3.503885e+001 2.265934e+001 2.291741e+001 3.213714e+001 3.566737e+001 8.052881e+001 5.044580e+000 3.792316e+000 3.389286e+000 6.885475e+000 4.457129e+000 3.973680e+000 3.109754e+000 3.808711e+000 2.597745e+000 2.209862e+000 2.269128e+000 3.034872e+000 4.258125e+000 9.740048e-001 7.083281e-001 5.390298e-001 1.377411e+000 8.249999e-001 6.191318e-001 5.044158e-001 5.850782e-001 4.507294e-001 4.023944e-001 4.431954e-001 5.892541e-001 6.623294e-001
<GCONST> 1.308832e+002
<STATE> 3
<MEAN> 39
 2.211276e+000 -1.366244e+001 -1.678522e+001 -8.989497e+000 -1.857662e+000 -8.439777e+000 -1.769918e+000 -1.441303e+001 -7.862172e+000 1.915024e+000 -3.450408e+000 -1.699993e+001 7.096025e+001 -3.365296e-001 -3.451218e-001 3.768953e-001 9.808543e-001 2.300774e-001 -7.652758e-001 -6.184759e-001 -1.810591e-001 -8.974615e-002 1.594812e-001 -5.100904e-002 -2.177026e-001 -1.174088e-001 -8.520336e-002 3.272325e-001 2.534119e-001 3.696535e-002 -3.496690e-001 -2.211766e-001 4.917264e-002 1.590256e-001 9.522569e-002 3.306464e-002 2.264207e-001 4.553740e-001 -2.332619e-001
<VARIANCE> 39
 3.077925e+001 3.694268e+001 3.506235e+001 4.510786e+001 5.077109e+001 1.097352e+002 3.405842e+001 6.224237e+001 3.589082e+001 2.879727e+001 4.404339e+001 3.883765e+001 2.441218e+001 3.593206e-001 2.590488e+000 1.938340e+000 1.817578e+000 4.165377e+000 4.197076e+000 2.255348e+000 4.664624e+000 2.291898e+000 2.113941e+000 3.275218e+000 2.419865e+000 5.494521e-001 1.429852e-001 2.501361e-001 1.816643e-001 3.055271e-001 4.289451e-001 5.528914e-001 4.656866e-001 6.882570e-001 4.190291e-001 3.895322e-001 5.705857e-001 4.121626e-001 1.085191e-001
<GCONST> 1.151161e+002
<STATE> 4
<MEAN> 39
 -1.542068e+000 -1.200745e+001 -1.233446e+001 -4.174558e+000 -3.963986e+000 -1.262871e+001 -4.245461e+000 -1.228507e+001 -4.422672e+000 3.182578e+000 -3.404463e+000 -1.418856e+001 6.795015e+001 -5.321934e-002 7.771314e-001 4.400989e-001 3.192278e-001 -6.608996e-001 -3.761713e-001 -4.830628e-001 -8.010753e-001 -1.739617e-001 4.128447e-001 1.112277e+000 9.673048e-001 -5.453054e-001 -3.598779e-002 3.659417e-001 2.729375e-001 -8.346850e-002 -2.293327e-001 -2.929305e-002 1.522615e-001 2.743374e-002 -1.916030e-001 -1.126689e-001 3.235788e-001 4.019563e-001 -1.474172e-001
<VARIANCE> 39
 5.342591e+001 5.507068e+001 3.170149e+001 3.828682e+001 4.164925e+001 6.163363e+001 4.039907e+001 5.390542e+001 3.134825e+001 3.509610e+001 3.540841e+001 4.866838e+001 4.659995e+001 3.413834e-001 1.913599e+000 1.789961e+000 1.624506e+000 2.946361e+000 3.706300e+000 2.188740e+000 4.886660e+000 2.900891e+000 2.298191e+000 4.411222e+000 1.597726e+000 4.599488e-001 6.728619e-002 3.191238e-001 2.354936e-001 2.850110e-001 4.788754e-001 3.508886e-001 2.787698e-001 5.174944e-001 4.304150e-001 5.972113e-001 5.655844e-001 3.864539e-001 7.466248e-002
<GCONST> 1.133383e+002
<TRANSP> 5
 0.000000e+000 1.000000e+000 0.000000e+000 0.000000e+000 0.000000e+000
 0.000000e+000 7.781091e-001 2.218909e-001 0.000000e+000 0.000000e+000
 0.000000e+000 0.000000e+000 6.968649e-001 3.031351e-001 0.000000e+000
 0.000000e+000 0.000000e+000 0.000000e+000 2.709551e-001 7.290450e-001
 0.000000e+000 0.000000e+000 0.000000e+000 0.000000e+000 0.000000e+000
<ENDHMM>
~h "w"
<BEGINHMM>
<NUMSTATES> 5
<STATE> 2
<MEAN> 39
 -3.919202e+000 1.237940e+000 -3.126823e+000 -6.460598e+000 -1.051902e+001 -1.376336e+001 -6.455379e+000 -1.347549e+001 -6.680035e+000 -4.251068e+000 -2.919232e+000 -6.862489e+000 6.137930e+001 8.275778e-001 3.663481e-001 -5.682806e-001 -1.167225e+000 -9.788227e-001 -3.685023e-001 -1.424857e-001 -1.087630e-001 1.302183e-001 1.680169e-001 2.035875e-001 7.221086e-003 4.768358e-001 4.518332e-002 -1.168174e-001 -2.072814e-001 -1.655117e-001 7.073725e-002 2.761268e-001 2.390709e-001 3.076133e-002 -2.088261e-002 -8.564070e-003 2.779515e-002 -4.816806e-002 6.664774e-002
<VARIANCE> 39
 3.398896e+001 4.985868e+001 3.737012e+001 4.765732e+001 8.622659e+001 7.081573e+001 3.905965e+001 4.165357e+001 3.736703e+001 4.525409e+001 4.216853e+001 2.584025e+001 2.896393e+001 2.083771e+000 2.531311e+000 2.980436e+000 4.636885e+000 6.277509e+000 4.924150e+000 3.541383e+000 3.143194e+000 2.798047e+000 3.127037e+000 3.462294e+000 2.239149e+000 1.409807e+000 2.247176e-001 4.978042e-001 3.121639e-001 5.840440e-001 1.003784e+000 9.883941e-001 6.626056e-001 5.516905e-001 5.296895e-001 5.504224e-001 5.810809e-001 4.377993e-001 1.371364e-001
<GCONST> 1.256971e+002
<STATE> 3
<MEAN> 39
 2.172094e+000 6.425354e+000 -6.736927e+000 -1.569765e+001 -1.636960e+001 -1.619223e+001 -8.412856e+000 -1.421255e+001 -4.715510e+000 -4.358639e+000 -2.353332e+000 -6.784868e+000 6.357409e+001 5.391195e-001 -9.171903e-001 -1.531208e+000 -1.242522e+000 3.068053e-001 1.708958e+000 1.361563e+000 -3.747391e-002 -2.142887e-001 -3.341945e-001 -5.575658e-002 -5.505388e-001 6.620545e-001 -2.213290e-001 -4.656135e-001 1.646211e-002 5.501087e-001 7.118365e-001 3.702485e-001 -1.574150e-002 -2.841908e-001 -2.183570e-001 -1.847583e-002 -9.979587e-003 -1.907702e-001 1.866322e-002
<VARIANCE> 39
 9.105875e+000 1.366917e+001 4.074869e+001 5.529067e+001 2.583318e+001 3.442957e+001 3.898641e+001 2.944043e+001 3.393954e+001 3.142518e+001 3.033816e+001 1.850838e+001 6.282989e+000 6.758252e-001 2.479572e+000 3.205848e+000 2.751833e+000 3.343724e+000 6.003909e+000 4.133986e+000 2.520852e+000 2.782239e+000 2.584709e+000 1.893969e+000 1.983907e+000 8.537068e-001 1.416238e-001 2.638813e-001 2.454255e-001 7.982140e-001 1.029758e+000 6.186764e-001 5.155225e-001 6.074517e-001 5.441276e-001 4.838147e-001 3.090264e-001 3.289537e-001 3.324720e-002
<GCONST> 1.108200e+002
<STATE> 4
<MEAN> 39
 4.629487e+000 1.838741e+000 -1.415149e+001 -2.120867e+001 -1.533428e+001 -8.549941e+000 -2.421921e+000 -1.492317e+001 -6.637201e+000 -5.218501e+000 -2.458136e+000 -8.309586e+000 6.652262e+001 2.898795e-001 -2.530282e+000 -1.958811e+000 9.835137e-002 2.473277e+000 3.026854e+000 1.398136e+000 -1.207567e+000 -1.059507e+000 -5.524515e-002 3.160831e-001 -1.163527e+000 1.118605e+000 -3.754595e-001 -3.202996e-001 4.922234e-001 1.074860e+000 6.976788e-001 -4.716007e-001 -7.001294e-001 -3.903942e-001 -1.820854e-001 3.028069e-001 1.500970e-001 -1.050859e-001 -9.155621e-002
<VARIANCE> 39
 6.219273e+000 2.364161e+001 3.230497e+001 3.771795e+001 2.017261e+001 5.794746e+001 5.983359e+001 2.336485e+001 2.331501e+001 2.580740e+001 1.895733e+001 2.465819e+001 6.345174e+000 3.208744e-001 2.496624e+000 2.496686e+000 1.746725e+000 3.732154e+000 4.531016e+000 3.304421e+000 2.894562e+000 2.924436e+000 1.659333e+000 1.931610e+000 1.915998e+000 6.012284e-001 9.018768e-002 1.169004e-001 2.765299e-001 5.399899e-001 4.194277e-001 7.129936e-001 5.753880e-001 4.678326e-001 4.422324e-001 4.657615e-001 2.977296e-001 2.632092e-001 3.100200e-002
<GCONST> 1.046174e+002
<TRANSP> 5
 0.000000e+000 1.000000e+000 0.000000e+000 0.000000e+000 0.000000e+000
 0.000000e+000 9.165149e-001 8.348505e-002 0.000000e+000 0.000000e+000
 0.000000e+000 0.000000e+000 6.962040e-001 3.037960e-001 0.000000e+000
 0.000000e+000 0.000000e+000 0.000000e+000 1.743932e-001 8.256068e-001
 0.000000e+000 0.000000e+000 0.000000e+000 0.000000e+000 0.000000e+000
<ENDHMM>
~h "z"
<BEGINHMM>
<NUMSTATES> 5
<STATE> 2
<MEAN> 39
 -5.829216e+000 1.127546e+000 6.046882e-002 -6.551012e-001 -6.149731e+000 -1.334643e+001 -6.661837e+000 -1.551118e+001 -9.179011e+000 -6.409085e+000 -4.906985e+000 -7.048338e+000 5.985206e+001 -2.297590e-001 1.756233e-001 1.539707e-001 2.592232e-001 7.705898e-002 1.410187e-001 1.903758e-001 2.855479e-001 -7.445415e-002 -3.941837e-001 -4.768106e-001 3.465248e-002 -9.524471e-002 -1.111190e-001 -8.757152e-002 -1.273411e-001 -3.589105e-002 7.828579e-002 1.646727e-001 1.197584e-001 1.451236e-001 4.893743e-002 6.404407e-002 6.733803e-002 -2.015360e-002 -2.275285e-002
<VARIANCE> 39
 1.712078e+001 2.770440e+001 2.360908e+001 1.568952e+001 3.654778e+001 5.363201e+001 3.693850e+001 4.672337e+001 2.527474e+001 4.042168e+001 3.286317e+001 2.620748e+001 1.633088e+001 1.181863e+000 1.515433e+000 1.421238e+000 1.443179e+000 3.830929e+000 3.652832e+000 3.056046e+000 4.430623e+000 2.438828e+000 2.779513e+000 2.292695e+000 1.973050e+000 7.417526e-001 8.349064e-002 1.923867e-001 1.855941e-001 2.571435e-001 4.580755e-001 4.415235e-001 3.202184e-001 4.847597e-001 3.417816e-001 4.717115e-001 4.094065e-001 3.581648e-001 6.254222e-002
<GCONST> 1.077870e+002
<STATE> 3
<MEAN> 39
 -7.936282e+000 1.135610e+000 -6.647187e-001 -5.378022e-001 -3.250257e+000 -9.210448e+000 -3.648595e+000 -1.122642e+001 -7.883094e+000 -7.872991e+000 -5.589530e+000 -6.287345e+000 5.838430e+001 -7.025913e-001 -2.613935e-001 -4.385477e-001 1.283072e-001 4.548416e-001 3.942215e-001 3.579268e-001 7.685810e-001 4.090363e-001 3.004290e-001 -5.205761e-002 1.853020e-002 -1.793219e-001 2.533679e-002 -2.243099e-002 -4.222365e-002 -3.673439e-002 -1.351897e-001 -1.840567e-001 -8.141329e-002 -1.578676e-001 -5.978943e-002 1.563055e-001 1.638347e-001 2.589266e-003 1.019175e-001
<VARIANCE> 39
 1.591064e+001 2.650734e+001 2.139803e+001 1.468927e+001 2.579632e+001 3.428480e+001 2.339745e+001 2.703559e+001 1.859432e+001 3.140896e+001 2.863881e+001 2.482412e+001 1.143224e+001 4.993757e-001 1.009534e+000 1.010025e+000 8.565664e-001 1.724819e+000 2.480529e+000 1.707424e+000 1.957369e+000 1.766970e+000 1.652269e+000 1.634267e+000 1.503962e+000 2.984033e-001 6.115939e-002 1.360694e-001 1.132489e-001 1.560409e-001 2.775010e-001 3.857527e-001 2.683871e-001 2.778206e-001 2.354779e-001 3.407401e-001 3.153043e-001 3.053938e-001 3.059620e-002
<GCONST> 9.266626e+001
<STATE> 4
<MEAN> 39
 -1.209365e+001 -2.079475e+000 -4.516490e+000 -9.339703e-001 -2.100060e+000 -7.714207e+000 -1.468419e+000 -7.414057e+000 -4.231387e+000 -3.723613e+000 -1.966580e+000 -4.127229e+000 5.745727e+001 -1.996257e-001 -4.495393e-002 -1.171276e-001 -4.908150e-002 -1.700956e-001 -4.446790e-001 -4.809468e-003 -1.135449e-001 -1.926053e-001 2.520903e-001 2.095102e-001 8.686763e-002 1.911559e-001 1.183635e-001 2.586827e-002 1.167763e-001 -4.192488e-002 -7.829681e-002 -2.179846e-001 -9.777371e-002 -1.250272e-001 -1.390731e-001 -6.396409e-002 -4.288051e-003 3.375727e-003 5.748145e-002
<VARIANCE> 39
 1.224254e+001 3.112947e+001 1.647668e+001 1.648744e+001 1.849596e+001 2.743093e+001 2.217786e+001 3.032806e+001 3.228757e+001 3.844591e+001 3.259763e+001 2.807912e+001 1.152356e+001 3.858542e-001 5.111214e-001 8.120461e-001 8.152382e-001 1.189444e+000 1.857055e+000 1.348471e+000 1.866097e+000 2.102719e+000 1.626407e+000 1.496125e+000 1.321818e+000 1.925114e-001 6.939438e-002 1.024985e-001 1.354258e-001 1.600965e-001 2.321521e-001 2.859716e-001 2.823124e-001 3.478923e-001 3.913444e-001 3.183408e-001 2.484747e-001 2.865062e-001 3.218767e-002
<GCONST> 9.032471e+001
<TRANSP> 5
 0.000000e+000 1.000000e+000 0.000000e+000 0.000000e+000 0.000000e+000
 0.000000e+000 6.780661e-001 3.219339e-001 0.000000e+000 0.000000e+000
 0.000000e+000 0.000000e+000 6.311480e-001 3.688520e-001 0.000000e+000
 0.000000e+000 0.000000e+000 0.000000e+000 8.753146e-001 1.246854e-001
 0.000000e+000 0.000000e+000 0.000000e+000 0.000000e+000 0.000000e+000
<ENDHMM>
~h "ah"
<BEGINHMM>
<NUMSTATES> 5
<STATE> 2
<MEAN> 39
 3.350473e+000 -1.019784e+001 -1.725905e+001 -1.242727e+001 -4.494383e+000 -5.644216e+000 -2.156013e+000 -1.727789e+001 -9.066246e+000 -1.313738e+000 -1.216344e+000 -1.439324e+001 7.019146e+001 -3.349661e-001 -1.233383e+000 1.049679e-001 1.697022e+000 1.116109e+000 -7.355634e-001 -5.375267e-001 1.261526e-001 -2.156586e-002 6.464244e-001 -1.134995e-001 -8.173066e-001 2.655009e-001 -8.456467e-002 3.920923e-001 3.657435e-001 1.459460e-001 -3.651955e-001 -5.302469e-001 -2.109610e-001 2.702990e-001 1.734469e-001 -3.351879e-002 -7.957076e-002 1.918837e-001 -2.045207e-001
<VARIANCE> 39
 9.443936e+000 6.668998e+001 3.964381e+001 5.705129e+001 6.318373e+001 8.252542e+001 4.409261e+001 3.665035e+001 3.349401e+001 5.119435e+001 3.359436e+001 4.924138e+001 1.754943e+001 3.478197e-001 3.557994e+000 2.310711e+000 2.575650e+000 4.774699e+000 6.756138e+000 2.718514e+000 4.016816e+000 2.599208e+000 2.838931e+000 2.454173e+000 2.995049e+000 7.549159e-001 5.350292e-002 2.691877e-001 2.564821e-001 3.854761e-001 5.376933e-001 9.384451e-001 5.436892e-001 6.872632e-001 4.461868e-001 5.223551e-001 4.583205e-001 4.560771e-001 5.049491e-002
<GCONST> 1.168595e+002
<STATE> 3
<MEAN> 39
 1.739846e+000 -1.106541e+001 -1.351397e+001 -2.881578e+000 -4.992136e+000 -1.738538e+001 -7.322290e+000 -1.280122e+001 -7.334221e+000 -4.720005e-002 -4.292508e+000 -1.704661e+001 6.948230e+001 -5.725191e-001 1.711554e+000 2.052057e+000 1.255883e+000 -1.177533e+000 -1.367215e+000 -6.756631e-001 3.106645e-001 1.743978e-002 -4.690914e-001 2.886057e-001 1.355656e+000 -1.025636e+000 -7.467936e-002 3.533081e-001 2.863191e-001 -2.905376e-001 -4.833625e-002 5.735560e-001 2.192172e-001 -4.592268e-001 -2.253446e-001 -1.810038e-001 1.964983e-001 4.266270e-001 -1.611398e-001
<VARIANCE> 39
 7.487425e+000 3.730821e+001 3.829555e+001 2.574075e+001 4.346465e+001 5.966358e+001 3.420597e+001 2.845866e+001 2.989517e+001 3.563798e+001 3.259619e+001 3.363869e+001 1.272007e+001 2.946044e-001 2.176177e+000 2.277262e+000 1.738187e+000 1.849264e+000 3.646558e+000 2.617149e+000 3.175707e+000 1.939696e+000 1.724061e+000 2.223692e+000 2.407511e+000 4.832832e-001 4.465158e-002 3.327454e-001 3.938609e-001 2.516007e-001 3.744964e-001 4.363717e-001 4.568628e-001 4.730318e-001 3.364694e-001 2.651538e-001 3.680439e-001 3.571911e-001 6.504828e-002
<GCONST> 1.055313e+002
<STATE> 4
<MEAN> 39
 -3.423505e+000 -3.148692e+000 -4.095710e+000 6.139107e-001 -5.565927e+000 -1.303363e+001 -3.841213e+000 -1.244548e+001 -6.537236e+000 -2.604402e+000 -1.596774e+000 -7.796277e+000 6.299083e+001 -5.405458e-001 1.008253e+000 1.209045e+000 3.155846e-001 -3.233996e-001 7.567418e-002 -3.444760e-002 -3.237425e-001 -1.093981e-001 -4.334531e-001 8.736598e-002 9.431682e-001 -7.104655e-001 1.510823e-002 -9.129413e-002 -1.360083e-001 -1.475971e-001 1.029698e-001 1.602159e-001 -2.409297e-002 -1.460496e-001 -1.025131e-001 -8.370925e-003 -4.084114e-002 -1.346296e-001 4.654005e-002
<VARIANCE> 39
 2.510487e+001 2.906876e+001 4.015169e+001 2.200825e+001 5.143147e+001 5.434423e+001 3.513580e+001 3.552416e+001 3.971679e+001 3.250171e+001 2.655938e+001 3.771547e+001 1.776054e+001 3.589377e-001 1.855905e+000 2.678067e+000 9.560037e-001 1.609289e+000 2.332945e+000 1.636458e+000 2.344253e+000 1.899512e+000 1.437318e+000 1.443772e+000 1.889312e+000 4.807004e-001 4.478893e-002 1.717494e-001 2.188400e-001 2.030422e-001 2.441867e-001 3.480435e-001 3.007888e-001 3.684129e-001 3.566142e-001 3.049116e-001 2.488247e-001 2.503696e-001 4.653495e-002
<GCONST> 1.008365e+002
<TRANSP> 5
 0.000000e+000 1.000000e+000 0.000000e+000 0.000000e+000 0.000000e+000
 0.000000e+000 8.941878e-001 1.058122e-001 0.000000e+000 0.000000e+000
 0.000000e+000 0.000000e+000 7.243837e-001 2.756163e-001 0.000000e+000
 0.000000e+000 0.000000e+000 0.000000e+000 5.945590e-001 4.054410e-001
 0.000000e+000 0.000000e+000 0.000000e+000 0.000000e+000 0.000000e+000
<ENDHMM>
~h "ao"
<BEGINHMM>
<NUMSTATES> 5
<STATE> 2
<MEAN> 39
 -1.007998e+001 -2.593623e+000 -7.208509e+000 -5.196115e+000 -4.501373e+000 -6.869223e+000 -1.287335e+000 -7.240708e+000 -1.862108e+000 -1.268231e+000 -1.062166e+000 -4.457256e+000 5.825210e+001 6.134271e-002 1.033278e-001 -1.145754e-001 -2.443729e-001 -7.389325e-002 9.338998e-002 1.829481e-001 -7.256848e-002 -2.297993e-001 -3.574306e-001 -1.493424e-001 -1.290759e-001 1.048179e-002 -5.700193e-002 -7.519613e-002 1.204329e-001 1.620655e-001 1.091497e-001 -3.538497e-002 5.400541e-002 7.494915e-002 3.797349e-002 2.787014e-003 2.546502e-002 8.900718e-002 -3.955503e-002
<VARIANCE> 39
 5.026609e+001 3.054155e+001 2.083745e+001 6.319283e+001 4.998463e+001 2.565611e+001 1.924802e+001 1.609706e+001 1.502786e+001 2.880285e+001 2.117898e+001 1.442765e+001 1.883842e+001 2.522666e-001 4.007708e-001 6.002142e-001 8.751097e-001 1.041304e+000 9.002586e-001 1.020169e+000 1.203364e+000 1.259408e+000 1.444835e+000 1.266630e+000 1.350741e+000 1.498494e-001 1.120078e-001 1.307079e-001 1.310092e-001 2.281481e-001 2.504352e-001 2.453565e-001 2.137634e-001 2.411311e-001 2.258947e-001 2.483246e-001 2.672964e-001 2.449454e-001 3.089454e-002
<GCONST> 8.768691e+001
<STATE> 3
<MEAN> 39
 -7.744100e+000 -8.658106e-001 -7.105706e+000 -7.110604e+000 -6.447988e+000 -8.044460e+000 -7.517423e-001 -7.026308e+000 -1.432706e+000 -1.848956e+000 -6.164288e-001 -4.378139e+000 5.947051e+001 -1.669078e-002 2.785468e-002 1.443706e-001 6.365693e-002 2.053905e-003 -1.169193e-001 1.425938e-001 1.822483e-002 -1.297754e-001 -2.132175e-001 -1.720327e-001 4.381792e-002 -3.136114e-002 -1.512765e-002 -7.213674e-002 8.442180e-002 1.246578e-001 7.175003e-002 -5.128499e-002 -8.150439e-002 -5.772914e-003 9.871000e-002 1.615289e-001 -4.227146e-002 6.308909e-002 1.417457e-003
<VARIANCE> 39
 8.229408e+001 4.660275e+001 1.834082e+001 7.964230e+001 6.165979e+001 2.073556e+001 1.485927e+001 1.917659e+001 2.319483e+001 2.559788e+001 2.276450e+001 1.377193e+001 2.482534e+001 1.739686e-001 4.300557e-001 4.109729e-001 5.284753e-001 9.027929e-001 9.509298e-001 7.719106e-001 1.130111e+000 8.914933e-001 1.214077e+000 1.234239e+000 8.692966e-001 1.114113e-001 4.083044e-002 5.384310e-002 8.270790e-002 1.194572e-001 1.722337e-001 1.435125e-001 2.228995e-001 2.667552e-001 1.934522e-001 2.314728e-001 2.470150e-001 1.678553e-001 2.187855e-002
<GCONST> 8.154274e+001
<STATE> 4
<MEAN> 39
 -8.799834e+000 -1.714844e+000 -6.406930e+000 -5.323767e+000 -5.423697e+000 -7.948997e+000 -9.659377e-001 -6.718725e+000 -2.496174e+000 -2.009350e+000 -1.338163e+000 -4.035109e+000 5.928350e+001 -5.454991e-002 -2.490315e-001 1.639650e-001 3.258989e-001 3.896061e-001 -7.108471e-002 4.455914e-002 -2.428959e-001 -1.251041e-001 1.147607e-002 -1.471914e-001 1.812021e-001 -5.127525e-003 1.225559e-002 -1.049444e-001 -4.620440e-003 9.997869e-002 7.556190e-002 -2.908803e-004 -1.257554e-001 -1.004407e-001 1.045368e-001 2.952630e-001 1.406034e-001 -2.445963e-004 5.829833e-002
<VARIANCE> 39
 7.167367e+001 4.161384e+001 1.856109e+001 6.266740e+001 5.266840e+001 2.008593e+001 2.068251e+001 1.723899e+001 1.928496e+001 2.507579e+001 2.059168e+001 1.888170e+001 2.456639e+001 2.677808e-001 6.301910e-001 6.618798e-001 8.095506e-001 1.203061e+000 1.448584e+000 1.280264e+000 1.443253e+000 1.115305e+000 1.448365e+000 1.527846e+000 1.110754e+000 1.760505e-001 5.775823e-002 1.392164e-001 8.909666e-002 1.599784e-001 2.538744e-001 1.719744e-001 2.507202e-001 3.129337e-001 2.673455e-001 2.766650e-001 3.392861e-001 2.336808e-001 4.526599e-002
<GCONST> 8.997596e+001
<TRANSP> 5
 0.000000e+000 1.000000e+000 0.000000e+000 0.000000e+000 0.000000e+000
 0.000000e+000 2.589294e-001 7.410706e-001 0.000000e+000 0.000000e+000
 0.000000e+000 0.000000e+000 3.588780e-001 6.411220e-001 0.000000e+000
 0.000000e+000 0.000000e+000 0.000000e+000 1.362090e-001 8.637910e-001
 0.000000e+000 0.000000e+000 0.000000e+000 0.000000e+000 0.000000e+000
<ENDHMM>
~h "ay"
<BEGINHMM>
<NUMSTATES> 5
<STATE> 2
<MEAN> 39
 -1.236067e+001 -4.314152e+000 -5.602335e+000 -2.521755e+000 -1.751292e+000 -5.491281e+000 5.984571e-001 -5.781006e+000 -2.092655e+000 -2.669611e+000 -2.274634e-001 -3.045766e+000 5.476696e+001 -1.137046e-001 -1.721677e-001 -1.766987e-001 -3.061861e-002 3.192765e-004 2.138230e-002 5.034961e-002 2.018747e-001 2.430058e-001 1.714544e-001 6.674697e-002 6.204122e-002 -2.853820e-002 4.483883e-002 3.208595e-002 4.226951e-002 -9.217297e-003 -7.500199e-002 -9.844267e-002 -4.277233e-002 -3.597804e-002 -6.223345e-002 -3.554182e-002 -6.576132e-002 -6.161987e-002 3.181300e-002
<VARIANCE> 39
 1.942400e+001 1.512692e+001 1.773766e+001 1.584270e+001 1.166025e+001 1.646513e+001 1.456822e+001 2.297113e+001 1.840649e+001 2.145619e+001 1.997924e+001 2.086164e+001 7.438677e+001 1.855230e-001 3.692239e-001 4.970337e-001 8.299090e-001 9.041060e-001 1.214646e+000 1.294255e+000 1.458475e+000 1.380284e+000 1.558761e+000 1.573685e+000 1.335615e+000 1.351560e-001 3.440503e-002 7.112428e-002 1.090325e-001 1.509850e-001 2.048181e-001 2.658967e-001 2.608517e-001 2.814530e-001 2.923611e-001 3.260063e-001 3.264256e-001 2.750990e-001 3.032038e-002
<GCONST> 8.316171e+001
<STATE> 3
<MEAN> 39
 -1.206005e+001 -5.129598e+000 -5.914582e+000 -2.644105e+000 -1.866983e+000 -5.732316e+000 -8.613910e-001 -5.310802e+000 -1.471069e+000 -6.086087e-001 7.035710e-001 -4.301511e+000 5.459911e+001 1.098302e-001 -2.831537e-001 -8.887339e-002 5.357372e-002 -3.297560e-002 -2.529210e-001 -5.586650e-002 3.661854e-003 -7.924383e-002 8.114428e-002 -3.033725e-002 -3.246857e-001 7.282225e-001 3.793977e-002 -1.434571e-002 2.800027e-002 2.485957e-002 -5.986365e-002 -6.636226e-002 -2.965311e-002 -6.393439e-002 -9.368047e-002 9.629983e-003 -2.376834e-002 -2.325733e-002 2.760035e-002
<VARIANCE> 39
 3.170162e+001 2.140634e+001 2.864009e+001 1.634648e+001 1.598814e+001 1.889518e+001 1.668007e+001 3.074295e+001 2.666592e+001 2.447153e+001 2.073117e+001 2.866199e+001 1.090311e+002 1.056841e+000 8.524712e-001 8.574402e-001 9.119056e-001 9.980906e-001 1.216740e+000 1.232382e+000 1.439335e+000 1.377679e+000 1.944564e+000 1.966045e+000 1.813164e+000 4.112218e+000 2.004374e-001 1.521706e-001 1.689468e-001 1.706517e-001 2.544589e-001 2.843960e-001 2.653780e-001 3.186719e-001 2.930307e-001 4.176038e-001 4.083527e-001 3.940615e-001 7.011498e-001
<GCONST> 1.015289e+002
<STATE> 4
<MEAN> 39
 -7.160452e+000 -1.126868e+001 -1.217080e+001 -2.181298e+000 -1.345644e+000 -8.674603e+000 -9.806591e-001 -9.212210e+000 -5.460950e+000 6.306528e-001 7.169806e-002 -9.319420e+000 6.341314e+001 -9.854680e-002 -4.123142e-002 3.879999e-001 3.330327e-001 -5.112691e-001 -7.657468e-001 5.271152e-002 3.735393e-001 4.569978e-002 -4.399282e-002 -4.835415e-001 6.580190e-003 8.188235e-002 4.976851e-002 1.629505e-001 1.949618e-001 -4.945778e-002 -2.497487e-001 -1.191866e-001 6.972868e-002 -2.705832e-002 -4.017631e-002 -2.924959e-002 3.268559e-002 6.725968e-002 -6.512313e-003
<VARIANCE> 39
 5.875784e+001 4.184711e+001 5.245581e+001 2.247127e+001 2.930386e+001 2.970616e+001 3.327399e+001 5.715562e+001 3.232248e+001 3.448116e+001 3.055951e+001 4.779570e+001 6.560916e+001 2.819261e-001 9.051398e-001 1.154125e+000 9.891037e-001 2.014610e+000 1.972621e+000 1.582523e+000 2.252540e+000 1.892326e+000 1.458982e+000 2.022498e+000 1.310276e+000 2.285180e-001 7.382565e-002 1.841224e-001 1.446531e-001 1.853962e-001 3.163552e-001 2.535431e-001 3.053874e-001 3.897761e-001 3.604334e-001 3.190149e-001 3.917003e-001 2.651592e-001 8.604866e-002
<GCONST> 1.018456e+002
<TRANSP> 5
 0.000000e+000 1.000000e+000 0.000000e+000 0.000000e+000 0.000000e+000
 0.000000e+000 7.832494e-001 2.167506e-001 0.000000e+000 0.000000e+000
 0.000000e+000 0.000000e+000 6.738977e-001 3.261023e-001 0.000000e+000
 0.000000e+000 0.000000e+000 0.000000e+000 7.668253e-001 2.331747e-001
 0.000000e+000 0.000000e+000 0.000000e+000 0.000000e+000 0.000000e+000
<ENDHMM>
~h "eh"
<BEGINHMM>
<NUMSTATES> 5
<STATE> 2
<MEAN> 39
 -9.768779e-001 -1.043558e+001 -9.065723e+000 -6.054964e+000 -7.499216e+000 -1.924383e+001 -1.166127e+000 -8.060443e+000 -1.339413e+000 3.499721e+000 -5.823794e+000 -9.888176e+000 7.034908e+001 1.059544e+000 -1.477055e+000 -3.586512e-001 4.647089e-001 6.380849e-001 1.837502e-001 5.220318e-001 1.173025e-001 -3.193739e-001 -6.816642e-002 -1.142838e+000 -2.134573e+000 1.558360e+000 -1.198253e+000 3.480389e-001 7.281795e-002 1.589199e-001 9.201433e-001 7.708476e-001 -2.974872e-002 2.733423e-001 -4.756984e-001 -3.543470e-001 4.609541e-001 -2.790343e-003 -8.550066e-001
<VARIANCE> 39
 6.741334e+001 3.136151e+001 1.270337e+001 1.190745e+001 2.347682e+001 5.697528e+001 3.243623e+001 2.493990e+001 1.802717e+001 1.943861e+001 1.538440e+001 3.206543e+001 5.143993e+001 1.182103e+000 1.738322e+000 9.389554e-001 8.778821e-001 1.875573e+000 1.332568e+000 1.710766e+000 2.200289e+000 1.209641e+000 1.705715e+000 1.187850e+000 1.835568e+000 1.334815e+000 3.909129e-001 2.920715e-001 1.423972e-001 2.833100e-001 2.620376e-001 5.029095e-001 4.296284e-001 5.651156e-001 3.597704e-001 3.355371e-001 2.392130e-001 3.154830e-001 2.546492e-001
<GCONST> 1.039201e+002
<STATE> 3
<MEAN> 39
 -1.613408e+000 -1.099968e+001 -8.709767e+000 -5.280113e+000 -5.550015e+000 -1.766077e+001 -1.455710e+000 -7.716411e+000 -2.303574e+000 3.364241e+000 -6.349087e+000 -1.227831e+001 7.023524e+001 -1.974527e-002 -7.502280e-001 -3.604169e-001 4.667211e-001 1.494318e+000 1.145864e+000 -5.264526e-001 -8.128163e-002 -7.132142e-001 -3.416415e-001 -3.584938e-001 -1.962593e+000 2.168993e-001 -6.825494e-001 3.998946e-001 -1.021187e-001 -4.216002e-002 3.674026e-001 4.587072e-001 -3.839144e-001 -2.213877e-001 -2.115241e-001 -2.196873e-001 4.419461e-001 3.496163e-001 -7.950166e-001
<VARIANCE> 39
 6.985622e+001 3.214616e+001 1.268025e+001 1.427191e+001 2.072569e+001 4.573022e+001 3.074983e+001 1.655015e+001 1.261540e+001 1.993990e+001 1.400588e+001 3.505053e+001 5.076036e+001 2.983128e-001 1.406749e+000 7.498902e-001 1.152880e+000 1.383154e+000 1.776894e+000 1.393431e+000 2.133909e+000 1.693630e+000 1.849669e+000 8.211062e-001 1.842177e+000 2.374287e-001 2.243729e-001 2.739539e-001 1.102517e-001 2.330740e-001 2.135999e-001 2.070563e-001 3.637713e-001 6.032299e-001 2.758979e-001 3.980620e-001 2.251949e-001 2.771771e-001 2.278878e-001
<GCONST> 9.687523e+001
<STATE> 4
<MEAN> 39
 -9.042531e+000 -6.362277e+000 -6.544374e+000 -4.643739e+000 -1.644707e+000 -1.154053e+001 -8.095989e-001 -7.380539e+000 -2.723647e+000 -3.463478e-002 -4.459726e+000 -7.892962e+000 6.192730e+001 -1.718046e-001 -2.343504e-001 -3.374257e-001 1.190580e-001 5.700256e-001 4.125456e-001 -4.419470e-001 -4.569820e-001 -3.151000e-001 2.057400e-002 -1.626459e-001 -5.451388e-001 -6.600175e-002 -2.749928e-002 1.459254e-001 -1.007805e-001 -8.715773e-002 -1.415242e-001 3.822817e-002 -1.702317e-001 -2.014282e-001 2.978897e-002 5.156958e-002 1.982155e-001 1.969669e-001 -1.836253e-001
<VARIANCE> 39
 7.054493e+001 3.669627e+001 1.712793e+001 8.799189e+000 1.808787e+001 4.092027e+001 1.952856e+001 1.633466e+001 1.577584e+001 2.758158e+001 2.194847e+001 4.771678e+001 7.020763e+001 2.275201e-001 8.049180e-001 8.236369e-001 9.638345e-001 1.106691e+000 1.397464e+000 1.526315e+000 2.309100e+000 1.381121e+000 1.637244e+000 1.785964e+000 2.281283e+000 1.880108e-001 7.506122e-002 2.084724e-001 1.035457e-001 1.522292e-001 1.837524e-001 1.345030e-001 2.503096e-001 5.198883e-001 2.078030e-001 3.160776e-001 4.106095e-001 3.183674e-001 1.113720e-001
<GCONST> 9.352178e+001
<TRANSP> 5
 0.000000e+000 1.000000e+000 0.000000e+000 0.000000e+000 0.000000e+000
 0.000000e+000 5.710680e-002 9.428932e-001 0.000000e+000 0.000000e+000
 0.000000e+000 0.000000e+000 3.231135e-003 9.967689e-001 0.000000e+000
 0.000000e+000 0.000000e+000 0.000000e+000 5.887322e-001 4.112677e-001
 0.000000e+000 0.000000e+000 0.000000e+000 0.000000e+000 0.000000e+000
<ENDHMM>
~h "ey"
<BEGINHMM>
<NUMSTATES> 5
<STATE> 2
<MEAN> 39
 -8.697114e+000 -2.578652e+000 -4.998063e+000 -2.738431e+000 -1.041837e+000 -7.484812e+000 -1.713864e+000 -9.432645e+000 -3.473035e+000 -2.175099e+000 -3.387818e+000 -7.449883e+000 5.885618e+001 -3.666002e-001 -4.902036e-001 -5.154194e-001 -6.571439e-002 5.714076e-001 4.057771e-001 5.274808e-001 7.797853e-001 4.793161e-001 3.345151e-002 -3.633417e-002 -2.968168e-002 -1.588281e-001 3.532329e-002 2.798064e-002 8.267646e-002 -4.078975e-002 -2.734394e-001 -2.681773e-001 -1.299903e-001 -2.831172e-001 -2.903061e-001 1.170276e-001 9.743985e-002 9.406274e-003 1.006150e-001
<VARIANCE> 39
 3.430678e+001 3.360369e+001 3.112079e+001 1.434904e+001 1.658862e+001 3.883968e+001 3.434752e+001 5.260125e+001 3.383714e+001 5.277489e+001 2.313893e+001 3.998585e+001 7.119096e+001 1.096550e+000 2.348705e+000 2.217422e+000 1.003971e+000 2.702331e+000 3.587271e+000 2.389486e+000 3.870006e+000 4.324702e+000 5.338424e+000 2.298317e+000 2.835439e+000 1.280300e+000 1.104495e-001 2.933462e-001 2.756481e-001 1.977160e-001 4.981245e-001 5.127500e-001 4.083534e-001 6.735132e-001 6.005004e-001 1.115517e+000 4.467170e-001 5.421375e-001 1.561070e-001
<GCONST> 1.162112e+002
<STATE> 3
<MEAN> 39
 -9.361841e+000 -5.847041e+000 -7.292216e+000 -3.014762e+000 -5.916033e-001 -7.219457e+000 -3.734221e-001 -6.457616e+000 -4.277285e+000 -4.430453e+000 -2.519957e+000 -7.910133e+000 5.895674e+001 -3.830142e-001 -1.488706e-001 1.118306e-001 2.335557e-001 -1.340832e-002 -3.047142e-001 2.622626e-001 4.989958e-001 -1.513067e-001 4.493669e-002 1.787085e-001 4.964345e-002 -9.923320e-002 -4.186196e-002 1.454388e-001 1.770345e-001 -3.098054e-003 -3.097453e-001 -1.920901e-001 -1.267429e-001 -1.670291e-001 -1.158479e-001 2.639558e-001 2.347151e-001 2.237227e-001 4.642386e-003
<VARIANCE> 39
 5.468082e+001 6.258099e+001 5.850078e+001 1.685049e+001 1.776643e+001 3.465644e+001 2.440572e+001 2.485459e+001 3.973645e+001 2.932344e+001 1.994545e+001 5.122685e+001 1.184369e+002 3.824917e-001 1.235440e+000 1.608584e+000 9.144626e-001 2.713539e+000 2.514540e+000 1.838976e+000 2.427368e+000 3.353893e+000 2.558280e+000 2.325226e+000 1.493058e+000 5.919055e-001 8.952855e-002 2.863390e-001 2.185466e-001 1.836533e-001 3.772851e-001 4.311548e-001 4.222696e-001 4.754525e-001 5.508477e-001 5.738273e-001 3.929700e-001 2.430183e-001 1.176792e-001
<GCONST> 1.082849e+002
<STATE> 4
<MEAN> 39
 -1.229135e+001 -2.946087e+000 -4.693646e+000 -3.120338e+000 -1.267173e+000 -6.129222e+000 1.305209e+000 -5.029100e+000 -3.372595e+000 -4.078748e+000 -3.172202e+000 -5.229712e+000 5.565630e+001 -3.888430e-001 -9.353070e-002 5.952027e-002 1.181396e-001 -1.813725e-001 -2.803937e-001 -2.981886e-002 9.825946e-002 -1.789803e-001 5.570412e-001 6.335947e-001 6.190380e-001 -2.409129e-002 1.052247e-002 5.319659e-004 6.692310e-002 -3.792936e-002 -2.537093e-001 -2.330855e-001 -1.588413e-001 -1.122824e-001 2.545978e-002 2.525651e-001 2.611226e-001 1.975252e-001 1.055881e-001
<VARIANCE> 39
 1.890714e+001 1.844984e+001 1.461275e+001 1.421134e+001 1.785312e+001 2.102178e+001 1.504383e+001 1.678636e+001 2.623954e+001 3.187871e+001 1.987469e+001 1.758958e+001 7.452483e+001 4.586931e-001 1.068203e+000 1.332055e+000 9.937993e-001 2.444033e+000 1.573381e+000 1.694851e+000 2.448957e+000 2.787890e+000 2.844327e+000 2.588675e+000 1.471487e+000 6.724944e-001 8.377644e-002 1.124330e-001 1.367653e-001 1.788139e-001 4.641675e-001 3.321432e-001 3.050394e-001 3.521570e-001 4.878307e-001 6.235019e-001 4.030912e-001 2.148713e-001 9.992714e-002
<GCONST> 9.815620e+001
<TRANSP> 5
 0.000000e+000 1.000000e+000 0.000000e+000 0.000000e+000 0.000000e+000
 0.000000e+000 5.506446e-001 4.493554e-001 0.000000e+000 0.000000e+000
 0.000000e+000 0.000000e+000 2.240174e-001 7.759826e-001 0.000000e+000
 0.000000e+000 0.000000e+000 0.000000e+000 1.178461e-001 8.821539e-001
 0.000000e+000 0.000000e+000 0.000000e+000 0.000000e+000 0.000000e+000
<ENDHMM>
~h "ia"
<BEGINHMM>
<NUMSTATES> 5
<STATE> 2
<MEAN> 39
 -5.660276e+000 -3.371094e+000 -3.631556e+000 -2.559767e+000 -8.248538e+000 -1.503127e+001 -4.239347e+000 -1.295783e+001 -9.086805e+000 -1.668319e+000 -2.734024e-001 -6.327431e+000 6.350780e+001 2.468176e-001 -4.375710e-003 1.236860e-001 -3.084329e-002 -2.624149e-001 -2.957156e-001 -1.619822e-001 -1.536419e-001 -1.639210e-001 -4.118707e-002 5.862995e-002 1.805311e-002 1.556987e-001 1.731343e-002 -2.026238e-002 -3.315706e-003 6.695117e-003 -2.349698e-002 3.444162e-002 5.243724e-003 1.193687e-003 1.229165e-002 -1.110011e-003 8.569289e-003 -5.910275e-003 2.250571e-003
<VARIANCE> 39
 5.941383e+001 5.017674e+001 6.546719e+001 4.751255e+001 9.868507e+001 8.598096e+001 5.734187e+001 7.518844e+001 5.234046e+001 4.718291e+001 3.985896e+001 3.439866e+001 2.982220e+001 2.268727e+000 2.900298e+000 2.805338e+000 2.852977e+000 5.939155e+000 5.229821e+000 3.711486e+000 4.104964e+000 3.805905e+000 3.559714e+000 2.784923e+000 2.438860e+000 1.346372e+000 2.415815e-001 4.073896e-001 3.475122e-001 4.474570e-001 7.553753e-001 6.907868e-001 6.500885e-001 6.180862e-001 6.511225e-001 6.437781e-001 5.135667e-001 4.239143e-001 1.470890e-001
<GCONST> 1.284555e+002
<STATE> 3
<MEAN> 39
 9.712164e-001 -4.010572e+000 -1.143953e+000 -1.940566e+000 -1.620041e+001 -2.391113e+001 -1.131131e+001 -1.928799e+001 -1.393157e+001 -4.125566e+000 2.474739e-001 -5.641064e+000 6.780801e+001 5.600173e-001 -6.933214e-001 -6.576582e-001 1.496799e-001 -1.593817e-001 3.989500e-001 -7.881613e-002 -4.323896e-001 4.875430e-001 7.033216e-001 4.113746e-001 -8.535948e-002 2.704590e-001 -1.149979e-001 1.560205e-001 -2.889566e-001 -5.797453e-002 4.805566e-001 2.751801e-001 -1.714506e-002 -5.152744e-002 2.279907e-001 1.776352e-001 -7.564976e-002 -5.364820e-002 -1.320390e-001
<VARIANCE> 39
 1.114345e+001 5.995412e+001 6.126088e+001 7.005352e+001 6.330526e+001 6.993208e+001 2.979538e+001 3.218667e+001 4.502388e+001 3.299493e+001 2.888445e+001 4.222367e+001 1.592773e+001 8.216308e-001 2.056972e+000 2.762512e+000 1.766214e+000 4.719105e+000 2.569527e+000 2.284333e+000 2.348545e+000 2.712615e+000 2.955734e+000 2.325993e+000 2.369265e+000 5.727983e-001 7.627200e-002 3.369765e-001 3.261873e-001 2.911770e-001 6.050268e-001 4.326746e-001 4.881990e-001 4.340791e-001 5.536117e-001 5.092707e-001 4.091257e-001 4.564211e-001 7.062714e-002
<GCONST> 1.139999e+002
<STATE> 4
<MEAN> 39
 4.260070e+000 -4.423933e+000 -1.150225e+001 -6.796279e+000 -9.434412e+000 -1.463015e+001 -9.695330e+000 -2.007674e+001 -1.013147e+001 -1.044936e+000 3.807038e+000 -3.990160e+000 6.822799e+001 -1.770101e-003 2.782543e-001 -4.045014e-001 -5.377696e-001 3.622958e-001 6.889597e-001 1.318247e-001 -7.244243e-002 3.513176e-001 3.006208e-001 9.842007e-002 -3.414615e-002 -1.458552e-001 -6.727604e-002 2.133937e-002 1.249710e-001 5.719964e-002 -3.293083e-002 -3.140780e-002 -2.057169e-003 4.026956e-002 -1.224665e-002 -4.027316e-002 -5.250899e-002 -8.363391e-003 -3.241651e-002
<VARIANCE> 39
 1.238083e+001 5.518830e+001 7.625717e+001 6.673301e+001 6.432096e+001 5.775728e+001 5.028449e+001 4.304028e+001 4.053371e+001 3.625056e+001 4.557822e+001 7.684015e+001 1.038990e+001 2.592740e-001 1.655764e+000 2.386362e+000 1.858596e+000 3.679618e+000 2.257653e+000 3.197847e+000 2.031842e+000 2.948915e+000 3.494906e+000 2.642292e+000 2.981637e+000 3.169581e-001 3.274998e-002 1.825218e-001 2.327133e-001 2.479632e-001 4.710982e-001 2.771599e-001 4.716682e-001 3.157923e-001 4.661781e-001 5.879830e-001 4.736776e-001 4.725623e-001 3.437625e-002
<GCONST> 1.102403e+002
<TRANSP> 5
 0.000000e+000 1.000000e+000 0.000000e+000 0.000000e+000 0.000000e+000
 0.000000e+000 9.754898e-001 2.451023e-002 0.000000e+000 0.000000e+000
 0.000000e+000 0.000000e+000 8.349838e-001 1.650162e-001 0.000000e+000
 0.000000e+000 0.000000e+000 0.000000e+000 9.046568e-001 9.534314e-002
 0.000000e+000 0.000000e+000 0.000000e+000 0.000000e+000 0.000000e+000
<ENDHMM>
~h "ih"
<BEGINHMM>
<NUMSTATES> 5
<STATE> 2
<MEAN> 39
 -1.857110e+001 -3.837770e+000 -6.057656e+000 -2.635296e+000 -1.056978e+000 -1.282873e+001 4.083187e+000 -3.070080e+000 -5.804151e+000 -3.918830e-001 9.755595e-001 -2.221349e+000 6.028984e+001 1.692017e+000 -4.013866e-001 1.120895e+000 -3.507431e-001 -1.711971e+000 -1.427042e+000 -3.729910e-001 -4.268754e-001 -4.839310e-001 -1.533600e-001 5.302233e-001 1.554487e-001 2.063337e-001 7.181155e-001 9.263287e-002 4.199499e-001 6.333904e-002 -7.772412e-001 -5.842443e-001 -5.070305e-001 -6.894982e-001 -3.463794e-001 1.867449e-001 1.329091e-001 -2.377173e-001 3.820016e-001
<VARIANCE> 39
 2.636056e+001 1.295149e+001 1.090344e+001 1.930243e+001 3.173038e+001 4.042113e+001 3.573410e+001 2.504021e+001 2.020248e+001 2.145548e+001 2.424603e+001 1.636803e+001 4.526564e+001 1.725979e+000 1.563551e+000 1.020890e+000 1.393020e+000 3.317561e+000 2.756682e+000 2.977746e+000 2.949679e+000 2.027364e+000 2.530594e+000 2.116027e+000 1.789155e+000 2.327980e+000 2.432739e-001 2.187384e-001 1.821364e-001 3.033561e-001 4.115216e-001 4.572750e-001 4.176015e-001 7.227294e-001 3.229378e-001 3.337377e-001 3.832538e-001 2.994173e-001 2.749887e-001
<GCONST> 1.078419e+002
<STATE> 3
<MEAN> 39
 -1.045958e+001 -4.068879e+000 -5.709379e-001 -5.825486e-001 -8.057112e+000 -1.746518e+001 1.711029e+000 -7.381880e+000 -8.495378e+000 5.713236e-001 2.582161e+000 -4.448575e+000 6.211861e+001 1.508805e+000 1.703168e-001 9.261821e-001 1.620649e-001 -1.818416e+000 -1.364921e+000 -4.762748e-001 -1.070768e+000 -7.326589e-001 1.325749e-001 1.955096e-001 -3.359384e-001 7.944987e-001 -1.096823e-001 1.088045e-001 1.501584e-002 1.040649e-001 -7.082837e-002 1.113767e-001 9.479615e-002 -1.961056e-001 -1.284790e-001 1.031313e-001 -3.155280e-002 -1.108029e-001 5.648296e-002
<VARIANCE> 39
 6.249161e+001 3.388531e+001 4.088118e+001 3.535756e+001 1.011883e+002 8.372546e+001 4.171048e+001 6.452971e+001 4.239218e+001 3.661866e+001 3.181606e+001 2.774063e+001 2.494356e+001 7.650631e+000 4.745444e+000 4.476488e+000 3.341323e+000 1.301409e+001 9.679931e+000 4.648016e+000 8.039978e+000 5.325865e+000 4.731317e+000 3.864408e+000 3.571847e+000 3.815783e+000 7.118122e-001 9.173341e-001 4.344431e-001 5.848999e-001 1.573609e+000 1.417150e+000 8.275657e-001 1.053588e+000 7.934414e-001 9.824092e-001 6.941792e-001 6.326039e-001 5.135682e-001
<GCONST> 1.399760e+002
<STATE> 4
<MEAN> 39
 -1.093351e+001 -2.801838e+000 -2.261410e+000 -1.318640e+000 -7.115573e+000 -1.471643e+001 4.003702e-002 -9.414241e+000 -9.441669e+000 3.251049e-003 2.472219e-002 -6.286292e+000 6.263591e+001 -1.966288e-001 1.974260e-002 -1.158986e-001 -3.574593e-003 2.828982e-001 2.749989e-001 2.834278e-002 1.541708e-001 1.385117e-001 -6.406713e-002 -5.344313e-002 4.133543e-002 -1.245941e-001 -3.718798e-002 -3.959794e-003 -3.429127e-002 -9.207952e-003 6.057121e-002 4.998184e-002 3.957854e-003 4.365010e-002 5.550592e-002 -9.316709e-003 -9.571147e-003 1.771589e-002 -3.281835e-002
<VARIANCE> 39
 8.214366e+001 3.322697e+001 5.532920e+001 3.506744e+001 1.258392e+002 7.294726e+001 5.235602e+001 1.089995e+002 5.312068e+001 4.205577e+001 3.517210e+001 3.584841e+001 2.257157e+001 2.397250e+000 2.287001e+000 2.330316e+000 1.946635e+000 6.630898e+000 5.191821e+000 3.071013e+000 5.507447e+000 4.090542e+000 3.972375e+000 2.936974e+000 2.596793e+000 1.411973e+000 2.886717e-001 3.695158e-001 3.181965e-001 3.330342e-001 1.031482e+000 8.094578e-001 5.254589e-001 7.885711e-001 6.614032e-001 7.842041e-001 5.086384e-001 4.735868e-001 1.961488e-001
<GCONST> 1.283940e+002
<TRANSP> 5
 0.000000e+000 1.000000e+000 0.000000e+000 0.000000e+000 0.000000e+000
 0.000000e+000 3.998929e-001 6.001071e-001 0.000000e+000 0.000000e+000
 0.000000e+000 0.000000e+000 8.279861e-001 1.720139e-001 0.000000e+000
 0.000000e+000 0.000000e+000 0.000000e+000 9.799022e-001 2.009775e-002
 0.000000e+000 0.000000e+000 0.000000e+000 0.000000e+000 0.000000e+000
<ENDHMM>
~h "iy"
<BEGINHMM>
<NUMSTATES> 5
<STATE> 2
<MEAN> 39
 -2.517584e+000 1.821785e+000 8.117263e+000 -1.779964e+000 -2.055095e+001 -2.017418e+001 -7.585837e+000 -2.444669e+001 -1.703473e+001 -3.052684e+000 -4.064918e+000 -1.220997e+001 6.448820e+001 -4.509911e-001 7.327395e-001 3.467413e-001 -1.611670e-001 8.351596e-001 8.656195e-001 1.344085e-001 -6.430539e-002 -6.182672e-001 -6.712841e-001 -3.271059e-001 1.294299e-002 -4.971955e-001 3.347768e-002 -7.486620e-002 -3.733369e-001 1.192071e-001 4.734108e-001 5.771319e-002 -1.486222e-001 1.421914e-001 3.204367e-001 7.470600e-002 1.075122e-002 8.444215e-002 -2.986784e-002
<VARIANCE> 39
 6.879731e+000 1.961992e+001 2.285039e+001 2.188039e+001 4.132491e+001 3.974496e+001 3.262374e+001 4.026172e+001 4.435464e+001 2.632656e+001 3.301902e+001 2.660421e+001 8.527880e+000 2.931683e-001 1.330338e+000 1.937626e+000 1.189147e+000 3.493191e+000 2.154619e+000 3.039289e+000 2.494179e+000 3.658905e+000 2.142299e+000 2.033171e+000 1.553297e+000 2.872769e-001 4.596838e-002 1.692260e-001 2.070995e-001 1.955760e-001 6.495318e-001 3.782690e-001 5.837438e-001 5.043473e-001 6.214029e-001 3.885877e-001 4.037493e-001 2.762019e-001 3.475692e-002
<GCONST> 1.016013e+002
<STATE> 3
<MEAN> 39
 -4.251101e+000 3.873121e+000 6.257016e+000 -8.120704e-001 -1.351616e+001 -1.638117e+001 -6.227266e+000 -2.173153e+001 -1.627074e+001 -5.571509e+000 -4.296617e+000 -1.058687e+001 6.178376e+001 -5.551665e-001 2.409947e-001 -9.154061e-001 2.395910e-001 2.489721e+000 1.415505e+000 -4.340339e-002 1.033917e+000 8.560357e-001 -8.273060e-001 -6.612669e-001 5.504506e-001 -7.390053e-001 -1.193256e-001 -2.589299e-001 -2.368224e-001 -3.383815e-002 1.248261e-001 1.905681e-001 1.374365e-001 3.635405e-001 4.121989e-001 1.005035e-001 3.941196e-002 8.391237e-002 9.054849e-004
<VARIANCE> 39
 1.047894e+001 9.118219e+000 3.263203e+001 1.999458e+001 4.559574e+001 3.369807e+001 2.835564e+001 4.552065e+001 4.597359e+001 2.182588e+001 3.164243e+001 3.482426e+001 7.785325e+000 5.211927e-001 9.581215e-001 1.075612e+000 1.630946e+000 2.982846e+000 2.837204e+000 1.997710e+000 3.405491e+000 2.645373e+000 2.397161e+000 2.640196e+000 2.545890e+000 3.138181e-001 1.072036e-001 1.217427e-001 2.100942e-001 3.076640e-001 4.879332e-001 4.955057e-001 4.909312e-001 4.304585e-001 4.188521e-001 3.808385e-001 3.707225e-001 3.530667e-001 4.072934e-002
<GCONST> 1.025785e+002
<STATE> 4
<MEAN> 39
 -6.049343e+000 4.054834e+000 2.184178e+000 -1.594287e+000 -6.157569e+000 -1.165876e+001 -7.183084e+000 -1.764179e+001 -1.172095e+001 -8.605166e+000 -6.633004e+000 -7.940302e+000 5.915151e+001 -5.292547e-001 -3.880035e-001 -7.886723e-001 -2.431522e-002 1.164598e+000 8.320539e-001 3.804971e-001 1.042828e+000 8.762687e-001 -1.683952e-001 -5.290845e-002 3.769155e-001 -3.905201e-001 -2.649383e-002 -1.345642e-001 -5.174918e-002 -7.191242e-002 -2.137274e-001 -6.321910e-002 1.371198e-001 9.383864e-002 6.553458e-002 2.100392e-001 6.569704e-002 -1.180421e-001 6.325094e-002
<VARIANCE> 39
 1.107640e+001 1.006236e+001 1.905188e+001 1.324202e+001 3.173608e+001 2.937018e+001 3.002696e+001 3.822594e+001 3.330407e+001 2.490564e+001 2.839666e+001 2.313625e+001 5.814168e+000 5.643933e-001 6.736352e-001 1.029308e+000 1.028355e+000 2.608599e+000 1.746255e+000 2.116662e+000 2.822534e+000 2.476556e+000 1.870846e+000 1.719540e+000 1.590601e+000 2.275680e-001 7.785746e-002 1.171401e-001 1.658005e-001 2.020570e-001 3.978559e-001 2.788589e-001 3.381662e-001 4.228581e-001 3.785057e-001 4.061037e-001 3.163878e-001 2.631702e-001 2.868823e-002
<GCONST> 9.407906e+001
<TRANSP> 5
 0.000000e+000 1.000000e+000 0.000000e+000 0.000000e+000 0.000000e+000
 0.000000e+000 7.815124e-001 2.184876e-001 0.000000e+000 0.000000e+000
 0.000000e+000 0.000000e+000 5.197872e-001 4.802128e-001 0.000000e+000
 0.000000e+000 0.000000e+000 0.000000e+000 7.425754e-001 2.574246e-001
 0.000000e+000 0.000000e+000 0.000000e+000 0.000000e+000 0.000000e+000
<ENDHMM>
~h "ow"
<BEGINHMM>
<NUMSTATES> 5
<STATE> 2
<MEAN> 39
 -1.239565e+001 -2.290947e+000 -5.120871e+000 -4.523320e+000 -1.258400e+000 -4.987235e+000 1.442489e-001 -6.111134e+000 -3.537797e-002 -3.014984e+000 -1.085085e+000 -2.166231e+000 5.467310e+001 -6.170223e-002 -3.581949e-002 -2.790561e-002 -5.697274e-003 4.118890e-002 1.786790e-002 -1.243161e-002 2.574184e-002 2.782938e-002 9.851258e-003 -6.456720e-003 2.732973e-002 -4.104357e-002 1.448849e-002 4.176027e-003 -6.631772e-003 -1.565819e-002 -2.906853e-002 -2.787216e-002 -1.809972e-002 -1.293469e-002 -1.776436e-002 5.056641e-003 1.064117e-002 -1.049678e-002 1.477683e-002
<VARIANCE> 39
 4.033877e+000 3.279868e+000 6.671396e+000 7.938400e+000 7.400423e+000 9.022587e+000 1.198230e+001 1.530183e+001 1.225718e+001 1.355138e+001 1.425933e+001 1.182298e+001 2.402906e+000 1.349548e-001 1.770252e-001 3.858767e-001 6.911789e-001 8.619933e-001 9.212573e-001 1.147447e+000 1.376664e+000 1.277182e+000 1.268836e+000 1.485259e+000 1.343296e+000 6.746928e-002 2.423309e-002 3.310388e-002 7.764002e-002 1.451204e-001 1.741626e-001 1.953628e-001 2.375612e-001 2.874089e-001 2.656464e-001 2.692957e-001 3.111440e-001 2.838080e-001 1.247891e-002
<GCONST> 6.527984e+001
<STATE> 3
<MEAN> 39
 -1.225088e+001 -2.467202e+000 -6.335036e+000 -3.751994e+000 -2.312356e+000 -5.733624e+000 -7.768499e-001 -6.192869e+000 -2.350318e+000 -3.252179e+000 -4.977808e-001 -2.189442e+000 5.679504e+001 -1.845626e-001 -1.426023e-002 8.094525e-003 1.587209e-002 -3.667577e-002 -6.167128e-002 -1.350668e-001 8.123603e-002 3.277104e-002 -7.899530e-002 -3.185789e-001 -2.077077e-001 3.133445e-002 3.288418e-002 1.756316e-002 1.018876e-001 7.007264e-002 4.098742e-002 -9.525420e-002 -8.455486e-002 -8.364578e-002 -1.122451e-002 -5.177206e-002 -5.707260e-002 -9.041398e-002 4.836648e-002
<VARIANCE> 39
 2.733136e+001 1.278336e+001 1.660970e+001 1.956583e+001 1.349633e+001 1.297132e+001 2.566980e+001 5.361692e+001 1.947528e+001 2.797281e+001 2.551916e+001 1.819359e+001 1.397158e+001 2.471435e-001 4.714184e-001 5.311913e-001 9.483247e-001 1.178321e+000 1.229118e+000 1.469984e+000 1.679631e+000 1.272298e+000 1.851451e+000 2.057483e+000 1.264621e+000 1.043358e-001 6.567616e-002 7.965928e-002 1.005766e-001 1.828973e-001 2.619171e-001 2.574385e-001 3.052252e-001 3.812849e-001 2.857134e-001 3.809537e-001 4.898278e-001 2.519690e-001 4.347085e-002
<GCONST> 8.723708e+001
<STATE> 4
<MEAN> 39
 -1.089028e+001 -2.289054e+000 -5.681195e+000 -4.656157e+000 -2.088546e+000 -6.431821e+000 -2.606726e+000 -8.154943e+000 -2.839135e+000 -2.752402e+000 -1.600302e+000 -4.290473e+000 5.790234e+001 -1.630519e-001 -3.678101e-002 2.798942e-001 2.624504e-001 1.569632e-001 -4.184176e-001 -2.604802e-001 6.511438e-002 2.751196e-002 -1.531187e-001 -3.378347e-001 -4.387036e-001 1.847124e-001 3.482835e-002 1.051486e-001 1.548798e-001 7.291469e-002 3.101712e-002 -1.409483e-001 3.991381e-003 -3.167965e-003 -1.379530e-001 -9.057038e-002 8.493018e-002 -1.102997e-003 6.661524e-002
<VARIANCE> 39
 4.329354e+001 1.606503e+001 2.043698e+001 1.990581e+001 2.121698e+001 1.578371e+001 3.076044e+001 6.523711e+001 2.153557e+001 4.839360e+001 3.020238e+001 2.164393e+001 2.396239e+001 6.680036e-001 9.781964e-001 1.015275e+000 1.593286e+000 1.231496e+000 1.629303e+000 1.779859e+000 1.875926e+000 1.604710e+000 1.923684e+000 2.488751e+000 1.461964e+000 3.602703e-001 1.317903e-001 2.030316e-001 1.613818e-001 2.101412e-001 3.205886e-001 2.729195e-001 3.175349e-001 4.832602e-001 2.567630e-001 5.139724e-001 4.083434e-001 3.261451e-001 1.098737e-001
<GCONST> 1.000467e+002
<TRANSP> 5
 0.000000e+000 1.000000e+000 0.000000e+000 0.000000e+000 0.000000e+000
 0.000000e+000 9.582570e-001 4.174304e-002 0.000000e+000 0.000000e+000
 0.000000e+000 0.000000e+000 5.415224e-001 4.584776e-001 0.000000e+000
 0.000000e+000 0.000000e+000 0.000000e+000 9.946896e-002 9.005311e-001
 0.000000e+000 0.000000e+000 0.000000e+000 0.000000e+000 0.000000e+000
<ENDHMM>
~h "sp"
<BEGINHMM>
<NUMSTATES> 3
<STATE> 2
~s "silst"
<TRANSP> 3
 0.000000e+000 7.000000e-001 3.000000e-001
 0.000000e+000 1.267542e-002 9.873246e-001
 0.000000e+000 0.000000e+000 0.000000e+000
<ENDHMM>
~h "th"
<BEGINHMM>
<NUMSTATES> 5
<STATE> 2
<MEAN> 39
 -1.323536e+001 -3.391232e+000 -2.335720e+000 -2.545662e+000 9.688228e-002 -1.028772e+001 -1.068431e+000 -4.422371e+000 -5.968584e+000 -1.199096e+000 1.626089e-001 -4.711513e+000 5.924446e+001 -9.430488e-001 -3.430260e-001 -1.330663e-001 -2.407428e-001 7.471035e-001 3.407660e-001 2.373371e-001 1.228003e+000 2.456304e-001 4.171705e-001 2.584110e-001 -2.578189e-002 1.889686e-001 3.790013e-002 -5.472612e-002 -3.182322e-002 -8.017326e-002 -2.365941e-001 -1.026893e-002 -1.540602e-001 -7.697519e-002 9.190267e-002 1.776256e-002 5.813421e-002 2.935824e-002 5.299725e-002
<VARIANCE> 39
 3.090380e+001 1.654875e+001 2.123262e+001 2.706888e+001 5.344444e+001 4.315131e+001 4.336054e+001 4.547181e+001 3.913766e+001 3.128979e+001 3.126560e+001 2.608504e+001 1.569208e+001 1.533159e+000 1.606155e+000 1.313157e+000 1.944900e+000 3.515312e+000 3.635443e+000 3.621250e+000 4.870149e+000 3.493058e+000 2.964248e+000 3.093084e+000 2.441552e+000 5.593951e-001 1.204133e-001 1.996200e-001 1.821101e-001 2.875967e-001 5.739372e-001 5.647721e-001 5.664557e-001 6.386825e-001 5.939971e-001 5.514423e-001 6.008500e-001 5.110537e-001 5.614574e-002
<GCONST> 1.132033e+002
<STATE> 3
<MEAN> 39
 -1.687487e+001 -4.264065e+000 -3.705029e+000 -4.752738e+000 1.431485e+000 -7.857656e+000 -2.392365e+000 -5.267802e-001 -3.363549e+000 2.132987e-001 1.341230e+000 -4.174299e+000 6.001727e+001 -3.570569e-001 -5.687820e-001 -1.183517e-001 -4.086466e-001 -8.137164e-001 1.713400e-001 -5.696853e-001 7.357793e-002 4.224692e-001 1.667599e-001 1.927743e-001 1.275286e-001 3.378274e-001 2.375796e-001 -1.325571e-001 6.350914e-002 1.038812e-001 -3.684400e-001 4.356597e-003 -2.615114e-002 -4.096257e-001 3.087712e-002 2.481080e-002 -1.778486e-001 -2.135146e-003 1.260674e-002
<VARIANCE> 39
 2.419740e+001 1.238129e+001 1.419716e+001 1.997409e+001 4.029001e+001 3.428563e+001 2.570220e+001 3.401079e+001 2.759939e+001 2.927895e+001 2.654173e+001 2.287021e+001 1.465564e+001 1.067810e+000 1.348695e+000 1.156897e+000 1.729049e+000 2.453121e+000 2.433773e+000 2.399799e+000 2.460997e+000 2.810150e+000 2.359190e+000 2.079123e+000 1.909590e+000 3.328025e-001 1.413214e-001 2.001890e-001 2.106627e-001 3.656635e-001 5.030523e-001 4.205777e-001 5.474105e-001 5.157846e-001 5.123377e-001 6.063915e-001 4.346668e-001 3.327172e-001 5.226217e-002
<GCONST> 1.046096e+002
<STATE> 4
<MEAN> 39
 -1.117576e+001 -9.789758e+000 -5.646280e+000 -7.647598e-001 -3.761627e+000 -1.025091e+001 -6.883117e+000 -9.309529e+000 -2.576057e+000 3.525162e+000 1.700785e+000 -5.827346e+000 6.247661e+001 1.766995e+000 1.980167e-001 -3.784139e-001 4.112392e-001 -8.019518e-001 -1.221882e+000 -9.546056e-001 -1.743273e+000 -2.450271e-001 2.367859e-001 3.892736e-002 -2.111219e-001 4.489254e-001 8.641917e-002 1.286280e-001 9.535020e-002 5.429441e-002 -5.446095e-002 -2.013946e-001 3.099523e-002 -3.620957e-002 -1.632434e-001 -1.200134e-002 -6.334604e-002 -1.149250e-001 5.511313e-002
<VARIANCE> 39
 6.705115e+001 4.541129e+001 2.518122e+001 4.426327e+001 4.281255e+001 5.163094e+001 5.793653e+001 9.242854e+001 3.114494e+001 3.993579e+001 3.124645e+001 2.877262e+001 9.805317e+000 2.869114e+000 6.448851e+000 2.539199e+000 6.046381e+000 6.625284e+000 3.829949e+000 5.802798e+000 5.280850e+000 3.956004e+000 4.612370e+000 3.832513e+000 3.974638e+000 1.103849e+000 5.087714e-001 9.832297e-001 4.618203e-001 1.138011e+000 1.291641e+000 6.309944e-001 1.270763e+000 1.059592e+000 7.539712e-001 9.108167e-001 7.847193e-001 9.117051e-001 1.900329e-001
<GCONST> 1.336290e+002
<TRANSP> 5
 0.000000e+000 1.000000e+000 0.000000e+000 0.000000e+000 0.000000e+000
 0.000000e+000 8.230807e-001 1.769193e-001 0.000000e+000 0.000000e+000
 0.000000e+000 0.000000e+000 6.632239e-001 3.367761e-001 0.000000e+000
 0.000000e+000 0.000000e+000 0.000000e+000 8.832532e-001 1.167468e-001
 0.000000e+000 0.000000e+000 0.000000e+000 0.000000e+000 0.000000e+000
<ENDHMM>
~h "uw"
<BEGINHMM>
<NUMSTATES> 5
<STATE> 2
<MEAN> 39
 -4.110916e+000 -2.917151e+000 -1.529292e+000 2.547395e-001 -1.056115e+001 -1.688361e+001 -7.263646e+000 -1.406375e+001 -1.018310e+001 -2.917102e+000 1.612161e+000 -5.517485e+000 6.341384e+001 2.088370e+000 1.902755e+000 5.216104e-001 -2.878770e-001 -6.022290e-001 -2.926906e-001 -1.882654e+000 -3.353922e+000 -9.368722e-001 2.648666e-001 -8.541253e-001 -9.605986e-001 8.013565e-001 -3.804050e-001 -2.084268e-001 -6.221651e-002 -1.056952e-001 1.986768e-001 3.119359e-001 3.016842e-001 4.320295e-001 -6.489667e-002 5.171895e-002 1.327714e-001 -8.393196e-004 -9.943105e-003
<VARIANCE> 39
 4.203073e+001 4.097215e+001 2.380741e+001 7.649216e+001 5.489777e+001 4.504164e+001 3.007126e+001 6.586480e+001 4.390223e+001 2.960108e+001 2.464635e+001 2.236778e+001 2.017978e+001 4.944777e+000 4.134259e+000 1.228362e+000 2.286381e+000 3.424941e+000 2.203880e+000 4.572086e+000 1.194983e+001 3.294543e+000 2.583080e+000 2.586230e+000 2.490081e+000 1.589346e+000 4.265298e-001 3.593701e-001 2.354569e-001 3.423299e-001 5.948301e-001 4.042893e-001 6.759886e-001 1.055468e+000 4.865261e-001 4.922669e-001 3.751389e-001 3.419930e-001 2.866398e-001
<GCONST> 1.221775e+002
<STATE> 3
<MEAN> 39
 1.580550e+000 5.483557e-001 -8.211716e-001 1.271171e+000 -9.935416e+000 -1.572139e+001 -1.236250e+001 -2.590554e+001 -1.614515e+001 -8.785589e-001 1.716213e+000 -9.067832e+000 6.630650e+001 4.317333e-001 1.286032e+000 -2.297788e-001 -1.261360e+000 3.965088e-001 7.493610e-001 -6.234152e-001 -1.279653e+000 -7.689639e-001 -4.544166e-001 -5.230935e-001 -2.908002e-001 -1.432306e-001 -5.561630e-001 -3.508679e-001 -1.072485e-001 -3.130503e-002 2.047250e-001 7.317883e-002 3.472113e-001 8.111819e-001 2.420176e-001 -3.430978e-001 -9.338634e-003 3.326253e-001 -2.998028e-001
<VARIANCE> 39
 1.341268e+001 2.218517e+001 1.570936e+001 3.407821e+001 2.157323e+001 3.326924e+001 2.865905e+001 5.629759e+001 4.425558e+001 2.939716e+001 3.052635e+001 2.174345e+001 1.262970e+001 1.634143e+000 1.178568e+000 9.799601e-001 1.523409e+000 1.941358e+000 1.699202e+000 1.593990e+000 3.872488e+000 2.098543e+000 2.915264e+000 1.888243e+000 1.919313e+000 9.724894e-001 2.345794e-001 2.228565e-001 1.716575e-001 2.794591e-001 4.232275e-001 2.953441e-001 3.182232e-001 6.068720e-001 3.808629e-001 3.865354e-001 3.611987e-001 3.045318e-001 1.411761e-001
<GCONST> 1.051704e+002
<STATE> 4
<MEAN> 39
 -1.012174e+000 6.531497e+000 -3.627885e-001 -5.135917e+000 -8.391400e+000 -1.393749e+001 -1.253646e+001 -2.284746e+001 -1.460054e+001 -8.783538e+000 -4.293928e+000 -6.718103e+000 6.190562e+001 -4.216757e-001 -8.636596e-002 4.659821e-002 2.164869e-002 3.290766e-001 9.904194e-002 7.293218e-002 4.678246e-001 4.398237e-001 -2.538801e-001 -3.109424e-001 1.716812e-001 -3.097933e-001 -6.337067e-002 -1.595275e-001 -5.360218e-003 1.571957e-001 3.548689e-002 -1.248039e-002 1.086703e-001 1.745038e-001 1.245123e-001 1.190224e-001 5.953165e-002 -2.421161e-002 1.655355e-002
<VARIANCE> 39
 1.080206e+001 1.087301e+001 9.307073e+000 2.007122e+001 2.152961e+001 2.795849e+001 2.614347e+001 4.013951e+001 3.741339e+001 4.216710e+001 3.763384e+001 2.058764e+001 6.609650e+000 2.275301e-001 8.163822e-001 5.515473e-001 1.071022e+000 1.145589e+000 1.285137e+000 1.515852e+000 1.901709e+000 1.824110e+000 2.156898e+000 1.837060e+000 1.297821e+000 1.125756e-001 4.416905e-002 8.653685e-002 9.942954e-002 1.349530e-001 1.875885e-001 2.365357e-001 3.062331e-001 3.547352e-001 3.045684e-001 3.133048e-001 2.888346e-001 2.565297e-001 1.701258e-002
<GCONST> 8.598578e+001
<TRANSP> 5
 0.000000e+000 1.000000e+000 0.000000e+000 0.000000e+000 0.000000e+000
 0.000000e+000 6.817502e-001 3.182498e-001 0.000000e+000 0.000000e+000
 0.000000e+000 0.000000e+000 7.254574e-001 2.745425e-001 0.000000e+000
 0.000000e+000 0.000000e+000 0.000000e+000 8.992103e-001 1.007897e-001
 0.000000e+000 0.000000e+000 0.000000e+000 0.000000e+000 0.000000e+000
<ENDHMM>
~h "sil"
<BEGINHMM>
<NUMSTATES> 5
<STATE> 2
<MEAN> 39
 -1.611477e+001 -2.786940e+000 -4.852933e+000 -3.433577e+000 -1.983919e+000 -3.524086e+000 -2.901773e-001 -3.205270e+000 1.867849e-001 -2.180214e+000 -8.942476e-001 -1.102877e+000 4.167958e+001 4.034583e-002 -2.326478e-002 4.269645e-003 -1.965759e-002 3.616444e-002 -2.425689e-002 2.621985e-003 -2.968618e-002 5.045855e-002 -3.954405e-002 1.002419e-002 9.054570e-003 2.102631e-001 6.605467e-003 4.358258e-003 1.277576e-003 -2.267540e-003 -1.983059e-002 -1.590867e-002 -1.359496e-002 -6.980751e-003 -6.395887e-003 4.907082e-003 -4.383494e-003 -9.230004e-003 3.610454e-003
<VARIANCE> 39
 2.376154e+001 3.757921e+000 6.879643e+000 8.812137e+000 9.594272e+000 1.370055e+001 1.017588e+001 2.294310e+001 1.291255e+001 1.576766e+001 1.203424e+001 1.230950e+001 2.501443e+002 4.700465e-001 2.910100e-001 5.237875e-001 5.989084e-001 8.491691e-001 8.431980e-001 1.037320e+000 1.415690e+000 1.377984e+000 1.440791e+000 1.166972e+000 1.150321e+000 1.831874e+000 8.572119e-002 5.510824e-002 1.041157e-001 1.183490e-001 1.619797e-001 1.679053e-001 2.106326e-001 2.736779e-001 2.809121e-001 2.980273e-001 2.334539e-001 2.486584e-001 2.864247e-001
<GCONST> 8.214240e+001
<STATE> 3
~s "silst"
<STATE> 4
<MEAN> 39
 -1.462711e+001 -3.431994e+000 -4.323675e+000 -3.162861e+000 -1.566555e+000 -4.761487e+000 -7.640008e-001 -6.559583e+000 -2.651544e-001 -5.106952e+000 -1.407061e+000 -1.822070e+000 4.949630e+001 5.684584e-002 2.975592e-002 9.083724e-002 3.600256e-002 -1.609702e-001 -1.518646e-001 -3.411027e-001 3.526099e-002 -9.021695e-002 8.195116e-002 1.199196e-001 -1.899717e-001 -4.164977e-002 6.309843e-002 8.409645e-002 -2.033815e-002 -7.714444e-002 -4.665965e-002 -4.053652e-002 -1.025341e-002 6.254491e-002 -2.704195e-002 8.319221e-002 -2.923290e-002 -3.177575e-002 3.904678e-003
<VARIANCE> 39
 1.182352e+001 7.156470e+000 6.006145e+000 6.828937e+000 7.274055e+000 1.249779e+001 1.263664e+001 1.963328e+001 1.608299e+001 2.573801e+001 1.123775e+001 1.231790e+001 1.430352e+002 2.989664e-001 9.735047e-001 6.778249e-001 7.824982e-001 6.783470e-001 1.078490e+000 1.235668e+000 1.761910e+000 2.487275e+000 2.837056e+000 9.988175e-001 1.629036e+000 5.353756e-001 2.974963e-002 7.342312e-002 7.020374e-002 9.494631e-002 1.210716e-001 1.267770e-001 1.769951e-001 1.961800e-001 2.057132e-001 3.360590e-001 1.436353e-001 2.034393e-001 5.761847e-002
<GCONST> 7.845233e+001
<TRANSP> 5
 0.000000e+000 1.000000e+000 0.000000e+000 0.000000e+000 0.000000e+000
 0.000000e+000 7.840530e-001 1.594704e-002 2.000000e-001 0.000000e+000
 0.000000e+000 0.000000e+000 1.267542e-002 9.873246e-001 0.000000e+000
 0.000000e+000 2.000000e-001 0.000000e+000 5.329880e-004 7.994670e-001
 0.000000e+000 0.000000e+000 0.000000e+000 0.000000e+000 0.000000e+000
<ENDHMM>
