~o
<STREAMINFO> 1 39
<VECSIZE> 39<NULLD><MFCC_D_A_0><DIAGC>
~s "silst"
<MEAN> 39
 -1.267631e+001 -2.565784e+000 -4.212404e+000 -3.420695e+000 -9.605073e-001 -4.853275e+000 4.595479e-002 -6.613250e+000 -1.003749e+000 -5.245969e+000 -2.426911e+000 -2.583151e+000 5.512177e+001 -1.674088e-001 -1.408640e-001 6.282892e-004 5.440734e-002 7.379037e-003 -8.899788e-002 -1.680620e-001 -1.621082e-001 1.778455e-003 -2.020773e-003 8.256122e-002 2.708806e-002 -3.720815e-002 7.997090e-002 5.021131e-002 3.198024e-002 -6.368556e-002 -1.313477e-001 -1.374459e-001 -9.100606e-002 3.775188e-002 -5.683391e-002 1.826521e-001 1.289965e-001 -4.169197e-002 1.591755e-002
<VARIANCE> 39
 2.986237e+000 7.418056e+000 6.936669e+000 8.470161e+000 8.736465e+000 1.072617e+001 1.126448e+001 1.378657e+001 1.562608e+001 2.238875e+001 1.931799e+001 1.473230e+001 3.994401e+000 2.582613e-001 6.072014e-001 6.199411e-001 1.019622e+000 1.002084e+000 1.262070e+000 1.295488e+000 1.990169e+000 2.248698e+000 2.810903e+000 1.751985e+000 1.636585e+000 2.929033e-001 5.815103e-002 1.359165e-001 1.298157e-001 1.846241e-001 2.292154e-001 2.564445e-001 2.735378e-001 3.741955e-001 4.596915e-001 5.544360e-001 3.848123e-001 3.225281e-001 8.187959e-002
<GCONST> 8.222659e+001
~h "f"
<BEGINHMM>
<NUMSTATES> 5
<STATE> 2
<MEAN> 39
 -1.263219e+001 -2.423115e+000 -4.585223e+000 -4.102868e+000 -1.845776e+000 -5.703978e+000 -1.500610e-001 -5.977866e+000 -2.771666e-001 -2.903966e+000 -6.067627e-001 -2.130707e+000 5.417179e+001 -7.528608e-002 -1.053787e-001 -8.098514e-002 4.811882e-002 6.953308e-002 6.764164e-002 2.895579e-002 5.796840e-002 8.345847e-002 1.175428e-001 6.532409e-002 4.126213e-002 -2.507457e-002 1.544382e-002 -5.105206e-003 -1.123995e-004 9.040455e-003 -2.975753e-002 -3.832156e-002 -2.376011e-002 -9.523945e-003 -2.412001e-002 7.928257e-003 3.154776e-003 -1.669838e-002 2.128809e-002
<VARIANCE> 39
 3.787502e+000 4.912098e+000 5.903884e+000 9.406462e+000 8.602851e+000 9.881281e+000 1.151903e+001 1.223358e+001 1.187698e+001 1.358376e+001 1.499786e+001 1.130754e+001 1.385710e+001 1.622264e-001 3.964190e-001 4.043248e-001 7.027927e-001 9.736058e-001 1.048113e+000 1.145859e+000 1.264215e+000 1.208067e+000 1.474533e+000 1.334103e+000 1.211853e+000 7.480969e-002 2.404584e-002 4.597439e-002 6.820671e-002 1.365688e-001 2.159568e-001 2.221036e-001 2.387617e-001 2.572863e-001 2.484985e-001 2.838843e-001 2.596723e-001 2.429477e-001 1.546299e-002
<GCONST> 6.881292e+001
<STATE> 3
<MEAN> 39
 -1.918978e+001 -4.710550e+000 -6.228418e+000 -8.575658e-001 -2.641572e+000 -2.681752e+000 -1.237786e+000 -1.363774e+000 1.888418e-001 6.920179e-001 2.868710e-001 -4.703226e-001 3.310338e+001 -8.110201e-002 -1.432203e-001 -1.088547e-001 9.775309e-002 -1.971008e-002 -1.468668e-002 -2.815076e-003 1.210603e-002 -1.309468e-003 1.894465e-001 1.428030e-001 -9.808808e-003 3.867714e-002 1.635647e-002 6.667687e-003 2.335053e-003 -3.097915e-002 -2.508682e-002 -4.118033e-002 -2.941546e-002 -3.286977e-002 -4.150367e-002 -1.715237e-002 -1.366862e-002 -2.870569e-002 1.116773e-002
<VARIANCE> 39
 2.010195e+001 7.612580e+000 5.590327e+000 9.991265e+000 8.316801e+000 1.618020e+001 1.034880e+001 2.456631e+001 1.235015e+001 1.224291e+001 1.033222e+001 1.456254e+001 2.812296e+002 1.591839e-001 4.308267e-001 4.746354e-001 6.130028e-001 6.482183e-001 6.842692e-001 9.340029e-001 1.490525e+000 1.433541e+000 1.601658e+000 8.945124e-001 1.038530e+000 7.291211e-002 1.757672e-002 5.598107e-002 7.934829e-002 8.738688e-002 1.175091e-001 1.522020e-001 2.070979e-001 2.570671e-001 2.870299e-001 3.149169e-001 1.625498e-001 2.263086e-001 9.833904e-003
<GCONST> 7.140483e+001
<STATE> 4
<MEAN> 39
 -1.038342e+001 -6.835298e+000 -8.185360e+000 -7.935007e-001 -4.662726e+000 -8.987409e+000 -3.212552e+000 -6.333633e+000 -2.650471e+000 2.039358e+000 1.637863e+000 -5.179338e+000 5.929430e+001 7.217839e-001 6.707217e-001 -1.156650e-001 -9.991404e-001 -1.094072e+000 -6.383730e-001 -2.880409e-001 -8.769824e-002 -1.757938e-001 -2.261652e-001 -2.842437e-001 -2.374098e-001 3.257123e-001 1.292370e-001 2.159613e-001 7.316655e-002 -1.534854e-001 -1.313676e-001 -6.955979e-002 -3.632607e-002 -8.957860e-002 -4.091989e-002 -1.618542e-001 -1.322550e-001 -1.579532e-002 3.755887e-002
<VARIANCE> 39
 3.485497e+001 4.422585e+001 1.324196e+001 5.550122e+001 4.233522e+001 3.153769e+001 1.469901e+001 1.468884e+001 2.006355e+001 2.845180e+001 2.095866e+001 1.440997e+001 4.165105e+001 3.297379e+000 5.699736e+000 1.105894e+000 4.512819e+000 3.975134e+000 2.088265e+000 1.617091e+000 1.593419e+000 1.768453e+000 3.075195e+000 2.189341e+000 1.441193e+000 4.852614e-001 2.844036e-001 7.388245e-001 1.672744e-001 5.376700e-001 6.564900e-001 4.013830e-001 2.881548e-001 2.790727e-001 3.462997e-001 5.079517e-001 3.552609e-001 3.050980e-001 7.078968e-002
<GCONST> 1.092688e+002
<TRANSP> 5
 0.000000e+000 1.000000e+000 0.000000e+000 0.000000e+000 0.000000e+000
 0.000000e+000 9.098421e-001 9.015784e-002 0.000000e+000 0.000000e+000
 0.000000e+000 0.000000e+000 8.277678e-001 1.722322e-001 0.000000e+000
 0.000000e+000 0.000000e+000 0.000000e+000 7.857681e-001 2.142319e-001
 0.000000e+000 0.000000e+000 0.000000e+000 0.000000e+000 0.000000e+000
<ENDHMM>
~h "k"
<BEGINHMM>
<NUMSTATES> 5
<STATE> 2
<MEAN> 39
 -1.412337e+001 -3.330562e+000 -6.281188e+000 -4.997213e+000 -2.187338e+000 -6.372682e+000 -1.298234e-001 -4.992827e+000 -3.324555e-001 -3.174022e+000 -7.872213e-001 -2.051365e+000 5.491676e+001 1.850941e-002 -1.704583e-002 -1.743984e-002 -2.978753e-002 -1.531084e-002 2.225238e-002 6.994165e-003 -5.250099e-002 7.585748e-002 3.561965e-002 -3.875483e-002 1.709319e-002 -5.174340e-002 -5.993614e-003 -6.063046e-003 7.507368e-003 1.086779e-002 9.153027e-003 -2.973568e-002 7.863440e-003 7.255795e-003 -2.927418e-002 6.348715e-003 1.046758e-002 -3.766004e-003 1.409519e-002
<VARIANCE> 39
 8.011999e+000 6.264930e+000 7.754849e+000 1.117074e+001 8.621873e+000 1.121894e+001 1.110427e+001 1.400343e+001 1.434225e+001 1.556057e+001 1.613158e+001 1.247978e+001 4.930701e+000 1.781173e-001 2.328953e-001 3.770372e-001 7.219849e-001 7.504629e-001 9.851606e-001 1.056042e+000 1.273772e+000 1.275475e+000 1.642487e+000 1.604305e+000 1.344463e+000 1.066269e-001 2.947865e-002 4.637657e-002 7.507795e-002 1.427732e-001 1.547125e-001 1.915395e-001 2.193318e-001 2.480747e-001 2.583339e-001 3.570990e-001 3.395944e-001 2.739497e-001 1.726434e-002
<GCONST> 7.038425e+001
<STATE> 3
<MEAN> 39
 -1.632581e+001 -2.780864e+000 -5.634881e+000 -2.666206e+000 -4.989987e-001 -9.080589e+000 2.229183e+000 -4.510737e+000 -2.814584e+000 -1.699318e+000 -9.787332e-001 -1.874594e+000 5.788479e+001 -1.187097e-002 9.630696e-002 -6.311194e-003 -1.798187e-001 1.358264e-001 2.591418e-001 -2.884529e-002 -2.814459e-001 4.255990e-002 9.719879e-003 -1.874242e-001 -1.046410e-001 -2.449969e-002 1.308891e-002 -1.012443e-001 4.336747e-002 -1.965834e-002 3.297608e-002 -4.957764e-002 -3.821512e-002 2.966160e-002 -1.929125e-001 3.283645e-003 9.590980e-002 -4.104028e-002 5.266356e-002
<VARIANCE> 39
 2.186744e+001 7.406443e+000 9.299129e+000 1.007586e+001 1.472463e+001 2.933171e+001 2.294192e+001 1.917305e+001 2.034898e+001 2.597510e+001 2.293840e+001 1.209963e+001 1.596957e+001 1.127005e-001 2.794959e-001 4.561068e-001 7.610536e-001 7.514386e-001 9.354359e-001 1.184529e+000 1.004414e+000 1.338408e+000 1.688655e+000 1.028461e+000 1.206018e+000 6.459948e-002 3.147388e-002 5.699808e-002 6.657971e-002 1.983888e-001 1.654423e-001 2.949696e-001 2.168279e-001 2.438055e-001 3.457613e-001 3.495579e-001 2.808956e-001 2.310831e-001 2.153940e-002
<GCONST> 7.642677e+001
<STATE> 4
<MEAN> 39
 -1.512778e+001 -1.949040e+000 -5.059153e+000 -3.288558e+000 -5.923331e-001 -6.475173e+000 9.183748e-001 -4.635065e+000 -9.857868e-001 -2.259443e+000 -1.186160e+000 -2.033718e+000 5.662906e+001 4.429616e-002 -1.225008e-001 -3.013333e-002 -2.071061e-001 1.150207e-001 9.421629e-002 -1.846075e-001 -1.719361e-001 -1.825576e-001 9.393363e-002 3.185939e-002 -1.467436e-001 2.124023e-002 4.098979e-002 -1.156619e-001 2.643857e-002 -2.839755e-003 -8.518206e-002 -1.817387e-001 -5.203073e-002 -2.435303e-002 -2.245851e-001 1.212870e-001 6.357972e-002 -7.935985e-002 1.204958e-001
<VARIANCE> 39
 2.128729e+001 5.335590e+000 9.917633e+000 1.038377e+001 1.141748e+001 2.613751e+001 1.373110e+001 1.907522e+001 1.868196e+001 1.975917e+001 1.540390e+001 1.074574e+001 1.568769e+001 1.374161e-001 3.403586e-001 6.125824e-001 7.408544e-001 6.379287e-001 1.070556e+000 1.029704e+000 1.032952e+000 1.171127e+000 1.649172e+000 1.484724e+000 1.077459e+000 9.729803e-002 6.404578e-002 7.471502e-002 1.032347e-001 1.746705e-001 1.933788e-001 2.056119e-001 2.046946e-001 3.015584e-001 2.909516e-001 3.253808e-001 2.771035e-001 2.277956e-001 5.152059e-002
<GCONST> 7.725641e+001
<TRANSP> 5
 0.000000e+000 1.000000e+000 0.000000e+000 0.000000e+000 0.000000e+000
 0.000000e+000 9.552665e-001 4.473350e-002 0.000000e+000 0.000000e+000
 0.000000e+000 0.000000e+000 5.150954e-001 4.849046e-001 0.000000e+000
 0.000000e+000 0.000000e+000 0.000000e+000 3.616776e-001 6.383224e-001
 0.000000e+000 0.000000e+000 0.000000e+000 0.000000e+000 0.000000e+000
<ENDHMM>
~h "n"
<BEGINHMM>
<NUMSTATES> 5
<STATE> 2
<MEAN> 39
 -6.902412e+000 -2.671070e+000 -3.596689e+000 -2.011829e+000 -6.642959e+000 -1.259837e+001 -3.674753e+000 -1.239095e+001 -7.278741e+000 -1.833094e+000 -1.035344e+000 -6.897752e+000 6.186906e+001 3.117042e-001 2.948544e-001 4.217741e-001 -5.884668e-002 -7.901557e-001 -5.086415e-001 -9.481525e-002 -4.966234e-001 -3.615365e-001 4.511431e-002 5.869449e-002 -1.242311e-002 2.005963e-001 8.735246e-002 -1.157177e-001 -1.032479e-001 -5.040845e-002 -1.336848e-002 -8.624285e-003 -1.220702e-004 -5.553015e-002 -7.362279e-003 9.414269e-002 -9.007705e-003 -1.305700e-001 1.286027e-001
<VARIANCE> 39
 5.095375e+001 4.106640e+001 4.480098e+001 3.204299e+001 6.344901e+001 5.287147e+001 5.961560e+001 8.141478e+001 4.069952e+001 4.428691e+001 3.680077e+001 2.857549e+001 2.382426e+001 2.923909e+000 3.390895e+000 3.635105e+000 2.661931e+000 6.005630e+000 5.129418e+000 3.498359e+000 5.110511e+000 3.868695e+000 4.510953e+000 3.178500e+000 3.149940e+000 2.122348e+000 2.909065e-001 4.033002e-001 4.932440e-001 4.099383e-001 7.439029e-001 7.046716e-001 5.654832e-001 7.071080e-001 5.378673e-001 7.106645e-001 6.333421e-001 4.152349e-001 2.066215e-001
<GCONST> 1.284365e+002
<STATE> 3
<MEAN> 39
 2.324657e-001 -7.252434e+000 -8.380369e+000 -3.955783e+000 -9.180210e+000 -1.486312e+001 -4.442606e+000 -1.787439e+001 -9.708928e+000 1.615803e+000 -4.042764e-001 -1.147413e+001 6.784493e+001 -1.097198e-001 1.754117e-001 3.557181e-001 8.661624e-002 -2.242199e-001 -5.377200e-002 1.682713e-001 -4.842649e-002 -2.083708e-001 -7.483710e-002 6.973770e-002 8.844835e-002 -6.762518e-002 -8.100195e-002 5.789483e-002 1.304378e-002 1.596143e-002 1.557907e-001 1.213257e-001 4.481617e-003 6.492054e-002 2.794900e-002 -1.170284e-001 -6.619003e-002 5.916781e-002 -9.482140e-002
<VARIANCE> 39
 2.012473e+001 5.309151e+001 1.099007e+002 4.625647e+001 1.124061e+002 7.719645e+001 7.265672e+001 5.155748e+001 4.967175e+001 4.877665e+001 3.977925e+001 4.159631e+001 2.054870e+001 1.011517e+000 3.338202e+000 5.961095e+000 2.525994e+000 5.197637e+000 3.655425e+000 3.250370e+000 3.637522e+000 3.864600e+000 4.371531e+000 3.553396e+000 2.684077e+000 1.288145e+000 1.492787e-001 3.972074e-001 7.050862e-001 4.225320e-001 7.315449e-001 5.434445e-001 5.659577e-001 5.915977e-001 6.714010e-001 7.852410e-001 7.091520e-001 4.587317e-001 1.523554e-001
<GCONST> 1.276899e+002
<STATE> 4
<MEAN> 39
 -4.117549e+000 2.724557e+000 1.168955e+000 -2.483156e+000 -9.923030e+000 -1.418448e+001 -6.807579e+000 -1.776568e+001 -1.087506e+001 -5.718842e+000 -3.513840e+000 -6.366050e+000 6.139610e+001 -5.345404e-001 1.741028e-001 -1.330612e-001 1.166343e-001 1.240107e+000 1.004321e+000 2.377246e-001 5.789509e-001 3.992776e-001 -5.250407e-001 -3.595939e-001 2.422550e-001 -5.319914e-001 -5.108169e-002 -1.823543e-001 -1.626688e-001 1.869799e-002 9.133102e-002 1.603963e-002 9.796000e-002 1.998511e-001 1.912322e-001 1.768400e-001 5.717153e-002 -6.648269e-002 3.570620e-002
<VARIANCE> 39
 1.341930e+001 1.650499e+001 2.342197e+001 2.669325e+001 6.453484e+001 4.725301e+001 3.834753e+001 4.694767e+001 3.916016e+001 4.165085e+001 3.106418e+001 2.363807e+001 9.305377e+000 3.872198e-001 1.070687e+000 1.026666e+000 1.164371e+000 2.465211e+000 1.998089e+000 2.504519e+000 2.709059e+000 2.191450e+000 2.204883e+000 1.954086e+000 1.405260e+000 2.587475e-001 6.666952e-002 1.379481e-001 1.776169e-001 2.191491e-001 3.752227e-001 3.675914e-001 4.138782e-001 4.214185e-001 3.493986e-001 3.697331e-001 3.373108e-001 2.572451e-001 3.388764e-002
<GCONST> 9.976321e+001
<TRANSP> 5
 0.000000e+000 1.000000e+000 0.000000e+000 0.000000e+000 0.000000e+000
 0.000000e+000 8.100048e-001 1.899951e-001 0.000000e+000 0.000000e+000
 0.000000e+000 0.000000e+000 8.875290e-001 1.124709e-001 0.000000e+000
 0.000000e+000 0.000000e+000 0.000000e+000 8.697118e-001 1.302882e-001
 0.000000e+000 0.000000e+000 0.000000e+000 0.000000e+000 0.000000e+000
<ENDHMM>
~h "r"
<BEGINHMM>
<NUMSTATES> 5
<STATE> 2
<MEAN> 39
 -3.506727e+000 -4.983679e+000 -6.486119e+000 -2.532900e+000 -6.690966e+000 -1.368867e+001 -6.343064e+000 -1.419296e+001 -7.016694e+000 5.008703e-001 6.046768e-001 -8.361978e+000 6.474514e+001 -4.912924e-001 2.785289e-002 8.209028e-001 5.147855e-001 -3.372481e-001 -2.327794e-001 4.777157e-001 4.708263e-001 -2.058340e-002 -7.987970e-003 -2.289582e-001 -2.561662e-001 -1.589591e-001 -1.559710e-001 4.060654e-003 7.101454e-002 -3.210010e-002 -5.663689e-002 1.061482e-001 1.587881e-001 3.810366e-002 -7.293601e-002 -6.769743e-002 3.174080e-002 6.536299e-002 -9.030759e-002
<VARIANCE> 39
 6.308451e+001 5.578958e+001 6.226551e+001 5.549118e+001 8.790401e+001 9.065550e+001 8.010456e+001 8.897203e+001 4.568001e+001 4.389140e+001 3.775708e+001 4.101435e+001 2.485723e+001 2.841774e+000 3.368573e+000 3.677296e+000 3.331234e+000 6.834923e+000 4.725719e+000 4.656344e+000 5.403774e+000 3.842017e+000 3.510878e+000 3.181650e+000 2.727688e+000 1.331690e+000 3.348040e-001 5.792110e-001 4.727043e-001 5.306486e-001 8.658682e-001 7.019249e-001 9.378898e-001 8.042560e-001 7.000696e-001 6.947190e-001 5.565483e-001 4.515104e-001 1.813363e-001
<GCONST> 1.329090e+002
<STATE> 3
<MEAN> 39
 -1.117723e+000 -4.233370e+000 -1.435094e+000 2.039079e-001 -1.393693e+001 -1.969969e+001 -6.916022e+000 -1.799783e+001 -8.812319e+000 3.170692e+000 2.518083e+000 -7.985370e+000 6.605542e+001 -9.353482e-001 5.457326e-001 1.619049e+000 -1.634112e-001 -1.458445e+000 1.207998e-001 1.203045e+000 2.092474e-001 -4.663079e-001 -5.645517e-001 -6.733786e-001 -1.830852e-001 -5.595074e-001 -1.142654e-001 8.974300e-002 -1.155217e-001 -2.325032e-001 1.834882e-001 2.847134e-001 4.750346e-002 4.023124e-002 -1.987489e-001 -3.619561e-001 3.947214e-002 2.104287e-001 -1.245464e-001
<VARIANCE> 39
 4.156550e+001 2.942268e+001 6.736499e+001 5.293773e+001 1.119209e+002 9.933096e+001 1.016609e+002 7.966556e+001 4.773892e+001 3.400774e+001 3.717782e+001 3.408250e+001 2.032099e+001 4.827635e-001 1.614688e+000 4.767418e+000 2.152605e+000 8.766463e+000 3.334757e+000 4.944698e+000 3.524578e+000 4.609830e+000 2.479807e+000 3.712470e+000 2.590136e+000 4.081313e-001 1.844506e-001 2.977745e-001 4.623793e-001 3.702742e-001 8.474754e-001 6.751732e-001 8.234901e-001 5.612944e-001 8.008755e-001 5.122235e-001 6.248617e-001 4.045866e-001 7.059779e-002
<GCONST> 1.240326e+002
<STATE> 4
<MEAN> 39
 -3.907741e+000 1.224204e+000 -4.291283e+000 -7.923717e+000 -1.098824e+001 -1.323754e+001 -4.861128e+000 -1.205341e+001 -4.946829e+000 -2.022712e+000 5.421866e-001 -4.139234e+000 6.132224e+001 -7.354721e-001 4.695235e-002 5.046061e-001 2.326100e-001 1.264356e-001 3.842275e-001 5.527915e-001 3.956423e-001 2.602430e-002 -4.007458e-001 -4.480595e-001 -1.009049e-001 -4.848884e-001 1.858256e-002 -4.048323e-002 -5.693579e-002 6.504685e-002 1.915268e-001 1.070964e-001 -2.048465e-002 -7.947059e-002 -7.467777e-002 2.948447e-002 6.372263e-002 -5.020293e-003 4.152653e-003
<VARIANCE> 39
 3.505361e+001 3.023314e+001 4.019715e+001 6.049507e+001 7.293170e+001 7.415245e+001 4.316962e+001 5.562033e+001 3.828489e+001 3.087953e+001 3.564128e+001 3.871208e+001 1.612656e+001 5.088978e-001 7.699554e-001 2.201862e+000 2.247505e+000 3.632355e+000 1.916901e+000 2.362918e+000 2.553684e+000 3.358624e+000 2.398473e+000 2.114288e+000 1.904023e+000 2.696599e-001 9.469040e-002 1.316362e-001 2.340194e-001 3.402444e-001 4.604379e-001 3.442909e-001 2.922785e-001 4.399930e-001 3.600219e-001 4.580545e-001 4.045178e-001 3.069335e-001 5.003287e-002
<GCONST> 1.087808e+002
<TRANSP> 5
 0.000000e+000 1.000000e+000 0.000000e+000 0.000000e+000 0.000000e+000
 0.000000e+000 8.746424e-001 1.253577e-001 0.000000e+000 0.000000e+000
 0.000000e+000 0.000000e+000 4.579799e-001 5.420201e-001 0.000000e+000
 0.000000e+000 0.000000e+000 0.000000e+000 7.324132e-001 2.675868e-001
 0.000000e+000 0.000000e+000 0.000000e+000 0.000000e+000 0.000000e+000
<ENDHMM>
~h "s"
<BEGINHMM>
<NUMSTATES> 5
<STATE> 2
<MEAN> 39
 -8.762316e+000 -2.948565e-001 -6.692692e-001 -1.329271e+000 -6.811845e+000 -1.268571e+001 -3.333588e+000 -1.323538e+001 -8.863980e+000 -7.867281e-001 -7.443748e-001 -6.238875e+000 6.136919e+001 -9.987665e-001 -2.465291e-001 -2.182632e-001 2.774577e-001 1.348507e+000 7.212578e-001 8.039908e-001 1.173799e+000 2.318121e-001 1.340463e-001 -1.018035e-003 1.179628e-002 7.402673e-002 -1.210374e-001 -7.053511e-002 -1.409183e-001 -1.465311e-001 -3.403541e-002 -8.085308e-002 1.305854e-001 2.006298e-001 9.546770e-002 9.797988e-002 5.079104e-002 5.093110e-002 8.708622e-002
<VARIANCE> 39
 5.304055e+001 2.386682e+001 4.530146e+001 3.581909e+001 1.156088e+002 7.224982e+001 5.845546e+001 9.650565e+001 4.568406e+001 5.196745e+001 4.140365e+001 2.821030e+001 4.155115e+001 3.466884e+000 2.285528e+000 2.458537e+000 2.565502e+000 6.498684e+000 4.901501e+000 4.997927e+000 9.423603e+000 4.170265e+000 4.184378e+000 3.119361e+000 2.318241e+000 2.591425e+000 2.787586e-001 3.471129e-001 3.030570e-001 4.446367e-001 8.986910e-001 7.481241e-001 6.768672e-001 1.144959e+000 6.769932e-001 6.787384e-001 5.193464e-001 4.220161e-001 2.981660e-001
<GCONST> 1.309607e+002
<STATE> 3
<MEAN> 39
 -1.718790e+001 -2.311039e+000 -5.064148e+000 -1.330389e+000 2.665315e+000 -8.768012e+000 2.620948e+000 -2.724786e+000 -5.290057e+000 -1.283146e-001 1.107256e-001 -3.621591e+000 6.055914e+001 -1.115615e+000 -2.405477e-001 -7.763825e-001 -7.522627e-001 2.300068e-002 -6.659891e-001 3.365791e-001 6.453815e-001 -1.272160e-001 8.326622e-001 6.194596e-001 5.298841e-001 3.664950e-001 2.844796e-001 9.655496e-002 1.441661e-001 6.120281e-004 -3.426248e-001 -2.514689e-001 -4.798932e-001 -5.290842e-001 -2.949413e-001 -1.441595e-001 -7.814790e-002 -4.747413e-002 -1.793215e-003
<VARIANCE> 39
 2.015072e+001 1.318623e+001 1.287332e+001 2.444480e+001 2.748044e+001 3.181920e+001 3.788181e+001 3.595369e+001 2.599960e+001 2.852328e+001 2.642050e+001 1.521147e+001 1.310362e+001 1.705128e+000 1.411644e+000 1.158642e+000 1.704155e+000 2.335777e+000 2.446421e+000 3.070807e+000 3.357512e+000 3.083990e+000 2.742277e+000 2.415213e+000 1.684398e+000 5.780237e-001 1.821590e-001 2.084008e-001 2.087584e-001 3.238607e-001 3.832160e-001 4.541554e-001 6.467505e-001 7.721097e-001 5.718906e-001 5.277069e-001 4.410822e-001 3.371009e-001 1.807428e-001
<GCONST> 1.075815e+002
<STATE> 4
<MEAN> 39
 -2.030609e+001 -2.684846e+000 -6.979876e+000 -3.110282e+000 2.268615e+000 -1.140683e+001 1.573810e+000 -2.697225e+000 -6.624136e+000 1.992127e+000 1.200960e-001 -3.478365e+000 6.186596e+001 3.966831e-001 -2.510616e-001 -5.679529e-002 -5.182374e-002 -3.771029e-001 -1.969973e-001 -1.209572e-001 -2.078606e-001 1.736421e-001 2.638898e-002 -4.772514e-002 -1.128706e-001 8.433879e-002 2.004435e-001 -6.054211e-002 3.590487e-002 3.323686e-002 -9.394958e-002 -2.448558e-002 -8.603975e-003 -5.145014e-002 3.386840e-002 -3.482446e-002 -3.875358e-002 -4.909942e-002 4.310356e-002
<VARIANCE> 39
 2.140172e+001 1.400616e+001 1.151170e+001 1.908075e+001 2.744989e+001 2.835510e+001 2.589835e+001 2.507892e+001 2.329143e+001 2.680888e+001 2.725962e+001 1.687545e+001 6.306018e+000 2.323952e+000 8.219563e-001 7.838708e-001 1.086665e+000 1.646749e+000 1.834460e+000 1.917120e+000 2.036026e+000 1.830568e+000 1.888792e+000 2.061381e+000 1.541797e+000 5.587397e-001 1.879683e-001 1.157125e-001 1.465095e-001 2.049732e-001 2.600976e-001 3.098517e-001 3.483371e-001 3.723766e-001 3.434484e-001 3.754565e-001 4.304220e-001 3.102352e-001 1.021216e-001
<GCONST> 9.684641e+001
<TRANSP> 5
 0.000000e+000 1.000000e+000 0.000000e+000 0.000000e+000 0.000000e+000
 0.000000e+000 7.649144e-001 2.350856e-001 0.000000e+000 0.000000e+000
 0.000000e+000 0.000000e+000 5.572336e-001 4.427664e-001 0.000000e+000
 0.000000e+000 0.000000e+000 0.000000e+000 9.050118e-001 9.498812e-002
 0.000000e+000 0.000000e+000 0.000000e+000 0.000000e+000 0.000000e+000
<ENDHMM>
~h "t"
<BEGINHMM>
<NUMSTATES> 5
<STATE> 2
<MEAN> 39
 -7.080318e+000 -2.270788e+000 4.820426e-001 -2.108664e+000 -1.050486e+001 -1.230679e+001 -8.588583e-001 -1.265299e+001 -8.223290e+000 -8.018036e-001 4.612870e-002 -7.825092e+000 6.304406e+001 -3.079570e-001 -1.970484e-001 1.138138e-003 1.080563e-001 1.576439e-001 1.662469e-001 1.456395e-001 2.340551e-001 9.484316e-002 2.459153e-001 1.845873e-001 1.018874e-001 1.528051e-002 -3.165727e-002 -3.912000e-002 -2.870115e-003 -4.550432e-002 -5.958764e-002 -7.392089e-002 -5.481418e-002 2.644688e-002 -4.276424e-002 -9.097747e-003 7.204443e-002 1.758345e-002 3.548807e-002
<VARIANCE> 39
 4.515471e+001 3.704718e+001 6.090884e+001 2.663766e+001 1.595437e+002 9.152460e+001 3.979032e+001 9.472427e+001 5.141398e+001 5.215052e+001 4.048531e+001 3.210520e+001 4.658113e+001 1.733957e+000 2.610955e+000 3.030491e+000 2.079724e+000 8.642306e+000 5.898021e+000 3.471514e+000 6.303917e+000 4.364058e+000 4.521453e+000 3.621027e+000 2.186061e+000 2.342652e+000 1.796597e-001 3.348490e-001 3.417266e-001 3.734098e-001 1.077030e+000 8.681084e-001 6.120343e-001 8.896397e-001 7.088186e-001 7.582900e-001 5.801655e-001 3.388353e-001 2.542384e-001
<GCONST> 1.303287e+002
<STATE> 3
<MEAN> 39
 -1.313566e+001 -5.363067e+000 -2.865849e+000 -3.448820e+000 -5.468787e+000 -7.566667e+000 2.799837e-001 -5.742293e+000 -2.572116e+000 1.713222e+000 2.207415e+000 -2.942796e+000 5.851733e+001 -6.286690e-001 -1.000479e+000 3.702570e-001 -1.898432e-001 -1.226309e+000 -1.338677e+000 -1.092625e-001 4.898860e-001 -1.525156e+000 4.275802e-001 1.419445e+000 -2.116051e-002 1.625811e+000 1.020809e-002 1.730504e-001 2.217718e-001 1.797133e-001 1.331418e-001 -9.052894e-002 -3.479321e-002 1.484154e-001 -3.244921e-001 -5.334293e-001 -1.039074e-001 -9.437690e-002 -1.061810e-002
<VARIANCE> 39
 2.365125e+001 2.523323e+001 2.154165e+001 1.453374e+001 8.148681e+001 5.924597e+001 2.830070e+001 3.125942e+001 3.191009e+001 2.909878e+001 2.403722e+001 1.494517e+001 6.117518e+001 2.494797e+000 3.214517e+000 2.232140e+000 2.034054e+000 5.762424e+000 3.828056e+000 3.112754e+000 4.188958e+000 3.508587e+000 3.694237e+000 3.124520e+000 1.866051e+000 3.364351e+000 3.351798e-001 4.569118e-001 3.421568e-001 3.942031e-001 8.604910e-001 6.713314e-001 6.259103e-001 6.987310e-001 6.493194e-001 6.725076e-001 6.343446e-001 3.490817e-001 5.912140e-001
<GCONST> 1.225916e+002
<STATE> 4
<MEAN> 39
 -1.604190e+001 -9.171312e+000 -3.163004e+000 -5.612414e-001 -5.077888e+000 -1.043919e+001 1.134029e+000 -9.404862e-001 -7.835518e+000 -1.550012e+000 5.170706e+000 -3.295309e+000 6.153602e+001 4.637860e-001 -1.838293e-001 3.118121e-002 5.402273e-001 -2.500518e-001 -6.449103e-001 -1.095569e-001 -1.180094e-001 -2.283368e-001 -4.534620e-001 4.089421e-002 6.418865e-002 -2.091117e-002 3.274463e-001 3.114646e-001 2.925391e-003 -5.220748e-002 -3.925398e-003 6.416631e-002 -2.227299e-001 -4.680398e-001 1.317581e-001 1.847260e-002 -2.440909e-001 -6.686414e-002 -7.675590e-002
<VARIANCE> 39
 2.135061e+001 3.166460e+001 2.105680e+001 3.070826e+001 2.869280e+001 3.440642e+001 2.875200e+001 4.028508e+001 3.498500e+001 3.168674e+001 3.315557e+001 2.795126e+001 1.340180e+001 2.419043e+000 3.088138e+000 1.093984e+000 2.459103e+000 2.205321e+000 2.944766e+000 2.928139e+000 5.119987e+000 3.139888e+000 2.687925e+000 2.855683e+000 2.192369e+000 8.634284e-001 2.650385e-001 5.361706e-001 2.160952e-001 4.001502e-001 4.282823e-001 4.673434e-001 5.942664e-001 8.597780e-001 6.525860e-001 5.497478e-001 5.158066e-001 4.335602e-001 1.913852e-001
<GCONST> 1.155965e+002
<TRANSP> 5
 0.000000e+000 1.000000e+000 0.000000e+000 0.000000e+000 0.000000e+000
 0.000000e+000 8.642983e-001 1.357017e-001 0.000000e+000 0.000000e+000
 0.000000e+000 0.000000e+000 4.702399e-001 5.297601e-001 0.000000e+000
 0.000000e+000 0.000000e+000 0.000000e+000 8.634449e-001 1.365550e-001
 0.000000e+000 0.000000e+000 0.000000e+000 0.000000e+000 0.000000e+000
<ENDHMM>
~h "v"
<BEGINHMM>
<NUMSTATES> 5
<STATE> 2
<MEAN> 39
 -3.789977e+000 -7.139714e+000 -1.014198e+001 -7.654521e+000 -5.961322e+000 -9.047766e+000 -3.878144e-001 -9.482691e+000 -5.981198e+000 1.677978e+000 1.042523e+000 -8.771420e+000 6.534454e+001 1.470518e+000 7.006735e-002 -1.073177e+000 -1.403356e+000 -1.915359e-001 5.869094e-001 2.259403e-001 -9.665899e-001 -3.357647e-001 -1.690721e-001 -1.227877e-001 -4.911160e-001 8.246626e-001 -4.958874e-002 -1.019820e-001 -9.926667e-003 1.592377e-001 1.248726e-001 4.369697e-002 -9.512553e-002 -1.510015e-001 -8.890447e-002 5.625184e-002 -1.623143e-002 -7.967839e-002 7.771087e-002
<VARIANCE> 39
 9.289332e+001 4.871653e+001 7.652795e+001 1.003714e+002 6.915598e+001 6.532779e+001 4.041520e+001 5.782638e+001 3.827385e+001 3.361734e+001 3.798754e+001 3.884184e+001 3.753522e+001 5.510260e+000 4.114351e+000 4.314358e+000 7.751207e+000 6.088789e+000 4.384432e+000 3.235284e+000 4.870751e+000 2.847525e+000 2.684495e+000 2.628711e+000 3.124015e+000 2.470249e+000 8.861619e-001 7.107259e-001 6.296262e-001 1.470983e+000 1.046044e+000 6.528193e-001 5.317583e-001 7.518462e-001 5.040109e-001 5.143943e-001 4.969458e-001 5.386515e-001 3.353729e-001
<GCONST> 1.354145e+002
<STATE> 3
<MEAN> 39
 3.494686e+000 -1.403693e+001 -1.736980e+001 -9.431722e+000 -2.011393e+000 -8.331198e+000 -2.096374e+000 -1.704610e+001 -9.401657e+000 9.715304e-001 -3.677362e+000 -1.678157e+001 7.169692e+001 -3.693133e-001 -6.681687e-001 5.301906e-001 1.168201e+000 -7.621400e-003 -1.547558e+000 -5.575414e-001 3.919612e-001 9.409260e-002 1.444583e-002 -6.228414e-001 -3.105156e-001 1.010184e-001 -6.236843e-002 3.339292e-001 2.992632e-001 2.907863e-003 -5.073792e-001 -3.206193e-001 8.384753e-002 2.777137e-001 1.629185e-001 1.754026e-002 1.648439e-001 3.819624e-001 -1.726533e-001
<VARIANCE> 39
 1.530690e+001 4.348846e+001 4.890831e+001 3.795689e+001 4.857244e+001 8.950133e+001 4.221742e+001 4.569914e+001 3.751868e+001 3.957874e+001 4.855108e+001 3.779505e+001 1.631537e+001 3.097527e-001 1.890444e+000 2.349385e+000 1.729026e+000 5.543885e+000 4.697424e+000 2.788246e+000 4.226950e+000 2.625507e+000 2.107964e+000 3.145985e+000 2.193504e+000 3.792363e-001 1.135130e-001 2.153849e-001 2.506841e-001 2.604539e-001 4.468599e-001 5.351357e-001 5.898509e-001 5.271154e-001 4.265117e-001 3.858846e-001 6.340294e-001 3.609246e-001 7.539856e-002
<GCONST> 1.136198e+002
<STATE> 4
<MEAN> 39
 -1.425591e-001 -9.674676e+000 -6.428059e+000 -1.311426e+000 -1.072243e+001 -1.925371e+001 -4.772605e+000 -1.291448e+001 -6.599535e+000 2.864015e+000 -9.808607e-001 -1.196135e+001 6.853567e+001 -3.031101e-001 1.584826e+000 9.365885e-001 1.813276e-001 -7.822727e-001 8.861071e-002 -3.939875e-001 -7.475244e-001 -4.503518e-001 3.253537e-001 1.631847e+000 1.061697e+000 -8.769473e-001 -7.764531e-002 2.312192e-001 8.338741e-002 -6.644882e-002 2.322544e-001 2.900455e-001 3.804481e-002 -1.580509e-001 -2.730064e-001 -2.029188e-001 1.066401e-001 1.502903e-001 -1.316432e-001
<VARIANCE> 39
 2.892376e+001 5.971120e+001 6.972369e+001 3.661791e+001 8.661244e+001 8.893808e+001 4.235139e+001 5.665504e+001 4.644151e+001 5.985146e+001 5.987410e+001 4.010203e+001 2.496677e+001 5.344164e-001 2.646045e+000 3.413780e+000 2.160482e+000 7.676712e+000 6.309021e+000 2.963138e+000 5.192486e+000 4.656847e+000 3.267892e+000 5.557920e+000 2.814694e+000 4.392479e-001 8.023535e-002 4.187198e-001 4.479614e-001 3.939372e-001 9.023498e-001 6.976489e-001 5.195245e-001 8.351490e-001 7.147077e-001 8.345922e-001 9.678928e-001 5.136750e-001 6.311960e-002
<GCONST> 1.258443e+002
<TRANSP> 5
 0.000000e+000 1.000000e+000 0.000000e+000 0.000000e+000 0.000000e+000
 0.000000e+000 8.401932e-001 1.598068e-001 0.000000e+000 0.000000e+000
 0.000000e+000 0.000000e+000 8.031757e-001 1.968243e-001 0.000000e+000
 0.000000e+000 0.000000e+000 0.000000e+000 7.819681e-001 2.180319e-001
 0.000000e+000 0.000000e+000 0.000000e+000 0.000000e+000 0.000000e+000
<ENDHMM>
~h "w"
<BEGINHMM>
<NUMSTATES> 5
<STATE> 2
<MEAN> 39
 -4.370682e+000 1.712144e+000 -2.431226e+000 -5.415088e+000 -7.414265e+000 -1.267630e+001 -6.454769e+000 -1.373116e+001 -7.761829e+000 -5.692219e+000 -3.709530e+000 -7.134982e+000 6.037539e+001 1.152457e+000 7.382225e-001 -3.586493e-001 -1.354252e+000 -1.684163e+000 -1.140670e+000 -7.104025e-001 -3.620043e-001 4.594203e-002 2.681482e-001 3.325221e-001 1.140703e-001 5.784676e-001 1.542433e-001 -4.545641e-002 -2.840973e-001 -3.932658e-001 -2.329590e-001 1.229358e-001 2.457564e-001 1.356293e-001 1.416529e-001 1.239804e-001 6.858332e-002 -3.115691e-002 1.222171e-001
<VARIANCE> 39
 2.645499e+001 4.160109e+001 2.155559e+001 3.596920e+001 5.197305e+001 5.482174e+001 4.287844e+001 3.472403e+001 3.025568e+001 4.525011e+001 3.895903e+001 2.236389e+001 1.861497e+001 1.930026e+000 2.643618e+000 2.124760e+000 4.133359e+000 5.386147e+000 3.661587e+000 2.777876e+000 2.883957e+000 3.106233e+000 3.692951e+000 3.407318e+000 2.432381e+000 9.625596e-001 2.062700e-001 4.400016e-001 3.122584e-001 4.969313e-001 8.034775e-001 9.107598e-001 7.543104e-001 5.696658e-001 5.204148e-001 5.563381e-001 5.672769e-001 4.642701e-001 7.987821e-002
<GCONST> 1.203713e+002
<STATE> 3
<MEAN> 39
 1.606690e+000 7.423511e+000 -5.787600e+000 -1.551693e+001 -1.775292e+001 -1.886071e+001 -1.058688e+001 -1.439323e+001 -4.597011e+000 -3.991066e+000 -2.217695e+000 -5.687809e+000 6.308730e+001 7.894543e-001 -5.737854e-001 -1.609668e+000 -1.721260e+000 -3.861125e-001 1.265374e+000 1.491199e+000 4.119024e-001 1.892845e-001 -1.115430e-002 -2.678131e-002 -5.229298e-001 6.843113e-001 -1.826497e-001 -5.234210e-001 -1.955428e-001 3.727710e-001 8.224981e-001 7.627673e-001 3.393790e-001 -2.211449e-001 -3.036606e-001 -1.981633e-001 -8.299920e-002 -2.201571e-001 3.497123e-002
<VARIANCE> 39
 8.528294e+000 7.751869e+000 2.167027e+001 3.386086e+001 1.810668e+001 2.217865e+001 2.722301e+001 2.453580e+001 2.819457e+001 2.419704e+001 2.196868e+001 1.482197e+001 3.356569e+000 1.001768e+000 1.108546e+000 3.147650e+000 3.990032e+000 2.571945e+000 3.855237e+000 3.969911e+000 1.949478e+000 2.051608e+000 2.087219e+000 1.441606e+000 1.491964e+000 6.619869e-001 1.174931e-001 3.089748e-001 1.830618e-001 5.055043e-001 9.724018e-001 8.376474e-001 4.437188e-001 4.948768e-001 4.719084e-001 3.680982e-001 3.159940e-001 3.014582e-001 3.048820e-002
<GCONST> 1.022627e+002
<STATE> 4
<MEAN> 39
 5.243310e+000 2.116694e-001 -1.683521e+001 -2.326566e+001 -1.452858e+001 -5.422190e+000 8.201613e-001 -1.404690e+001 -7.287999e+000 -6.276105e+000 -3.088683e+000 -1.000277e+001 6.716763e+001 3.558631e-001 -3.042490e+000 -2.289759e+000 2.784420e-001 3.193820e+000 3.792095e+000 1.576910e+000 -1.784810e+000 -1.610217e+000 2.583993e-002 5.388774e-001 -1.258876e+000 1.298560e+000 -4.689721e-001 -3.445904e-001 6.958599e-001 1.321904e+000 7.599728e-001 -6.394164e-001 -9.697554e-001 -5.010632e-001 -1.667563e-001 3.971564e-001 1.691961e-001 -1.455657e-001 -1.269792e-001
<VARIANCE> 39
 5.572203e+000 1.508945e+001 1.742412e+001 2.184676e+001 2.537808e+001 3.321087e+001 2.066103e+001 2.617265e+001 2.785102e+001 2.637812e+001 1.816809e+001 1.801982e+001 4.441494e+000 4.148026e-001 1.020843e+000 1.462938e+000 2.181455e+000 2.446532e+000 3.065391e+000 3.615405e+000 2.839453e+000 3.019426e+000 2.250462e+000 1.775711e+000 2.193764e+000 3.286223e-001 6.405463e-002 1.507718e-001 1.579675e-001 3.241799e-001 6.091079e-001 8.188140e-001 4.286602e-001 5.248313e-001 5.299583e-001 4.691609e-001 2.596305e-001 3.211772e-001 2.550067e-002
<GCONST> 9.842578e+001
<TRANSP> 5
 0.000000e+000 1.000000e+000 0.000000e+000 0.000000e+000 0.000000e+000
 0.000000e+000 8.587371e-001 1.412629e-001 0.000000e+000 0.000000e+000
 0.000000e+000 0.000000e+000 7.811884e-001 2.188115e-001 0.000000e+000
 0.000000e+000 0.000000e+000 0.000000e+000 5.851261e-001 4.148740e-001
 0.000000e+000 0.000000e+000 0.000000e+000 0.000000e+000 0.000000e+000
<ENDHMM>
~h "z"
<BEGINHMM>
<NUMSTATES> 5
<STATE> 2
<MEAN> 39
 -4.417672e+000 2.963904e+000 2.418268e-001 -1.886537e+000 -6.980891e+000 -1.401820e+001 -8.853824e+000 -1.787028e+001 -1.086656e+001 -7.082206e+000 -4.180904e+000 -6.760445e+000 6.038417e+001 -3.212131e-001 3.614592e-001 3.569576e-001 5.052685e-001 7.914943e-001 6.236561e-001 -7.628946e-002 1.391005e-001 1.839618e-002 -9.593365e-001 -1.002418e+000 -2.666048e-001 -3.187478e-001 -1.730492e-001 -1.422915e-001 -1.840574e-001 -1.031042e-001 1.088857e-001 2.166576e-001 2.750130e-001 3.449118e-001 1.934493e-001 7.465035e-002 -8.787926e-002 -3.968068e-002 -4.649715e-002
<VARIANCE> 39
 1.728482e+001 1.059321e+001 1.844585e+001 3.454370e+001 4.171586e+001 4.339038e+001 3.682291e+001 4.182048e+001 2.278951e+001 3.643287e+001 4.137332e+001 1.980614e+001 9.969540e+000 1.482642e+000 1.124954e+000 1.595103e+000 2.324765e+000 4.135457e+000 4.567348e+000 4.153451e+000 5.089343e+000 3.247080e+000 3.273575e+000 3.187379e+000 2.107629e+000 1.003201e+000 1.235509e-001 1.704161e-001 2.324893e-001 3.667915e-001 5.007495e-001 5.712174e-001 5.316525e-001 4.973325e-001 4.027383e-001 6.998897e-001 6.190895e-001 3.806955e-001 8.860849e-002
<GCONST> 1.119588e+002
<STATE> 3
<MEAN> 39
 -8.166725e+000 2.982700e+000 -4.079463e-002 -6.088109e-002 -1.338116e+000 -8.376196e+000 -4.956196e+000 -1.260420e+001 -9.147987e+000 -1.081065e+001 -8.729635e+000 -8.408720e+000 5.804060e+001 -6.550734e-001 -3.235025e-001 -5.547209e-001 1.319592e-002 4.794060e-001 2.859621e-001 4.831685e-001 6.107090e-001 3.182416e-001 4.958225e-001 -9.757282e-004 1.340989e-001 -1.166600e-001 5.147346e-002 -1.929153e-002 -2.318536e-002 -5.252686e-002 -2.328740e-001 -3.731576e-001 -1.165366e-001 -1.934329e-001 -1.200127e-001 2.491995e-001 2.515533e-001 1.096733e-001 1.333067e-001
<VARIANCE> 39
 6.515125e+000 7.394032e+000 7.868573e+000 1.260113e+001 1.315669e+001 2.669720e+001 2.375566e+001 2.166811e+001 1.381928e+001 1.929379e+001 2.149991e+001 1.907949e+001 3.931110e+000 4.858176e-001 7.483786e-001 7.038856e-001 7.644739e-001 1.416577e+000 2.773583e+000 2.138194e+000 2.132215e+000 1.918806e+000 2.184337e+000 2.321377e+000 1.256202e+000 2.908469e-001 6.453067e-002 1.099348e-001 1.063077e-001 1.567426e-001 2.774798e-001 3.205157e-001 3.235172e-001 2.652748e-001 2.257939e-001 3.968814e-001 3.990162e-001 2.697485e-001 2.910104e-002
<GCONST> 8.565097e+001
<STATE> 4
<MEAN> 39
 -1.275617e+001 -6.362509e-001 -4.365926e+000 -1.823232e+000 -1.347029e+000 -7.959922e+000 -7.832886e-001 -7.318633e+000 -4.997730e+000 -4.754543e+000 -2.878806e+000 -4.103801e+000 5.727713e+001 -2.043062e-001 6.999206e-004 -1.383917e-002 -3.087535e-002 -1.972603e-001 -8.589097e-001 -1.616621e-001 -2.352421e-001 -3.665619e-001 2.551095e-001 1.682831e-001 1.236977e-001 3.352833e-001 1.480016e-001 1.960067e-002 1.824652e-001 2.734955e-003 -9.848203e-002 -2.504721e-001 -1.752333e-001 -1.471101e-001 -1.803984e-001 -1.095238e-001 -1.699684e-002 -3.512542e-002 7.983984e-002
<VARIANCE> 39
 5.916377e+000 1.397043e+001 9.783091e+000 1.477714e+001 1.495412e+001 3.214661e+001 2.558828e+001 2.920745e+001 3.447913e+001 2.622356e+001 3.098617e+001 1.826521e+001 5.920815e+000 4.158585e-001 5.396981e-001 7.623231e-001 8.190167e-001 1.093141e+000 2.426272e+000 1.590314e+000 2.148904e+000 2.038132e+000 1.766992e+000 1.670388e+000 1.274142e+000 2.396906e-001 8.460578e-002 1.036778e-001 1.221410e-001 1.486461e-001 2.162785e-001 3.787098e-001 3.334347e-001 4.250144e-001 4.050862e-001 3.421439e-001 3.352977e-001 2.653913e-001 3.020627e-002
<GCONST> 8.853255e+001
<TRANSP> 5
 0.000000e+000 1.000000e+000 0.000000e+000 0.000000e+000 0.000000e+000
 0.000000e+000 7.375279e-001 2.624721e-001 0.000000e+000 0.000000e+000
 0.000000e+000 0.000000e+000 8.147568e-001 1.852432e-001 0.000000e+000
 0.000000e+000 0.000000e+000 0.000000e+000 8.611963e-001 1.388036e-001
 0.000000e+000 0.000000e+000 0.000000e+000 0.000000e+000 0.000000e+000
<ENDHMM>
~h "ah"
<BEGINHMM>
<NUMSTATES> 5
<STATE> 2
<MEAN> 39
 3.582114e+000 -1.183136e+001 -1.922435e+001 -1.340019e+001 -1.790450e+000 -2.035594e+000 -9.995990e-001 -1.882141e+001 -1.022582e+001 -1.765544e+000 -9.152529e-001 -1.599176e+001 7.069427e+001 -4.346878e-001 -1.709591e+000 1.192822e-001 2.363611e+000 1.391637e+000 -1.360778e+000 -9.312065e-001 3.030263e-001 2.788522e-001 1.032631e+000 -4.089011e-001 -1.343892e+000 3.728446e-001 -7.439451e-002 5.063520e-001 3.822110e-001 1.310706e-001 -6.192570e-001 -8.469034e-001 -2.307666e-001 5.793823e-001 3.031890e-001 -1.047570e-001 -2.443118e-001 2.256714e-001 -2.335973e-001
<VARIANCE> 39
 9.836387e+000 3.164390e+001 1.375066e+001 3.923000e+001 4.732392e+001 5.173466e+001 3.182045e+001 3.149261e+001 3.735903e+001 4.292733e+001 2.906707e+001 3.592225e+001 9.920155e+000 1.971405e-001 1.728422e+000 1.080647e+000 1.651969e+000 3.072220e+000 5.114807e+000 1.966312e+000 3.336444e+000 2.137447e+000 1.897856e+000 2.189689e+000 2.154981e+000 4.079890e-001 3.983362e-002 1.662124e-001 1.962882e-001 2.817122e-001 3.157052e-001 5.839024e-001 4.671883e-001 4.013966e-001 4.074944e-001 4.336199e-001 3.911927e-001 4.372336e-001 3.870462e-002
<GCONST> 1.032125e+002
<STATE> 3
<MEAN> 39
 1.973665e+000 -1.240690e+001 -1.471123e+001 -2.292793e+000 -4.679732e+000 -1.818055e+001 -7.941329e+000 -1.249351e+001 -7.023292e+000 7.332647e-001 -5.221530e+000 -1.869997e+001 7.005428e+001 -6.080872e-001 1.788608e+000 2.156313e+000 1.307049e+000 -1.267456e+000 -1.844985e+000 -1.006300e+000 4.736405e-001 1.190480e-001 -4.328321e-001 3.481261e-001 1.343490e+000 -1.045720e+000 -1.146429e-001 5.986916e-001 4.796980e-001 -4.289941e-001 -1.214205e-001 7.980292e-001 2.828021e-001 -6.163706e-001 -3.270638e-001 -3.032584e-001 3.609373e-001 6.137397e-001 -2.851428e-001
<VARIANCE> 39
 8.240573e+000 2.362082e+001 2.225281e+001 2.596826e+001 3.849080e+001 4.948802e+001 3.032088e+001 3.036433e+001 2.862723e+001 2.799650e+001 3.146716e+001 2.624918e+001 9.729840e+000 3.077109e-001 1.903732e+000 2.062207e+000 1.653250e+000 1.466535e+000 3.579393e+000 2.622316e+000 3.547924e+000 1.983873e+000 1.721556e+000 2.465721e+000 2.190257e+000 5.093648e-001 4.914271e-002 2.129897e-001 2.617231e-001 2.721935e-001 3.059574e-001 4.179688e-001 4.975914e-001 4.580743e-001 3.765862e-001 2.806982e-001 3.698642e-001 2.857007e-001 4.180843e-002
<GCONST> 1.017779e+002
<STATE> 4
<MEAN> 39
 -3.845472e+000 -1.823676e+000 -2.983235e+000 -3.958966e-001 -6.275591e+000 -1.352832e+001 -5.708439e+000 -1.394166e+001 -8.097240e+000 -3.494907e+000 -2.131196e+000 -8.314564e+000 6.224293e+001 -8.129771e-001 1.190256e+000 1.365691e+000 9.543892e-003 -2.162756e-001 6.530473e-001 3.497040e-001 -2.503462e-001 -2.514110e-001 -7.104308e-001 1.313421e-001 1.270658e+000 -8.931363e-001 1.039322e-002 -2.188822e-001 -2.625656e-001 -8.530367e-002 1.305846e-001 1.581808e-001 1.162838e-001 1.643064e-002 -5.359114e-002 -1.829320e-002 -1.354543e-001 -1.429904e-001 9.741253e-002
<VARIANCE> 39
 2.528346e+001 2.044676e+001 2.720789e+001 1.766997e+001 4.839033e+001 5.120378e+001 3.585408e+001 4.529485e+001 4.353143e+001 2.874065e+001 3.269018e+001 3.458668e+001 1.660321e+001 4.524433e-001 2.461954e+000 3.450470e+000 9.918198e-001 2.195768e+000 2.092163e+000 1.631585e+000 3.281905e+000 3.012729e+000 1.903843e+000 1.797465e+000 2.933348e+000 5.713496e-001 5.944481e-002 1.794871e-001 2.074585e-001 2.080960e-001 2.905998e-001 3.601765e-001 3.911014e-001 4.434788e-001 4.648506e-001 2.810518e-001 2.670351e-001 3.269704e-001 4.465684e-002
<GCONST> 1.043965e+002
<TRANSP> 5
 0.000000e+000 1.000000e+000 0.000000e+000 0.000000e+000 0.000000e+000
 0.000000e+000 8.298120e-001 1.701880e-001 0.000000e+000 0.000000e+000
 0.000000e+000 0.000000e+000 7.649785e-001 2.350215e-001 0.000000e+000
 0.000000e+000 0.000000e+000 0.000000e+000 6.821958e-001 3.178042e-001
 0.000000e+000 0.000000e+000 0.000000e+000 0.000000e+000 0.000000e+000
<ENDHMM>
~h "ao"
<BEGINHMM>
<NUMSTATES> 5
<STATE> 2
<MEAN> 39
 -6.921722e+000 3.028085e-002 -8.151125e+000 -6.232512e+000 -1.001597e+001 -9.626840e+000 -3.883066e+000 -8.644743e+000 -2.833406e+000 -2.076964e+000 -1.823263e+000 -5.196995e+000 6.078783e+001 2.161947e-001 1.481382e-001 -1.905848e-002 -3.621076e-001 -3.123096e-001 -1.926320e-001 -1.702432e-001 -2.838514e-001 1.063417e-002 -1.994349e-001 -1.105109e-001 -1.538303e-001 1.306990e-001 -2.694678e-001 -3.501922e-001 2.289091e-002 3.017130e-001 3.304155e-001 6.624331e-002 6.788693e-002 8.371328e-002 1.876351e-002 3.877358e-002 6.976431e-002 5.079392e-002 -1.352247e-001
<VARIANCE> 39
 8.690508e+001 5.598866e+001 1.123588e+001 1.132537e+002 7.328118e+001 5.962387e+001 2.268168e+001 1.503938e+001 1.431787e+001 2.038883e+001 2.255984e+001 1.499889e+001 1.428307e+001 3.103167e-001 4.870543e-001 6.219168e-001 9.502246e-001 9.278463e-001 9.406338e-001 1.118989e+000 9.882798e-001 1.526401e+000 1.616819e+000 1.521280e+000 1.080407e+000 1.696768e-001 2.950586e-001 3.615828e-001 1.193868e-001 3.644053e-001 2.952416e-001 1.906557e-001 2.042565e-001 2.268613e-001 2.540846e-001 4.084724e-001 3.486842e-001 2.390505e-001 5.797617e-002
<GCONST> 9.394604e+001
<STATE> 3
<MEAN> 39
 2.563534e+000 7.038927e+000 -6.641432e+000 -1.717833e+001 -1.894415e+001 -1.658268e+001 -6.015865e+000 -9.033543e+000 -1.341435e+000 -3.183361e+000 -3.478349e+000 -7.221479e+000 6.405280e+001 -1.291960e-001 -5.546271e-002 6.610575e-002 6.055233e-002 7.360960e-002 4.851626e-002 3.364345e-002 -3.252038e-002 -3.634579e-002 -1.400381e-001 -1.295488e-001 5.678353e-002 -4.575900e-002 -3.147500e-002 -7.779831e-002 -4.156618e-002 7.330503e-002 1.419592e-001 1.021703e-001 1.837374e-002 -6.934381e-002 -8.041441e-002 -1.365569e-002 2.848952e-002 7.530488e-002 -1.436068e-002
<VARIANCE> 39
 4.121222e+001 2.833311e+001 8.322553e+000 4.944411e+001 4.369062e+001 3.802654e+001 3.288152e+001 2.198123e+001 2.042553e+001 2.034081e+001 1.805071e+001 1.160397e+001 9.319724e+000 1.144862e-001 2.383389e-001 3.473410e-001 5.240492e-001 7.337646e-001 8.146439e-001 8.564357e-001 1.373502e+000 1.037525e+000 1.130153e+000 1.236481e+000 7.732384e-001 6.774039e-002 2.775498e-002 4.969206e-002 6.673007e-002 9.695301e-002 1.517335e-001 1.230457e-001 1.701629e-001 2.642036e-001 2.024116e-001 1.873198e-001 2.215880e-001 1.577143e-001 1.416102e-002
<GCONST> 7.453616e+001
<STATE> 4
<MEAN> 39
 -2.750751e+000 2.655633e+000 -7.181989e+000 -1.177047e+001 -1.282590e+001 -1.248539e+001 -4.599459e+000 -1.008384e+001 -3.483024e+000 -4.343440e+000 -3.238855e+000 -4.581934e+000 6.163688e+001 -1.099816e-001 -6.412681e-001 -3.706270e-001 4.075849e-001 1.184370e+000 8.853867e-001 4.405126e-002 -1.082330e+000 -1.013623e+000 1.066608e-001 6.017082e-001 6.331844e-001 -8.414091e-003 -1.843625e-002 -1.130106e-001 1.076806e-002 1.855606e-001 2.553485e-001 5.414285e-002 -1.827457e-001 -3.123782e-001 -4.073252e-002 4.863720e-001 4.393003e-001 3.461673e-002 2.361498e-002
<VARIANCE> 39
 6.783064e+001 4.364178e+001 1.044639e+001 8.443444e+001 6.962215e+001 4.022041e+001 2.528280e+001 1.930519e+001 2.184237e+001 2.487906e+001 2.669953e+001 1.713039e+001 1.791850e+001 2.430740e-001 6.235986e-001 6.491691e-001 8.621932e-001 1.841451e+000 1.638131e+000 1.570431e+000 2.041816e+000 1.911314e+000 1.973075e+000 2.443020e+000 1.408967e+000 1.633202e-001 5.815583e-002 1.475130e-001 1.120514e-001 2.121499e-001 3.654363e-001 2.420684e-001 3.258948e-001 3.215781e-001 3.793679e-001 3.701425e-001 4.440154e-001 3.204539e-001 3.958252e-002
<GCONST> 9.612237e+001
<TRANSP> 5
 0.000000e+000 1.000000e+000 0.000000e+000 0.000000e+000 0.000000e+000
 0.000000e+000 5.173753e-001 4.826247e-001 0.000000e+000 0.000000e+000
 0.000000e+000 0.000000e+000 8.026278e-001 1.973722e-001 0.000000e+000
 0.000000e+000 0.000000e+000 0.000000e+000 4.684986e-001 5.315014e-001
 0.000000e+000 0.000000e+000 0.000000e+000 0.000000e+000 0.000000e+000
<ENDHMM>
~h "ay"
<BEGINHMM>
<NUMSTATES> 5
<STATE> 2
<MEAN> 39
 -1.276134e+001 -3.717041e+000 -5.164382e+000 -2.936324e+000 -2.277507e+000 -5.887599e+000 5.149865e-001 -5.599885e+000 -1.614919e+000 -2.779876e+000 -6.133114e-001 -2.664304e+000 5.535008e+001 -7.955995e-002 -7.581964e-002 -1.117322e-001 -6.611162e-002 -2.222529e-002 2.690664e-003 -1.572528e-002 5.940429e-002 1.279460e-001 9.264196e-002 5.056468e-002 6.434265e-002 -4.209579e-002 3.479606e-002 -1.770553e-003 1.289291e-002 -5.477403e-003 -2.097895e-002 -4.313747e-002 -1.379971e-002 -3.616739e-002 -4.096876e-002 -7.817724e-003 -2.114334e-002 -2.691430e-002 2.851169e-002
<VARIANCE> 39
 6.975024e+000 9.863692e+000 1.163159e+001 1.441300e+001 1.122746e+001 1.329641e+001 1.443273e+001 1.775452e+001 1.798876e+001 1.850391e+001 1.835982e+001 1.495372e+001 1.765887e+001 1.479758e-001 2.873018e-001 4.821446e-001 7.709281e-001 9.200057e-001 1.142665e+000 1.158468e+000 1.307867e+000 1.326416e+000 1.398205e+000 1.523499e+000 1.308163e+000 9.631837e-002 3.152255e-002 5.135807e-002 1.065040e-001 1.552359e-001 2.057109e-001 2.556875e-001 2.479771e-001 2.759598e-001 2.788087e-001 2.919351e-001 3.033326e-001 2.828364e-001 2.299398e-002
<GCONST> 7.626929e+001
<STATE> 3
<MEAN> 39
 -1.257659e+001 -4.028893e+000 -4.648354e+000 -2.732795e+000 -1.500844e+000 -5.673414e+000 -1.155786e+000 -4.697536e+000 -1.146838e-001 -4.979007e-001 2.446890e-001 -3.653960e+000 5.260687e+001 2.576150e-001 -3.103777e-001 -7.175449e-002 6.575024e-003 1.838066e-002 -2.682193e-001 -1.381613e-001 -1.973021e-001 -2.285995e-001 1.204802e-001 1.684045e-002 -3.383106e-001 1.105734e+000 1.431200e-002 -4.752376e-002 -3.163219e-003 1.358112e-002 -5.987118e-002 -6.653102e-002 -4.522850e-002 -3.471410e-002 -8.810852e-002 1.768797e-002 2.125698e-002 -4.251108e-002 3.826881e-002
<VARIANCE> 39
 2.393803e+001 1.543913e+001 2.076780e+001 1.495593e+001 1.450318e+001 1.509650e+001 1.584926e+001 2.876057e+001 3.080590e+001 2.219408e+001 1.418065e+001 1.980514e+001 1.069907e+002 1.688020e+000 1.095950e+000 1.125639e+000 1.001571e+000 1.226796e+000 1.105040e+000 1.267878e+000 1.449719e+000 1.644739e+000 1.969823e+000 1.413384e+000 1.494367e+000 6.346618e+000 3.031272e-001 1.726590e-001 2.237698e-001 1.866425e-001 2.710277e-001 2.346557e-001 2.633961e-001 3.008295e-001 3.624979e-001 3.973573e-001 3.305694e-001 3.152660e-001 1.083390e+000
<GCONST> 1.015613e+002
<STATE> 4
<MEAN> 39
 -8.713372e+000 -1.066130e+001 -1.060045e+001 -1.458278e+000 -2.498425e+000 -9.517755e+000 -3.077220e+000 -8.978826e+000 -6.448305e+000 1.854088e+000 9.882387e-001 -9.475004e+000 6.313235e+001 -5.328467e-003 -1.501523e-001 2.780065e-001 2.865986e-001 -4.300123e-001 -6.405296e-001 8.240619e-002 3.290353e-001 3.487399e-002 7.545783e-003 -3.345931e-001 -2.820850e-002 1.195115e-001 1.149835e-001 1.486301e-001 1.273335e-001 -7.752033e-002 -1.719989e-001 -1.059873e-001 9.761145e-002 2.690396e-002 5.300440e-002 -7.828059e-002 -1.294368e-002 6.649996e-002 -2.356427e-002
<VARIANCE> 39
 6.154346e+001 2.750583e+001 4.259574e+001 2.524864e+001 2.709165e+001 2.401626e+001 2.833338e+001 6.571603e+001 3.915472e+001 2.686023e+001 3.380002e+001 4.705687e+001 3.386249e+001 2.953915e-001 8.563357e-001 9.786551e-001 1.021543e+000 1.646806e+000 1.793991e+000 1.785767e+000 2.351902e+000 2.357857e+000 1.783810e+000 2.187239e+000 1.504019e+000 2.189068e-001 8.202539e-002 1.828114e-001 1.824464e-001 2.510495e-001 3.260975e-001 2.905551e-001 3.513303e-001 4.070798e-001 4.224269e-001 3.715729e-001 4.242916e-001 2.718835e-001 5.724157e-002
<GCONST> 1.017466e+002
<TRANSP> 5
 0.000000e+000 1.000000e+000 0.000000e+000 0.000000e+000 0.000000e+000
 0.000000e+000 9.086623e-001 9.133768e-002 0.000000e+000 0.000000e+000
 0.000000e+000 0.000000e+000 7.498293e-001 2.501707e-001 0.000000e+000
 0.000000e+000 0.000000e+000 0.000000e+000 7.327522e-001 2.672479e-001
 0.000000e+000 0.000000e+000 0.000000e+000 0.000000e+000 0.000000e+000
<ENDHMM>
~h "eh"
<BEGINHMM>
<NUMSTATES> 5
<STATE> 2
<MEAN> 39
 8.248326e-001 -1.110595e+001 -1.030982e+001 -6.266357e+000 -9.156370e+000 -1.926049e+001 -3.429480e+000 -1.112611e+001 -5.877591e-001 4.899916e+000 -5.665561e+000 -9.443711e+000 7.124695e+001 2.819501e+000 -2.084171e+000 -8.576313e-001 2.852910e-001 -4.636011e-001 -4.958411e-001 3.508176e-002 -9.181544e-001 3.316377e-001 8.827055e-001 -1.839297e+000 -2.442253e+000 2.781060e+000 -1.342849e+000 2.612525e-001 1.021461e-001 2.771256e-001 1.113596e+000 7.798844e-001 3.218866e-001 5.689530e-001 -6.435379e-001 -3.823136e-001 2.897177e-001 -2.264369e-001 -6.315907e-001
<VARIANCE> 39
 2.700290e+001 2.820581e+001 1.652400e+001 1.507900e+001 2.073717e+001 4.685225e+001 2.384162e+001 1.785830e+001 1.782497e+001 1.676125e+001 1.732552e+001 2.250961e+001 2.323547e+001 3.435547e+000 1.817482e+000 1.059733e+000 1.411877e+000 2.902344e+000 2.314458e+000 2.206173e+000 3.064035e+000 1.937417e+000 2.117097e+000 2.283280e+000 1.854927e+000 2.053085e+000 2.617197e-001 3.771172e-001 2.602464e-001 2.697070e-001 3.525879e-001 5.001809e-001 4.548797e-001 4.571477e-001 3.471371e-001 3.449211e-001 2.704270e-001 3.748969e-001 3.316293e-001
<GCONST> 1.074066e+002
<STATE> 3
<MEAN> 39
 1.615044e-002 -1.279315e+001 -9.764450e+000 -4.251428e+000 -6.150879e+000 -1.738091e+001 -1.565419e+000 -8.363564e+000 -1.782586e+000 4.966665e+000 -5.817468e+000 -1.339545e+001 7.190392e+001 1.386168e-001 -9.303998e-001 -6.172113e-001 5.770542e-001 1.507488e+000 1.157016e+000 -3.657130e-001 7.564919e-003 -8.518683e-001 -4.030998e-001 -3.559453e-001 -2.133469e+000 2.651600e-001 -7.295201e-001 4.967880e-001 -1.050700e-001 -1.317926e-001 3.619846e-001 4.663748e-001 -3.939990e-001 -2.594448e-001 -2.967087e-001 -3.985267e-001 4.683896e-001 4.119435e-001 -8.601884e-001
<VARIANCE> 39
 4.792289e+001 3.080375e+001 1.432817e+001 1.863296e+001 1.791615e+001 4.257948e+001 2.714768e+001 1.796824e+001 1.469659e+001 2.256588e+001 2.443605e+001 2.760661e+001 3.235977e+001 3.952758e-001 1.228831e+000 9.480500e-001 1.500510e+000 1.634025e+000 2.049618e+000 1.635944e+000 2.595666e+000 1.962445e+000 2.053827e+000 1.363703e+000 1.794235e+000 2.197547e-001 2.192898e-001 3.506349e-001 1.298101e-001 2.071989e-001 3.234347e-001 3.005732e-001 3.186345e-001 4.222372e-001 3.269984e-001 3.348907e-001 2.466015e-001 3.063774e-001 2.065196e-001
<GCONST> 9.935233e+001
<STATE> 4
<MEAN> 39
 8.267555e-002 -1.406816e+001 -1.094850e+001 -3.727162e+000 -3.924912e+000 -1.549539e+001 -2.685051e+000 -9.430333e+000 -3.246129e+000 4.098518e+000 -6.345105e+000 -1.513110e+001 7.204633e+001 -8.869029e-002 -5.458164e-001 -9.854158e-001 1.922322e-001 1.143742e+000 1.133103e+000 -9.693382e-001 -1.203786e+000 -8.983498e-001 -5.718116e-001 -3.683608e-001 -1.422224e+000 -2.507407e-001 -1.072444e-001 5.892988e-001 -1.535373e-001 -4.084025e-001 -3.211199e-001 5.120138e-002 -4.242690e-001 -6.015312e-001 3.656412e-002 9.684667e-002 4.842631e-001 6.430470e-001 -4.871350e-001
<VARIANCE> 39
 4.445848e+001 3.069040e+001 1.347896e+001 2.093333e+001 1.794074e+001 4.344393e+001 2.401857e+001 1.806504e+001 1.983646e+001 3.313215e+001 2.704081e+001 3.611593e+001 3.253370e+001 3.802252e-001 1.320801e+000 1.369254e+000 1.726590e+000 1.831727e+000 1.910816e+000 2.125654e+000 2.258284e+000 1.720035e+000 1.741978e+000 1.721275e+000 2.726795e+000 2.161388e-001 1.036502e-001 2.639066e-001 1.479320e-001 2.269565e-001 2.262032e-001 2.810048e-001 2.314063e-001 5.519195e-001 2.702774e-001 4.179370e-001 3.023761e-001 3.573372e-001 9.765370e-002
<GCONST> 9.969005e+001
<TRANSP> 5
 0.000000e+000 1.000000e+000 0.000000e+000 0.000000e+000 0.000000e+000
 0.000000e+000 5.332052e-001 4.667948e-001 0.000000e+000 0.000000e+000
 0.000000e+000 0.000000e+000 3.389871e-002 9.661013e-001 0.000000e+000
 0.000000e+000 0.000000e+000 0.000000e+000 6.575824e-002 9.342417e-001
 0.000000e+000 0.000000e+000 0.000000e+000 0.000000e+000 0.000000e+000
<ENDHMM>
~h "ey"
<BEGINHMM>
<NUMSTATES> 5
<STATE> 2
<MEAN> 39
 -9.503708e+000 3.346272e-001 -1.326545e+000 -2.092213e+000 -1.693816e+000 -7.464562e+000 -2.852679e+000 -1.008131e+001 -4.217178e+000 -4.017436e+000 -2.219637e+000 -4.934347e+000 5.727939e+001 -6.419991e-001 -7.327941e-001 -1.076466e+000 -1.422727e-001 1.082321e+000 1.497622e+000 1.036322e+000 1.343318e+000 1.229722e+000 2.083564e-001 8.340328e-002 3.072296e-001 -4.913537e-001 8.046094e-002 -1.943469e-001 -1.417249e-002 -1.134931e-001 -5.513607e-001 -3.396545e-001 9.495363e-002 -2.252947e-001 -2.398336e-001 3.030401e-001 7.274045e-002 -1.367026e-001 2.234215e-001
<VARIANCE> 39
 2.061400e+001 2.060121e+001 3.197585e+001 1.609944e+001 2.238350e+001 2.984344e+001 2.715927e+001 5.393714e+001 3.128294e+001 2.242769e+001 1.706935e+001 1.936122e+001 2.898976e+001 1.318149e+000 1.858836e+000 1.971481e+000 1.071334e+000 3.623065e+000 4.359560e+000 3.228004e+000 5.419574e+000 4.662858e+000 2.716032e+000 1.733085e+000 2.411037e+000 1.136349e+000 1.151757e-001 2.435486e-001 2.651312e-001 2.830432e-001 7.639403e-001 6.218166e-001 6.368071e-001 8.959526e-001 6.825184e-001 5.857496e-001 3.701432e-001 3.839434e-001 1.120461e-001
<GCONST> 1.123233e+002
<STATE> 3
<MEAN> 39
 -8.702983e+000 -4.831041e+000 -7.133964e+000 -3.299736e+000 -9.449065e-001 -6.762532e+000 -9.703838e-001 -6.815563e+000 -3.407811e+000 -3.848936e+000 -1.580924e+000 -6.857323e+000 5.893534e+001 -4.562132e-001 -3.920176e-001 -2.987016e-001 2.018480e-002 -7.323690e-002 3.859306e-002 5.892980e-001 5.751075e-001 1.825581e-001 3.171991e-001 1.073241e-001 4.494930e-002 -1.385396e-001 5.907272e-002 6.109685e-002 2.285824e-001 -1.199364e-002 -4.502456e-001 -4.599129e-001 -3.285901e-002 -2.878840e-001 -3.438514e-001 2.654480e-001 1.037231e-001 -4.777551e-002 2.192093e-001
<VARIANCE> 39
 4.984029e+001 5.906235e+001 5.753675e+001 1.852987e+001 2.162812e+001 3.660416e+001 1.697700e+001 2.111808e+001 3.553249e+001 2.178531e+001 1.907258e+001 6.324704e+001 7.914355e+001 4.968428e-001 1.668438e+000 1.318459e+000 1.044403e+000 1.990489e+000 2.291946e+000 1.918960e+000 2.060694e+000 3.140688e+000 2.053172e+000 1.625701e+000 1.370062e+000 6.174377e-001 1.349647e-001 3.856328e-001 2.506016e-001 2.254198e-001 5.211674e-001 6.123782e-001 5.135270e-001 5.077532e-001 5.931541e-001 5.409817e-001 3.528835e-001 3.035547e-001 1.941269e-001
<GCONST> 1.091929e+002
<STATE> 4
<MEAN> 39
 -1.220920e+001 -1.861618e+000 -4.241895e+000 -4.059821e+000 -1.438574e+000 -4.989800e+000 4.869351e-001 -5.818978e+000 -9.236323e-001 -3.425931e+000 -2.157288e+000 -3.287973e+000 5.525138e+001 -1.877279e-001 -2.964643e-001 -2.844861e-001 -1.066999e-001 -3.520799e-001 -2.542173e-001 1.924170e-001 1.130275e-002 4.218842e-002 7.414157e-001 1.761148e-001 1.490989e-001 1.820192e-001 5.880058e-002 -3.583809e-002 8.853927e-002 7.576270e-002 -2.538203e-001 -3.266466e-001 2.565504e-002 -1.369025e-001 -2.740981e-001 1.113809e-001 4.484915e-002 -5.773739e-002 2.594711e-001
<VARIANCE> 39
 6.446117e+000 6.693321e+000 7.132156e+000 9.188753e+000 1.159465e+001 1.274864e+001 1.090425e+001 1.401341e+001 1.830550e+001 2.052641e+001 1.506262e+001 1.303529e+001 1.337858e+001 4.060713e-001 7.591652e-001 7.594838e-001 9.217286e-001 1.834368e+000 1.363689e+000 1.589048e+000 1.911389e+000 1.883211e+000 2.537040e+000 2.065217e+000 1.350471e+000 5.899031e-001 1.112217e-001 1.302634e-001 1.315219e-001 1.338657e-001 5.309616e-001 3.744307e-001 3.326640e-001 4.199418e-001 4.513020e-001 6.097611e-001 4.000963e-001 2.607864e-001 1.037920e-001
<GCONST> 8.833496e+001
<TRANSP> 5
 0.000000e+000 1.000000e+000 0.000000e+000 0.000000e+000 0.000000e+000
 0.000000e+000 4.644604e-001 5.355395e-001 0.000000e+000 0.000000e+000
 0.000000e+000 0.000000e+000 1.969030e-001 8.030970e-001 0.000000e+000
 0.000000e+000 0.000000e+000 0.000000e+000 6.409609e-001 3.590392e-001
 0.000000e+000 0.000000e+000 0.000000e+000 0.000000e+000 0.000000e+000
<ENDHMM>
~h "ia"
<BEGINHMM>
<NUMSTATES> 5
<STATE> 2
<MEAN> 39
 -9.720809e+000 -4.384669e-001 -1.532345e+000 -1.519649e+000 -4.743949e+000 -1.902064e+001 -6.345516e+000 -1.338049e+001 -1.242952e+001 -4.720816e+000 -3.789497e+000 -6.208137e+000 6.262473e+001 1.541469e+000 -4.142532e-001 7.422302e-001 5.886926e-002 -1.625900e+000 -2.155158e+000 -1.065374e+000 -8.639809e-001 -1.026412e+000 -1.225513e-001 4.869495e-001 2.075479e-002 1.007890e+000 2.798367e-001 -2.787393e-001 1.107278e-002 1.326171e-001 -3.836676e-001 1.935120e-001 1.150100e-001 3.598074e-002 5.283732e-002 -5.654386e-003 1.507056e-001 -3.312057e-002 8.233362e-002
<VARIANCE> 39
 3.654789e+001 3.017943e+001 2.473845e+001 3.111755e+001 3.575292e+001 7.453394e+001 5.056446e+001 5.297346e+001 3.423317e+001 3.654151e+001 3.747292e+001 1.844647e+001 8.669254e+000 2.484747e+000 2.144472e+000 2.516305e+000 3.085145e+000 3.787362e+000 4.666470e+000 3.822658e+000 3.831672e+000 2.965348e+000 2.710376e+000 2.157716e+000 2.125626e+000 6.386841e-001 3.968775e-001 3.632993e-001 3.184108e-001 5.744787e-001 6.090153e-001 6.724418e-001 6.407064e-001 6.485114e-001 5.046619e-001 4.735356e-001 4.048232e-001 4.099204e-001 9.152066e-002
<GCONST> 1.183525e+002
<STATE> 3
<MEAN> 39
 7.590875e-001 -6.465796e+000 2.357651e+000 2.636283e+000 -1.927042e+001 -2.874296e+001 -1.065986e+001 -1.907256e+001 -1.582292e+001 -3.578707e+000 9.827816e-001 -5.082094e+000 6.927060e+001 1.125883e+000 -1.059904e+000 -8.658583e-001 3.224663e-001 -5.544888e-001 4.779254e-001 -3.516441e-001 -8.814973e-001 7.667472e-001 1.301554e+000 7.887583e-001 -1.831637e-001 5.329796e-001 -1.965420e-001 3.285788e-001 -4.346073e-001 -1.822922e-001 7.893184e-001 4.771197e-001 -1.543783e-001 -1.182610e-001 2.477596e-001 1.258397e-001 -8.987297e-002 -6.431905e-002 -2.291602e-001
<VARIANCE> 39
 9.895078e+000 3.310595e+001 2.237660e+001 2.080679e+001 3.658765e+001 2.894681e+001 2.819038e+001 2.126793e+001 2.842255e+001 3.562349e+001 2.379013e+001 2.238540e+001 8.603480e+000 5.608988e-001 1.912291e+000 2.780551e+000 1.412979e+000 7.379914e+000 2.700314e+000 2.458349e+000 2.182237e+000 3.248394e+000 2.575823e+000 2.092257e+000 1.989025e+000 5.836320e-001 6.369174e-002 3.054099e-001 2.160327e-001 3.668011e-001 4.985488e-001 4.014447e-001 5.044044e-001 4.100200e-001 5.170676e-001 5.301294e-001 3.947124e-001 4.325996e-001 4.729322e-002
<GCONST> 1.056729e+002
<STATE> 4
<MEAN> 39
 4.974175e+000 -2.871396e+000 -1.374044e+001 -8.171322e+000 -7.339490e+000 -1.454599e+001 -1.307585e+001 -2.268576e+001 -1.056622e+001 -5.674646e-001 5.865541e+000 -3.912838e-001 6.763812e+001 -2.911741e-002 3.111706e-001 -6.119071e-001 -8.553792e-001 4.640579e-001 8.743695e-001 3.735244e-001 2.322675e-001 2.124411e-001 1.200760e-002 2.223386e-001 2.083740e-001 -1.768335e-001 -8.856150e-002 -4.817924e-002 2.346669e-001 1.093426e-001 -2.038651e-001 -1.285046e-001 1.376435e-001 1.383211e-001 -1.614286e-002 -4.209979e-002 -7.788484e-002 -3.240772e-002 -1.732080e-003
<VARIANCE> 39
 7.360917e+000 2.770739e+001 2.784338e+001 5.120598e+001 3.383587e+001 3.858999e+001 5.033786e+001 2.785470e+001 3.483815e+001 5.294088e+001 2.969011e+001 4.060157e+001 7.036824e+000 2.046251e-001 1.954079e+000 1.639722e+000 2.199281e+000 3.746143e+000 1.980501e+000 3.690339e+000 1.781092e+000 2.762522e+000 4.885382e+000 2.553552e+000 3.885758e+000 3.605063e-001 3.760735e-002 2.405457e-001 1.801693e-001 2.640921e-001 4.281896e-001 2.686729e-001 5.312565e-001 3.244990e-001 5.736584e-001 8.706148e-001 5.162314e-001 6.229120e-001 4.501278e-002
<GCONST> 1.067727e+002
<TRANSP> 5
 0.000000e+000 1.000000e+000 0.000000e+000 0.000000e+000 0.000000e+000
 0.000000e+000 7.995489e-001 2.004511e-001 0.000000e+000 0.000000e+000
 0.000000e+000 0.000000e+000 8.593481e-001 1.406520e-001 0.000000e+000
 0.000000e+000 0.000000e+000 0.000000e+000 9.233164e-001 7.668360e-002
 0.000000e+000 0.000000e+000 0.000000e+000 0.000000e+000 0.000000e+000
<ENDHMM>
~h "ih"
<BEGINHMM>
<NUMSTATES> 5
<STATE> 2
<MEAN> 39
 -1.849314e+001 -4.967561e+000 -5.397900e+000 -2.339998e+000 -1.572334e+000 -1.399620e+001 5.067282e+000 -2.738698e+000 -6.367879e+000 -4.298797e-001 1.530942e+000 -2.080240e+000 6.113339e+001 2.327253e+000 -3.553173e-001 1.566287e+000 -2.633141e-001 -2.383789e+000 -1.888474e+000 -9.245916e-001 -7.285716e-001 -9.116434e-001 -5.106107e-001 6.154538e-001 -1.870195e-002 3.457078e-002 9.183367e-001 3.265667e-001 4.929467e-001 1.606512e-001 -9.930404e-001 -7.358246e-001 -7.255554e-001 -1.029644e+000 -4.894645e-001 2.081712e-001 3.164745e-002 -3.253106e-001 4.691792e-001
<VARIANCE> 39
 1.281830e+001 9.045635e+000 9.527853e+000 1.522516e+001 2.371852e+001 2.718305e+001 2.457828e+001 1.848138e+001 1.609326e+001 2.355468e+001 2.501734e+001 1.097809e+001 6.324530e+000 2.027797e+000 1.403443e+000 1.045624e+000 1.206237e+000 2.736289e+000 2.260173e+000 3.437777e+000 3.826381e+000 1.948047e+000 2.230265e+000 2.140572e+000 2.142399e+000 9.035337e-001 1.062550e-001 2.274765e-001 1.456300e-001 2.490883e-001 3.392049e-001 2.456432e-001 3.309878e-001 6.695593e-001 3.678557e-001 4.710169e-001 4.216949e-001 2.780056e-001 1.801470e-001
<GCONST> 9.931836e+001
<STATE> 3
<MEAN> 39
 -5.388136e+000 -4.184679e+000 2.880228e+000 6.548287e-001 -1.457989e+001 -2.077136e+001 -4.347608e-001 -1.276372e+001 -1.175732e+001 1.351258e+000 3.437300e+000 -6.101315e+000 6.467798e+001 1.483980e+000 1.642384e-001 1.021132e+000 6.395104e-001 -2.047620e+000 -1.115966e+000 -3.400702e-001 -1.656848e+000 -1.150152e+000 5.200597e-001 4.007275e-001 -5.885415e-001 8.492992e-001 -5.633051e-001 1.035837e-001 -1.609641e-001 -7.197853e-003 4.546784e-001 4.766986e-001 3.461621e-001 2.235142e-001 6.068544e-002 1.111650e-001 -9.655347e-002 -4.908362e-002 -1.230137e-001
<VARIANCE> 39
 3.242883e+001 3.319505e+001 3.936675e+001 2.447395e+001 9.704878e+001 9.420483e+001 3.924045e+001 6.909811e+001 4.341670e+001 3.818913e+001 2.938903e+001 3.256047e+001 2.463916e+001 7.304928e+000 4.935909e+000 4.856730e+000 2.313316e+000 1.451342e+001 9.292584e+000 4.913556e+000 1.106552e+001 5.940099e+000 5.681015e+000 3.610310e+000 3.793915e+000 3.035235e+000 5.046297e-001 1.020423e+000 4.478193e-001 4.594896e-001 1.785733e+000 1.416926e+000 8.129907e-001 1.265317e+000 9.198226e-001 1.153570e+000 7.187746e-001 7.208975e-001 5.026605e-001
<GCONST> 1.396131e+002
<STATE> 4
<MEAN> 39
 -1.223492e+001 -2.709681e+000 -1.176386e+000 -3.207844e-001 -5.856525e+000 -1.458380e+001 1.087606e+000 -8.677800e+000 -1.014324e+001 2.387376e-001 3.586313e-001 -6.275141e+000 6.206564e+001 -5.261422e-001 7.221274e-002 -3.902136e-001 -1.327818e-001 7.801811e-001 6.454828e-001 8.281298e-002 5.516505e-001 4.565632e-001 -2.155260e-001 -2.008858e-001 1.703275e-001 -3.235156e-001 -2.427768e-003 -2.281265e-002 -5.847041e-002 -3.062558e-002 3.728862e-002 4.391533e-002 -1.680275e-002 4.026862e-002 1.000429e-001 -3.162571e-002 -1.354950e-002 4.185460e-002 -3.544563e-002
<VARIANCE> 39
 7.466209e+001 2.791275e+001 5.118945e+001 2.861968e+001 1.293195e+002 6.961996e+001 4.930336e+001 1.259350e+002 5.698542e+001 4.781154e+001 3.610327e+001 3.736446e+001 2.079029e+001 1.949413e+000 2.520177e+000 1.969170e+000 1.933313e+000 6.635039e+000 5.899106e+000 3.045170e+000 4.721877e+000 4.165561e+000 5.216663e+000 3.207881e+000 3.064518e+000 1.531768e+000 2.489056e-001 4.037495e-001 3.080594e-001 3.502029e-001 1.179090e+000 9.226810e-001 5.222984e-001 7.185501e-001 7.016185e-001 1.091594e+000 5.540856e-001 5.720270e-001 2.110476e-001
<GCONST> 1.292604e+002
<TRANSP> 5
 0.000000e+000 1.000000e+000 0.000000e+000 0.000000e+000 0.000000e+000
 0.000000e+000 6.436857e-001 3.563143e-001 0.000000e+000 0.000000e+000
 0.000000e+000 0.000000e+000 8.339887e-001 1.660113e-001 0.000000e+000
 0.000000e+000 0.000000e+000 0.000000e+000 9.581099e-001 4.189019e-002
 0.000000e+000 0.000000e+000 0.000000e+000 0.000000e+000 0.000000e+000
<ENDHMM>
~h "iy"
<BEGINHMM>
<NUMSTATES> 5
<STATE> 2
<MEAN> 39
 -2.074746e+000 6.761343e-001 9.216372e+000 3.685738e-002 -2.302746e+001 -2.059531e+001 -4.949340e+000 -2.562521e+001 -1.752092e+001 -3.022521e-001 -2.189436e+000 -1.338043e+001 6.549971e+001 -4.801427e-001 7.690883e-001 4.615138e-001 -2.557310e-001 8.537256e-001 1.102925e+000 3.127685e-001 -7.826693e-002 -5.557833e-001 -6.327091e-001 -4.503896e-001 -2.268585e-001 -4.894477e-001 6.999985e-002 -4.356749e-002 -4.149046e-001 7.750957e-002 5.389029e-001 -1.389646e-002 -2.907505e-001 2.220231e-001 3.254046e-001 -4.646049e-002 -1.566878e-002 1.883936e-001 -3.558655e-002
<VARIANCE> 39
 4.243550e+000 1.855762e+001 1.681097e+001 1.886761e+001 3.015159e+001 3.456461e+001 3.687062e+001 2.430932e+001 3.213828e+001 3.820941e+001 3.450220e+001 1.870408e+001 6.279829e+000 2.580944e-001 1.035521e+000 1.617510e+000 1.192365e+000 3.062611e+000 2.115984e+000 2.957232e+000 2.305856e+000 3.296100e+000 2.328680e+000 2.309223e+000 1.480852e+000 2.239765e-001 3.665532e-002 1.526695e-001 2.064816e-001 2.009590e-001 7.516753e-001 3.964186e-001 5.546746e-001 4.260134e-001 5.647699e-001 4.294730e-001 4.490714e-001 2.754615e-001 3.855680e-002
<GCONST> 9.808437e+001
<STATE> 3
<MEAN> 39
 -3.942572e+000 3.518898e+000 7.103143e+000 7.492270e-001 -1.349557e+001 -1.641457e+001 -5.436228e+000 -2.191834e+001 -1.730436e+001 -5.057712e+000 -3.936575e+000 -1.168937e+001 6.234649e+001 -6.814592e-001 3.637449e-001 -1.400073e+000 2.253384e-001 3.241974e+000 1.331369e+000 -5.082906e-001 1.758945e+000 1.113708e+000 -1.718763e+000 -7.143438e-001 1.322392e+000 -9.389126e-001 -2.236930e-001 -2.645542e-001 -2.171232e-001 -1.067870e-001 2.016464e-001 3.272915e-001 1.827237e-001 3.519412e-001 5.295609e-001 1.777458e-001 -4.257898e-002 1.150878e-001 -2.929811e-002
<VARIANCE> 39
 6.898118e+000 1.067655e+001 2.430326e+001 1.999126e+001 2.851620e+001 2.546813e+001 3.021287e+001 3.360003e+001 2.788550e+001 2.594025e+001 4.011727e+001 2.966607e+001 4.855592e+000 5.297651e-001 1.107939e+000 9.367913e-001 1.866031e+000 3.174582e+000 1.995868e+000 2.576820e+000 3.356017e+000 2.840652e+000 2.122478e+000 2.712778e+000 2.566032e+000 2.811875e-001 1.202468e-001 1.136595e-001 2.046814e-001 3.026923e-001 5.971895e-001 5.279475e-001 5.613158e-001 4.640066e-001 4.735630e-001 4.911852e-001 5.020434e-001 4.156691e-001 4.274771e-002
<GCONST> 1.016650e+002
<STATE> 4
<MEAN> 39
 -6.218764e+000 3.868187e+000 2.098201e+000 -1.430096e+000 -5.802422e+000 -1.145269e+001 -7.281274e+000 -1.769917e+001 -1.198826e+001 -9.710748e+000 -7.417145e+000 -8.243343e+000 5.921634e+001 -6.489558e-001 -4.871252e-001 -8.181291e-001 -6.210455e-002 1.160013e+000 8.350435e-001 4.486572e-001 1.216480e+000 1.095709e+000 5.907394e-002 4.798716e-002 4.806131e-001 -4.307266e-001 -2.398847e-003 -1.207140e-001 -2.646341e-003 -6.260676e-002 -3.070810e-001 -1.073545e-001 1.443971e-001 7.908642e-003 1.822470e-002 3.332767e-001 1.614137e-001 -1.074799e-001 8.697024e-002
<VARIANCE> 39
 8.488319e+000 9.862222e+000 1.421104e+001 1.364067e+001 2.555933e+001 2.436325e+001 2.718320e+001 4.104855e+001 2.803495e+001 1.843567e+001 2.277880e+001 1.984461e+001 4.065351e+000 6.880515e-001 8.054742e-001 1.026552e+000 1.149764e+000 2.865531e+000 2.286066e+000 2.220334e+000 3.019371e+000 2.497709e+000 2.020613e+000 1.852901e+000 1.613340e+000 2.318917e-001 8.475164e-002 1.343729e-001 1.620241e-001 2.314796e-001 4.650305e-001 2.842019e-001 3.885467e-001 5.655023e-001 4.068576e-001 3.968273e-001 3.177619e-001 2.908908e-001 3.183210e-002
<GCONST> 9.424767e+001
<TRANSP> 5
 0.000000e+000 1.000000e+000 0.000000e+000 0.000000e+000 0.000000e+000
 0.000000e+000 8.607187e-001 1.392813e-001 0.000000e+000 0.000000e+000
 0.000000e+000 0.000000e+000 6.180152e-001 3.819849e-001 0.000000e+000
 0.000000e+000 0.000000e+000 0.000000e+000 8.057613e-001 1.942387e-001
 0.000000e+000 0.000000e+000 0.000000e+000 0.000000e+000 0.000000e+000
<ENDHMM>
~h "ow"
<BEGINHMM>
<NUMSTATES> 5
<STATE> 2
<MEAN> 39
 -1.251489e+001 -2.505808e+000 -5.066135e+000 -4.350286e+000 -1.212497e+000 -5.112163e+000 3.002418e-001 -5.829774e+000 -2.313448e-001 -3.201577e+000 -9.242869e-001 -2.185072e+000 5.469552e+001 -4.736735e-002 -3.288175e-002 -3.781960e-002 -3.666868e-002 -4.972597e-003 -8.581299e-003 -9.926150e-003 9.856547e-003 1.721344e-002 2.383961e-003 1.262492e-002 4.931972e-002 -3.346943e-002 1.949194e-002 7.293208e-003 -1.605707e-003 -1.121986e-002 -2.274316e-002 -1.973710e-002 -1.235622e-002 -7.676207e-003 -1.940030e-002 -4.997562e-003 2.110051e-003 -8.944111e-003 1.753931e-002
<VARIANCE> 39
 2.434914e+000 3.691719e+000 6.137962e+000 7.876091e+000 7.714969e+000 9.426740e+000 1.104792e+001 1.423846e+001 1.230304e+001 1.316226e+001 1.436476e+001 1.181620e+001 1.642323e+000 1.127454e-001 1.822802e-001 4.020522e-001 7.195674e-001 8.728560e-001 9.185590e-001 1.088108e+000 1.417771e+000 1.335665e+000 1.379306e+000 1.565123e+000 1.349253e+000 6.234384e-002 2.437205e-002 3.391592e-002 8.036134e-002 1.509445e-001 1.770632e-001 1.909559e-001 2.295574e-001 2.951764e-001 2.776046e-001 2.887566e-001 3.337722e-001 2.778498e-001 1.263538e-002
<GCONST> 6.462295e+001
<STATE> 3
<MEAN> 39
 -1.353998e+001 -1.408303e+000 -5.984208e+000 -3.517154e+000 -2.257107e+000 -6.317475e+000 -6.032010e-001 -5.704473e+000 -2.140017e+000 -2.458152e+000 -1.035600e+000 -2.193863e+000 5.684487e+001 -1.640579e-001 6.816793e-002 -9.256601e-002 -1.734795e-001 -3.427519e-001 -2.750320e-001 -4.481525e-002 5.810262e-003 -2.968460e-001 -2.039706e-001 -3.612124e-001 -1.387921e-001 5.086491e-002 4.716464e-002 -3.074002e-002 1.516078e-001 1.163615e-001 5.820353e-002 1.893420e-002 -5.961710e-002 -4.968087e-002 -1.213218e-002 -1.089927e-002 -3.947232e-002 -1.400216e-001 1.027659e-001
<VARIANCE> 39
 1.946531e+001 1.073123e+001 1.754568e+001 1.857624e+001 1.976505e+001 1.696293e+001 1.722684e+001 3.233696e+001 1.638010e+001 2.150214e+001 2.340911e+001 1.786690e+001 9.773973e+000 1.895802e-001 3.248496e-001 4.513382e-001 8.878188e-001 1.066589e+000 9.753452e-001 1.204845e+000 1.704108e+000 1.238516e+000 2.050422e+000 2.034218e+000 1.083406e+000 7.700725e-002 8.527999e-002 8.084499e-002 1.118888e-001 2.245645e-001 2.894506e-001 3.677649e-001 2.474794e-001 3.875465e-001 3.043402e-001 4.391015e-001 4.624483e-001 2.955105e-001 4.822369e-002
<GCONST> 8.505859e+001
<STATE> 4
<MEAN> 39
 -1.319316e+001 -2.259405e+000 -5.209431e+000 -4.260244e+000 -1.828623e+000 -6.751319e+000 -6.282517e-001 -5.585496e+000 -2.020820e+000 -2.415912e+000 -1.910295e+000 -3.362195e+000 5.681999e+001 -7.963255e-002 -3.652583e-002 2.137715e-001 1.446348e-001 -2.928465e-001 -3.113513e-001 -4.587609e-001 -2.630242e-001 -2.310067e-001 -1.065220e-001 -2.035379e-001 -1.176888e-001 2.849328e-001 1.017757e-001 -1.944227e-002 1.780446e-001 1.313631e-001 1.416530e-002 -8.444469e-003 -5.585738e-002 -1.187272e-001 -6.404971e-002 3.503456e-002 1.165981e-001 -6.854705e-002 1.856225e-001
<VARIANCE> 39
 2.000366e+001 1.379866e+001 1.875511e+001 2.008111e+001 1.905460e+001 1.668885e+001 2.226079e+001 2.945378e+001 2.124108e+001 1.986530e+001 2.246579e+001 1.555049e+001 1.182762e+001 6.677055e-001 6.055794e-001 7.072443e-001 1.131605e+000 1.474366e+000 1.397908e+000 1.327159e+000 1.484390e+000 1.541939e+000 1.823615e+000 1.683231e+000 1.391163e+000 3.336044e-001 1.190400e-001 1.328951e-001 1.645707e-001 2.436603e-001 3.530263e-001 3.964047e-001 3.237015e-001 4.227954e-001 3.552507e-001 4.461154e-001 4.540281e-001 2.750123e-001 8.205861e-002
<GCONST> 9.316684e+001
<TRANSP> 5
 0.000000e+000 1.000000e+000 0.000000e+000 0.000000e+000 0.000000e+000
 0.000000e+000 9.649763e-001 3.502376e-002 0.000000e+000 0.000000e+000
 0.000000e+000 0.000000e+000 2.621884e-001 7.378115e-001 0.000000e+000
 0.000000e+000 0.000000e+000 0.000000e+000 8.583438e-002 9.141656e-001
 0.000000e+000 0.000000e+000 0.000000e+000 0.000000e+000 0.000000e+000
<ENDHMM>
~h "sp"
<BEGINHMM>
<NUMSTATES> 3
<STATE> 2
~s "silst"
<TRANSP> 3
 0.000000e+000 2.458537e-001 7.541463e-001
 0.000000e+000 6.930085e-001 3.069915e-001
 0.000000e+000 0.000000e+000 0.000000e+000
<ENDHMM>
~h "th"
<BEGINHMM>
<NUMSTATES> 5
<STATE> 2
<MEAN> 39
 -1.052452e+001 -1.894108e+000 -1.494842e+000 -1.854886e+000 -5.138394e-001 -1.172453e+001 -3.897923e+000 -8.136606e+000 -7.677665e+000 -1.658757e+000 -1.291263e+000 -5.511436e+000 6.031356e+001 -1.447604e+000 -6.839153e-001 -1.551291e-001 8.321725e-002 1.589459e+000 6.027111e-001 4.708884e-001 1.815158e+000 5.641315e-001 5.995477e-001 1.513072e-001 -1.208604e-001 4.224607e-002 -2.189171e-002 -7.616545e-003 -4.360725e-002 -2.298813e-001 -2.969250e-001 -9.879196e-002 -6.924225e-002 5.377275e-002 5.834591e-002 3.481765e-002 1.078374e-001 -1.706737e-002 7.693295e-002
<VARIANCE> 39
 4.256958e+001 1.777902e+001 2.517683e+001 3.124300e+001 7.300871e+001 5.972573e+001 5.726442e+001 6.577526e+001 4.617786e+001 3.870355e+001 3.212226e+001 2.433427e+001 1.136609e+001 1.868203e+000 1.663007e+000 1.912202e+000 3.319732e+000 3.788993e+000 3.639920e+000 4.255548e+000 6.944183e+000 3.541070e+000 3.612812e+000 3.505941e+000 2.336978e+000 4.874528e-001 1.747207e-001 2.403152e-001 2.917754e-001 4.503581e-001 6.521102e-001 5.843505e-001 6.708562e-001 1.037217e+000 6.374190e-001 5.592973e-001 7.317939e-001 5.015264e-001 4.788900e-002
<GCONST> 1.194945e+002
<STATE> 3
<MEAN> 39
 -1.855206e+001 -5.527018e+000 -3.619141e+000 -5.582229e+000 2.388575e+000 -8.526714e+000 -3.379775e+000 5.657110e-001 -4.893434e+000 8.187547e-001 1.271062e+000 -5.305900e+000 6.118756e+001 -2.764045e-001 -5.348470e-001 -3.671872e-002 -3.795568e-001 -8.422360e-001 4.632500e-001 -4.990968e-001 -1.860657e-001 3.286248e-001 2.781124e-002 3.350165e-001 1.740377e-001 2.704537e-001 2.826517e-001 -1.462061e-001 7.720733e-002 2.365680e-001 -3.461681e-001 3.431635e-002 7.761184e-002 -4.102072e-001 1.542872e-001 7.598609e-002 -1.351654e-001 2.501424e-002 -1.666969e-002
<VARIANCE> 39
 1.159245e+001 1.209502e+001 1.064684e+001 2.131168e+001 2.578275e+001 2.947576e+001 2.563412e+001 2.386404e+001 2.347013e+001 3.287747e+001 2.712098e+001 2.104229e+001 6.742173e+000 7.658560e-001 9.277049e-001 8.867201e-001 1.644873e+000 2.560521e+000 1.856863e+000 2.489602e+000 2.523927e+000 2.614936e+000 2.269298e+000 2.429066e+000 1.971484e+000 2.117261e-001 9.365800e-002 1.772446e-001 1.542377e-001 3.256842e-001 3.791812e-001 3.603432e-001 5.887588e-001 4.979559e-001 5.043173e-001 6.237833e-001 5.121208e-001 4.277593e-001 3.932638e-002
<GCONST> 9.900781e+001
<STATE> 4
<MEAN> 39
 -9.635260e+000 -1.066081e+001 -6.791578e+000 3.446683e-001 -4.183389e+000 -1.048777e+001 -7.175523e+000 -1.194153e+001 -2.653134e+000 4.363228e+000 2.730762e+000 -5.993156e+000 6.265119e+001 2.332751e+000 5.473366e-001 -6.368421e-001 4.418073e-001 -5.602546e-001 -1.673969e+000 -1.227939e+000 -2.149618e+000 -5.206639e-001 2.201908e-001 2.007754e-001 -2.155203e-001 5.115830e-001 6.267211e-002 2.302222e-001 1.083258e-001 -7.574571e-002 -1.920983e-002 -3.005443e-001 -1.215009e-001 9.168019e-002 -1.704793e-001 -7.035560e-002 -8.088290e-002 -1.411517e-001 1.149680e-001
<VARIANCE> 39
 6.547077e+001 4.170616e+001 2.631521e+001 3.993812e+001 3.581330e+001 4.815796e+001 6.312099e+001 7.423176e+001 3.316936e+001 3.370194e+001 3.151455e+001 3.060114e+001 9.007381e+000 2.307967e+000 6.693024e+000 2.471255e+000 6.982692e+000 7.121278e+000 3.913446e+000 6.077527e+000 4.205091e+000 4.206850e+000 5.036121e+000 4.182093e+000 4.908605e+000 1.425506e+000 5.852976e-001 1.005026e+000 5.015561e-001 1.270576e+000 1.455868e+000 6.933751e-001 1.260107e+000 1.028362e+000 8.584573e-001 9.031094e-001 8.908755e-001 1.166260e+000 2.114920e-001
<GCONST> 1.346419e+002
<TRANSP> 5
 0.000000e+000 1.000000e+000 0.000000e+000 0.000000e+000 0.000000e+000
 0.000000e+000 7.787316e-001 2.212683e-001 0.000000e+000 0.000000e+000
 0.000000e+000 0.000000e+000 8.621255e-001 1.378745e-001 0.000000e+000
 0.000000e+000 0.000000e+000 0.000000e+000 8.873392e-001 1.126608e-001
 0.000000e+000 0.000000e+000 0.000000e+000 0.000000e+000 0.000000e+000
<ENDHMM>
~h "uw"
<BEGINHMM>
<NUMSTATES> 5
<STATE> 2
<MEAN> 39
 -3.184691e+000 -4.814094e+000 -1.779390e+000 2.131055e+000 -1.166730e+001 -1.922097e+001 -6.735187e+000 -1.416926e+001 -1.059834e+001 -2.083066e+000 2.461321e+000 -5.413847e+000 6.446275e+001 3.097153e+000 2.565298e+000 7.848133e-001 -2.989384e-001 -1.237588e+000 -7.978271e-001 -2.565536e+000 -4.519504e+000 -1.185668e+000 3.812036e-001 -1.193360e+000 -1.320873e+000 1.263714e+000 -4.274099e-001 -2.169444e-001 -1.012938e-002 -5.359463e-002 3.063250e-001 4.269441e-001 3.050460e-001 4.327040e-001 -6.268336e-002 2.472926e-002 9.708196e-002 -1.162583e-001 5.722859e-002
<VARIANCE> 39
 2.988832e+001 3.841280e+001 2.880404e+001 5.641761e+001 3.619681e+001 2.875884e+001 3.679785e+001 8.013501e+001 5.211617e+001 4.133413e+001 2.874696e+001 3.417291e+001 2.006283e+001 3.607151e+000 3.363124e+000 1.050257e+000 2.832160e+000 2.759994e+000 2.978748e+000 4.170503e+000 9.830122e+000 4.360421e+000 3.430675e+000 2.955270e+000 2.661120e+000 1.580957e+000 4.399095e-001 4.422069e-001 2.312896e-001 3.372263e-001 7.134906e-001 4.381050e-001 6.174789e-001 1.284475e+000 6.987672e-001 6.350654e-001 4.089455e-001 3.982078e-001 3.610850e-001
<GCONST> 1.240203e+002
<STATE> 3
<MEAN> 39
 2.380469e+000 -2.245668e-001 -3.448948e-001 3.317076e+000 -1.036971e+001 -1.727871e+001 -1.181462e+001 -2.554772e+001 -1.643253e+001 -4.763994e-001 1.842864e+000 -9.894823e+000 6.736430e+001 2.582756e-001 1.311601e+000 -3.654378e-001 -1.369086e+000 7.822757e-001 1.011020e+000 -6.120928e-001 -1.148196e+000 -4.776449e-001 -4.862401e-001 -5.453978e-001 -3.297777e-001 -3.373519e-001 -5.424069e-001 -2.519733e-001 -1.135496e-001 -1.299579e-001 1.456118e-001 1.153317e-001 2.783939e-001 6.861616e-001 2.218863e-001 -3.211351e-001 -1.834864e-002 3.527830e-001 -3.283755e-001
<VARIANCE> 39
 6.521437e+000 2.356235e+001 1.284441e+001 4.196104e+001 2.231527e+001 3.708629e+001 3.005749e+001 4.205210e+001 4.353280e+001 4.000684e+001 3.094378e+001 2.795309e+001 9.167206e+000 7.711669e-001 8.287711e-001 7.902397e-001 1.191898e+000 1.639198e+000 1.191843e+000 1.401117e+000 2.139767e+000 1.800059e+000 2.304385e+000 1.662163e+000 1.759264e+000 5.479125e-001 2.268183e-001 2.200795e-001 1.691864e-001 2.496099e-001 3.680457e-001 2.653062e-001 2.921373e-001 5.409185e-001 3.311759e-001 2.941313e-001 3.383989e-001 2.745656e-001 1.153266e-001
<GCONST> 9.925886e+001
<STATE> 4
<MEAN> 39
 -1.168962e+000 6.810186e+000 -2.726026e-001 -5.659811e+000 -9.297493e+000 -1.511356e+001 -1.300231e+001 -2.220503e+001 -1.332596e+001 -8.548843e+000 -4.677979e+000 -6.902048e+000 6.176064e+001 -4.292485e-001 -1.311013e-001 1.510313e-002 2.781060e-002 2.857057e-001 1.052945e-001 8.429058e-002 4.809512e-001 4.503973e-001 -1.932880e-001 -2.693646e-001 1.669596e-001 -3.058522e-001 -5.374721e-002 -1.647484e-001 -2.970967e-002 1.328346e-001 3.400710e-002 1.567487e-003 1.230618e-001 1.862717e-001 1.143507e-001 1.211359e-001 7.437605e-002 -1.393528e-002 2.404828e-002
<VARIANCE> 39
 9.847603e+000 9.746321e+000 8.875238e+000 2.334776e+001 3.103226e+001 3.163118e+001 2.192992e+001 4.053465e+001 3.933057e+001 3.594350e+001 3.097499e+001 1.994733e+001 5.262272e+000 2.455094e-001 7.902740e-001 6.209270e-001 1.042024e+000 1.440478e+000 1.504011e+000 1.662791e+000 1.821230e+000 1.665206e+000 2.105961e+000 1.674074e+000 1.419530e+000 1.182287e-001 4.426927e-002 9.471923e-002 1.073593e-001 1.553094e-001 2.479217e-001 2.649604e-001 3.272689e-001 3.635324e-001 2.795142e-001 3.320047e-001 2.671970e-001 2.557508e-001 1.491774e-002
<GCONST> 8.670047e+001
<TRANSP> 5
 0.000000e+000 1.000000e+000 0.000000e+000 0.000000e+000 0.000000e+000
 0.000000e+000 6.881514e-001 3.118485e-001 0.000000e+000 0.000000e+000
 0.000000e+000 0.000000e+000 7.599008e-001 2.400992e-001 0.000000e+000
 0.000000e+000 0.000000e+000 0.000000e+000 9.188421e-001 8.115787e-002
 0.000000e+000 0.000000e+000 0.000000e+000 0.000000e+000 0.000000e+000
<ENDHMM>
~h "sil"
<BEGINHMM>
<NUMSTATES> 5
<STATE> 2
<MEAN> 39
 -1.698091e+001 -2.841526e+000 -5.004429e+000 -3.292417e+000 -2.031382e+000 -2.930712e+000 -2.671318e-001 -2.239495e+000 6.705490e-001 -1.498491e+000 -6.185055e-001 -6.600137e-001 3.842327e+001 9.303089e-002 -8.559162e-004 1.519948e-002 -2.684997e-002 5.475857e-002 -1.057607e-002 4.092205e-002 -2.492390e-002 4.288144e-002 -6.157183e-002 -2.168632e-002 -2.789075e-002 3.122560e-001 1.226622e-003 1.447163e-003 1.148676e-002 1.624666e-002 -5.290386e-003 -1.803242e-002 -2.750666e-002 -4.149617e-002 -3.448009e-002 -2.920775e-002 -2.489920e-002 -1.417450e-002 8.696923e-003
<VARIANCE> 39
 2.474171e+001 3.107261e+000 5.663236e+000 8.682288e+000 7.186800e+000 1.123053e+001 8.886318e+000 1.939934e+001 1.037770e+001 1.280633e+001 1.017250e+001 1.095292e+001 2.551159e+002 5.781429e-001 2.467508e-001 4.917805e-001 4.933259e-001 7.298937e-001 6.815885e-001 8.841865e-001 1.309778e+000 1.200964e+000 1.280807e+000 1.012148e+000 1.101457e+000 2.461664e+000 1.074667e-001 4.793166e-002 1.043991e-001 1.048407e-001 1.443352e-001 1.487408e-001 1.917224e-001 2.682245e-001 2.648464e-001 2.767815e-001 2.096141e-001 2.494212e-001 3.869144e-001
<GCONST> 7.901909e+001
<STATE> 3
~s "silst"
<STATE> 4
<MEAN> 39
 -1.306212e+001 -2.238632e+000 -3.966260e+000 -3.893809e+000 -1.059971e+000 -5.169463e+000 -8.489379e-001 -6.677003e+000 -8.586062e-001 -4.587811e+000 -1.414320e+000 -2.443261e+000 5.290486e+001 -2.485020e-002 -3.210552e-002 -1.568338e-002 -8.192036e-002 -1.664555e-001 -2.064305e-001 -2.159629e-001 -5.178969e-002 1.841479e-002 1.561446e-001 1.663471e-001 4.305377e-002 -2.839794e-002 4.751093e-002 3.254817e-002 -3.828693e-002 -9.648592e-002 -7.241926e-002 5.472819e-003 7.540881e-002 1.323463e-001 7.076475e-002 8.513740e-002 -4.309298e-003 2.571442e-003 2.202419e-002
<VARIANCE> 39
 4.863993e+000 3.592331e+000 4.835856e+000 5.542521e+000 6.035347e+000 8.959803e+000 1.053831e+001 1.133885e+001 1.136700e+001 1.507878e+001 1.107867e+001 1.122766e+001 3.794706e+001 2.145205e-001 4.643312e-001 5.876100e-001 8.723038e-001 8.598602e-001 1.174383e+000 1.336449e+000 1.648255e+000 1.932655e+000 1.982006e+000 1.449947e+000 1.472798e+000 1.970499e-001 2.734810e-002 5.004989e-002 6.584272e-002 9.026515e-002 1.316741e-001 1.435156e-001 1.876718e-001 2.053737e-001 2.108258e-001 2.500256e-001 1.959870e-001 2.129461e-001 2.918224e-002
<GCONST> 6.990808e+001
<TRANSP> 5
 0.000000e+000 1.000000e+000 0.000000e+000 0.000000e+000 0.000000e+000
 0.000000e+000 8.550214e-001 4.773755e-002 9.724107e-002 0.000000e+000
 0.000000e+000 0.000000e+000 3.104363e-001 6.895638e-001 0.000000e+000
 0.000000e+000 8.219501e-001 0.000000e+000 4.779045e-003 1.732709e-001
 0.000000e+000 0.000000e+000 0.000000e+000 0.000000e+000 0.000000e+000
<ENDHMM>
