~o
<STREAMINFO> 1 39
<VECSIZE> 39<NULLD><MFCC_D_A_0><DIAGC>
~s "silst"
<MEAN> 39
 -1.263984e+001 -2.464555e+000 -4.886538e+000 -4.456903e+000 -1.681645e+000 -5.301837e+000 3.037714e-001 -5.610665e+000 -3.804958e-001 -3.604584e+000 -1.372815e+000 -2.234696e+000 5.468165e+001 -3.956296e-002 -2.607589e-002 -4.979258e-002 -4.181852e-002 -1.371233e-003 3.410264e-002 -3.279724e-004 8.802392e-004 6.546209e-002 3.547780e-002 8.656959e-004 3.585807e-002 -2.979159e-002 5.790101e-003 -5.029835e-003 1.420575e-002 1.581793e-002 -1.130509e-002 -3.070731e-002 -1.285774e-002 -1.569042e-002 -3.532698e-002 -1.605692e-003 5.168703e-003 -1.105388e-002 2.370147e-002
<VARIANCE> 39
 1.574644e+000 3.704372e+000 5.595405e+000 8.142892e+000 7.801270e+000 9.650440e+000 1.084001e+001 1.236962e+001 1.218368e+001 1.381220e+001 1.564859e+001 1.163651e+001 1.352993e+000 1.195310e-001 2.172209e-001 4.143153e-001 7.133288e-001 8.527413e-001 9.747726e-001 1.089868e+000 1.393729e+000 1.382115e+000 1.516654e+000 1.567226e+000 1.280255e+000 7.253619e-002 2.691755e-002 4.413151e-002 8.419707e-002 1.453986e-001 1.821808e-001 1.995313e-001 2.286226e-001 2.915894e-001 2.847382e-001 3.170001e-001 3.221285e-001 2.633766e-001 1.643786e-002
<GCONST> 6.514694e+001
~h "f"
<BEGINHMM>
<NUMSTATES> 5
<STATE> 2
<MEAN> 39
 -1.281403e+001 -8.472424e+000 -7.639541e+000 2.500623e+000 -2.786791e+000 -7.214428e+000 -2.389479e+000 -6.255300e+000 -2.640730e+000 2.407738e+000 1.929468e+000 -5.068898e+000 5.956247e+001 -3.915930e-001 -4.976003e-001 -5.052710e-001 2.816986e-001 -2.676970e-001 -4.422248e-002 -6.856568e-002 6.677554e-002 -3.741872e-002 5.655507e-001 4.264424e-001 3.830433e-002 1.133787e-001 8.874906e-002 1.425073e-001 7.581294e-002 -1.099124e-001 -3.853637e-002 -9.643607e-002 -6.496685e-002 -8.392780e-002 -9.948082e-002 -1.160840e-001 -3.213726e-002 1.857616e-002 2.465050e-003
<VARIANCE> 39
 6.554549e+000 1.505149e+001 1.534268e+001 1.866741e+001 1.698266e+001 2.043669e+001 1.907432e+001 1.837862e+001 2.167213e+001 2.813330e+001 2.054551e+001 1.569931e+001 6.611388e+000 4.842136e-001 1.521015e+000 1.001758e+000 1.365799e+000 1.563700e+000 1.764115e+000 2.023480e+000 2.133185e+000 2.217804e+000 2.810814e+000 1.725468e+000 1.495508e+000 2.311425e-001 5.621320e-002 1.955514e-001 1.415064e-001 2.393196e-001 3.592293e-001 3.873731e-001 4.203902e-001 3.700439e-001 4.067044e-001 5.002164e-001 3.379294e-001 3.123242e-001 3.642133e-002
<GCONST> 9.262900e+001
<STATE> 3
<MEAN> 39
 -1.404459e+001 -8.415174e+000 -8.064881e+000 2.365352e+000 -3.517139e+000 -6.916223e+000 -2.311164e+000 -5.896868e+000 -3.006406e+000 2.963220e+000 3.100940e+000 -4.303277e+000 5.866234e+001 2.450541e-001 -4.498786e-001 -2.693298e-001 -2.636350e-001 2.185492e-001 -1.158795e-001 8.862522e-002 6.976643e-002 -1.198397e-001 8.516593e-002 1.863195e-001 -5.862481e-002 4.603327e-002 1.730909e-001 3.274631e-002 1.736973e-002 -1.892414e-001 -5.964020e-002 -1.504288e-001 4.906326e-002 -3.935915e-002 1.714007e-003 -1.263268e-001 -1.011697e-001 -3.006231e-002 -2.081917e-002
<VARIANCE> 39
 5.029550e+000 1.027706e+001 8.674378e+000 1.019600e+001 8.381321e+000 1.470942e+001 9.436649e+000 1.923177e+001 1.425788e+001 1.775671e+001 1.637632e+001 1.620497e+001 2.863074e+001 2.694743e-001 9.128544e-001 6.739194e-001 8.228264e-001 1.107804e+000 1.115471e+000 1.276022e+000 1.226053e+000 1.089058e+000 1.867151e+000 1.333575e+000 1.022553e+000 1.936933e-001 3.290226e-002 7.827478e-002 8.518951e-002 1.445163e-001 1.683166e-001 1.928213e-001 2.180852e-001 3.217123e-001 3.064890e-001 3.241682e-001 2.591445e-001 2.208247e-001 2.232693e-002
<GCONST> 7.722006e+001
<STATE> 4
<MEAN> 39
 -1.153415e+001 -1.008526e+001 -9.904182e+000 4.680057e-001 -3.572308e+000 -9.340730e+000 -2.197403e+000 -6.880184e+000 -3.579408e+000 2.448724e+000 3.860253e+000 -4.587086e+000 5.987899e+001 1.593142e+000 1.772658e+000 3.637019e-001 -2.055484e+000 -1.571759e+000 -1.377958e+000 -4.777813e-001 -1.464391e-001 4.282207e-002 -1.048312e+000 -7.778655e-001 -1.373491e-001 1.264050e-001 5.133802e-001 9.143252e-001 2.587719e-001 -5.641702e-001 -6.966732e-001 -3.650624e-001 -3.187554e-001 -2.040375e-001 -2.320458e-002 -3.252012e-001 -4.061057e-001 -1.185012e-001 1.894705e-001
<VARIANCE> 39
 7.337227e+000 1.868712e+001 9.320255e+000 2.244201e+001 1.647595e+001 1.826536e+001 1.371520e+001 1.780597e+001 1.570779e+001 2.025995e+001 1.819595e+001 1.420021e+001 9.542021e+000 2.596484e+000 6.081004e+000 1.225206e+000 3.704610e+000 4.583405e+000 2.760084e+000 2.377544e+000 1.891524e+000 1.377359e+000 2.483186e+000 2.564031e+000 1.477041e+000 4.834990e-001 1.657240e-001 5.212449e-001 1.474024e-001 4.254918e-001 5.814809e-001 4.080383e-001 3.857412e-001 3.878886e-001 2.742143e-001 3.841797e-001 3.327606e-001 2.674305e-001 1.040082e-001
<GCONST> 1.013776e+002
<TRANSP> 5
 0.000000e+000 1.000000e+000 0.000000e+000 0.000000e+000 0.000000e+000
 0.000000e+000 8.909289e-001 1.090711e-001 0.000000e+000 0.000000e+000
 0.000000e+000 0.000000e+000 2.617195e-001 7.382804e-001 0.000000e+000
 0.000000e+000 0.000000e+000 0.000000e+000 6.965889e-001 3.034110e-001
 0.000000e+000 0.000000e+000 0.000000e+000 0.000000e+000 0.000000e+000
<ENDHMM>
~h "k"
<BEGINHMM>
<NUMSTATES> 5
<STATE> 2
<MEAN> 39
 -1.590549e+001 -4.413769e+000 -7.766557e+000 -6.402687e+000 -2.655616e+000 -7.375404e+000 -3.728788e-002 -4.688287e+000 -1.808996e-001 -2.652431e+000 -5.871385e-001 -1.550175e+000 5.459934e+001 -3.175212e-002 8.896880e-002 -8.833437e-002 -1.289090e-001 5.017572e-002 1.279512e-001 -9.082825e-002 -1.366530e-002 1.276745e-001 -1.801730e-002 -7.601384e-002 -3.459712e-002 -4.581381e-002 6.063120e-002 -3.912104e-002 2.680773e-002 1.629378e-002 -4.969702e-002 -1.485600e-002 -4.899388e-002 -5.944227e-002 -2.655882e-002 4.713627e-002 1.451030e-002 -3.554756e-002 -5.765498e-003
<VARIANCE> 39
 1.027758e+001 4.552938e+000 6.050622e+000 1.451703e+001 1.054507e+001 1.647703e+001 1.513909e+001 1.705596e+001 2.128850e+001 1.474342e+001 1.534861e+001 1.160643e+001 1.058234e+001 1.728336e-001 4.119786e-001 3.942773e-001 8.756590e-001 9.137066e-001 1.192621e+000 1.093340e+000 1.170322e+000 1.427185e+000 1.670063e+000 1.654340e+000 1.381730e+000 1.257271e-001 6.788778e-002 6.723386e-002 7.852896e-002 1.648974e-001 1.871125e-001 2.017455e-001 2.318839e-001 2.771788e-001 3.108364e-001 3.385035e-001 3.378822e-001 3.024451e-001 3.138622e-002
<GCONST> 7.649735e+001
<STATE> 3
<MEAN> 39
 -2.319989e+001 -7.710670e-001 -7.709621e+000 -1.421682e-001 1.421559e+000 -1.203408e+001 3.119725e+000 -2.890511e-003 -5.604563e+000 -3.645875e+000 1.191805e+000 -2.173676e+000 6.267011e+001 1.972911e-001 2.730558e-001 8.876499e-002 -6.516052e-001 3.248800e-001 4.940758e-001 -7.240075e-001 -5.325778e-001 1.863052e-001 2.228794e-001 -3.367911e-001 -3.682254e-001 -2.136044e-001 1.466809e-001 -2.070949e-001 1.565436e-001 3.711054e-002 -8.218545e-002 -1.050799e-001 3.198419e-002 2.252457e-002 -1.222178e-001 1.273791e-001 1.369387e-001 -3.719855e-002 -9.613100e-003
<VARIANCE> 39
 1.046869e+001 7.718955e+000 1.323362e+001 1.479702e+001 2.938864e+001 4.643377e+001 3.221785e+001 2.725246e+001 3.237626e+001 3.514592e+001 3.198995e+001 2.081173e+001 5.481851e+000 3.037974e-001 4.625499e-001 5.550087e-001 1.032597e+000 1.097224e+000 1.241494e+000 1.298214e+000 1.825602e+000 1.480736e+000 1.632885e+000 1.575685e+000 1.452445e+000 1.050660e-001 7.635892e-002 9.671153e-002 1.034035e-001 1.766599e-001 2.414731e-001 2.587886e-001 2.411183e-001 4.047059e-001 2.791262e-001 3.693648e-001 2.863311e-001 2.651279e-001 2.857216e-002
<GCONST> 8.627631e+001
<STATE> 4
<MEAN> 39
 -2.102080e+001 -1.125749e+000 -5.630243e+000 -4.622216e+000 4.115609e+000 -1.089053e+001 1.257203e+000 -8.192889e-002 -7.716687e+000 -1.132321e+000 -8.134621e-001 -3.668544e+000 6.142911e+001 1.171584e+000 -8.720175e-001 7.011499e-001 -5.839722e-001 -5.239849e-001 7.286037e-001 -9.053754e-001 -1.138175e-001 4.654381e-001 2.727187e-001 3.652216e-001 -4.764511e-001 -5.976009e-001 2.285108e-001 -2.887010e-001 -3.800270e-002 2.735748e-001 -2.912139e-001 -2.625926e-002 -7.978432e-004 -9.026546e-002 1.773257e-001 -2.207956e-002 1.238101e-001 6.970572e-002 -5.882611e-002
<VARIANCE> 39
 1.396398e+001 8.613694e+000 9.363379e+000 2.091143e+001 2.565373e+001 3.039487e+001 2.544321e+001 2.545345e+001 2.600840e+001 2.372653e+001 2.204494e+001 1.509120e+001 7.144926e+000 1.004390e+000 1.039661e+000 8.401171e-001 1.278014e+000 1.949142e+000 1.879051e+000 1.976062e+000 2.377494e+000 2.009588e+000 2.043124e+000 1.727613e+000 1.493811e+000 5.209989e-001 1.217762e-001 1.162674e-001 1.308821e-001 2.662692e-001 3.989086e-001 3.616784e-001 3.303707e-001 4.748019e-001 3.641593e-001 3.529744e-001 3.033348e-001 3.816392e-001 6.544446e-002
<GCONST> 9.540636e+001
<TRANSP> 5
 0.000000e+000 1.000000e+000 0.000000e+000 0.000000e+000 0.000000e+000
 0.000000e+000 8.865271e-001 1.134728e-001 0.000000e+000 0.000000e+000
 0.000000e+000 0.000000e+000 7.818423e-001 2.181577e-001 0.000000e+000
 0.000000e+000 0.000000e+000 0.000000e+000 5.810630e-001 4.189370e-001
 0.000000e+000 0.000000e+000 0.000000e+000 0.000000e+000 0.000000e+000
<ENDHMM>
~h "n"
<BEGINHMM>
<NUMSTATES> 5
<STATE> 2
<MEAN> 39
 -2.745937e+000 -3.333595e-002 -3.123307e+000 -2.586469e+000 -6.585549e+000 -1.246937e+001 -9.320465e+000 -2.075411e+001 -1.089537e+001 -4.189993e+000 -2.859677e+000 -8.472100e+000 6.212536e+001 4.947369e-001 -4.666935e-001 -9.546924e-001 -5.786099e-001 9.164228e-002 2.070149e-001 -3.930682e-001 -5.231170e-001 2.845148e-001 7.476525e-001 -7.005001e-002 -6.531566e-001 4.812104e-001 2.654017e-001 -5.399674e-001 -7.326713e-001 -2.411719e-001 1.046139e-001 -5.577938e-002 1.082391e-001 3.024514e-001 3.715880e-001 5.162712e-001 1.070232e-001 -3.336677e-001 3.620157e-001
<VARIANCE> 39
 1.113990e+001 1.663904e+001 2.716619e+001 2.713728e+001 3.038426e+001 3.135839e+001 2.875553e+001 3.442748e+001 2.821220e+001 3.487097e+001 2.866990e+001 2.387000e+001 9.176606e+000 1.850114e+000 3.074755e+000 7.300433e+000 2.965055e+000 3.027428e+000 3.663059e+000 2.857021e+000 3.077598e+000 4.323859e+000 6.286731e+000 3.320622e+000 3.116456e+000 1.769692e+000 1.656882e-001 2.429911e-001 5.448675e-001 4.750113e-001 5.695427e-001 6.217391e-001 5.058213e-001 5.762646e-001 5.770200e-001 8.983617e-001 6.656996e-001 3.756702e-001 1.241056e-001
<GCONST> 1.175349e+002
<STATE> 3
<MEAN> 39
 1.131460e+000 -1.044200e+001 -1.304018e+001 -4.800905e+000 -5.672638e+000 -1.371244e+001 -3.545392e+000 -1.650889e+001 -9.384878e+000 1.204456e+000 -1.505644e+000 -1.464386e+001 6.918671e+001 -2.492322e-001 2.064792e-001 7.831967e-001 2.963760e-001 -6.761134e-001 -4.975200e-001 5.366392e-001 4.049931e-001 -1.948337e-001 -1.620491e-001 9.751596e-002 2.992617e-001 -8.759139e-002 -1.265751e-001 2.207075e-001 2.963524e-001 1.047234e-001 -4.112212e-003 7.704124e-002 -2.583075e-003 -6.872823e-002 -1.246180e-001 -1.912470e-001 -1.564018e-003 1.588235e-001 -1.641572e-001
<VARIANCE> 39
 1.298884e+001 4.629018e+001 8.656425e+001 3.159003e+001 9.618782e+001 7.537643e+001 7.435677e+001 4.301810e+001 4.782159e+001 3.826563e+001 3.586642e+001 3.193049e+001 1.604002e+001 5.665854e-001 2.670961e+000 4.848868e+000 1.767172e+000 5.072603e+000 3.322160e+000 2.972992e+000 3.106934e+000 3.262514e+000 2.699058e+000 3.571082e+000 2.092747e+000 8.135433e-001 8.565756e-002 2.581108e-001 5.493112e-001 3.108175e-001 6.878596e-001 5.054003e-001 5.662405e-001 5.226310e-001 6.026888e-001 5.698177e-001 6.321268e-001 3.715836e-001 8.294483e-002
<GCONST> 1.190096e+002
<STATE> 4
<MEAN> 39
 -4.062271e+000 2.119425e+000 1.720942e+000 -5.835358e-001 -8.899980e+000 -1.372153e+001 -5.890913e+000 -1.725221e+001 -1.138354e+001 -5.818853e+000 -2.449001e+000 -5.577278e+000 6.131348e+001 -5.734789e-001 3.331423e-001 1.096621e-001 1.792553e-001 1.179900e+000 1.118493e+000 3.041681e-001 4.835634e-001 3.065536e-001 -5.946217e-001 -4.496326e-001 2.453559e-001 -5.873142e-001 -6.115338e-002 -2.190122e-001 -2.360647e-001 -1.500213e-002 1.349152e-001 2.790939e-002 5.840410e-002 2.200984e-001 2.285089e-001 1.832798e-001 -9.311300e-003 -1.166541e-001 4.627716e-002
<VARIANCE> 39
 9.731467e+000 1.103876e+001 1.372966e+001 1.658541e+001 4.934740e+001 4.458435e+001 4.360897e+001 3.739988e+001 3.340297e+001 4.165695e+001 3.168671e+001 2.215956e+001 8.114132e+000 3.712091e-001 1.146025e+000 1.133702e+000 9.817506e-001 2.204613e+000 2.042182e+000 2.487105e+000 2.454809e+000 2.262911e+000 2.063084e+000 1.765271e+000 1.394385e+000 2.642566e-001 6.080238e-002 1.547818e-001 1.754215e-001 2.037742e-001 3.472312e-001 3.782047e-001 4.226381e-001 4.047717e-001 3.361274e-001 3.813242e-001 3.481663e-001 2.442799e-001 3.190506e-002
<GCONST> 9.668125e+001
<TRANSP> 5
 0.000000e+000 1.000000e+000 0.000000e+000 0.000000e+000 0.000000e+000
 0.000000e+000 6.399643e-001 3.600356e-001 0.000000e+000 0.000000e+000
 0.000000e+000 0.000000e+000 8.553635e-001 1.446365e-001 0.000000e+000
 0.000000e+000 0.000000e+000 0.000000e+000 8.346534e-001 1.653465e-001
 0.000000e+000 0.000000e+000 0.000000e+000 0.000000e+000 0.000000e+000
<ENDHMM>
~h "r"
<BEGINHMM>
<NUMSTATES> 5
<STATE> 2
<MEAN> 39
 4.147793e+000 -4.092330e+000 -1.244747e+001 -4.219586e+000 -5.127316e+000 -1.560403e+001 -1.497231e+001 -2.276159e+001 -7.183374e+000 3.317550e+000 5.355499e+000 -4.382660e+000 6.750146e+001 6.565554e-001 3.505299e-001 1.007053e+000 8.800418e-001 -8.167750e-001 -1.503115e+000 -8.363266e-001 -3.609575e-001 2.600323e-001 3.480936e-001 -8.513551e-001 -9.472883e-001 4.940311e-001 -8.043467e-001 -3.544956e-001 6.840867e-001 5.084525e-001 -3.142328e-001 5.532163e-002 8.545607e-001 8.469328e-001 2.446643e-001 4.044007e-003 -4.634242e-001 -3.906769e-001 -3.370024e-001
<VARIANCE> 39
 1.045156e+001 2.571272e+001 2.598812e+001 3.563802e+001 2.090248e+001 4.493637e+001 5.618899e+001 3.883128e+001 4.121432e+001 3.321490e+001 2.317654e+001 3.170984e+001 1.077674e+001 4.906440e+000 3.756682e+000 2.840974e+000 3.661074e+000 5.855734e+000 3.851832e+000 5.976909e+000 5.833384e+000 3.437886e+000 3.712183e+000 2.999946e+000 3.749516e+000 1.632598e+000 2.247151e-001 8.373052e-001 3.250912e-001 4.850462e-001 6.429273e-001 4.740421e-001 9.649749e-001 6.819516e-001 8.170846e-001 9.371434e-001 4.353522e-001 7.936581e-001 8.955435e-002
<GCONST> 1.233475e+002
<STATE> 3
<MEAN> 39
 2.295113e+000 -5.364733e+000 -3.536117e+000 2.316838e+000 -1.374818e+001 -2.350232e+001 -1.304472e+001 -2.132530e+001 -6.761454e+000 3.782517e+000 8.712735e-002 -8.903561e+000 6.744817e+001 -1.430482e+000 2.386469e-001 3.384036e+000 9.244736e-001 -2.976077e+000 -2.794859e-001 3.041698e+000 8.888854e-001 -1.503964e+000 -9.193133e-001 -6.700359e-001 -5.370401e-001 -5.590284e-001 -2.548159e-001 3.283719e-001 1.937935e-002 -5.480224e-001 2.119581e-001 8.268036e-001 4.679542e-001 -4.239892e-002 -6.610262e-001 -4.421743e-001 4.584945e-001 3.637863e-001 -2.060762e-001
<VARIANCE> 39
 1.137178e+001 3.114745e+001 3.926384e+001 4.487790e+001 7.622343e+001 7.191588e+001 5.389104e+001 4.618074e+001 3.814469e+001 2.940096e+001 3.306272e+001 3.914133e+001 1.064364e+001 9.047975e-001 2.753140e+000 2.335093e+000 2.741701e+000 9.374160e+000 3.680834e+000 3.091713e+000 4.593561e+000 4.482220e+000 3.287355e+000 3.452516e+000 1.841297e+000 7.220250e-001 1.013406e-001 4.279027e-001 4.846374e-001 2.943790e-001 8.923409e-001 3.952509e-001 9.952837e-001 5.340688e-001 7.440059e-001 5.680411e-001 5.947186e-001 4.308937e-001 6.759322e-002
<GCONST> 1.195043e+002
<STATE> 4
<MEAN> 39
 -4.369922e+000 -5.347251e-001 -4.953222e+000 -6.184645e+000 -7.927485e+000 -9.625629e+000 -2.487306e+000 -1.167761e+001 -5.364519e+000 -6.007135e-001 1.428471e+000 -4.508262e+000 6.159088e+001 -1.312559e+000 9.700133e-002 8.345206e-001 3.642635e-001 2.992097e-001 7.115147e-001 1.006377e+000 9.053591e-001 3.073543e-002 -5.236002e-001 -4.250813e-001 -1.347429e-001 -7.333310e-001 1.538128e-001 -6.208001e-002 -3.122405e-001 -1.131648e-001 1.233969e-001 -7.388570e-002 -3.042623e-001 -2.693076e-001 2.511512e-002 1.012610e-001 8.213478e-002 1.006597e-001 9.085833e-002
<VARIANCE> 39
 3.451934e+001 2.253318e+001 4.847196e+001 6.928611e+001 1.108304e+002 7.643182e+001 2.515765e+001 5.824762e+001 4.321219e+001 2.744132e+001 3.590412e+001 3.440374e+001 1.665078e+001 1.174604e+000 1.929955e+000 2.484932e+000 3.474003e+000 3.530969e+000 2.442431e+000 3.380148e+000 3.683646e+000 4.231483e+000 3.128842e+000 2.623575e+000 2.051496e+000 5.135707e-001 1.540955e-001 2.542306e-001 4.019513e-001 5.381296e-001 9.939614e-001 5.105845e-001 4.654864e-001 4.837809e-001 4.638299e-001 5.832865e-001 4.460603e-001 3.061963e-001 8.929369e-002
<GCONST> 1.183934e+002
<TRANSP> 5
 0.000000e+000 1.000000e+000 0.000000e+000 0.000000e+000 0.000000e+000
 0.000000e+000 6.998308e-001 3.001692e-001 0.000000e+000 0.000000e+000
 0.000000e+000 0.000000e+000 5.266908e-001 4.733092e-001 0.000000e+000
 0.000000e+000 0.000000e+000 0.000000e+000 7.153842e-001 2.846158e-001
 0.000000e+000 0.000000e+000 0.000000e+000 0.000000e+000 0.000000e+000
<ENDHMM>
~h "s"
<BEGINHMM>
<NUMSTATES> 5
<STATE> 2
<MEAN> 39
 -1.102054e+001 -1.702296e+000 -1.860663e+000 1.675649e-002 -9.056293e-001 -1.080270e+001 -4.295362e+000 -1.006821e+001 -7.416951e+000 -1.676397e+000 -8.419605e-001 -5.570718e+000 5.996166e+001 -1.374892e+000 -7.352434e-001 -2.259111e-001 6.129459e-001 1.351636e+000 5.524967e-001 1.411283e+000 1.900028e+000 4.021274e-001 4.065671e-001 1.848438e-002 -1.060635e-001 1.977400e-001 -2.845811e-001 3.619813e-002 -2.230372e-001 -2.723929e-001 -8.681603e-002 -9.208917e-002 4.307795e-001 3.678862e-001 9.647184e-003 1.284434e-001 1.252481e-001 1.375082e-001 1.136772e-001
<VARIANCE> 39
 3.539614e+001 2.615436e+001 2.518766e+001 2.289292e+001 3.361309e+001 3.874557e+001 6.344186e+001 8.018852e+001 4.158310e+001 4.122002e+001 3.541456e+001 2.098829e+001 2.805924e+001 4.118191e+000 1.760121e+000 1.880681e+000 2.518420e+000 4.689348e+000 4.597712e+000 5.068305e+000 9.191004e+000 3.909578e+000 3.504147e+000 2.808553e+000 2.036236e+000 2.652970e+000 2.162931e-001 4.339319e-001 2.853564e-001 3.815685e-001 5.688450e-001 6.315892e-001 6.104447e-001 9.843887e-001 5.929732e-001 5.752879e-001 4.728098e-001 4.505851e-001 3.248315e-001
<GCONST> 1.238858e+002
<STATE> 3
<MEAN> 39
 -1.805394e+001 -2.902153e+000 -4.504441e+000 -5.050266e-001 3.028657e+000 -1.005722e+001 3.315430e+000 -1.634233e+000 -7.155879e+000 5.548128e-001 5.652357e-001 -4.190077e+000 6.161930e+001 -1.371577e+000 3.747695e-002 -9.260981e-001 -8.339759e-001 3.782277e-001 -3.357206e-001 7.725788e-001 1.066735e+000 1.925769e-001 6.069251e-001 4.362691e-001 5.169082e-001 2.434257e-001 3.206675e-001 1.876666e-001 7.750585e-002 -1.219016e-001 -3.570167e-001 -1.988169e-001 -5.823171e-001 -6.544355e-001 -1.556578e-001 -1.891453e-001 -1.482506e-001 -6.442364e-002 -2.262540e-002
<VARIANCE> 39
 1.258434e+001 1.770498e+001 1.378127e+001 2.606354e+001 2.789431e+001 3.377972e+001 3.754819e+001 3.561721e+001 2.613119e+001 3.023858e+001 2.616699e+001 1.535161e+001 7.586504e+000 1.935707e+000 1.116670e+000 1.081633e+000 1.699921e+000 2.567114e+000 2.602073e+000 3.678860e+000 4.516277e+000 2.527763e+000 2.718346e+000 1.893224e+000 1.918239e+000 4.162073e-001 1.446249e-001 1.951885e-001 1.839133e-001 3.245814e-001 3.959508e-001 5.617160e-001 5.896090e-001 7.336903e-001 5.290332e-001 4.716421e-001 3.720921e-001 3.420562e-001 5.438548e-002
<GCONST> 1.050498e+002
<STATE> 4
<MEAN> 39
 -2.170391e+001 -1.791091e+000 -7.171311e+000 -3.134637e+000 3.184845e+000 -1.130917e+001 2.368018e+000 -2.388145e+000 -7.223532e+000 2.086778e+000 -3.101483e-001 -3.473140e+000 6.226278e+001 1.442397e-001 -1.454490e-001 1.099394e-003 -6.784997e-002 -2.475138e-001 -8.582929e-002 -5.190716e-002 -1.342397e-001 1.273905e-001 -5.584782e-002 -8.720854e-003 -2.697812e-002 -6.665459e-002 2.183463e-001 -6.397126e-002 7.635739e-002 3.306985e-002 -1.346535e-001 -5.717937e-002 -3.133385e-002 -4.306928e-002 3.414268e-002 -4.932033e-002 3.823416e-002 -5.249778e-003 -1.168438e-002
<VARIANCE> 39
 1.042425e+001 8.228827e+000 1.137393e+001 1.961788e+001 2.382472e+001 2.780350e+001 2.491930e+001 2.417423e+001 2.066065e+001 2.697923e+001 2.560467e+001 1.701060e+001 4.800997e+000 7.986769e-001 5.291176e-001 6.341890e-001 9.747363e-001 1.397278e+000 1.539810e+000 1.709819e+000 1.658291e+000 1.626186e+000 1.859146e+000 1.846100e+000 1.474187e+000 1.785407e-001 1.584595e-001 8.155322e-002 1.316136e-001 2.020702e-001 2.633799e-001 3.074203e-001 3.398798e-001 3.194776e-001 3.190899e-001 3.552581e-001 3.673536e-001 3.013679e-001 3.875532e-002
<GCONST> 8.891467e+001
<TRANSP> 5
 0.000000e+000 1.000000e+000 0.000000e+000 0.000000e+000 0.000000e+000
 0.000000e+000 5.507867e-001 4.492133e-001 0.000000e+000 0.000000e+000
 0.000000e+000 0.000000e+000 5.966187e-001 4.033814e-001 0.000000e+000
 0.000000e+000 0.000000e+000 0.000000e+000 8.988902e-001 1.011098e-001
 0.000000e+000 0.000000e+000 0.000000e+000 0.000000e+000 0.000000e+000
<ENDHMM>
~h "t"
<BEGINHMM>
<NUMSTATES> 5
<STATE> 2
<MEAN> 39
 -4.479449e+000 -1.955876e+000 6.289920e+000 -1.955643e+000 -2.172133e+001 -1.988041e+001 -8.064051e-001 -2.006811e+001 -1.257859e+001 3.676398e+000 -6.191064e-001 -1.092811e+001 6.623977e+001 5.242873e-002 4.650214e-001 3.340849e-001 2.274235e-001 6.155908e-001 3.923072e-001 -2.674801e-001 -1.240815e-001 -2.358621e-001 -4.938848e-001 -2.159348e-001 -6.525268e-002 -9.334831e-002 -1.697637e-001 1.135323e-002 -1.847192e-001 -4.089005e-002 4.258246e-001 3.605735e-001 7.477820e-003 2.384348e-001 2.436242e-001 -1.288490e-001 -2.932880e-002 1.673954e-001 -2.184444e-001
<VARIANCE> 39
 7.781316e+000 4.164292e+001 3.266368e+001 1.582082e+001 1.073799e+002 6.008577e+001 5.277549e+001 7.777973e+001 3.958295e+001 6.162222e+001 4.597670e+001 2.344276e+001 2.523308e+001 1.118420e+000 2.055961e+000 2.860345e+000 1.666218e+000 1.141912e+001 6.491501e+000 3.164129e+000 7.251741e+000 4.269812e+000 4.253006e+000 3.400693e+000 2.374092e+000 2.990895e+000 8.675040e-002 3.651370e-001 2.807513e-001 3.360466e-001 7.629979e-001 5.597499e-001 5.100546e-001 6.623432e-001 5.391140e-001 6.035409e-001 5.087802e-001 3.171726e-001 1.956507e-001
<GCONST> 1.223973e+002
<STATE> 3
<MEAN> 39
 -1.217777e+001 -2.072565e+000 -2.985765e+000 -2.836846e+000 -7.674733e-001 -4.112496e+000 -1.215891e-001 -6.876244e+000 -2.028462e+000 -2.921857e+000 -2.120087e+000 -4.159602e+000 5.670429e+001 -1.001356e+000 -1.082875e+000 -6.367563e-001 -4.475641e-001 -4.019960e-001 -2.677895e-001 2.521959e-001 8.792936e-001 -1.119056e-002 1.195833e+000 1.142941e+000 3.892012e-001 4.536862e-001 -2.118857e-002 4.146094e-002 2.483179e-001 2.368718e-002 -3.735151e-001 -4.967636e-001 -9.718730e-002 -7.292694e-002 -5.616633e-001 -9.751521e-004 2.033658e-001 -7.561628e-002 2.839049e-001
<VARIANCE> 39
 7.102153e+000 1.711541e+001 1.271571e+001 1.271451e+001 1.702281e+001 1.869144e+001 1.745234e+001 1.869607e+001 2.086611e+001 3.324231e+001 2.288626e+001 1.379104e+001 5.737022e+000 6.370146e-001 1.300648e+000 1.648836e+000 1.151984e+000 2.851244e+000 4.070611e+000 2.435128e+000 3.023402e+000 5.832152e+000 2.838879e+000 2.306229e+000 1.770388e+000 1.399482e+000 1.334802e-001 2.605304e-001 1.999194e-001 2.957655e-001 7.581978e-001 5.941817e-001 4.641827e-001 7.859784e-001 5.956218e-001 8.773952e-001 3.968798e-001 3.343474e-001 1.217016e-001
<GCONST> 1.038407e+002
<STATE> 4
<MEAN> 39
 -1.753667e+001 -9.505929e+000 -2.106358e+000 -7.559611e-001 -5.761590e+000 -1.173702e+001 1.597803e+000 8.970287e-001 -9.456272e+000 -1.255922e+000 6.851822e+000 -2.088753e+000 6.219078e+001 3.995301e-001 -4.380529e-001 5.784512e-002 8.143718e-001 -1.353585e-001 -6.873820e-001 1.547035e-001 3.512937e-001 -1.985698e-001 -7.626685e-001 1.137444e-001 1.890484e-001 -1.329775e-001 3.861604e-001 3.137826e-001 -6.489421e-002 -2.749438e-002 9.316356e-002 2.026634e-001 -2.203165e-001 -5.495471e-001 3.072854e-001 -3.439502e-002 -3.792514e-001 -8.614286e-002 -2.076758e-001
<VARIANCE> 39
 1.421799e+001 2.438083e+001 1.292245e+001 2.731372e+001 2.375645e+001 2.936645e+001 3.004344e+001 3.200084e+001 2.608746e+001 3.562413e+001 2.334994e+001 2.004066e+001 8.306066e+000 2.025474e+000 2.358336e+000 1.165190e+000 2.180276e+000 1.893396e+000 2.867217e+000 2.837243e+000 4.528188e+000 3.416360e+000 2.586956e+000 2.795612e+000 1.969303e+000 8.608238e-001 2.372825e-001 4.900800e-001 2.141740e-001 4.254694e-001 3.962349e-001 4.442754e-001 6.150949e-001 7.811909e-001 6.011615e-001 6.047584e-001 4.632504e-001 3.934976e-001 1.350257e-001
<GCONST> 1.106502e+002
<TRANSP> 5
 0.000000e+000 1.000000e+000 0.000000e+000 0.000000e+000 0.000000e+000
 0.000000e+000 8.990558e-001 1.009441e-001 0.000000e+000 0.000000e+000
 0.000000e+000 0.000000e+000 8.533585e-001 1.466415e-001 0.000000e+000
 0.000000e+000 0.000000e+000 0.000000e+000 8.663989e-001 1.336010e-001
 0.000000e+000 0.000000e+000 0.000000e+000 0.000000e+000 0.000000e+000
<ENDHMM>
~h "v"
<BEGINHMM>
<NUMSTATES> 5
<STATE> 2
<MEAN> 39
 1.063270e+000 -7.479733e+000 -1.582741e+001 -1.294774e+001 -7.266401e+000 -5.584924e+000 8.748934e-001 -1.174349e+001 -4.645762e+000 1.813646e+000 1.696310e+000 -9.246248e+000 6.633848e+001 2.681056e+000 2.664813e-001 -1.923596e+000 -2.451487e+000 -3.235020e-001 1.554452e+000 7.208611e-001 -2.207630e+000 -1.055559e+000 -3.720715e-002 2.258673e-001 -7.286462e-001 1.612934e+000 -4.163963e-001 -3.605632e-001 3.044140e-001 7.355164e-001 4.647094e-001 1.528173e-003 -2.480699e-001 -1.130733e-001 -2.453582e-001 3.000282e-002 -1.141325e-002 -1.296194e-001 1.176449e-002
<VARIANCE> 39
 5.756710e+001 2.802001e+001 3.513225e+001 7.550615e+001 3.320588e+001 4.939100e+001 3.490675e+001 4.835706e+001 2.250200e+001 2.546980e+001 2.695539e+001 3.825760e+001 3.541867e+001 5.134944e+000 5.131207e+000 3.240201e+000 9.884143e+000 5.788729e+000 2.575755e+000 2.825814e+000 2.640501e+000 2.220129e+000 2.239045e+000 3.698833e+000 4.153911e+000 2.886074e+000 1.193661e+000 8.124871e-001 7.767302e-001 1.642448e+000 9.882317e-001 7.458812e-001 5.002465e-001 7.164003e-001 4.779251e-001 4.627513e-001 3.923076e-001 6.509936e-001 5.568159e-001
<GCONST> 1.309048e+002
<STATE> 3
<MEAN> 39
 3.855002e+000 -1.611083e+001 -1.839162e+001 -9.029495e+000 1.707329e-001 -7.081027e+000 -1.455463e+000 -1.628954e+001 -8.744488e+000 1.843445e+000 -3.206374e+000 -1.721299e+001 7.276196e+001 -5.086449e-001 -4.182625e-001 9.569098e-001 1.301429e+000 -3.630143e-001 -2.024026e+000 -5.084845e-001 7.723641e-001 1.653226e-001 -1.145106e-001 -5.575343e-001 -1.468681e-003 -5.457051e-002 -9.045924e-002 3.910877e-001 3.803923e-001 -5.205705e-002 -5.974640e-001 -3.164337e-001 1.346126e-001 2.989743e-001 1.005079e-001 -8.515268e-002 1.050346e-001 3.597654e-001 -1.840608e-001
<VARIANCE> 39
 8.436665e+000 2.764665e+001 2.260416e+001 4.073265e+001 3.172624e+001 9.780428e+001 4.164589e+001 4.897857e+001 3.552218e+001 4.387873e+001 4.551284e+001 2.500496e+001 7.909623e+000 2.332316e-001 2.842136e+000 1.472629e+000 1.522027e+000 6.227157e+000 3.836136e+000 2.654695e+000 4.580455e+000 2.667816e+000 1.973023e+000 3.842608e+000 3.088550e+000 5.307986e-001 8.868354e-002 1.746024e-001 1.773443e-001 2.515547e-001 3.782368e-001 4.801421e-001 4.420917e-001 5.568519e-001 4.717327e-001 5.442014e-001 6.519132e-001 2.635890e-001 5.880551e-002
<GCONST> 1.093008e+002
<STATE> 4
<MEAN> 39
 -1.438005e-002 -5.855651e+000 -3.172289e+000 -1.392369e+000 -1.410831e+001 -2.155811e+001 -3.580439e+000 -1.341948e+001 -9.982071e+000 2.050826e+000 3.283665e+000 -9.052033e+000 6.712690e+001 -6.193714e-001 1.986434e+000 1.356740e+000 3.613748e-001 1.182580e-001 6.502187e-001 -4.796151e-001 -6.427303e-001 -6.328022e-001 -8.635769e-001 7.326316e-001 1.160058e+000 -1.228140e+000 -1.326761e-001 -1.388497e-001 -1.434485e-001 1.556646e-002 6.114259e-001 4.474919e-001 3.708722e-002 1.135597e-001 9.687900e-002 -2.506163e-001 -4.951800e-001 -2.260483e-001 -4.265321e-002
<VARIANCE> 39
 1.610620e+001 4.862365e+001 5.966914e+001 4.447035e+001 7.198035e+001 8.018716e+001 5.310178e+001 8.013956e+001 5.408385e+001 4.918058e+001 5.321258e+001 3.160757e+001 1.904815e+001 5.593182e-001 2.089077e+000 3.026433e+000 2.394330e+000 9.413664e+000 6.597682e+000 2.963034e+000 4.397386e+000 5.576480e+000 5.194399e+000 6.946266e+000 2.937161e+000 4.986727e-001 8.845282e-002 3.370529e-001 3.643800e-001 4.960201e-001 7.307591e-001 7.391603e-001 5.899654e-001 1.058740e+000 9.525219e-001 7.987534e-001 1.159227e+000 5.472408e-001 6.215694e-002
<GCONST> 1.262033e+002
<TRANSP> 5
 0.000000e+000 1.000000e+000 0.000000e+000 0.000000e+000 0.000000e+000
 0.000000e+000 7.031621e-001 2.968378e-001 0.000000e+000 0.000000e+000
 0.000000e+000 0.000000e+000 8.121021e-001 1.878979e-001 0.000000e+000
 0.000000e+000 0.000000e+000 0.000000e+000 8.498534e-001 1.501466e-001
 0.000000e+000 0.000000e+000 0.000000e+000 0.000000e+000 0.000000e+000
<ENDHMM>
~h "w"
<BEGINHMM>
<NUMSTATES> 5
<STATE> 2
<MEAN> 39
 -5.717427e+000 3.804083e+000 -1.552345e+000 -4.640543e+000 -4.799269e+000 -1.030703e+001 -7.534267e+000 -1.427647e+001 -7.935323e+000 -9.729014e+000 -7.521823e+000 -7.979098e+000 5.849438e+001 1.044301e+000 5.055556e-001 -4.316788e-001 -1.094527e+000 -1.499549e+000 -1.321775e+000 -9.452676e-001 -6.017790e-001 -1.185588e-001 3.494392e-001 1.836284e-001 -6.294201e-002 6.174696e-001 2.909780e-001 5.650451e-002 -2.865973e-001 -5.652463e-001 -5.614110e-001 -2.098553e-001 1.333516e-001 1.482164e-001 2.261548e-001 3.298767e-001 3.331857e-001 1.803619e-001 1.705192e-001
<VARIANCE> 39
 1.140970e+001 1.033424e+001 8.431213e+000 1.166068e+001 2.488719e+001 3.112418e+001 2.963686e+001 2.298012e+001 1.770564e+001 2.022941e+001 2.188813e+001 1.989643e+001 5.229361e+000 1.406745e+000 1.297148e+000 1.103440e+000 2.130806e+000 3.452526e+000 2.613236e+000 1.772266e+000 1.690478e+000 2.086344e+000 2.969305e+000 3.233403e+000 2.343783e+000 4.685431e-001 1.763330e-001 2.251676e-001 2.163484e-001 2.942165e-001 3.615832e-001 4.944299e-001 5.355136e-001 3.835104e-001 3.297623e-001 4.240295e-001 4.537254e-001 3.777545e-001 7.503699e-002
<GCONST> 1.000613e+002
<STATE> 3
<MEAN> 39
 1.582867e+000 6.991882e+000 -6.526608e+000 -1.642331e+001 -1.773349e+001 -1.772233e+001 -9.636727e+000 -1.384937e+001 -4.610824e+000 -4.493071e+000 -2.822762e+000 -5.844043e+000 6.269938e+001 1.898834e+000 -4.839965e-001 -2.862386e+000 -3.839882e+000 -2.063750e+000 1.198990e+000 2.321645e+000 1.046029e+000 7.472524e-001 5.111853e-001 5.153921e-001 -5.639452e-001 1.422960e+000 -2.561598e-001 -8.979920e-001 -5.007681e-001 3.779456e-001 1.364613e+000 1.626496e+000 9.331530e-001 -1.750879e-001 -4.843302e-001 -5.455403e-001 -3.335125e-001 -5.357584e-001 9.799793e-002
<VARIANCE> 39
 6.364335e+000 4.857122e+000 1.509412e+001 2.391754e+001 1.435505e+001 1.439430e+001 1.781605e+001 1.643081e+001 1.728924e+001 1.419762e+001 1.472194e+001 1.241552e+001 2.930820e+000 8.358106e-001 1.657913e+000 1.296386e+000 1.760494e+000 4.255538e+000 5.178470e+000 2.903815e+000 2.050678e+000 2.347286e+000 2.484493e+000 1.877850e+000 1.841445e+000 3.786669e-001 1.250232e-001 1.732313e-001 2.253313e-001 6.170291e-001 5.540647e-001 3.702641e-001 4.412317e-001 5.775064e-001 4.465859e-001 3.314842e-001 3.589821e-001 3.156305e-001 3.456033e-002
<GCONST> 9.564575e+001
<STATE> 4
<MEAN> 39
 5.326644e+000 -3.296576e-001 -1.729826e+001 -2.349623e+001 -1.413392e+001 -4.859305e+000 9.964685e-001 -1.409853e+001 -7.167426e+000 -6.286775e+000 -2.658955e+000 -9.992402e+000 6.746076e+001 3.314745e-001 -3.074214e+000 -2.244887e+000 2.949057e-001 3.193569e+000 3.597021e+000 1.591872e+000 -1.693534e+000 -1.553682e+000 -9.428015e-002 5.363613e-001 -1.231270e+000 1.332924e+000 -4.563649e-001 -3.168705e-001 6.766232e-001 1.285554e+000 7.412044e-001 -6.779023e-001 -9.434038e-001 -4.824108e-001 -1.710249e-001 3.580824e-001 7.162505e-002 -1.555008e-001 -1.374713e-001
<VARIANCE> 39
 4.073384e+000 1.989736e+001 1.370849e+001 1.249603e+001 3.357208e+001 3.436274e+001 1.909717e+001 2.484048e+001 2.886836e+001 2.656919e+001 2.130331e+001 1.901112e+001 5.508752e+000 4.776247e-001 9.025387e-001 1.476765e+000 2.832137e+000 1.999008e+000 3.227665e+000 3.782679e+000 2.554659e+000 2.384716e+000 2.251907e+000 1.622435e+000 1.883309e+000 3.203122e-001 6.555754e-002 2.031529e-001 1.440036e-001 3.124506e-001 8.878015e-001 9.723620e-001 3.572980e-001 5.817326e-001 5.929259e-001 4.622144e-001 2.755264e-001 3.240183e-001 2.371501e-002
<GCONST> 9.857272e+001
<TRANSP> 5
 0.000000e+000 1.000000e+000 0.000000e+000 0.000000e+000 0.000000e+000
 0.000000e+000 8.314239e-001 1.685761e-001 0.000000e+000 0.000000e+000
 0.000000e+000 0.000000e+000 6.613986e-001 3.386013e-001 0.000000e+000
 0.000000e+000 0.000000e+000 0.000000e+000 7.010610e-001 2.989390e-001
 0.000000e+000 0.000000e+000 0.000000e+000 0.000000e+000 0.000000e+000
<ENDHMM>
~h "z"
<BEGINHMM>
<NUMSTATES> 5
<STATE> 2
<MEAN> 39
 -5.224295e+000 2.839326e+000 1.505432e+000 -6.358769e-001 -6.957327e+000 -1.262031e+001 -7.407810e+000 -1.774449e+001 -1.056812e+001 -7.321397e+000 -5.235228e+000 -6.962420e+000 5.974669e+001 -1.771399e-002 4.345665e-001 3.874476e-001 3.584419e-001 4.536556e-001 4.715213e-001 7.975868e-002 4.623653e-002 -2.468692e-001 -1.165946e+000 -1.178710e+000 -5.260131e-001 -6.731091e-002 -1.745558e-001 -1.497746e-001 -2.210150e-001 -1.001994e-001 1.674855e-001 2.312678e-001 2.691173e-001 3.379393e-001 2.071853e-001 9.064519e-002 3.424660e-002 -3.096527e-002 -6.673300e-002
<VARIANCE> 39
 1.155921e+001 7.533603e+000 1.242036e+001 1.377967e+001 3.027214e+001 2.618089e+001 3.401961e+001 3.341007e+001 2.188276e+001 2.363939e+001 2.156112e+001 1.902471e+001 7.854649e+000 1.842198e+000 7.495137e-001 1.671726e+000 1.910478e+000 4.629279e+000 4.260859e+000 3.024688e+000 5.194187e+000 3.250357e+000 2.212321e+000 2.106923e+000 1.693231e+000 1.132153e+000 1.628483e-001 1.440248e-001 2.269322e-001 2.950055e-001 4.880473e-001 5.050257e-001 4.695477e-001 3.605591e-001 2.957070e-001 5.140967e-001 3.655726e-001 3.241879e-001 1.048596e-001
<GCONST> 1.040081e+002
<STATE> 3
<MEAN> 39
 -7.976870e+000 3.411746e+000 2.621456e-001 -1.861678e-001 -1.483966e+000 -8.456004e+000 -5.577811e+000 -1.354480e+001 -9.730178e+000 -1.195862e+001 -9.731278e+000 -9.732772e+000 5.802234e+001 -7.694329e-001 -3.809986e-001 -5.800093e-001 9.593084e-002 5.793957e-001 3.759567e-001 6.628256e-001 7.612081e-001 4.054704e-001 4.263764e-001 -3.060625e-002 1.297396e-001 -1.538230e-001 2.847218e-002 -6.107510e-002 -6.131587e-002 -4.992133e-002 -2.409850e-001 -3.733453e-001 -4.827444e-002 -1.727879e-001 -1.036379e-001 3.628465e-001 2.797152e-001 1.750178e-001 1.370659e-001
<VARIANCE> 39
 5.350312e+000 4.916108e+000 6.994458e+000 1.197009e+001 1.132238e+001 2.073838e+001 1.887783e+001 1.657395e+001 1.228144e+001 1.389394e+001 1.404816e+001 1.577394e+001 3.291769e+000 5.236329e-001 5.445250e-001 6.901842e-001 7.384207e-001 1.676879e+000 2.825607e+000 1.851489e+000 1.906265e+000 1.879764e+000 1.957645e+000 1.993444e+000 1.351537e+000 3.126503e-001 6.720339e-002 7.055943e-002 1.079811e-001 1.509250e-001 2.625636e-001 2.891420e-001 2.846009e-001 2.588215e-001 2.284573e-001 3.190865e-001 3.179009e-001 2.653196e-001 2.705600e-002
<GCONST> 8.097422e+001
<STATE> 4
<MEAN> 39
 -1.314217e+001 5.183959e-002 -4.690721e+000 -1.194308e+000 -6.459020e-001 -7.388766e+000 -3.028049e-001 -7.435666e+000 -5.425560e+000 -4.479568e+000 -4.128428e+000 -4.881453e+000 5.760085e+001 -2.689325e-001 5.915953e-002 -6.306917e-002 -6.235080e-002 -2.544436e-001 -1.139179e+000 -1.690573e-001 -1.423068e-001 -5.374308e-001 2.494018e-001 2.231342e-001 1.892288e-001 4.427668e-001 2.796791e-001 1.093383e-001 2.998336e-001 3.738871e-002 -1.813586e-001 -4.139407e-001 -3.525721e-001 -2.811307e-001 -3.251022e-001 -2.421340e-001 -7.638112e-002 -6.822018e-002 1.312681e-001
<VARIANCE> 39
 9.530053e+000 8.789672e+000 1.057046e+001 1.532643e+001 1.539266e+001 2.897649e+001 2.657607e+001 2.916793e+001 2.678280e+001 3.139807e+001 2.650273e+001 1.461752e+001 3.903816e+000 7.882389e-001 6.696900e-001 1.291592e+000 1.004725e+000 1.209218e+000 2.287721e+000 2.084866e+000 2.692575e+000 2.530547e+000 2.515378e+000 1.843678e+000 1.095170e+000 2.538635e-001 1.631847e-001 1.347429e-001 1.599451e-001 2.149212e-001 2.735876e-001 4.094157e-001 3.960479e-001 4.899149e-001 3.700845e-001 4.133903e-001 3.511225e-001 2.318693e-001 3.695512e-002
<GCONST> 9.284904e+001
<TRANSP> 5
 0.000000e+000 1.000000e+000 0.000000e+000 0.000000e+000 0.000000e+000
 0.000000e+000 7.177424e-001 2.822575e-001 0.000000e+000 0.000000e+000
 0.000000e+000 0.000000e+000 8.136941e-001 1.863060e-001 0.000000e+000
 0.000000e+000 0.000000e+000 0.000000e+000 8.302719e-001 1.697281e-001
 0.000000e+000 0.000000e+000 0.000000e+000 0.000000e+000 0.000000e+000
<ENDHMM>
~h "ah"
<BEGINHMM>
<NUMSTATES> 5
<STATE> 2
<MEAN> 39
 3.498395e+000 -1.265801e+001 -1.953822e+001 -1.358927e+001 -1.054083e+000 -1.807460e+000 -9.454867e-001 -1.940333e+001 -1.031859e+001 -1.920253e+000 -7.615809e-001 -1.607278e+001 7.111327e+001 -4.724282e-001 -1.729390e+000 2.761495e-001 2.589269e+000 1.336426e+000 -1.677855e+000 -1.028645e+000 4.409413e-001 3.078336e-001 1.214177e+000 -5.048758e-001 -1.447853e+000 3.603370e-001 -4.096027e-002 5.456498e-001 3.459114e-001 9.871659e-002 -7.063762e-001 -8.548206e-001 -1.827258e-001 6.812440e-001 3.415554e-001 -8.628564e-002 -2.709103e-001 2.325921e-001 -2.412288e-001
<VARIANCE> 39
 8.810100e+000 2.786514e+001 1.221944e+001 3.480403e+001 4.085156e+001 4.761597e+001 3.292089e+001 2.902411e+001 3.584587e+001 3.871801e+001 2.748928e+001 3.292971e+001 1.064455e+001 1.733061e-001 1.492314e+000 8.762902e-001 1.202383e+000 2.646580e+000 4.041973e+000 1.618397e+000 3.015578e+000 2.007553e+000 1.796424e+000 1.913206e+000 1.900232e+000 3.511918e-001 3.388742e-002 1.436084e-001 1.719653e-001 2.399542e-001 2.675661e-001 5.014326e-001 3.933876e-001 3.720104e-001 3.852996e-001 3.980047e-001 3.482296e-001 4.145946e-001 3.211740e-002
<GCONST> 9.856717e+001
<STATE> 3
<MEAN> 39
 1.814092e+000 -1.370390e+001 -1.589460e+001 -2.449175e+000 -3.161048e+000 -1.670580e+001 -6.911005e+000 -1.207364e+001 -6.984318e+000 1.233449e+000 -5.076725e+000 -1.910155e+001 7.038172e+001 -5.004743e-001 1.487613e+000 1.773735e+000 1.562042e+000 -1.226254e+000 -2.343046e+000 -1.194064e+000 9.718854e-001 4.756734e-001 -2.149061e-001 1.308870e-001 1.052319e+000 -9.012928e-001 -9.885728e-002 6.925188e-001 5.070788e-001 -4.745938e-001 -1.749671e-001 7.329885e-001 1.712155e-001 -6.345520e-001 -2.530511e-001 -3.141535e-001 4.117188e-001 6.522002e-001 -3.199140e-001
<VARIANCE> 39
 9.764235e+000 2.011415e+001 1.457938e+001 2.385472e+001 3.532903e+001 5.325278e+001 3.099982e+001 3.110975e+001 2.804233e+001 3.261567e+001 3.230112e+001 2.352323e+001 1.140742e+001 2.430653e-001 1.915641e+000 1.767972e+000 1.726324e+000 1.289035e+000 2.689391e+000 2.196567e+000 2.848433e+000 1.793299e+000 1.453901e+000 2.361321e+000 2.108715e+000 4.615985e-001 5.167592e-002 1.627544e-001 2.522076e-001 2.568912e-001 2.660736e-001 4.674526e-001 4.617199e-001 4.380881e-001 3.499919e-001 2.746538e-001 3.236835e-001 2.871574e-001 3.395323e-002
<GCONST> 9.902694e+001
<STATE> 4
<MEAN> 39
 -3.426988e-001 -4.736728e+000 -5.274439e+000 4.870752e-001 -8.337046e+000 -1.926027e+001 -9.438915e+000 -1.423327e+001 -7.178656e+000 -2.898053e-001 -1.471377e+000 -1.158364e+001 6.565420e+001 -1.047946e+000 2.704940e+000 3.185319e+000 9.765254e-002 -1.054391e+000 1.108807e+000 3.819156e-001 -1.545303e+000 -1.288803e+000 -1.406760e+000 7.079232e-001 2.630895e+000 -1.595143e+000 3.763238e-003 -3.188053e-001 -3.989288e-001 -2.637487e-001 2.625151e-001 5.339224e-001 4.498182e-001 -7.090860e-002 -3.232701e-001 -2.688247e-001 -2.791943e-001 -1.297867e-001 1.607271e-001
<VARIANCE> 39
 1.027461e+001 1.882159e+001 1.832979e+001 2.490160e+001 3.490427e+001 3.090139e+001 2.496807e+001 3.817969e+001 3.783736e+001 3.791389e+001 3.619421e+001 2.752135e+001 1.067423e+001 2.910737e-001 9.603919e-001 1.673753e+000 1.353560e+000 1.564299e+000 1.744249e+000 2.160187e+000 2.407171e+000 2.457777e+000 1.806517e+000 1.564262e+000 1.376920e+000 1.915641e-001 5.691192e-002 2.001204e-001 2.886513e-001 2.404339e-001 2.653254e-001 3.747467e-001 3.408944e-001 4.762472e-001 4.100620e-001 2.472644e-001 2.798799e-001 2.609796e-001 4.812120e-002
<GCONST> 9.704125e+001
<TRANSP> 5
 0.000000e+000 1.000000e+000 0.000000e+000 0.000000e+000 0.000000e+000
 0.000000e+000 8.100834e-001 1.899166e-001 0.000000e+000 0.000000e+000
 0.000000e+000 0.000000e+000 7.630525e-001 2.369475e-001 0.000000e+000
 0.000000e+000 0.000000e+000 0.000000e+000 5.940303e-001 4.059696e-001
 0.000000e+000 0.000000e+000 0.000000e+000 0.000000e+000 0.000000e+000
<ENDHMM>
~h "ao"
<BEGINHMM>
<NUMSTATES> 5
<STATE> 2
<MEAN> 39
 2.984236e+000 7.832938e+000 -6.150535e+000 -1.613362e+001 -1.870510e+001 -1.872737e+001 -8.060896e+000 -1.096891e+001 -3.350770e+000 -5.047299e+000 -3.725985e+000 -7.078951e+000 6.380727e+001 1.915073e+000 2.382321e+000 5.351338e-001 -2.129577e+000 -2.168053e+000 -1.037575e+000 -1.158615e+000 -8.117984e-001 8.382534e-002 -4.647715e-001 -8.150564e-001 -4.066648e-001 8.167281e-001 -8.718848e-001 -1.074443e+000 -1.743047e-001 8.895276e-001 8.423305e-001 4.674502e-001 2.529625e-001 1.631690e-001 3.691823e-002 4.643980e-001 5.083854e-001 1.745512e-001 -2.646026e-001
<VARIANCE> 39
 7.556499e+000 8.010526e+000 7.026031e+000 1.727885e+001 1.144201e+001 1.177034e+001 1.152753e+001 1.477987e+001 1.188064e+001 1.190387e+001 1.171535e+001 1.072603e+001 2.632102e+000 2.889506e+000 4.351882e+000 7.570531e-001 3.573596e+000 3.014603e+000 1.923303e+000 1.673339e+000 2.122652e+000 1.383662e+000 1.762199e+000 2.208909e+000 1.234416e+000 5.029244e-001 1.194633e-001 2.460194e-001 1.198891e-001 2.626124e-001 1.955054e-001 3.431249e-001 2.389582e-001 3.724644e-001 2.248410e-001 2.696670e-001 2.967469e-001 2.495381e-001 4.995982e-002
<GCONST> 8.862377e+001
<STATE> 3
<MEAN> 39
 2.587342e+000 8.983393e+000 -4.543411e+000 -1.659780e+001 -1.994118e+001 -2.065018e+001 -1.072497e+001 -1.192507e+001 -2.042370e+000 -3.396075e+000 -3.047452e+000 -6.576538e+000 6.373952e+001 -2.225604e-001 -1.405287e-001 6.335453e-003 1.185379e-001 1.558104e-001 1.307674e-001 6.277353e-002 -3.564381e-002 -9.693269e-003 9.124473e-003 -4.855940e-002 9.795617e-002 -1.073858e-001 -3.655479e-002 -8.159513e-002 -6.293850e-002 5.043267e-002 1.364661e-001 1.508771e-001 1.034694e-001 -3.787800e-002 -8.167027e-002 -2.985534e-002 2.684191e-002 4.932751e-002 -1.576953e-002
<VARIANCE> 39
 8.695627e+000 2.787694e+000 9.981447e+000 2.065673e+001 1.012598e+001 2.148060e+001 2.982154e+001 2.707129e+001 1.983491e+001 1.824769e+001 1.719918e+001 1.266177e+001 3.074341e+000 1.217538e-001 2.052984e-001 3.838651e-001 5.338848e-001 6.799762e-001 8.649702e-001 1.021734e+000 1.421798e+000 9.940371e-001 1.102665e+000 1.146081e+000 9.050650e-001 5.498148e-002 2.414914e-002 4.478804e-002 6.348868e-002 8.572967e-002 1.390280e-001 1.356549e-001 1.801809e-001 2.943601e-001 1.917504e-001 1.844184e-001 2.414944e-001 1.713695e-001 1.021063e-002
<GCONST> 6.640266e+001
<STATE> 4
<MEAN> 39
 -7.518169e-001 4.324816e+000 -7.143562e+000 -1.454573e+001 -1.387570e+001 -1.392253e+001 -7.420260e+000 -1.420602e+001 -4.553610e+000 -2.918712e+000 -1.049530e+000 -3.905424e+000 6.218019e+001 -6.842328e-001 -1.105237e+000 -3.350782e-001 1.274125e+000 2.239908e+000 1.474667e+000 2.486913e-002 -1.230340e+000 -8.209910e-001 6.361768e-001 9.116091e-001 3.878120e-001 -2.572545e-001 -1.825427e-001 -9.015166e-002 1.978267e-001 4.363521e-001 3.244165e-001 -2.552135e-002 -1.370094e-001 1.399299e-001 1.588133e-001 1.670041e-001 -5.393637e-002 -2.366426e-001 -6.894971e-002
<VARIANCE> 39
 2.855923e+001 1.070979e+001 1.565617e+001 3.174219e+001 2.845514e+001 3.162957e+001 2.412153e+001 6.075237e+001 4.403529e+001 2.457667e+001 2.000194e+001 1.281132e+001 1.281975e+001 6.273261e-001 6.164996e-001 9.567901e-001 1.974669e+000 2.195057e+000 1.860101e+000 2.575967e+000 3.362677e+000 2.114033e+000 2.713864e+000 2.165204e+000 1.768110e+000 3.283381e-001 1.395915e-001 1.573997e-001 2.299170e-001 3.081146e-001 3.398528e-001 4.026567e-001 4.267749e-001 7.905384e-001 4.759403e-001 5.695423e-001 4.964534e-001 3.456852e-001 4.712403e-002
<GCONST> 1.023492e+002
<TRANSP> 5
 0.000000e+000 1.000000e+000 0.000000e+000 0.000000e+000 0.000000e+000
 0.000000e+000 7.536141e-001 2.463859e-001 0.000000e+000 0.000000e+000
 0.000000e+000 0.000000e+000 9.136575e-001 8.634250e-002 0.000000e+000
 0.000000e+000 0.000000e+000 0.000000e+000 8.061205e-001 1.938794e-001
 0.000000e+000 0.000000e+000 0.000000e+000 0.000000e+000 0.000000e+000
<ENDHMM>
~h "ay"
<BEGINHMM>
<NUMSTATES> 5
<STATE> 2
<MEAN> 39
 -1.120501e+001 -3.652582e+000 -4.763485e+000 -1.389769e+000 -5.161824e+000 -8.360288e+000 -1.049974e+000 -7.433473e+000 -5.127783e+000 -2.439298e+000 -1.221105e+000 -4.393483e+000 5.769788e+001 -4.219111e-002 -7.442882e-002 -5.116663e-002 -6.550972e-002 4.217087e-002 9.946772e-002 -1.413304e-001 -1.926172e-001 1.505733e-001 -2.689846e-002 -8.213760e-002 -5.752847e-002 -5.622759e-002 5.683257e-002 -9.648819e-002 -2.157163e-002 2.860012e-002 7.532550e-002 -4.115965e-002 -1.108541e-001 -9.878061e-002 4.364177e-002 9.863152e-002 5.311697e-002 -7.091369e-002 5.271477e-002
<VARIANCE> 39
 1.771237e+001 1.872526e+001 2.478011e+001 2.368696e+001 1.775967e+001 2.006794e+001 2.775738e+001 3.737123e+001 2.161523e+001 2.703491e+001 2.115701e+001 1.442756e+001 1.333702e+001 2.547014e-001 5.258485e-001 5.231487e-001 7.575507e-001 1.112575e+000 1.185428e+000 1.236472e+000 1.235502e+000 1.325200e+000 1.290290e+000 1.533925e+000 1.215839e+000 2.064363e-001 4.692339e-002 9.651971e-002 1.237763e-001 1.509853e-001 2.067779e-001 2.398046e-001 2.383955e-001 2.565501e-001 2.503028e-001 2.488366e-001 2.687900e-001 2.655628e-001 3.046960e-002
<GCONST> 8.462325e+001
<STATE> 3
<MEAN> 39
 -9.402504e+000 -3.192326e+000 -2.821484e+000 1.237684e-001 -5.361847e+000 -9.072587e+000 -3.374683e+000 -9.805008e+000 -5.376554e+000 -1.190232e+000 -7.850454e-001 -6.266213e+000 5.818515e+001 3.611422e-001 -3.005436e-001 9.642216e-002 2.777416e-001 1.338589e-001 -4.281217e-001 -7.794949e-001 -7.570825e-001 -1.632145e-001 1.001313e-001 -1.937605e-001 -6.058402e-001 5.567448e-001 1.516185e-001 -1.288473e-001 -1.805843e-001 -1.325036e-001 3.424246e-003 -1.338734e-001 -1.026809e-001 -1.539696e-001 -1.066468e-001 5.765493e-002 4.849503e-002 -8.814994e-002 1.152972e-001
<VARIANCE> 39
 2.594852e+001 2.605308e+001 2.643878e+001 1.332364e+001 2.693702e+001 3.297163e+001 3.377290e+001 5.988633e+001 4.206449e+001 3.326885e+001 2.294914e+001 1.738078e+001 4.998681e+001 8.561510e-001 1.186979e+000 7.857725e-001 1.034860e+000 1.594726e+000 1.659604e+000 1.958012e+000 1.490245e+000 1.900758e+000 1.375947e+000 1.388560e+000 1.911485e+000 2.874848e+000 1.569528e-001 1.787499e-001 2.207777e-001 1.586391e-001 2.709853e-001 3.478514e-001 3.007777e-001 3.628108e-001 4.342228e-001 3.331261e-001 3.427708e-001 3.669508e-001 3.858370e-001
<GCONST> 1.039891e+002
<STATE> 4
<MEAN> 39
 -1.089482e+001 -7.461102e+000 -5.099879e+000 1.485397e+000 -4.731020e+000 -9.899692e+000 -4.480304e+000 -8.819856e+000 -5.142902e+000 2.060298e+000 1.988610e+000 -6.563628e+000 5.980078e+001 4.497459e-001 -1.869539e-001 -2.220097e-001 -6.137946e-001 1.088886e-002 -1.898209e-001 6.766484e-004 -2.482065e-001 1.139237e-001 -1.467975e-001 6.826503e-002 -1.730177e-001 2.777182e-002 4.851587e-001 2.258835e-001 -4.351947e-001 -6.985492e-001 -2.117727e-001 1.223430e-001 2.548224e-001 -4.424245e-002 1.645453e-002 -1.176362e-001 -1.212790e-002 -2.970268e-002 1.600694e-001
<VARIANCE> 39
 1.566824e+001 2.830170e+001 2.010281e+001 1.095807e+001 1.726136e+001 1.827303e+001 2.633821e+001 3.783739e+001 2.441814e+001 2.806497e+001 2.792677e+001 1.482992e+001 4.378570e+000 5.363780e-001 1.138742e+000 7.427515e-001 1.620235e+000 1.332338e+000 1.631184e+000 2.119885e+000 1.991302e+000 2.280635e+000 1.643498e+000 1.583672e+000 1.849650e+000 3.096774e-001 2.386427e-001 3.450072e-001 3.055375e-001 4.520452e-001 3.478172e-001 3.366938e-001 4.261750e-001 3.603140e-001 4.368984e-001 3.200236e-001 2.995274e-001 3.292130e-001 1.129863e-001
<GCONST> 9.803059e+001
<TRANSP> 5
 0.000000e+000 1.000000e+000 0.000000e+000 0.000000e+000 0.000000e+000
 0.000000e+000 5.913490e-001 4.086510e-001 0.000000e+000 0.000000e+000
 0.000000e+000 0.000000e+000 1.515670e-001 8.484330e-001 0.000000e+000
 0.000000e+000 0.000000e+000 0.000000e+000 5.683964e-001 4.316036e-001
 0.000000e+000 0.000000e+000 0.000000e+000 0.000000e+000 0.000000e+000
<ENDHMM>
~h "eh"
<BEGINHMM>
<NUMSTATES> 5
<STATE> 2
<MEAN> 39
 -7.686861e+000 -6.810905e+000 -8.163996e+000 -6.001355e+000 -5.671929e+000 -1.770785e+001 -1.852710e+000 -6.829338e+000 -2.873205e+000 2.265174e+000 -1.064708e+000 -6.018234e+000 6.469633e+001 4.970818e+000 -1.909654e+000 -9.296252e-001 -5.567815e-001 -2.346961e+000 -1.748344e+000 -1.492741e+000 -1.809991e+000 1.453548e+000 9.460585e-001 -1.329456e+000 -1.489168e+000 2.545145e+000 -1.854551e-001 -2.137087e-001 -1.348104e-001 1.640018e-001 5.083602e-001 3.482188e-001 2.400825e-001 9.167209e-003 -2.867638e-001 2.209595e-001 -5.124902e-001 -5.352752e-001 5.492043e-001
<VARIANCE> 39
 6.328456e+001 1.565485e+001 1.672583e+001 1.390056e+001 3.368253e+001 3.316850e+001 3.396281e+001 3.791471e+001 2.137782e+001 2.067714e+001 3.072360e+001 1.828318e+001 2.587911e+001 1.250772e+000 1.697645e+000 1.480595e+000 1.785439e+000 2.035730e+000 3.445193e+000 2.892805e+000 2.676081e+000 1.881716e+000 2.199990e+000 3.398571e+000 2.697879e+000 2.329662e+000 1.327505e+000 2.658651e-001 2.666642e-001 2.695931e-001 6.946911e-001 6.419675e-001 6.492718e-001 8.092084e-001 4.122803e-001 5.546721e-001 5.424839e-001 3.226412e-001 5.473691e-001
<GCONST> 1.151352e+002
<STATE> 3
<MEAN> 39
 2.987528e+000 -1.332325e+001 -1.006411e+001 -5.619191e+000 -8.372847e+000 -2.045494e+001 -2.308254e+000 -9.069068e+000 -1.316036e+000 5.275205e+000 -6.439958e+000 -1.373695e+001 7.410031e+001 5.673655e-001 -1.513467e+000 -4.800616e-001 4.786464e-001 1.326956e+000 8.971314e-001 1.575187e-001 2.502072e-001 -6.942440e-001 -1.807531e-001 -9.232931e-001 -2.591463e+000 1.140779e+000 -1.156083e+000 4.574443e-001 -6.114219e-002 1.720540e-002 7.176007e-001 6.688619e-001 -2.267865e-001 2.960805e-003 -4.895206e-001 -4.743351e-001 4.764030e-001 2.133126e-001 -1.025197e+000
<VARIANCE> 39
 2.840858e+000 1.744128e+001 1.428456e+001 1.366916e+001 1.573229e+001 3.925461e+001 2.376339e+001 1.574178e+001 1.781804e+001 1.273197e+001 1.126819e+001 1.856094e+001 7.521231e+000 1.015766e+000 1.470715e+000 1.092047e+000 1.054142e+000 1.607844e+000 1.758456e+000 2.107867e+000 2.499146e+000 1.457610e+000 1.901884e+000 1.573205e+000 1.232572e+000 1.181270e+000 2.302026e-001 3.898059e-001 1.991829e-001 2.838537e-001 3.230098e-001 4.162033e-001 4.822887e-001 6.770473e-001 3.034211e-001 3.051038e-001 2.958911e-001 3.379943e-001 9.912430e-002
<GCONST> 9.567818e+001
<STATE> 4
<MEAN> 39
 2.380971e+000 -1.560104e+001 -1.331461e+001 -5.028479e+000 -3.935898e+000 -1.645659e+001 -5.863476e+000 -1.230743e+001 -4.372335e+000 3.004235e+000 -8.947562e+000 -1.933018e+001 7.339603e+001 1.111154e-001 8.968072e-002 -1.256708e+000 -1.570654e-001 7.681252e-001 1.182633e+000 -1.238198e+000 -1.913104e+000 -5.284693e-001 2.852792e-001 4.065879e-001 -6.817213e-001 -4.835621e-001 5.333811e-002 7.513260e-001 9.119058e-002 -2.205375e-001 -4.812346e-001 -4.691569e-002 -1.354528e-001 -5.190951e-001 1.066966e-002 3.482098e-001 9.072323e-001 9.470772e-001 -3.671818e-001
<VARIANCE> 39
 4.684045e+000 1.457896e+001 1.742346e+001 1.940262e+001 1.844528e+001 3.514366e+001 2.597745e+001 2.928899e+001 2.829423e+001 2.489322e+001 1.667207e+001 1.606143e+001 7.323571e+000 2.313565e-001 1.728022e+000 9.329044e-001 1.228279e+000 1.204900e+000 1.305693e+000 1.622774e+000 2.534357e+000 1.565726e+000 2.657872e+000 2.807661e+000 2.599505e+000 2.191613e-001 6.086310e-002 1.732155e-001 2.197382e-001 1.950151e-001 2.124375e-001 1.727622e-001 3.385029e-001 4.502085e-001 3.192124e-001 4.029425e-001 3.408000e-001 3.364701e-001 5.377310e-002
<GCONST> 9.192541e+001
<TRANSP> 5
 0.000000e+000 1.000000e+000 0.000000e+000 0.000000e+000 0.000000e+000
 0.000000e+000 7.434007e-001 2.565993e-001 0.000000e+000 0.000000e+000
 0.000000e+000 0.000000e+000 5.525608e-001 4.474392e-001 0.000000e+000
 0.000000e+000 0.000000e+000 0.000000e+000 7.074535e-001 2.925465e-001
 0.000000e+000 0.000000e+000 0.000000e+000 0.000000e+000 0.000000e+000
<ENDHMM>
~h "ey"
<BEGINHMM>
<NUMSTATES> 5
<STATE> 2
<MEAN> 39
 -9.756455e+000 4.975531e-001 -1.865036e+000 -2.314473e+000 -1.105612e+000 -6.116123e+000 -1.821222e+000 -8.230884e+000 -3.151069e+000 -5.188292e+000 -2.674768e+000 -3.984158e+000 5.659449e+001 -1.065790e+000 -5.700828e-001 -6.054262e-001 -2.363166e-001 9.940392e-001 1.232940e+000 6.311499e-001 1.264385e+000 1.502729e+000 -6.344909e-002 -4.134451e-001 7.499180e-002 -8.900909e-001 1.289212e-001 -2.171388e-001 -5.588074e-002 -1.817436e-001 -6.648825e-001 -4.005937e-001 1.782429e-001 -1.340993e-001 -1.265728e-001 2.946069e-001 2.396207e-001 4.785485e-002 2.165277e-001
<VARIANCE> 39
 1.012443e+001 9.260108e+000 1.355833e+001 1.524998e+001 1.312573e+001 1.519911e+001 2.017556e+001 3.341924e+001 2.508755e+001 1.581254e+001 1.960124e+001 2.474348e+001 6.055400e+000 1.317030e+000 8.898678e-001 1.461996e+000 1.856667e+000 3.270350e+000 3.866412e+000 3.421276e+000 3.896523e+000 2.721092e+000 2.028638e+000 2.845768e+000 2.262403e+000 6.561641e-001 1.043489e-001 1.904291e-001 2.286686e-001 3.005284e-001 5.418506e-001 5.291181e-001 3.833728e-001 4.193662e-001 3.684163e-001 3.465768e-001 5.823092e-001 4.739845e-001 7.159040e-002
<GCONST> 1.011055e+002
<STATE> 3
<MEAN> 39
 -1.244623e+001 -1.950190e+000 -3.804613e+000 -3.440261e+000 -3.891462e-001 -4.157470e+000 5.752410e-001 -5.390866e+000 5.086946e-001 -3.863151e+000 -2.643910e+000 -3.415650e+000 5.472172e+001 -2.493342e-001 -5.180329e-001 -4.532170e-001 -6.314278e-001 -6.062759e-001 5.543499e-004 3.927125e-001 1.594688e-001 4.290538e-001 5.553233e-001 3.402989e-001 3.523698e-001 -1.058050e-001 3.392594e-001 -4.995112e-002 1.471673e-001 3.289571e-002 -7.132201e-001 -7.127252e-001 -4.012905e-002 -4.250035e-001 -5.271208e-001 2.696692e-001 1.474204e-001 -1.535340e-001 4.392558e-001
<VARIANCE> 39
 1.730911e+000 2.550627e+000 6.165381e+000 7.641216e+000 6.827662e+000 6.318308e+000 1.119330e+001 1.243295e+001 1.117513e+001 1.358713e+001 1.306131e+001 1.033787e+001 1.193890e+000 5.164521e-001 5.393142e-001 7.716315e-001 8.247881e-001 2.048465e+000 2.031725e+000 1.463306e+000 2.335545e+000 1.936136e+000 1.637339e+000 1.864566e+000 1.883489e+000 4.930822e-001 7.848408e-002 2.175171e-001 1.299112e-001 1.526413e-001 4.956789e-001 3.568940e-001 5.177704e-001 4.195403e-001 2.792923e-001 5.138768e-001 2.805572e-001 3.316846e-001 1.112481e-001
<GCONST> 8.068628e+001
<STATE> 4
<MEAN> 39
 -1.220296e+001 -2.998299e+000 -5.049370e+000 -5.090432e+000 -3.321869e+000 -6.010132e+000 1.548753e+000 -5.414380e+000 5.427027e-002 -2.133845e+000 -1.744863e+000 -3.032568e+000 5.528778e+001 7.440413e-001 -1.077332e+000 2.401764e-001 2.090637e-001 -2.795504e+000 -2.289959e+000 9.000595e-001 -6.868075e-001 -9.245932e-001 1.415269e+000 1.696621e-001 -8.059056e-001 1.398268e+000 3.736342e-001 -2.576342e-001 3.837733e-001 2.801977e-001 -9.502446e-001 -8.836049e-001 1.977743e-001 -2.639042e-001 -4.776200e-001 4.093203e-001 2.158333e-001 -4.388139e-001 6.697823e-001
<VARIANCE> 39
 2.515429e+000 4.664585e+000 6.414002e+000 7.169795e+000 1.859121e+001 1.441420e+001 1.339394e+001 1.459221e+001 1.425026e+001 2.217084e+001 1.471595e+001 9.939900e+000 2.791468e+000 7.541294e-001 1.421479e+000 1.285165e+000 9.888787e-001 6.511786e+000 5.026746e+000 1.988591e+000 2.576691e+000 2.255051e+000 4.471008e+000 1.899206e+000 1.783536e+000 2.133725e+000 9.350186e-002 1.625182e-001 2.097893e-001 1.843130e-001 7.087505e-001 6.476015e-001 3.181038e-001 4.038145e-001 4.186850e-001 5.591267e-001 5.462097e-001 2.843899e-001 1.994565e-001
<GCONST> 9.512527e+001
<TRANSP> 5
 0.000000e+000 1.000000e+000 0.000000e+000 0.000000e+000 0.000000e+000
 0.000000e+000 4.935443e-001 5.064557e-001 0.000000e+000 0.000000e+000
 0.000000e+000 0.000000e+000 5.125822e-001 4.874178e-001 0.000000e+000
 0.000000e+000 0.000000e+000 0.000000e+000 7.254816e-001 2.745185e-001
 0.000000e+000 0.000000e+000 0.000000e+000 0.000000e+000 0.000000e+000
<ENDHMM>
~h "ia"
<BEGINHMM>
<NUMSTATES> 5
<STATE> 2
<MEAN> 39
 -8.225471e+000 1.715610e+000 6.259478e-001 -2.399577e-001 -5.954178e+000 -2.414748e+001 -9.534429e+000 -1.522746e+001 -1.530440e+001 -6.897550e+000 -5.841951e+000 -6.115846e+000 6.359523e+001 1.780568e+000 -8.343170e-001 1.025559e+000 2.326805e-001 -2.183383e+000 -2.587308e+000 -1.363700e+000 -8.999593e-001 -1.053781e+000 9.712528e-002 8.145748e-001 1.256690e-001 1.210043e+000 2.094539e-001 -3.856834e-001 -7.759308e-002 1.227704e-001 -4.454012e-001 3.879478e-001 2.707427e-001 3.293997e-002 2.395671e-001 9.457352e-002 2.393580e-001 -1.585468e-002 7.114185e-002
<VARIANCE> 39
 1.598264e+001 1.175272e+001 1.131220e+001 1.400512e+001 2.596981e+001 4.139104e+001 3.076686e+001 2.638264e+001 2.179939e+001 1.967624e+001 2.992170e+001 1.287173e+001 6.109855e+000 1.444538e+000 1.694112e+000 1.121766e+000 1.452828e+000 2.383768e+000 2.996941e+000 2.555318e+000 2.643464e+000 2.018692e+000 1.710862e+000 1.857678e+000 1.407225e+000 2.662978e-001 2.168385e-001 1.472995e-001 2.017631e-001 2.221905e-001 2.495564e-001 4.567037e-001 5.001808e-001 4.218774e-001 2.926927e-001 2.836770e-001 3.223004e-001 2.698855e-001 3.508185e-002
<GCONST> 9.706216e+001
<STATE> 3
<MEAN> 39
 1.838531e+000 -8.167128e+000 1.873137e+000 3.519503e+000 -2.043370e+001 -2.846810e+001 -1.059204e+001 -2.026075e+001 -1.486978e+001 -1.732864e+000 1.863858e+000 -5.165451e+000 7.017828e+001 9.483041e-001 -7.722713e-001 -1.306503e+000 2.124445e-001 1.491174e-001 8.886634e-001 -4.643421e-001 -1.106765e+000 1.074633e+000 1.586573e+000 6.696783e-001 -2.560278e-001 3.496587e-001 -2.129843e-001 4.398860e-001 -4.127864e-001 -2.964181e-001 9.001310e-001 4.184059e-001 -2.076196e-001 -1.955141e-002 9.302094e-002 -1.208419e-002 -3.750050e-002 5.314753e-002 -2.660589e-001
<VARIANCE> 39
 5.733786e+000 2.968388e+001 2.383577e+001 1.761083e+001 2.501309e+001 2.447160e+001 2.578791e+001 2.281013e+001 3.667404e+001 4.577180e+001 1.915747e+001 2.264648e+001 6.616886e+000 3.652964e-001 1.975612e+000 2.765863e+000 1.645190e+000 7.822017e+000 2.527958e+000 2.740225e+000 2.364859e+000 3.189661e+000 2.505536e+000 2.029942e+000 1.977669e+000 5.499054e-001 6.354547e-002 2.436781e-001 2.250121e-001 3.508964e-001 3.718806e-001 3.643682e-001 4.347858e-001 5.339147e-001 7.010795e-001 8.026716e-001 4.280845e-001 5.664085e-001 3.782862e-002
<GCONST> 1.045160e+002
<STATE> 4
<MEAN> 39
 4.997044e+000 -2.254848e+000 -1.389615e+001 -8.525890e+000 -7.037030e+000 -1.453624e+001 -1.367622e+001 -2.292485e+001 -1.096463e+001 -1.095568e+000 6.190006e+000 5.806373e-001 6.734045e+001 -1.436813e-002 3.523458e-001 -7.082458e-001 -1.005560e+000 4.862706e-001 9.037321e-001 4.371827e-001 3.960666e-001 1.564345e-001 -2.344324e-001 2.581952e-001 5.120810e-001 -1.804565e-001 -6.078928e-002 -1.373603e-001 2.290195e-001 1.570851e-001 -2.870500e-001 -1.643774e-001 1.983107e-001 1.444829e-001 3.886794e-002 4.830846e-002 -9.257434e-002 -1.099353e-001 4.387688e-002
<VARIANCE> 39
 7.160294e+000 2.421330e+001 2.418687e+001 4.635550e+001 2.757268e+001 2.998022e+001 4.346425e+001 2.420633e+001 2.957483e+001 5.224843e+001 2.764390e+001 3.713260e+001 6.509067e+000 1.898231e-001 2.103930e+000 1.230239e+000 1.932406e+000 3.021394e+000 1.644384e+000 3.071760e+000 1.744275e+000 2.923325e+000 5.393092e+000 2.691508e+000 4.091362e+000 3.943442e-001 3.655637e-002 2.238340e-001 1.899035e-001 2.377615e-001 3.909084e-001 2.506778e-001 5.498147e-001 3.634430e-001 5.845308e-001 9.141209e-001 5.324085e-001 6.279295e-001 3.974982e-002
<GCONST> 1.043526e+002
<TRANSP> 5
 0.000000e+000 1.000000e+000 0.000000e+000 0.000000e+000 0.000000e+000
 0.000000e+000 8.179588e-001 1.820412e-001 0.000000e+000 0.000000e+000
 0.000000e+000 0.000000e+000 8.661487e-001 1.338513e-001 0.000000e+000
 0.000000e+000 0.000000e+000 0.000000e+000 9.222831e-001 7.771691e-002
 0.000000e+000 0.000000e+000 0.000000e+000 0.000000e+000 0.000000e+000
<ENDHMM>
~h "ih"
<BEGINHMM>
<NUMSTATES> 5
<STATE> 2
<MEAN> 39
 -1.698587e+001 -5.050029e+000 -3.725765e+000 -2.535681e+000 -3.539130e+000 -1.554204e+001 4.322417e+000 -2.936074e+000 -7.405517e+000 -6.609284e-001 2.933933e+000 -1.988815e+000 6.117336e+001 3.392956e+000 6.692696e-002 2.069237e+000 -1.104603e-001 -3.448220e+000 -2.748575e+000 -1.794517e+000 -2.017667e+000 -1.439414e+000 -2.487949e-001 7.002631e-001 -3.157120e-001 5.341107e-001 8.032579e-001 3.236769e-001 4.271090e-001 2.743407e-001 -9.833643e-001 -5.893853e-001 -5.088028e-001 -1.225912e+000 -5.080474e-001 3.521606e-001 -7.237326e-002 -3.910544e-001 6.128668e-001
<VARIANCE> 39
 1.487642e+001 7.014650e+000 1.080640e+001 1.342175e+001 2.618605e+001 2.843574e+001 2.758436e+001 2.424635e+001 1.578109e+001 1.970719e+001 2.026519e+001 1.348696e+001 4.505219e+000 2.314023e+000 1.328230e+000 1.001793e+000 1.188565e+000 3.588951e+000 2.651956e+000 3.120027e+000 6.006671e+000 2.234925e+000 2.209197e+000 2.055185e+000 1.958501e+000 1.253704e+000 2.341867e-001 2.273149e-001 1.568597e-001 2.466236e-001 3.630327e-001 3.967794e-001 5.604168e-001 5.963996e-001 3.777820e-001 4.486291e-001 3.658663e-001 2.880941e-001 1.053281e-001
<GCONST> 1.014782e+002
<STATE> 3
<MEAN> 39
 -1.672254e+000 -1.963423e+000 8.143774e+000 6.047136e-001 -2.278881e+001 -2.502892e+001 -1.547906e+000 -2.091566e+001 -1.776244e+001 4.152943e+000 3.771529e+000 -9.452744e+000 6.744037e+001 6.552311e-001 8.313993e-001 1.065560e+000 5.412288e-001 -3.915414e-001 7.753474e-001 -1.964281e-002 -1.312682e+000 -6.822878e-001 3.108753e-001 -6.207365e-001 -1.144486e+000 -9.255073e-002 -7.361760e-001 7.908617e-002 -5.710497e-001 -5.689209e-002 1.356709e+000 9.076523e-001 2.049135e-001 8.834095e-001 6.226354e-001 -5.211377e-001 -3.347487e-001 3.213865e-001 -5.166871e-001
<VARIANCE> 39
 5.373106e+000 1.811131e+001 1.807977e+001 1.803338e+001 2.629774e+001 3.044524e+001 2.970976e+001 3.282011e+001 2.812655e+001 3.770444e+001 2.542351e+001 3.414882e+001 8.587137e+000 4.253470e+000 1.812272e+000 2.650533e+000 1.648379e+000 1.564873e+001 6.689578e+000 3.404641e+000 7.690234e+000 4.415188e+000 5.365406e+000 3.326521e+000 2.620310e+000 3.113643e+000 2.634690e-001 3.323905e-001 2.925389e-001 3.237400e-001 6.448767e-001 4.244599e-001 8.739126e-001 6.450717e-001 5.301799e-001 9.856278e-001 4.271251e-001 6.776963e-001 1.673770e-001
<GCONST> 1.190549e+002
<STATE> 4
<MEAN> 39
 -1.292760e+001 -3.712293e+000 -2.328055e+000 2.143061e+000 -2.696721e+000 -1.091701e+001 2.869529e+000 -6.101737e+000 -8.600209e+000 -1.347897e+000 1.592477e-001 -5.610971e+000 6.042620e+001 -1.469305e+000 -4.549972e-001 -1.236762e+000 -1.737165e-002 1.303633e+000 1.308130e-001 6.071398e-001 1.781085e+000 6.538853e-001 -3.876463e-001 2.419696e-001 9.533436e-001 -2.519680e-002 6.428286e-002 -2.121507e-003 9.661162e-002 -9.972583e-002 -3.882650e-001 -2.268444e-001 -8.022139e-003 -2.064343e-001 -1.332009e-001 2.381333e-001 1.219556e-001 -1.224627e-001 1.631276e-001
<VARIANCE> 39
 4.615021e+001 4.061182e+001 3.467579e+001 2.376489e+001 3.607606e+001 5.968475e+001 3.690436e+001 6.881101e+001 4.198410e+001 4.312989e+001 4.256326e+001 3.224246e+001 1.463818e+001 1.582044e+000 4.457701e+000 2.163131e+000 2.348448e+000 8.567361e+000 9.691173e+000 2.808114e+000 4.102840e+000 6.270342e+000 7.466007e+000 4.817534e+000 3.069532e+000 2.175445e+000 2.809091e-001 9.201203e-001 3.163859e-001 4.457023e-001 1.445479e+000 1.548641e+000 5.648814e-001 6.884003e-001 9.636624e-001 1.479309e+000 9.729278e-001 6.317106e-001 2.832637e-001
<GCONST> 1.317663e+002
<TRANSP> 5
 0.000000e+000 1.000000e+000 0.000000e+000 0.000000e+000 0.000000e+000
 0.000000e+000 7.008802e-001 2.991198e-001 0.000000e+000 0.000000e+000
 0.000000e+000 0.000000e+000 8.706201e-001 1.293799e-001 0.000000e+000
 0.000000e+000 0.000000e+000 0.000000e+000 9.176021e-001 8.239792e-002
 0.000000e+000 0.000000e+000 0.000000e+000 0.000000e+000 0.000000e+000
<ENDHMM>
~h "iy"
<BEGINHMM>
<NUMSTATES> 5
<STATE> 2
<MEAN> 39
 -1.937045e+000 2.752216e-001 1.035830e+001 8.388825e-001 -2.374480e+001 -2.022079e+001 -4.044608e+000 -2.572773e+001 -1.850100e+001 -9.330802e-001 -1.367890e+000 -1.300735e+001 6.566321e+001 -5.355325e-001 9.875520e-001 4.617081e-001 -5.528934e-001 1.086925e+000 1.312064e+000 2.953340e-001 -1.531689e-001 -4.581107e-001 -3.913871e-001 -6.005720e-001 -5.037975e-001 -4.990444e-001 1.043645e-001 -8.248868e-002 -5.002815e-001 9.700777e-002 5.737646e-001 -1.253403e-001 -4.409297e-001 2.051880e-001 4.443004e-001 1.441974e-002 -1.063101e-001 1.431963e-001 -2.009343e-002
<VARIANCE> 39
 2.846980e+000 1.696765e+001 1.084441e+001 1.494469e+001 2.527498e+001 2.789608e+001 3.135229e+001 2.327112e+001 3.120422e+001 3.507719e+001 3.590145e+001 1.752357e+001 5.319645e+000 2.394365e-001 1.041759e+000 1.176236e+000 1.110029e+000 2.265978e+000 2.132809e+000 2.361976e+000 1.958563e+000 2.736615e+000 2.407884e+000 2.035600e+000 1.374910e+000 2.157203e-001 2.610855e-002 1.393343e-001 2.356374e-001 1.786984e-001 7.153659e-001 3.288086e-001 5.548296e-001 3.770276e-001 5.597852e-001 4.161560e-001 4.330714e-001 2.518317e-001 3.368706e-002
<GCONST> 9.341456e+001
<STATE> 3
<MEAN> 39
 -4.035708e+000 3.394935e+000 8.545242e+000 1.634276e-001 -1.499880e+001 -1.692595e+001 -5.423157e+000 -2.268237e+001 -1.819296e+001 -4.284379e+000 -3.980142e+000 -1.297445e+001 6.272841e+001 -5.027027e-001 4.009635e-001 -1.205259e+000 -1.228053e-002 2.567907e+000 9.143863e-001 -5.887588e-001 1.370709e+000 7.877139e-001 -1.383843e+000 -6.721922e-001 7.695207e-001 -7.466920e-001 -1.025743e-001 -2.157551e-001 -2.537591e-001 2.199656e-003 1.515495e-001 1.999001e-001 1.143806e-001 2.825786e-001 4.047669e-001 2.037834e-002 -5.186487e-002 1.781872e-001 -2.267349e-002
<VARIANCE> 39
 6.169347e+000 1.081523e+001 1.345947e+001 1.738496e+001 2.072073e+001 2.430334e+001 2.821106e+001 3.024393e+001 2.314753e+001 2.581002e+001 3.806504e+001 2.150939e+001 3.588409e+000 4.134844e-001 9.863816e-001 9.616011e-001 1.495856e+000 3.101708e+000 1.965807e+000 2.058843e+000 2.681584e+000 2.496057e+000 1.618231e+000 2.214243e+000 1.952034e+000 2.125074e-001 1.107048e-001 1.251519e-001 1.663123e-001 2.532013e-001 6.080926e-001 4.655542e-001 4.476357e-001 4.786522e-001 4.846584e-001 4.108396e-001 4.388351e-001 2.946417e-001 3.297378e-002
<GCONST> 9.565550e+001
<STATE> 4
<MEAN> 39
 -6.240752e+000 4.085353e+000 2.512910e+000 -1.874595e+000 -6.169456e+000 -1.152913e+001 -7.409355e+000 -1.800314e+001 -1.262391e+001 -9.786785e+000 -8.264122e+000 -9.373379e+000 5.934043e+001 -6.311994e-001 -4.564514e-001 -9.424692e-001 -9.358510e-002 1.259439e+000 9.408808e-001 4.083943e-001 1.220160e+000 1.305981e+000 1.167832e-002 2.355034e-002 7.300187e-001 -4.945880e-001 -4.432275e-002 -1.459917e-001 6.393234e-002 1.729441e-002 -3.018326e-001 -1.035685e-001 1.742840e-001 -3.209954e-003 7.265097e-003 3.254719e-001 2.507072e-001 -1.857628e-002 6.208188e-002
<VARIANCE> 39
 6.838294e+000 8.019670e+000 1.204429e+001 1.304238e+001 2.489193e+001 2.221582e+001 2.816951e+001 3.593051e+001 2.452608e+001 1.798518e+001 2.199097e+001 1.988103e+001 3.564890e+000 5.901874e-001 6.826277e-001 1.048862e+000 1.076049e+000 2.665391e+000 2.014376e+000 2.323167e+000 3.076112e+000 2.947899e+000 1.928971e+000 2.106305e+000 1.665505e+000 2.148803e-001 6.229766e-002 1.238648e-001 1.596302e-001 2.116456e-001 4.168240e-001 2.832187e-001 4.331439e-001 4.939339e-001 4.388926e-001 3.735773e-001 2.857015e-001 2.717515e-001 2.582676e-002
<GCONST> 9.177813e+001
<TRANSP> 5
 0.000000e+000 1.000000e+000 0.000000e+000 0.000000e+000 0.000000e+000
 0.000000e+000 8.292769e-001 1.707231e-001 0.000000e+000 0.000000e+000
 0.000000e+000 0.000000e+000 7.460238e-001 2.539762e-001 0.000000e+000
 0.000000e+000 0.000000e+000 0.000000e+000 8.060329e-001 1.939671e-001
 0.000000e+000 0.000000e+000 0.000000e+000 0.000000e+000 0.000000e+000
<ENDHMM>
~h "ow"
<BEGINHMM>
<NUMSTATES> 5
<STATE> 2
<MEAN> 39
 -1.231503e+001 -2.307875e+000 -4.981559e+000 -4.218166e+000 -8.657290e-001 -5.039416e+000 -2.494446e-001 -6.107287e+000 1.925637e-001 -2.270731e+000 8.086850e-002 -1.804786e+000 5.471622e+001 -8.639747e-002 -5.432989e-002 -4.304149e-002 -2.595109e-002 -5.459319e-002 -8.442518e-002 -2.599791e-002 -1.104275e-002 -2.141708e-002 3.543483e-002 3.185108e-002 1.092803e-001 -4.562512e-002 4.703911e-002 1.442446e-002 -1.711876e-002 -2.743979e-002 -3.186613e-002 -2.543703e-002 -2.458944e-002 -2.141155e-002 -3.238389e-002 -1.060225e-003 -2.249052e-002 -3.562453e-002 3.578931e-002
<VARIANCE> 39
 5.082246e+000 4.376512e+000 6.691848e+000 7.125783e+000 8.327847e+000 1.109325e+001 1.347025e+001 1.649412e+001 1.224232e+001 1.261727e+001 1.116344e+001 1.095047e+001 3.538844e+000 1.402543e-001 1.884895e-001 4.000918e-001 6.795551e-001 8.835318e-001 9.784916e-001 1.211856e+000 1.496329e+000 1.288838e+000 1.255552e+000 1.226322e+000 1.299228e+000 6.836521e-002 3.425337e-002 3.822216e-002 7.984786e-002 1.460537e-001 1.718055e-001 2.086775e-001 2.647518e-001 3.332624e-001 2.691523e-001 2.551483e-001 2.549694e-001 2.605422e-001 1.603432e-002
<GCONST> 6.709256e+001
<STATE> 3
<MEAN> 39
 -1.219258e+001 -1.412930e+000 -5.970371e+000 -2.236214e+000 -2.353601e+000 -7.217211e+000 -1.305762e+000 -6.140943e+000 -2.489486e+000 -3.091637e-001 -6.818715e-002 -2.995150e+000 5.806849e+001 -1.638118e-001 1.722248e-002 -1.229801e-001 -1.120417e-001 -3.478680e-001 -2.400948e-001 1.194405e-001 -1.732006e-001 -5.814155e-001 -3.041055e-001 -5.185009e-001 -7.944134e-002 1.222787e-001 8.552013e-002 9.167258e-003 1.412656e-001 1.253952e-001 1.668865e-001 1.545960e-001 -1.042418e-001 -8.764070e-002 -9.854446e-002 -2.754507e-001 -1.513821e-001 -2.226647e-001 1.016764e-001
<VARIANCE> 39
 3.724686e+001 1.695432e+001 2.205682e+001 1.794113e+001 2.077765e+001 2.143388e+001 2.002743e+001 3.777872e+001 1.733908e+001 2.375276e+001 1.932517e+001 2.009735e+001 1.501200e+001 3.393315e-001 3.385124e-001 5.809835e-001 1.002952e+000 1.315215e+000 1.247848e+000 1.630022e+000 1.634818e+000 1.788447e+000 1.422881e+000 1.402872e+000 1.446816e+000 1.269475e-001 7.415733e-002 8.707727e-002 1.271218e-001 2.286747e-001 1.974315e-001 2.882616e-001 2.818534e-001 3.990090e-001 2.963711e-001 4.693856e-001 2.573163e-001 2.577078e-001 3.512041e-002
<GCONST> 8.820784e+001
<STATE> 4
<MEAN> 39
 -8.545354e+000 -3.957181e+000 -6.826633e+000 -2.449114e+000 -2.339272e+000 -7.445164e+000 -4.610405e-001 -8.376491e+000 -3.292687e+000 -6.519566e-001 -1.706488e+000 -5.059568e+000 6.042463e+001 -2.618065e-001 3.805318e-002 4.458454e-001 3.813305e-001 3.995665e-002 -2.183192e-002 9.135056e-002 -7.433709e-002 -6.547113e-001 -4.520746e-001 -5.238413e-001 -6.958166e-001 9.712384e-002 -3.875386e-002 3.003272e-002 1.124499e-001 -2.067488e-002 7.822526e-002 6.232708e-002 -9.192706e-002 1.172436e-001 8.238591e-002 -5.617831e-003 1.961505e-001 3.608566e-002 1.151499e-002
<VARIANCE> 39
 7.970654e+001 4.124711e+001 3.807603e+001 1.822701e+001 2.299099e+001 1.442157e+001 2.312964e+001 3.775433e+001 1.877514e+001 4.471870e+001 2.629166e+001 2.713103e+001 5.064715e+001 8.752139e-001 1.117993e+000 8.761862e-001 1.112711e+000 1.567654e+000 1.101206e+000 2.056773e+000 2.481102e+000 2.069463e+000 2.745688e+000 2.040375e+000 2.215801e+000 7.537183e-001 1.358043e-001 1.552529e-001 1.410204e-001 2.503251e-001 3.030649e-001 1.828723e-001 3.129388e-001 2.749036e-001 3.645582e-001 3.277015e-001 4.412559e-001 5.769065e-001 1.141017e-001
<GCONST> 1.030009e+002
<TRANSP> 5
 0.000000e+000 1.000000e+000 0.000000e+000 0.000000e+000 0.000000e+000
 0.000000e+000 9.159563e-001 8.404364e-002 0.000000e+000 0.000000e+000
 0.000000e+000 0.000000e+000 2.616677e-001 7.383323e-001 0.000000e+000
 0.000000e+000 0.000000e+000 0.000000e+000 2.979042e-001 7.020957e-001
 0.000000e+000 0.000000e+000 0.000000e+000 0.000000e+000 0.000000e+000
<ENDHMM>
~h "sp"
<BEGINHMM>
<NUMSTATES> 3
<STATE> 2
~s "silst"
<TRANSP> 3
 0.000000e+000 2.898740e-001 7.101260e-001
 0.000000e+000 9.700877e-001 2.991232e-002
 0.000000e+000 0.000000e+000 0.000000e+000
<ENDHMM>
~h "th"
<BEGINHMM>
<NUMSTATES> 5
<STATE> 2
<MEAN> 39
 -1.091416e+001 -2.096514e+000 -6.820490e-001 -1.259467e+000 2.080132e+000 -1.056522e+001 -5.013550e+000 -7.592330e+000 -7.060850e+000 -1.343410e+000 -1.672213e+000 -6.012121e+000 6.069183e+001 -2.161585e+000 -1.110576e+000 -8.021026e-002 -6.831862e-002 1.766519e+000 4.776481e-001 1.190926e+000 3.088596e+000 7.005873e-001 6.340703e-001 2.159599e-002 -9.710094e-002 1.088318e-001 -2.765794e-002 1.716400e-002 -1.580527e-001 -4.376825e-001 -4.779643e-001 -2.319032e-001 -3.755203e-002 -3.997499e-002 -1.093998e-001 7.415050e-002 2.151366e-001 3.985494e-002 1.469448e-001
<VARIANCE> 39
 2.909550e+001 1.838881e+001 2.087544e+001 2.261793e+001 3.503972e+001 3.676974e+001 7.112014e+001 8.760085e+001 4.437106e+001 3.580063e+001 2.741362e+001 2.083712e+001 8.445991e+000 1.882031e+000 1.397549e+000 2.729581e+000 4.225376e+000 3.470844e+000 3.909770e+000 4.081563e+000 5.460152e+000 3.967402e+000 2.922118e+000 3.156507e+000 2.332919e+000 4.416931e-001 2.422373e-001 3.053861e-001 3.327337e-001 4.645436e-001 6.055117e-001 6.774094e-001 9.151567e-001 1.324773e+000 6.018794e-001 5.200149e-001 6.101996e-001 3.955581e-001 4.937274e-002
<GCONST> 1.178601e+002
<STATE> 3
<MEAN> 39
 -1.937848e+001 -5.931257e+000 -2.899285e+000 -6.785437e+000 2.699667e+000 -8.997005e+000 -3.389280e+000 9.707076e-001 -5.447557e+000 1.109275e+000 1.383990e+000 -5.309096e+000 6.194931e+001 -2.055759e-001 -6.549883e-001 6.509177e-002 -2.846200e-001 -1.083947e+000 6.332970e-001 -4.386349e-001 -4.209437e-001 5.556521e-001 1.488301e-001 1.416692e-001 1.307791e-001 2.760599e-001 3.180680e-001 -1.802367e-001 3.985947e-002 3.872747e-001 -3.000582e-001 3.757878e-002 1.128485e-001 -4.488064e-001 1.758774e-001 1.458466e-001 -1.610408e-001 -7.107235e-002 -5.733493e-002
<VARIANCE> 39
 7.396568e+000 1.145735e+001 8.195547e+000 1.329409e+001 2.530367e+001 3.245935e+001 3.306794e+001 2.182484e+001 2.603528e+001 3.362422e+001 2.853271e+001 2.302279e+001 4.561929e+000 9.728925e-001 1.194705e+000 9.695155e-001 1.843858e+000 3.358950e+000 1.996797e+000 2.801813e+000 3.195310e+000 3.176798e+000 2.787309e+000 2.866082e+000 2.186969e+000 2.056910e-001 9.146888e-002 1.679270e-001 1.792225e-001 3.863722e-001 4.448666e-001 4.561994e-001 6.651263e-001 5.399124e-001 5.586389e-001 7.042929e-001 6.055378e-001 5.418858e-001 3.385549e-002
<GCONST> 1.012440e+002
<STATE> 4
<MEAN> 39
 -1.310279e+001 -1.419523e+001 -5.765082e+000 2.499150e+000 -4.029150e+000 -8.374392e+000 -3.889159e+000 -9.195221e+000 -6.450785e-001 6.452282e+000 1.553715e+000 -7.794192e+000 6.175988e+001 2.182197e+000 5.039408e-001 -1.189725e+000 9.612818e-001 4.914645e-001 -1.450138e+000 -1.052524e+000 -2.230782e+000 -8.847870e-001 8.421593e-002 7.269825e-001 -7.615382e-002 -2.920510e-003 3.869959e-001 7.339715e-001 -6.481488e-002 -5.571118e-001 1.834437e-001 -3.337413e-001 -6.737649e-001 -2.113045e-001 -4.820682e-001 -4.465007e-001 2.179838e-001 2.934028e-001 2.343155e-001
<VARIANCE> 39
 1.490120e+001 1.982344e+001 2.102570e+001 3.298792e+001 3.983505e+001 2.859007e+001 2.900934e+001 2.745799e+001 2.343073e+001 2.789918e+001 2.731651e+001 2.855127e+001 4.238367e+000 1.956351e+000 6.828481e+000 1.510044e+000 7.667782e+000 5.133684e+000 2.494083e+000 6.652227e+000 4.739676e+000 4.023267e+000 5.638257e+000 3.408860e+000 5.499034e+000 8.498461e-001 2.052217e-001 4.892125e-001 4.174846e-001 1.014474e+000 1.703863e+000 6.162879e-001 7.145186e-001 8.693073e-001 6.468689e-001 7.241669e-001 7.455270e-001 9.773402e-001 1.963821e-001
<GCONST> 1.228557e+002
<TRANSP> 5
 0.000000e+000 1.000000e+000 0.000000e+000 0.000000e+000 0.000000e+000
 0.000000e+000 7.282513e-001 2.717487e-001 0.000000e+000 0.000000e+000
 0.000000e+000 0.000000e+000 8.826762e-001 1.173238e-001 0.000000e+000
 0.000000e+000 0.000000e+000 0.000000e+000 8.548919e-001 1.451081e-001
 0.000000e+000 0.000000e+000 0.000000e+000 0.000000e+000 0.000000e+000
<ENDHMM>
~h "uw"
<BEGINHMM>
<NUMSTATES> 5
<STATE> 2
<MEAN> 39
 -5.810335e+000 -7.114589e+000 -7.950103e-001 5.097224e+000 -1.043568e+001 -1.843782e+001 -5.331895e+000 -1.176775e+001 -1.203950e+001 -3.462555e+000 4.527303e+000 -3.661559e+000 6.338411e+001 3.861539e+000 3.090024e+000 8.953077e-001 -1.738972e-001 -1.484849e+000 -9.293116e-001 -3.053196e+000 -5.712099e+000 -1.480821e+000 5.272597e-001 -1.410507e+000 -1.598326e+000 1.479448e+000 -2.140660e-001 -4.104907e-002 1.015022e-001 -1.705459e-001 5.352155e-002 2.642036e-001 1.331575e-001 2.116322e-001 -1.539257e-001 1.431363e-001 -1.651802e-002 -1.735826e-001 2.850788e-001
<VARIANCE> 39
 3.619359e+001 3.174807e+001 1.772396e+001 2.234646e+001 3.821984e+001 3.182031e+001 4.530904e+001 1.108380e+002 2.731670e+001 2.501980e+001 2.391721e+001 2.340656e+001 1.689981e+001 8.228331e-001 1.848073e+000 8.168529e-001 2.172809e+000 1.819571e+000 2.643455e+000 2.691507e+000 4.141992e+000 2.212299e+000 2.757765e+000 2.357976e+000 1.661666e+000 9.228734e-001 6.360899e-001 5.134278e-001 2.493972e-001 2.298090e-001 7.476228e-001 4.739101e-001 7.948831e-001 1.838571e+000 4.331684e-001 4.898652e-001 4.127570e-001 3.398948e-001 4.255036e-001
<GCONST> 1.150761e+002
<STATE> 3
<MEAN> 39
 2.604019e+000 -1.566125e-001 -2.132596e-001 3.401771e+000 -1.037157e+001 -1.710445e+001 -1.190732e+001 -2.574882e+001 -1.659185e+001 -4.099568e-001 2.302206e+000 -1.004757e+001 6.753050e+001 1.480216e-001 1.311947e+000 -3.237598e-001 -1.358172e+000 8.538719e-001 9.914188e-001 -4.783350e-001 -9.675350e-001 -3.825016e-001 -4.816628e-001 -5.116774e-001 -1.991315e-001 -4.290541e-001 -4.873057e-001 -2.090454e-001 -7.756373e-002 -1.238348e-001 1.374562e-001 1.002317e-001 2.454301e-001 5.938705e-001 2.044383e-001 -3.169809e-001 -2.936765e-002 3.407826e-001 -3.038066e-001
<VARIANCE> 39
 2.611998e+000 2.106230e+001 1.331773e+001 3.733996e+001 2.360109e+001 4.070145e+001 2.498861e+001 3.917490e+001 3.464894e+001 4.097958e+001 3.013138e+001 2.622653e+001 6.941210e+000 5.372662e-001 8.368752e-001 7.770897e-001 1.259374e+000 1.448846e+000 1.128164e+000 1.470308e+000 1.931300e+000 1.715574e+000 2.216461e+000 1.562237e+000 1.810272e+000 4.077766e-001 2.305851e-001 1.976388e-001 1.627953e-001 2.556807e-001 3.581194e-001 2.970941e-001 2.788726e-001 5.137188e-001 3.154491e-001 2.959700e-001 2.778609e-001 2.521860e-001 1.216675e-001
<GCONST> 9.612133e+001
<STATE> 4
<MEAN> 39
 -1.350628e+000 7.000151e+000 -1.797088e-002 -4.965364e+000 -7.977425e+000 -1.415066e+001 -1.269732e+001 -2.258035e+001 -1.414276e+001 -9.663837e+000 -5.280988e+000 -6.512339e+000 6.156766e+001 -5.000336e-001 -2.061587e-001 -2.269021e-003 8.174337e-002 3.304841e-001 1.779827e-001 1.698353e-001 5.864069e-001 5.534555e-001 -1.505136e-001 -3.079549e-001 1.540721e-001 -3.319438e-001 -5.930522e-002 -1.968884e-001 -3.578452e-002 1.542506e-001 3.204855e-002 1.621733e-002 1.393500e-001 1.976698e-001 1.191883e-001 1.610595e-001 9.590946e-002 -3.851258e-002 2.740150e-002
<VARIANCE> 39
 9.933849e+000 7.219811e+000 8.371125e+000 1.736220e+001 2.065310e+001 2.517225e+001 2.177926e+001 2.929469e+001 2.606048e+001 2.970497e+001 2.910629e+001 1.886345e+001 4.737446e+000 2.735199e-001 9.404234e-001 6.661478e-001 1.212780e+000 1.365453e+000 1.567450e+000 1.778762e+000 2.029918e+000 1.687386e+000 2.344848e+000 1.799896e+000 1.475720e+000 1.229670e-001 5.006366e-002 1.011048e-001 1.151595e-001 1.710546e-001 2.300173e-001 2.667941e-001 3.333607e-001 3.905673e-001 3.027769e-001 3.312367e-001 2.785296e-001 2.644966e-001 1.640735e-002
<GCONST> 8.582591e+001
<TRANSP> 5
 0.000000e+000 1.000000e+000 0.000000e+000 0.000000e+000 0.000000e+000
 0.000000e+000 7.221817e-001 2.778183e-001 0.000000e+000 0.000000e+000
 0.000000e+000 0.000000e+000 8.159514e-001 1.840486e-001 0.000000e+000
 0.000000e+000 0.000000e+000 0.000000e+000 9.193377e-001 8.066226e-002
 0.000000e+000 0.000000e+000 0.000000e+000 0.000000e+000 0.000000e+000
<ENDHMM>
~h "sil"
<BEGINHMM>
<NUMSTATES> 5
<STATE> 2
<MEAN> 39
 -2.082390e+001 -3.530590e+000 -5.315147e+000 -1.500940e+000 -2.156646e+000 -9.586822e-001 -6.414545e-001 3.120350e-001 9.153723e-001 -1.335037e-002 -3.219265e-001 6.905608e-001 2.476231e+001 2.087966e-001 5.329637e-002 1.098707e-001 1.633643e-002 1.375105e-001 -2.928755e-002 5.532419e-002 -2.785473e-002 1.033779e-001 -4.022759e-002 2.584053e-002 -3.774221e-002 6.002991e-001 -1.879621e-003 3.455446e-003 -1.313247e-002 -3.073291e-002 -5.105953e-002 -4.068977e-002 -2.275604e-002 -2.585518e-002 -1.204974e-002 8.807444e-003 -1.074893e-002 -1.217100e-002 1.579461e-002
<VARIANCE> 39
 1.347410e+001 2.880808e+000 5.341547e+000 3.183859e+000 6.858443e+000 4.910324e+000 7.315511e+000 1.231645e+001 9.847157e+000 9.368176e+000 6.569767e+000 6.869441e+000 7.786771e+001 9.774004e-001 2.819821e-001 5.654036e-001 3.442910e-001 6.431481e-001 4.846523e-001 7.598255e-001 1.309112e+000 1.233427e+000 1.271605e+000 6.724492e-001 1.068233e+000 4.593357e+000 1.789314e-001 5.026210e-002 1.196413e-001 6.485826e-002 1.200025e-001 9.904123e-002 1.553631e-001 2.382268e-001 2.536175e-001 2.780654e-001 1.304981e-001 2.398874e-001 7.201572e-001
<GCONST> 7.268094e+001
<STATE> 3
~s "silst"
<STATE> 4
<MEAN> 39
 -1.281063e+001 -2.208773e+000 -3.443527e+000 -4.439340e+000 -1.352339e+000 -5.670235e+000 -6.300333e-001 -5.956916e+000 3.708906e-001 -3.745521e+000 -2.941917e-001 -2.343864e+000 5.297364e+001 -4.064803e-002 -1.660924e-001 -9.232957e-002 -4.333107e-002 -1.370470e-001 -2.311693e-001 -2.019785e-001 -2.139556e-001 -1.873263e-001 -1.674574e-001 -7.187953e-002 -9.536327e-002 1.091494e-001 5.549906e-002 3.437539e-002 3.173427e-002 1.998380e-002 4.678049e-003 2.316417e-003 -1.262923e-002 3.576946e-002 -3.927067e-002 2.872476e-002 -1.035965e-002 -4.967471e-002 -3.525221e-003
<VARIANCE> 39
 2.563886e+000 4.910286e+000 5.879706e+000 6.947114e+000 7.442123e+000 9.644675e+000 1.039626e+001 1.350761e+001 1.314744e+001 1.692039e+001 1.361704e+001 1.181811e+001 6.657567e+000 3.039668e-001 5.756711e-001 5.857794e-001 8.632650e-001 8.815416e-001 1.179514e+000 1.234364e+000 1.568576e+000 1.604828e+000 2.063257e+000 1.451660e+000 1.393415e+000 3.756560e-001 6.430861e-002 1.079236e-001 1.099579e-001 1.551643e-001 1.751716e-001 2.213978e-001 2.471942e-001 2.788906e-001 3.091324e-001 3.944475e-001 3.010771e-001 2.846467e-001 1.200106e-001
<GCONST> 7.707018e+001
<TRANSP> 5
 0.000000e+000 1.000000e+000 0.000000e+000 0.000000e+000 0.000000e+000
 0.000000e+000 9.587963e-001 1.553489e-002 2.566892e-002 0.000000e+000
 0.000000e+000 0.000000e+000 9.610400e-001 3.896004e-002 0.000000e+000
 0.000000e+000 2.957500e-003 0.000000e+000 9.047965e-001 9.224600e-002
 0.000000e+000 0.000000e+000 0.000000e+000 0.000000e+000 0.000000e+000
<ENDHMM>
